-1.041934918612241745e-02,-6.135607603937387466e-03,-1.809775712899863720e-03,7.484141737222671509e-02,5.661484971642494202e-02,1.708332635462284088e-02,-1.269388385117053986e-02,1.108270604163408279e-02,9.527573361992835999e-03,-1.099269166588783264e-01,-2.805006802082061768e-01,-2.712375521659851074e-01,-1.290749013423919678e-01,3.742369823157787323e-03,-6.943350192159414291e-03,5.908897146582603455e-02,2.954822182655334473e-01,5.871959924697875977e-01,5.197188854217529297e-01,2.563242316246032715e-01,6.357254087924957275e-02,3.050456196069717407e-02,-6.701801717281341553e-02,-2.984113693237304688e-01,-4.386757016181945801e-01,-2.708528637886047363e-01,-6.128179375082254410e-04,5.760199576616287231e-02,-2.753477171063423157e-02,1.604508422315120697e-02,7.259497791528701782e-02,-5.410164594650268555e-02,-3.328494429588317871e-01,-4.205755889415740967e-01,-2.578148245811462402e-01,3.061256930232048035e-02,4.095974564552307129e-02,6.284967064857482910e-02,2.389719486236572266e-01,4.138399362564086914e-01,3.935892283916473389e-01,1.660584360361099243e-01,-1.373612880706787109e-02,-3.674556268379092216e-03,-2.408435754477977753e-02,-6.587707996368408203e-02,-1.506994664669036865e-01,-8.222974091768264771e-02,-5.782776046544313431e-03,-1.139724347740411758e-02,-2.661907114088535309e-02,-3.464084491133689880e-02,3.681167960166931152e-02,3.252065554261207581e-02,6.622088840231299400e-04,-2.574348263442516327e-02,4.568660631775856018e-02,3.360344097018241882e-02,-1.045273765921592712e-01,-3.088526129722595215e-01,-3.125281631946563721e-01,-1.605067104101181030e-01,-1.282567973248660564e-03,-8.372971205972135067e-04,9.841995686292648315e-02,4.021047353744506836e-01,7.703464031219482422e-01,7.078878879547119141e-01,3.688711524009704590e-01,1.245537847280502319e-01,-5.842720158398151398e-03,-1.286161243915557861e-01,-4.207054376602172852e-01,-5.926986336708068848e-01,-3.828484416007995605e-01,-4.240651801228523254e-02,6.156779825687408447e-02,-5.592578276991844177e-02,-5.223906133323907852e-03,2.708052285015583038e-02,-1.515867710113525391e-01,-4.617813229560852051e-01,-5.708031058311462402e-01,-3.655220568180084229e-01,3.286042436957359314e-02,5.557441711425781250e-02,9.966956079006195068e-02,3.181471824645996094e-01,5.463645458221435547e-01,4.827617406845092773e-01,1.986747086048126221e-01,5.305125843733549118e-03,6.693811621516942978e-03,-1.725431159138679504e-02,-6.980562955141067505e-02,-1.482239216566085815e-01,-7.724848389625549316e-02,7.218293612822890282e-04,-2.031501848250627518e-03,-9.161665104329586029e-03,2.120947279036045074e-02,8.975529670715332031e-02,8.917666226625442505e-02,3.365539386868476868e-02,-2.010156214237213135e-02,1.539819873869419098e-02,-1.864800974726676941e-02,-1.259075552225112915e-01,-2.955272197723388672e-01,-2.534205913543701172e-01,-1.297992169857025146e-01,-2.797531709074974060e-02,9.845449589192867279e-03,4.904683679342269897e-02,2.169934660196304321e-01,4.300981462001800537e-01,3.487177789211273193e-01,1.043322384357452393e-01,1.841276697814464569e-02,2.642624825239181519e-02,-2.598996832966804504e-02,-1.969853490591049194e-01,-2.680601179599761963e-01,-1.052404567599296570e-01,7.857716083526611328e-02,1.207735687494277954e-01,-2.835609577596187592e-02,1.840423978865146637e-02,9.864708781242370605e-02,6.124155223369598389e-02,-1.173998713493347168e-01,-2.576031684875488281e-01,-1.545069217681884766e-01,2.076635882258415222e-02,-2.628592075780034065e-03,-3.782451525330543518e-02,5.745045840740203857e-02,2.414119392633438110e-01,2.434489578008651733e-01,1.179574504494667053e-01,7.468398544006049633e-04,7.767747156322002411e-04,-1.005029585212469101e-02,-5.515252426266670227e-02,-1.486496329307556152e-01,-1.175364553928375244e-01,-3.834979981184005737e-02
-4.415449220687150955e-03,-4.064474720507860184e-03,3.158902982249855995e-03,-5.502732470631599426e-03,-3.702646866440773010e-02,-2.515775710344314575e-02,-4.794490337371826172e-02,5.131043866276741028e-02,5.340199917554855347e-02,8.043563365936279297e-02,1.150785610079765320e-01,1.447998732328414917e-01,1.428720057010650635e-01,1.231246963143348694e-01,-7.333671674132347107e-03,2.175529021769762039e-03,3.758040070533752441e-02,5.423617362976074219e-02,6.151732429862022400e-02,8.032410591840744019e-02,1.171525344252586365e-01,-5.877752602100372314e-02,-7.830080389976501465e-02,-5.423301085829734802e-02,-9.381093829870223999e-02,-1.170723289251327515e-01,-6.821543723344802856e-02,2.165444567799568176e-02,-2.675375342369079590e-02,-1.229734048247337341e-01,-1.365280896425247192e-01,-1.533403247594833374e-01,-1.406803727149963379e-01,-1.115541532635688782e-01,-4.955568537116050720e-02,2.352370135486125946e-02,-1.728835143148899078e-02,-1.112240087240934372e-02,-7.945127785205841064e-03,-1.882553286850452423e-02,-2.331951074302196503e-02,-2.947355248034000397e-02,2.868874184787273407e-02,2.165879122912883759e-02,4.788833484053611755e-02,4.357090219855308533e-02,2.549776807427406311e-02,3.534571081399917603e-02,1.127982791513204575e-02,4.691871290560811758e-04,1.215257775038480759e-02,4.203484952449798584e-02,5.967535823583602905e-02,4.640275239944458008e-02,4.042288288474082947e-02,-1.443895976990461349e-02,4.346334934234619141e-02,6.877853721380233765e-02,1.326757073402404785e-01,2.172789275646209717e-01,2.860589623451232910e-01,2.690516412258148193e-01,2.093490958213806152e-01,-5.762093886733055115e-02,-2.264170348644256592e-02,3.054697625339031219e-02,7.546534389257431030e-02,1.376273781061172485e-01,1.653763502836227417e-01,1.794643402099609375e-01,-1.505386531352996826e-01,-1.808314919471740723e-01,-1.625387072563171387e-01,-2.009292989969253540e-01,-1.786447167396545410e-01,-9.835314750671386719e-02,1.682773232460021973e-02,-1.081644371151924133e-01,-2.522738575935363770e-01,-2.974220514297485352e-01,-3.222135901451110840e-01,-2.850287854671478271e-01,-2.149330526590347290e-01,-1.031983122229576111e-01,4.070915654301643372e-02,-3.277060016989707947e-02,-6.345048546791076660e-02,-8.235243707895278931e-02,-9.236025810241699219e-02,-6.987571716308593750e-02,-4.984089359641075134e-02,8.294212818145751953e-02,8.757951110601425171e-02,1.011147201061248779e-01,7.788881659507751465e-02,5.271442234516143799e-02,6.096818670630455017e-02,4.119790717959403992e-02,-1.639073714613914490e-02,-1.387014705687761307e-02,5.280981771647930145e-03,4.476467519998550415e-02,4.369799047708511353e-02,2.270746789872646332e-02,-4.598318040370941162e-02,3.320226073265075684e-02,4.201355576515197754e-02,9.349951893091201782e-02,1.857172399759292603e-01,2.616172134876251221e-01,2.296987622976303101e-01,1.669352054595947266e-01,-4.598712921142578125e-02,-1.636507175862789154e-02,2.681111730635166168e-02,8.909647911787033081e-02,1.495135575532913208e-01,1.321595311164855957e-01,1.357896178960800171e-01,-9.600620716810226440e-02,-1.030671373009681702e-01,-9.092507511377334595e-02,-1.041400879621505737e-01,-9.058492630720138550e-02,-5.440752208232879639e-02,2.825798466801643372e-02,-7.212943583726882935e-02,-1.890237033367156982e-01,-2.338911741971969604e-01,-2.377240955829620361e-01,-1.903750449419021606e-01,-1.560907512903213501e-01,-7.597363740205764771e-02,5.116082727909088135e-02,-2.581507153809070587e-02,-6.935748457908630371e-02,-7.031533122062683105e-02,-5.899883434176445007e-02,-6.155048683285713196e-02,-4.455531761050224304e-02,1.117413640022277832e-01,7.897920906543731689e-02,6.584858894348144531e-02,4.202149063348770142e-02,3.161721676588058472e-02,2.522129565477371216e-02,7.425667718052864075e-03
-7.082559250193298794e-08,-6.430617105479541351e-08,-7.380597821793344337e-08,-9.520903887505482999e-08,-9.799997968684692751e-08,-1.090465815423158347e-07,-8.342095014768347028e-08,-6.112537143110330362e-09,2.061263826291792611e-09,-8.092216674526753195e-09,-3.882527721543738153e-08,-4.984046952927201346e-08,-4.383579366162848601e-08,-3.053765018634635453e-09,7.195288986849845969e-08,7.561610715356437140e-08,5.928217916562061873e-08,1.989042885952585493e-08,-9.750906748706711369e-09,-1.095074142476448742e-09,4.244236251338406873e-08,7.759277309560275171e-08,5.328976371288263181e-08,3.134726966891321354e-08,2.675805410579101817e-10,-4.265884712140177726e-08,-5.531823177307160222e-08,2.234265883416242104e-09,9.588870852894615382e-08,1.003902028173797589e-07,7.981717686789124855e-08,3.969553930005531583e-08,-1.749077682688948698e-08,-4.766588190818765725e-08,-1.326525467248984569e-08,1.290399325171165401e-07,1.476169018133077770e-07,1.747660292039654450e-07,1.724101963418434025e-07,1.323251410667580785e-07,1.062842969190569420e-07,9.331568406878432143e-08,1.255846768799528945e-07,1.364420398886068142e-07,1.843103518694988452e-07,2.150389377675310243e-07,2.139864108130495879e-07,1.770962256841812632e-07,1.716598916345901671e-07,-1.269006162374353153e-07,-9.613863483082241146e-08,-1.037176247109528049e-07,-1.158528064593156159e-07,-1.180817221779761894e-07,-1.330907934971037321e-07,-1.081954579262855987e-07,-5.741242503631838190e-08,-2.505481866421632731e-08,-3.011481197745524696e-08,-5.805689795579382917e-08,-7.292211989806673955e-08,-6.702249777390534291e-08,-2.257411502171180473e-08,2.181295499781299441e-08,4.860845237431021815e-08,3.122163150237611262e-08,-1.041262742695892030e-09,-1.869394239406574343e-08,-7.959060965845310420e-09,3.975011964030272793e-08,2.599841053552154335e-08,2.603912108156691829e-08,5.508634659534550337e-10,-1.840922614348983188e-08,-4.601230330081307329e-08,-5.523801860363164451e-08,4.196352154650639932e-09,5.601324915005534422e-08,7.552566216872946825e-08,4.449573154374775186e-08,5.057586349721532315e-09,-4.412775567175231117e-08,-5.993011598093289649e-08,-1.824721884702285024e-08,7.761381937143596588e-08,9.834766956373641733e-08,1.045487962869628973e-07,9.320654470457157004e-08,6.327176294007585966e-08,4.178074775040840905e-08,4.590110336266661761e-08,5.983351059057895327e-08,7.100609877852548379e-08,9.043701254540792434e-08,1.177398800678020052e-07,1.165421039672764891e-07,8.755048952480137814e-08,9.883689244816196151e-08,-4.381009688358972198e-08,1.327016274643710858e-08,7.827547499061893177e-09,-1.018686734965967844e-08,-5.880448572526120188e-09,-2.621722927642622381e-08,-1.564948348686812096e-08,4.169999812120295246e-08,1.077751932143655722e-07,1.094622987807269965e-07,8.947721141794318100e-08,7.640303323341868236e-08,7.145007430153782479e-08,9.761470209923572838e-08,1.043587118942923553e-07,1.658559369843715103e-07,1.593319467474429985e-07,1.451453499612398446e-07,1.351724137066412368e-07,1.348719962379618664e-07,1.644852716253808467e-07,9.806391432221062132e-08,1.330860044390647090e-07,1.133472267156321323e-07,1.148358776958957606e-07,1.025223994588486676e-07,9.653037125190166989e-08,1.353695751049599494e-07,9.876349338355794316e-08,1.507242899378979928e-07,1.254662151950469706e-07,1.005386778274441895e-07,6.831553633901421563e-08,6.838185129254270578e-08,1.136688183578371536e-07,9.143450796500474098e-08,1.357585404093697434e-07,1.379336822537879925e-07,1.326837804072056315e-07,1.167831200632463151e-07,1.172287724671150499e-07,1.439417189885716652e-07,6.218276382696785731e-08,8.818418706368902349e-08,1.045640800612090970e-07,1.293707185823222972e-07,1.394087547623712453e-07,1.333252299673404195e-07,1.584393913844905910e-07
-8.319834247231483459e-03,-1.752908341586589813e-02,-1.002138294279575348e-02,-4.626748617738485336e-03,6.745080463588237762e-03,-1.117515470832586288e-02,-9.181451983749866486e-03,-2.796509489417076111e-02,-2.795954234898090363e-02,-3.352013416588306427e-03,-2.251844480633735657e-02,-7.272171229124069214e-02,-6.407966464757919312e-02,-1.733218505978584290e-02,-3.479777276515960693e-02,-1.827956736087799072e-02,-2.554299309849739075e-02,-8.851302415132522583e-02,-1.400971710681915283e-01,-1.453129798173904419e-01,-3.301226720213890076e-02,-2.750319801270961761e-02,-5.078766494989395142e-03,-7.581135723739862442e-03,-4.096449539065361023e-02,-7.515468448400497437e-02,-1.026560887694358826e-01,-4.494103603065013885e-03,-3.748897463083267212e-02,-1.083464920520782471e-02,-9.583897888660430908e-03,-2.364367013797163963e-03,-2.491646818816661835e-02,-5.838292092084884644e-02,7.252356037497520447e-03,-8.390853181481361389e-03,1.952240988612174988e-02,4.435117822140455246e-03,2.163444459438323975e-02,1.879811659455299377e-02,-8.394185453653335571e-03,1.085031032562255859e-02,-1.743383891880512238e-02,-1.613068525330163538e-05,-2.227292582392692566e-02,-6.026923190802335739e-03,-4.352531686890870333e-04,-1.618791744112968445e-02,-3.810744266957044601e-03,2.355921268463134766e-02,3.373901126906275749e-03,1.117425039410591125e-02,1.606194302439689636e-02,2.709042653441429138e-02,1.519184000790119171e-02,2.078844420611858368e-02,3.205150365829467773e-02,2.039807662367820740e-02,2.681415341794490814e-02,-1.005020737648010254e-02,-7.131868600845336914e-02,-4.461197927594184875e-02,2.756583876907825470e-02,1.769121736288070679e-02,2.657827176153659821e-02,-9.016381576657295227e-03,-1.012107133865356445e-01,-1.696034967899322510e-01,-1.541926711797714233e-01,-6.735703442245721817e-03,1.661891117691993713e-02,2.773277088999748230e-02,-2.872329903766512871e-03,-7.203024625778198242e-02,-1.258095800876617432e-01,-1.273451596498489380e-01,1.542815752327442169e-02,7.662052288651466370e-03,1.587645709514617920e-02,-5.117243155837059021e-03,-1.832445710897445679e-02,-5.199432373046875000e-02,-6.634893268346786499e-02,3.525294363498687744e-02,3.192942962050437927e-02,3.815486282110214233e-02,8.299157023429870605e-03,1.701818779110908508e-02,1.414032094180583954e-02,8.226771838963031769e-03,5.526428669691085815e-02,2.730616740882396698e-02,2.961996197700500488e-02,6.300238892436027527e-04,8.043987676501274109e-03,1.308234781026840210e-02,1.682962477207183838e-02,4.260544851422309875e-02,-4.967857897281646729e-02,-3.189721703529357910e-02,-6.198499817401170731e-03,2.684943936765193939e-02,5.655070021748542786e-02,4.200310260057449341e-02,1.413360331207513809e-02,-5.858893971890211105e-03,2.233302965760231018e-02,5.506711453199386597e-02,5.028637498617172241e-02,1.033280789852142334e-02,3.525732085108757019e-02,7.345582544803619385e-02,-9.886838495731353760e-03,2.747125178575515747e-02,1.545193139463663101e-02,-4.290011152625083923e-02,-9.474018961191177368e-02,-8.358737081289291382e-02,3.132157027721405029e-02,-6.215876433998346329e-03,2.637099288403987885e-02,6.520736031234264374e-03,-3.085530176758766174e-02,-7.515966147184371948e-02,-8.510636538267135620e-02,2.556621283292770386e-02,-1.622907817363739014e-02,6.907494273036718369e-03,-5.076850764453411102e-03,5.910239648073911667e-03,-2.393457852303981781e-02,-4.035289585590362549e-02,4.560181498527526855e-02,-2.085994370281696320e-02,-1.928753918036818504e-03,-1.887050271034240723e-02,6.246309261769056320e-03,2.810436068102717400e-03,-2.744245110079646111e-03,3.964315354824066162e-02,-2.628702484071254730e-02,-8.809430524706840515e-03,-2.790774963796138763e-02,-8.472162880934774876e-04,5.628190468996763229e-03,1.006766594946384430e-02,2.996681444346904755e-02
2.324772596651314416e-09,3.996915687309865461e-09,2.888101313658353320e-09,6.332917301676843636e-09,2.642398078123164851e-09,9.515811472127211346e-10,1.352424949807584653e-09,4.928167207651767967e-09,6.227398596791999807e-09,4.640742901074190740e-09,9.569224523886532552e-09,4.278558396464404723e-09,4.108156037574417496e-09,2.248017105799249293e-09,4.179871559983894258e-09,7.294307380334430491e-09,8.431611853154663550e-09,6.035978827867438667e-09,7.078125641157839709e-09,4.994735292029872653e-09,6.683530617834776422e-09,2.743562488305428815e-09,9.954661095434857998e-09,6.794429463496953758e-09,5.973342709353346436e-09,4.213422499788066489e-09,2.276191013450556966e-09,4.812411358301460496e-09,2.172138025002823269e-09,5.001171476948229611e-09,5.271862502098656478e-09,7.427642945145862541e-09,6.489540460563603119e-09,6.817551856386216969e-09,4.491032878917167181e-09,3.583853880329002095e-09,4.849455059741103469e-09,6.988411627162349760e-09,6.014909459395312297e-09,8.371436877041560365e-09,6.113630934834191066e-09,3.813310112121826023e-09,3.343843424374881579e-09,4.387980645503830601e-09,4.475461778952194436e-09,5.426551652476518939e-09,5.158129479099216042e-09,5.921756418558743462e-09,4.462896274759486914e-09,4.953411458785694776e-09,4.514181028980601695e-09,8.444073884561476007e-09,5.622565968366188827e-09,5.223506072127293010e-09,5.096630673051549820e-09,4.538796449793380816e-09,7.880676555771515268e-09,9.724296923252495617e-09,8.795502104419483658e-09,5.008720105337260975e-09,8.980039822858998377e-09,1.055742782085644649e-08,7.180752437108139929e-09,3.897706601918571323e-09,7.828529824394081515e-09,5.813121539688381745e-09,9.944614909329629882e-09,8.812715002193272085e-09,1.088755308131794663e-08,8.650891558659168368e-09,2.284519684536689965e-09,2.721373126846060586e-09,4.939443076779070907e-09,3.751182031663802263e-09,6.447788969410339632e-09,6.129791785269844695e-09,7.551804515060211997e-09,3.103776402557656411e-10,4.445096735139486555e-09,2.555673228599175673e-09,1.939824967323033889e-09,5.258129487373253141e-09,3.693252814684910845e-09,6.372656180531066639e-09,-1.203393051874002140e-09,1.809487337744997149e-09,3.680991067511740766e-09,3.120622205088352530e-09,4.493445615594282572e-09,4.217088456215378756e-09,3.340315357647227756e-09,7.164909221479831558e-10,5.007696923797766431e-09,2.850323310710223268e-09,4.754446170096571223e-09,2.663370191058334058e-09,1.889456147097234862e-09,-1.091518680995662294e-10,2.168072610331250871e-09,2.359786810401942603e-09,3.376607216054594574e-09,8.917898086657771728e-10,3.597254272236227735e-09,4.648946116958541097e-09,6.030219434904893205e-09,3.767070655413817803e-09,2.706080026726453980e-09,4.713223145103029310e-09,3.887123956047844331e-09,4.294567812479499480e-09,3.955503036223717572e-09,6.200412627777041052e-09,2.028580858848272328e-09,-6.666904805996409777e-10,7.838595050824181953e-11,2.671327159475822555e-09,5.608356445918616373e-09,7.568586646300445864e-09,6.772986615999343485e-09,-8.811856133661422064e-09,-1.119830717044578705e-08,-8.271187290631587530e-09,-6.557119291983326548e-09,-2.001819821018102630e-09,-2.524524478353384893e-10,8.249730343301564517e-10,-8.881546165184772690e-09,-1.255267800814863222e-08,-1.136713478899764596e-08,-9.692264768546010600e-09,-8.421193520291581081e-09,-7.129720369647429834e-09,-6.158462184657764737e-09,-5.317263962467677629e-09,-9.014382129635123420e-09,-1.222182888227507647e-08,-1.032568608394512921e-08,-1.102053381885070849e-08,-9.232424602600985963e-09,-6.270442387545926977e-09,-6.720942469229385097e-09,-9.458048566557408776e-09,-1.150614359346491256e-08,-1.008221950371535058e-08,-1.061278975811319469e-08,-6.563301013784439419e-09,-6.937946661622618194e-09
-2.533281780779361725e-02,5.029105022549629211e-02,2.346406504511833191e-02,-1.528151798993349075e-02,-5.991856753826141357e-02,-2.703279443085193634e-02,-8.593740873038768768e-03,5.304318666458129883e-02,1.733426004648208618e-01,9.767746925354003906e-02,-2.119315043091773987e-02,-1.825369745492935181e-01,-1.221982911229133606e-01,-8.112408220767974854e-02,4.827170446515083313e-02,2.723539173603057861e-01,1.839826703071594238e-01,-1.630135066807270050e-02,-2.661974430084228516e-01,-2.194188237190246582e-01,-1.455965638160705566e-01,3.697292134165763855e-02,3.537864685058593750e-01,3.136841952800750732e-01,2.099329978227615356e-02,-3.091780245304107666e-01,-3.180118203163146973e-01,-2.076451629400253296e-01,1.310377009212970734e-02,3.439140915870666504e-01,4.147156774997711182e-01,8.286137133836746216e-02,-2.702302932739257812e-01,-3.309580087661743164e-01,-2.391425073146820068e-01,-2.102907933294773102e-02,2.434721440076828003e-01,3.544602096080780029e-01,1.695708930492401123e-01,-1.421905010938644409e-01,-2.245680689811706543e-01,-1.989636570215225220e-01,-2.875735424458980560e-02,1.689375191926956177e-01,2.423400133848190308e-01,1.741056293249130249e-01,-4.899080470204353333e-02,-1.123027950525283813e-01,-1.610286384820938110e-01,-2.410070970654487610e-03,-3.877362981438636780e-02,-4.246397875249385834e-03,1.058868970721960068e-02,3.571061044931411743e-02,2.484922111034393311e-02,1.215625926852226257e-02,-5.739978048950433731e-03,-2.512771449983119965e-02,-2.414815686643123627e-02,2.499136701226234436e-02,9.526737034320831299e-03,3.946727886795997620e-02,2.778304181993007660e-02,-1.155013870447874069e-02,-2.626349776983261108e-02,-4.954153299331665039e-02,2.789006941020488739e-02,1.714142598211765289e-02,3.825774043798446655e-02,2.057199738919734955e-02,-1.903460733592510223e-02,-3.830780833959579468e-02,-5.926772579550743103e-02,8.896013721823692322e-03,3.660980984568595886e-02,2.787454612553119659e-02,4.049647226929664612e-02,-4.313380923122167587e-03,-5.405488610267639160e-02,-2.540196105837821960e-02,-2.043648995459079742e-02,3.883690387010574341e-02,-2.160612202715128660e-04,2.529984712600708008e-02,1.648985035717487335e-02,-6.522370129823684692e-02,-3.669930249452590942e-02,-1.058192923665046692e-02,2.611678838729858398e-02,1.283572614192962646e-02,3.404763713479042053e-02,7.960024289786815643e-03,-4.920808225870132446e-02,-4.829410463571548462e-02,-1.700103282928466797e-02,-5.081755109131336212e-03,1.162816770374774933e-02,2.664384990930557251e-02,2.009020932018756866e-02,-4.069240018725395203e-02,-7.604121696203947067e-03,-1.075226534157991409e-02,3.978275135159492493e-02,-1.114743668586015701e-02,-3.835083043668419123e-04,-1.824973151087760925e-02,-1.199372261762619019e-01,-8.812911808490753174e-02,2.392023615539073944e-02,1.013512611389160156e-01,1.333425641059875488e-01,9.581629186868667603e-02,-5.711286887526512146e-02,-2.008222937583923340e-01,-1.901047974824905396e-01,1.747217215597629547e-02,1.913547962903976440e-01,2.020174860954284668e-01,1.106422170996665955e-01,-3.539106622338294983e-02,-2.703018486499786377e-01,-2.842201590538024902e-01,-2.625639550387859344e-02,2.832165956497192383e-01,2.820260226726531982e-01,1.963471174240112305e-01,-1.306546572595834732e-02,-2.923910617828369141e-01,-3.144405484199523926e-01,-1.303972601890563965e-01,2.460360527038574219e-01,2.675914168357849121e-01,2.172424644231796265e-01,3.957994282245635986e-02,-2.209633886814117432e-01,-2.758487761020660400e-01,-1.705162525177001953e-01,1.221408471465110779e-01,1.814752817153930664e-01,2.084698081016540527e-01,4.746948927640914917e-02,-1.339057236909866333e-01,-1.872000098228454590e-01,-1.446577459573745728e-01,4.177538212388753891e-03,8.347947895526885986e-02,1.551316380500793457e-01
-6.452675163745880127e-02,-3.507102280855178833e-02,-3.311148285865783691e-02,-1.113407220691442490e-02,-1.982155628502368927e-02,-3.724244609475135803e-02,-8.152581006288528442e-02,-5.811460688710212708e-02,-6.056587770581245422e-02,-4.196763038635253906e-02,-9.759289212524890900e-03,-1.482487749308347702e-02,-5.063772574067115784e-02,-7.885347306728363037e-02,-5.065206810832023621e-02,-3.756259754300117493e-02,-1.076056342571973801e-02,5.675359070301055908e-02,7.661333680152893066e-02,7.774790748953819275e-03,-2.972990646958351135e-02,-2.271358482539653778e-02,2.088048681616783142e-02,6.145384907722473145e-02,2.298799604177474976e-01,2.779064178466796875e-01,1.430097371339797974e-01,-1.055526640266180038e-02,-4.393583908677101135e-02,-5.249801091849803925e-03,1.289018392562866211e-01,3.134512305259704590e-01,3.523246943950653076e-01,1.771878004074096680e-01,1.496380195021629333e-02,-4.416082799434661865e-02,-3.210605308413505554e-02,7.442657649517059326e-02,1.738615334033966064e-01,2.093532681465148926e-01,1.081901714205741882e-01,-8.419361896812915802e-03,-4.713214188814163208e-02,-3.835815563797950745e-02,-2.218190021812915802e-02,2.852602303028106689e-02,3.394499793648719788e-02,1.498753204941749573e-02,-1.327867247164249420e-02,1.984281092882156372e-01,1.581910848617553711e-01,1.268409490585327148e-01,9.146349877119064331e-02,8.477447926998138428e-02,1.331939995288848877e-01,1.910242885351181030e-01,1.436294317245483398e-01,6.616321206092834473e-02,2.004097402095794678e-02,-7.636111974716186523e-02,-8.650264143943786621e-02,-3.965744748711585999e-02,8.487793058156967163e-02,1.147481426596641541e-01,1.817500777542591095e-02,-8.578182756900787354e-02,-2.416833937168121338e-01,-2.591165304183959961e-01,-1.772741973400115967e-01,-2.038722857832908630e-03,8.601436764001846313e-02,-5.251559615135192871e-02,-2.612066268920898438e-01,-4.515402615070343018e-01,-4.796473979949951172e-01,-3.335243463516235352e-01,-1.485643535852432251e-01,7.687148451805114746e-02,-9.532391279935836792e-02,-2.749195694923400879e-01,-5.279925465583801270e-01,-5.763117074966430664e-01,-4.049958586692810059e-01,-1.614086329936981201e-01,1.136473789811134338e-01,-7.076603919267654419e-02,-1.956167668104171753e-01,-4.023902714252471924e-01,-4.284044206142425537e-01,-3.076432645320892334e-01,-1.215956881642341614e-01,1.587426662445068359e-01,2.505028434097766876e-02,-7.694098353385925293e-02,-1.739784777164459229e-01,-2.050627321004867554e-01,-1.572889387607574463e-01,-2.169243060052394867e-02,-1.606887578964233398e-01,-9.581833332777023315e-02,-9.712239354848861694e-02,-5.921690911054611206e-02,-3.963654488325119019e-02,-7.568701356649398804e-02,-1.196511611342430115e-01,-8.103147894144058228e-02,-1.549596991389989853e-02,2.964241988956928253e-02,6.988970935344696045e-02,1.002346947789192200e-01,4.878350347280502319e-02,5.063307005912065506e-03,-8.093748241662979126e-02,2.388796582818031311e-02,1.090445369482040405e-01,1.597117185592651367e-01,1.876918822526931763e-01,1.301788836717605591e-01,6.610506772994995117e-02,-5.033963918685913086e-02,8.061341941356658936e-02,1.390210092067718506e-01,2.099854052066802979e-01,2.576394677162170410e-01,2.208096385002136230e-01,1.254086345434188843e-01,-3.970789536833763123e-02,9.623479843139648438e-02,1.920312196016311646e-01,2.196607291698455811e-01,2.446860373020172119e-01,2.245116233825683594e-01,1.813681423664093018e-01,-4.526755213737487793e-02,6.211560219526290894e-02,1.530741006135940552e-01,1.915629059076309204e-01,2.440842092037200928e-01,1.927397847175598145e-01,1.258741021156311035e-01,-8.702027797698974609e-02,2.765228971838951111e-02,9.875167906284332275e-02,1.815117895603179932e-01,1.873137801885604858e-01,1.152378693222999573e-01,7.737342268228530884e-02
-2.125712939005097724e-08,-2.622286920939131960e-08,-3.532469605715959915e-08,-4.450358304097790096e-08,-5.038367589804693125e-08,-4.502326333977180184e-08,-4.946565113073120301e-08,-4.301594103139905201e-08,-4.551898413751587213e-08,-4.920789820062054787e-08,-5.189967211549628701e-08,-5.593747687271388713e-08,-4.821052712600248924e-08,-4.671779407772191917e-08,-4.370262018937864923e-08,-5.411877879168969230e-08,-5.114566548058974149e-08,-4.983131773883542337e-08,-4.279054621747491183e-08,-3.299030026937543880e-08,-2.909161977981966629e-08,-4.470118142307910603e-08,-4.230523842352340580e-08,-4.306490453132028051e-08,-3.479916088622303505e-08,-2.826481981799133791e-08,-1.775390323643932788e-08,-1.321745646265526375e-08,-4.414206600245051959e-08,-3.399603443199339381e-08,-2.994854497728738352e-08,-3.738076870263284945e-08,-3.255155434089829214e-08,-1.369542435014636794e-08,-7.234656429488950380e-09,-4.677790954588090244e-08,-4.401199760195595445e-08,-2.884082661580578133e-08,-2.512867425252807152e-08,-1.787040915246507211e-08,3.886660326912760866e-09,-1.001470906203394406e-09,-4.439223388885693566e-08,-6.073715752563657588e-08,-4.134837539027103048e-08,-1.578145081282400497e-08,-3.037160078989131762e-09,5.263522950826882152e-09,1.370371177644713612e-10,-1.619965139809664834e-08,-1.469271637688507326e-08,-2.125413267606290901e-08,-2.502645024549110531e-08,-2.671075449711679539e-08,-2.199941739888799930e-08,-2.859174230707139941e-08,-2.780124574996989395e-08,-2.406169308244443528e-08,-2.457572279013220395e-08,-2.565558610001517081e-08,-2.816309496722624317e-08,-2.007441146645305707e-08,-1.762907686497783288e-08,-2.609205473902420636e-08,-2.547407795816525322e-08,-1.646895242402024451e-08,-1.108695268925430355e-08,-1.095636914527631234e-08,1.886578893106616306e-09,6.369733185351833527e-09,-2.197020876337774098e-08,-1.233649893350730053e-08,-4.694322264242600795e-09,7.376493194044542179e-09,1.236888991229534440e-08,2.271071330994800519e-08,3.451496866091474658e-08,-1.789875625490822131e-08,3.119811964324981091e-09,4.957118271420313249e-09,5.935578695215326661e-09,1.214853906361668123e-08,2.801549214836995816e-08,3.603407705554673157e-08,-2.206591886988462647e-08,-6.928348561530128791e-09,1.220812162472384443e-08,2.076839855646994693e-08,2.677302468612197117e-08,4.454993529634521110e-08,4.013902454857998237e-08,-2.186090064526524657e-08,-3.182312369176543143e-08,-7.528987211458115780e-09,2.058962778050954512e-08,3.113420987688186869e-08,4.041803336463090091e-08,3.221367350647597050e-08,-2.142121147130637837e-08,-1.753579148555672873e-08,-1.457186815656541512e-08,-2.682353539285031729e-08,-2.499000295586029097e-08,-1.828781215351682476e-08,-2.526242326439387398e-08,-3.322997343957467820e-08,-2.696818235392584029e-08,-2.831412793113941007e-08,-3.067840381731912203e-08,-2.235308826925574976e-08,-1.691150508520422591e-08,-1.768188795381320233e-08,-3.505692802718840539e-08,-2.942511301284866931e-08,-2.481313465807488683e-08,-1.876474797768423741e-08,-1.511217995187053020e-08,-1.152080919553100102e-08,-8.062883694037736859e-09,-3.305928686359038693e-08,-2.411959165726784704e-08,-1.657339154803594283e-08,-4.039820700185714486e-10,3.350254518252882008e-09,5.057352314707941332e-09,1.107252511900469472e-08,-3.183991026389776380e-08,-1.565108220802358119e-08,-8.483728386465827498e-09,-3.851008401056787989e-09,-5.229194410816262462e-09,3.600219677935001528e-09,1.149956929680229223e-08,-3.788679592275912000e-08,-2.590092229581841821e-08,-4.109513174199719288e-09,7.963542714151117252e-09,8.298383313842805364e-09,1.817959827121740091e-08,1.536773197585716844e-08,-3.587588182085710287e-08,-4.352181903755081294e-08,-2.145503685824223794e-08,8.941272611195927311e-09,1.922374082141686813e-08,2.406390819942316739e-08,2.054070158408194402e-08
-2.906188555061817169e-02,3.296774998307228088e-02,-2.554149553179740906e-02,2.236713096499443054e-02,-2.373527549207210541e-02,2.614477649331092834e-02,-3.080479335039854050e-03,-2.307461947202682495e-02,2.002004906535148621e-02,1.799038425087928772e-02,1.959146000444889069e-02,-9.880214184522628784e-02,1.189786717295646667e-01,-2.439886704087257385e-02,-6.616298574954271317e-03,-7.159634679555892944e-02,1.757413893938064575e-01,-7.505382597446441650e-02,-1.494583487510681152e-01,2.274246960878372192e-01,-9.830983728170394897e-02,4.023628309369087219e-02,-2.300575971603393555e-01,4.512096643447875977e-01,-2.965771555900573730e-01,-1.378017365932464600e-01,3.169990181922912598e-01,-1.434148699045181274e-01,6.342841684818267822e-02,-2.990249097347259521e-01,5.646712183952331543e-01,-4.392249882221221924e-01,-4.974872991442680359e-02,2.839751243591308594e-01,-1.507318466901779175e-01,2.357043884694576263e-02,-1.795368641614913940e-01,3.548311591148376465e-01,-2.668787837028503418e-01,-2.934545278549194336e-02,1.937356889247894287e-01,-9.284120798110961914e-02,-4.485917091369628906e-02,1.331591326743364334e-02,1.200820803642272949e-01,-8.998637646436691284e-02,-9.557946771383285522e-02,1.306167989969253540e-01,-3.245624154806137085e-02,-2.129317075014114380e-02,5.718565359711647034e-02,-3.778326511383056641e-02,1.644767448306083679e-02,-5.887391045689582825e-02,1.534858904778957367e-02,4.020058084279298782e-03,-2.052157931029796600e-02,4.544464498758316040e-02,2.403454110026359558e-02,-1.372598460875451565e-03,-1.544332802295684814e-01,1.325539946556091309e-01,-1.470347307622432709e-02,-1.066737342625856400e-02,-4.407369345426559448e-02,2.579205632209777832e-01,-1.605907231569290161e-01,-2.693311274051666260e-01,2.931240499019622803e-01,-7.969197630882263184e-02,2.682122774422168732e-02,-2.118528038263320923e-01,6.304618716239929199e-01,-4.661170542240142822e-01,-3.089443147182464600e-01,4.659780263900756836e-01,-1.140973269939422607e-01,5.042133852839469910e-02,-2.734421193599700928e-01,7.566709518432617188e-01,-6.439617872238159180e-01,-1.965380460023880005e-01,4.323907196521759033e-01,-1.258772015571594238e-01,2.367103844881057739e-02,-1.460605710744857788e-01,4.685604274272918701e-01,-4.164696931838989258e-01,-1.306363642215728760e-01,2.809856832027435303e-01,-6.702645868062973022e-02,-5.258312076330184937e-02,3.861932083964347839e-02,1.473791599273681641e-01,-1.431422978639602661e-01,-1.610750555992126465e-01,1.355774700641632080e-01,-2.908433601260185242e-02,-2.762954309582710266e-02,5.035264417529106140e-02,-1.500354427844285965e-02,1.973392628133296967e-02,-3.434947505593299866e-02,2.551753446459770203e-02,-9.113915264606475830e-03,-2.325305342674255371e-02,5.577786359935998917e-03,-4.964536521583795547e-03,3.829621523618698120e-02,-8.666610717773437500e-02,9.530492871999740601e-02,-2.694986015558242798e-02,-4.587140399962663651e-03,-7.320158928632736206e-02,1.141723915934562683e-01,-4.273714125156402588e-02,-1.128464937210083008e-01,1.653178185224533081e-01,-7.969070971012115479e-02,5.218747258186340332e-02,-2.147688865661621094e-01,3.543054461479187012e-01,-2.240952551364898682e-01,-8.854017406702041626e-02,2.258612364530563354e-01,-1.053391024470329285e-01,7.997733354568481445e-02,-2.769055962562561035e-01,4.633660018444061279e-01,-3.529450893402099609e-01,-1.461273059248924255e-02,1.872892826795578003e-01,-9.016656130552291870e-02,4.428004845976829529e-02,-1.763890385627746582e-01,2.804504036903381348e-01,-2.223110944032669067e-01,-1.113623473793268204e-02,1.232677698135375977e-01,-5.518079921603202820e-02,-3.864827752113342285e-02,-9.695899207144975662e-04,9.610769897699356079e-02,-5.219132453203201294e-02,-8.119291067123413086e-02,9.666156768798828125e-02,-2.138747833669185638e-02
-9.070955115930701140e-07,-9.650325409893412143e-07,-8.744492561163497157e-07,-7.032588200672762468e-07,-6.085290920054831076e-07,-5.033564320910954848e-07,-5.474720978781988379e-07,-6.222578008419077378e-07,-7.759485356473305728e-07,-6.365435183397494256e-07,-3.017261747118027415e-07,-2.079999745774330222e-07,-4.518502905170862505e-08,-1.283593462630960857e-07,-5.849335593666182831e-07,-6.774144480914401356e-07,-5.033047614233510103e-07,-1.905748803210371989e-07,-1.096689175028586760e-07,3.832746386933649774e-08,3.647233981496356137e-08,-5.209678874962264672e-07,-5.909813580728950910e-07,-3.232484573345573153e-07,-6.100528793240300729e-08,-4.093744720989889174e-08,1.162123979270290874e-07,1.390245785160004743e-07,-5.396277629188261926e-07,-4.767340442413114943e-07,-2.559492315867828438e-07,-4.121526231415373331e-09,-4.116538221410337428e-08,5.960258064874324191e-08,6.603650604120048229e-08,-6.128472591626632493e-07,-4.456803708308143541e-07,-3.003451070071605500e-07,-2.450786951158079319e-07,-2.643036225435935194e-07,-1.840674741515613277e-07,-1.471728410251671448e-07,-5.704023919861356262e-07,-4.180859320968011161e-07,-2.940012961971660843e-07,-2.889618144763517193e-07,-2.627506887620256748e-07,-1.640453746176717686e-07,-1.261852133893626160e-07,-1.462371699290088145e-07,-1.461907856992183952e-07,-7.637244436864421004e-08,8.992967082122049760e-08,1.088732801690639462e-07,8.710676269174655317e-08,-2.450377856177965441e-08,1.296597247346653603e-07,6.570332544697521371e-08,1.371563200791570125e-07,4.123305075154348742e-07,4.154013595325523056e-07,4.864896254730410874e-07,3.196471425326308236e-07,1.546849404121530824e-07,1.397647650946964859e-07,2.845818301011604490e-07,4.918513809570868034e-07,4.690616322022833629e-07,5.432402190308494028e-07,4.530485853138088714e-07,1.164134744158218382e-07,1.737072210516998894e-07,4.414628449467272731e-07,6.219172519195126370e-07,6.045769964657665696e-07,6.783272965549258515e-07,6.336888986879785080e-07,-5.326191754306819348e-08,1.391142490092533990e-07,4.119168011129659135e-07,6.655355946350027807e-07,6.565301191585604101e-07,6.958904918974440079e-07,6.342008873616578057e-07,-2.134717647095385473e-07,9.929686939358361997e-08,3.145462983411562163e-07,4.230267620641825488e-07,4.273170759461208945e-07,5.132075102665112354e-07,5.080339633423136547e-07,-1.511767493411753094e-07,1.276697645380409085e-07,3.448203926836868050e-07,4.246010121278231964e-07,5.130785325491160620e-07,6.278211799326527398e-07,5.957443249826610554e-07,3.475868766145140398e-07,3.132808501504769083e-07,3.503796222048549680e-07,5.022603772886213847e-07,4.475054709018877475e-07,3.496209615150291938e-07,1.503012896364452899e-07,5.930639872531173751e-07,5.294655807119852398e-07,5.807160050608217716e-07,8.965208166955562774e-07,8.879227380020893179e-07,8.300519880322099198e-07,5.442552151180279907e-07,6.142163329059258103e-07,5.618057343781401869e-07,6.924439617250754964e-07,9.155865541288221721e-07,9.022493259180919267e-07,8.593337952333968133e-07,6.559296821251336951e-07,6.150879698907374404e-07,6.289405405368597712e-07,8.651974781059834640e-07,1.012983489090402145e-06,9.637683433538768440e-07,9.242112923857348505e-07,8.024862268030119594e-07,4.255432486388599500e-07,6.263483101065503433e-07,8.230422281485516578e-07,1.084910195459087845e-06,1.061601551555213518e-06,9.664452136348700151e-07,8.019887900445610285e-07,2.772962943708989769e-07,6.191873467287223320e-07,7.574001870125357527e-07,9.084869247999449726e-07,9.013184012474084739e-07,8.340728641087480355e-07,6.849887199678050820e-07,3.426171417686418863e-07,6.651852118011447601e-07,8.774130719757522456e-07,1.012075244943844154e-06,1.031113697536056861e-06,1.016664555208990350e-06,8.638933195470599458e-07
-4.233804997056722641e-03,-1.272817701101303101e-02,3.869032487273216248e-02,5.197721347212791443e-02,9.410639293491840363e-03,1.234502717852592468e-02,6.401698570698499680e-03,1.185818482190370560e-02,-7.089939713478088379e-02,-1.127563863992691040e-01,-9.063953906297683716e-02,-8.994799852371215820e-02,-2.522584982216358185e-02,4.200449958443641663e-02,-7.481676340103149414e-02,-1.528639346361160278e-01,-2.122378945350646973e-01,-2.479779124259948730e-01,-2.246851623058319092e-01,-1.248481720685958862e-01,-1.619438454508781433e-02,9.864830970764160156e-02,1.630702465772628784e-01,2.293927818536758423e-01,2.166799306869506836e-01,1.625092327594757080e-01,1.148111447691917419e-01,8.348222076892852783e-02,1.156046167016029358e-01,2.486528754234313965e-01,3.881394267082214355e-01,4.581223428249359131e-01,3.252514302730560303e-01,1.659959107637405396e-01,8.325240761041641235e-02,1.425356138497591019e-02,-4.305782914161682129e-02,-5.695637315511703491e-02,-6.911717355251312256e-02,-8.216541260480880737e-02,-7.378537207841873169e-02,-1.300842995988205075e-04,-7.519137114286422729e-02,-1.684631407260894775e-01,-2.378590553998947144e-01,-2.574757039546966553e-01,-2.186815589666366577e-01,-9.232327342033386230e-02,4.547493532299995422e-03,-1.569983363151550293e-02,-1.873505674302577972e-02,3.072133287787437439e-03,1.042766496539115906e-02,-1.869755424559116364e-02,-2.882389584556221962e-03,4.781541880220174789e-03,-1.923407986760139465e-02,-1.198690608143806458e-01,-2.084272950887680054e-01,-1.975864768028259277e-01,-1.848723292350769043e-01,-9.338015317916870117e-02,1.130281481891870499e-02,-9.420950710773468018e-02,-1.781903803348541260e-01,-2.691460549831390381e-01,-3.288084864616394043e-01,-3.083058297634124756e-01,-1.797224879264831543e-01,-4.755708947777748108e-02,1.617310643196105957e-01,2.587416470050811768e-01,3.294215202331542969e-01,3.059591352939605713e-01,2.343135476112365723e-01,1.744467318058013916e-01,1.250177770853042603e-01,1.751888990402221680e-01,3.517212569713592529e-01,5.129545927047729492e-01,5.969123244285583496e-01,4.380970597267150879e-01,2.444131374359130859e-01,1.477317959070205688e-01,2.021724171936511993e-02,-2.247724309563636780e-02,-4.596350714564323425e-02,-5.877523124217987061e-02,-6.707322597503662109e-02,-5.130589380860328674e-02,3.182939440011978149e-02,-7.799451798200607300e-02,-1.604339778423309326e-01,-2.637953758239746094e-01,-2.989168167114257812e-01,-2.400670647621154785e-01,-9.722714871168136597e-02,1.693914085626602173e-02,-4.750032350420951843e-02,-4.339344333857297897e-03,2.600145898759365082e-02,2.961226925253868103e-02,1.664243265986442566e-02,-2.520202251616865396e-04,-2.843289636075496674e-02,1.431965082883834839e-02,-1.437860168516635895e-02,-6.624346226453781128e-02,-3.928777575492858887e-02,-2.947635203599929810e-02,-4.303142428398132324e-03,2.015751227736473083e-02,-5.417321622371673584e-02,-9.694051742553710938e-02,-1.467855870723724365e-01,-1.729966253042221069e-01,-1.461164802312850952e-01,-7.882244884967803955e-02,-2.737757749855518341e-02,6.877752393484115601e-02,9.119131416082382202e-02,1.283633261919021606e-01,1.081422045826911926e-01,8.982152491807937622e-02,7.480766624212265015e-02,3.974901884794235229e-02,6.963004916906356812e-02,1.443558037281036377e-01,2.173690199851989746e-01,2.765371501445770264e-01,1.925140023231506348e-01,8.710423111915588379e-02,3.746431693434715271e-02,8.084529079496860504e-03,-3.219609335064888000e-02,-6.708362698554992676e-02,-7.574614882469177246e-02,-6.508526951074600220e-02,-5.314993485808372498e-02,-2.822537207975983620e-03,-1.952321082353591919e-02,-3.513257578015327454e-02,-8.754712343215942383e-02,-1.036973148584365845e-01,-7.043948024511337280e-02,-6.277669686824083328e-03,1.103984471410512924e-02
4.877300187945365906e-02,2.809903025627136230e-02,5.501003935933113098e-02,-4.110426455736160278e-02,-1.624764055013656616e-01,-8.255480974912643433e-02,6.405109912157058716e-02,2.981912530958652496e-02,7.699488848447799683e-02,1.526280492544174194e-01,1.430348753929138184e-01,-1.015476584434509277e-01,-2.519791722297668457e-01,-1.300214529037475586e-01,-6.345297396183013916e-02,-6.350152398226782680e-05,1.908184438943862915e-01,3.666059076786041260e-01,2.535730004310607910e-01,-1.032698452472686768e-01,-1.880248486995697021e-01,-1.271085441112518311e-01,-2.072271853685379028e-01,-1.918245665729045868e-02,2.855177223682403564e-01,4.121505618095397949e-01,1.416601538658142090e-01,-5.296226590871810913e-02,-5.917621776461601257e-02,-2.418846338987350464e-01,-2.248627841472625732e-01,-3.602359816431999207e-02,1.956055313348770142e-01,1.540373712778091431e-01,1.974730938673019409e-02,5.791131407022476196e-02,-1.133561953902244568e-01,-1.651639640331268311e-01,-1.224868670105934143e-01,6.025353074073791504e-02,1.248982250690460205e-01,3.576183691620826721e-02,1.211472824215888977e-01,-1.956288702785968781e-02,-1.219843998551368713e-01,-1.584369987249374390e-01,-4.783768579363822937e-02,6.533814221620559692e-02,1.505934912711381912e-02,5.143371596932411194e-02,3.092791885137557983e-02,4.836284369230270386e-02,-6.340838968753814697e-02,-2.121728956699371338e-01,-1.203601807355880737e-01,5.691501870751380920e-02,2.668797783553600311e-02,9.632483124732971191e-02,1.742150336503982544e-01,1.773800104856491089e-01,-1.345253884792327881e-01,-3.254177272319793701e-01,-1.715695112943649292e-01,-7.788136601448059082e-02,5.782138556241989136e-03,2.251479923725128174e-01,4.655185937881469727e-01,3.145325183868408203e-01,-1.256918460130691528e-01,-2.214426845312118530e-01,-1.585351824760437012e-01,-2.253479808568954468e-01,6.223714444786310196e-03,3.817298710346221924e-01,5.040630698204040527e-01,1.629143804311752319e-01,-6.309330463409423828e-02,-9.802057594060897827e-02,-2.698750793933868408e-01,-2.379171252250671387e-01,1.923232921399176121e-03,2.472173869609832764e-01,1.681354045867919922e-01,2.430160529911518097e-02,2.219962514936923981e-02,-1.391106843948364258e-01,-1.982661336660385132e-01,-1.282689869403839111e-01,7.146845012903213501e-02,1.318227946758270264e-01,3.924515470862388611e-02,1.009224057197570801e-01,-3.137517347931861877e-02,-1.303917318582534790e-01,-1.626760214567184448e-01,-3.497699648141860962e-02,8.466377109289169312e-02,3.269931674003601074e-02,7.079940754920244217e-03,-1.444497331976890564e-02,9.118027985095977783e-03,-3.701090440154075623e-02,-1.331732571125030518e-01,-5.220607668161392212e-02,6.979894638061523438e-02,2.069811895489692688e-02,4.239196702837944031e-02,7.487176358699798584e-02,1.083472520112991333e-01,-8.109589666128158569e-02,-1.799075603485107422e-01,-5.495598912239074707e-02,-2.554082497954368591e-02,-2.960798563435673714e-03,9.394177049398422241e-02,2.646296322345733643e-01,1.936685591936111450e-01,-8.673115819692611694e-02,-1.140933036804199219e-01,-5.989197269082069397e-02,-1.317740976810455322e-01,-2.882339619100093842e-02,1.732116043567657471e-01,2.608969509601593018e-01,6.702956557273864746e-02,-3.632704541087150574e-02,1.689436030574142933e-03,-1.122250929474830627e-01,-1.364867985248565674e-01,-4.795416444540023804e-02,7.743904739618301392e-02,4.521585255861282349e-02,-1.354505773633718491e-02,4.119753465056419373e-02,-3.293792530894279480e-02,-7.943055033683776855e-02,-7.972722500562667847e-02,1.381690707057714462e-02,4.667636379599571228e-02,-1.071843970566987991e-02,7.974920421838760376e-02,1.063331868499517441e-02,-5.234248563647270203e-02,-8.410933613777160645e-02,-2.190938964486122131e-02,7.268893718719482422e-02,3.966215625405311584e-02
5.959702655673027039e-03,9.340990334749221802e-03,2.045064698904752731e-03,6.980495527386665344e-03,1.918627135455608368e-02,4.101249948143959045e-02,5.308681353926658630e-02,2.424949407577514648e-02,3.285025805234909058e-02,3.422717005014419556e-02,4.830697551369667053e-02,6.495593488216400146e-02,5.965349450707435608e-02,5.594951286911964417e-02,2.869273535907268524e-02,4.436649754643440247e-02,5.246425792574882507e-02,6.537972390651702881e-02,5.423024669289588928e-02,2.899615094065666199e-02,2.224885672330856323e-02,3.507176786661148071e-02,-1.109859906136989594e-02,-4.635011777281761169e-02,-3.483753278851509094e-02,-8.432871103286743164e-02,-1.195620149374008179e-01,-1.098295822739601135e-01,-2.153077162802219391e-03,-5.294290557503700256e-02,-9.152896702289581299e-02,-1.035961583256721497e-01,-1.374781876802444458e-01,-1.613057851791381836e-01,-1.424346417188644409e-01,2.135623991489410400e-02,2.072870917618274689e-02,1.696506515145301819e-02,2.659778576344251633e-03,-2.799934335052967072e-02,-8.873615413904190063e-03,4.055775236338376999e-03,2.047488279640674591e-02,2.257007919251918793e-02,3.985617309808731079e-02,5.527095496654510498e-02,3.428011015057563782e-02,3.736707568168640137e-02,4.179869592189788818e-02,3.426922718062996864e-03,-2.871669363230466843e-03,1.371066551655530930e-02,2.859823405742645264e-02,2.627495676279067993e-02,2.414049953222274780e-02,2.858128398656845093e-02,8.010079152882099152e-03,9.375506080687046051e-03,2.605482935905456543e-02,4.980444535613059998e-02,5.566006526350975037e-02,4.127736017107963562e-02,2.981233410537242889e-02,9.420223534107208252e-03,1.619823835790157318e-02,3.105521574616432190e-02,4.634642601013183594e-02,3.408288210630416870e-02,1.180374063551425934e-02,8.592875674366950989e-03,1.010494958609342575e-02,-5.268423631787300110e-02,-8.350832760334014893e-02,-6.787177920341491699e-02,-1.096977293491363525e-01,-1.422476321458816528e-01,-1.294363290071487427e-01,-1.243676245212554932e-02,-7.300715893507003784e-02,-9.873312711715698242e-02,-1.039117425680160522e-01,-1.348757445812225342e-01,-1.621913313865661621e-01,-1.310457140207290649e-01,1.362713892012834549e-02,1.917776651680469513e-02,3.608605638146400452e-02,3.015981055796146393e-02,-5.075659602880477905e-03,1.871613203547894955e-03,2.302163653075695038e-02,1.551017537713050842e-02,1.639357395470142365e-02,4.586213827133178711e-02,6.600582599639892578e-02,3.349205106496810913e-02,3.246999531984329224e-02,4.495877027511596680e-02,2.430485794320702553e-03,-3.620193526148796082e-02,-2.844161354005336761e-02,-3.164163604378700256e-02,-4.656723141670227051e-02,-4.882991686463356018e-02,-3.872956335544586182e-02,-6.823749281466007233e-03,-4.523699358105659485e-02,-4.005477949976921082e-02,-2.841867506504058838e-02,-3.140593692660331726e-02,-4.004193097352981567e-02,-4.160309955477714539e-02,-5.914038978517055511e-03,-3.520981967449188232e-02,-2.459270134568214417e-02,-6.583780515938997269e-03,-6.760144140571355820e-03,-2.198385447263717651e-02,-1.751743257045745850e-02,4.269552882760763168e-03,-6.881737709045410156e-02,-8.563663810491561890e-02,-4.930349811911582947e-02,-7.068441063165664673e-02,-8.968098461627960205e-02,-8.622711151838302612e-02,-5.954854190349578857e-03,-6.018850579857826233e-02,-6.250523775815963745e-02,-4.506385698914527893e-02,-5.927554890513420105e-02,-7.075378298759460449e-02,-5.388318747282028198e-02,2.055163495242595673e-02,2.017834782600402832e-02,4.467035830020904541e-02,5.862652137875556946e-02,4.165415093302726746e-02,5.163995176553726196e-02,6.165760010480880737e-02,9.394123218953609467e-03,-2.239259425550699234e-03,2.665683440864086151e-02,5.428116396069526672e-02,2.713662572205066681e-02,3.061302565038204193e-02,4.607707262039184570e-02
6.316919325399794616e-07,9.599121995051973499e-07,8.099741535261273384e-07,3.773342598378803814e-07,7.141213131944823544e-07,4.627768532827758463e-07,-3.534220383016872802e-08,1.191484443552326411e-06,1.506099579273723066e-06,1.372600081595010124e-06,1.092285970116790850e-06,1.322740445175440982e-06,1.181012066808762029e-06,8.113999570014129858e-07,1.046311695063195657e-06,1.424742777089704759e-06,1.334494982074829750e-06,1.084446353161183652e-06,9.279720529775659088e-07,8.848573429531825241e-07,1.006484239951532800e-06,1.536250124445359688e-06,2.123126250808127224e-06,1.948335693668923341e-06,1.644331518946273718e-06,1.774043653313128743e-06,1.674200348134036176e-06,1.350795173493679613e-06,1.801436269488476682e-06,2.358080109843285754e-06,2.073333234875462949e-06,1.583256448611791711e-06,1.852867740126384888e-06,2.088147084577940404e-06,1.988844587685889564e-06,1.377348667119804304e-06,1.744188693919568323e-06,1.651262550694809761e-06,1.446690930606564507e-06,1.563343971611175220e-06,1.680025434325216338e-06,1.761671455824398436e-06,1.371177404507761821e-06,1.285782900595222600e-06,1.514581981609808281e-06,1.655533537814335432e-06,1.898066443573043216e-06,1.410449613103992306e-06,1.110886273636424448e-06,-2.197434241679729894e-06,-1.740665084071224555e-06,-1.305927639805304352e-06,-1.562996658321935683e-06,-1.506463831901783124e-06,-1.970973471543402411e-06,-2.578826524768373929e-06,-2.013359335251152515e-06,-1.484117319705546834e-06,-8.114820388982479926e-07,-7.701097501922049560e-07,-7.061490805426728912e-07,-1.151636183749360498e-06,-1.920653630804736167e-06,-1.807178250601282343e-06,-8.083848683781980071e-07,-1.902770492279159953e-07,-1.859083624822233105e-07,-5.902298880755552091e-07,-9.499804605184181128e-07,-1.343620510851906147e-06,-1.016023475131078158e-06,2.635907776493695565e-07,6.448066187658696435e-07,2.949892063952574972e-07,1.657194559356867103e-07,-1.496442507686879253e-07,-9.766418997969594784e-07,-8.501148158757132478e-07,3.923418319118354702e-07,6.070917493161687162e-07,1.109765506157600612e-07,2.583792024779540952e-07,2.374503651481063571e-07,-4.223568339511984959e-07,-1.471816403864067979e-06,-5.191661216485954355e-07,-2.676336308127247321e-08,-1.797248501134163234e-07,-1.106165683495419216e-07,-5.998941077223207685e-08,-4.823455697078316007e-07,-1.341049028269480914e-06,-1.117835836339509115e-06,-5.782180778624024242e-07,-3.908021710685716243e-07,-1.537748346436274005e-07,-5.261047135718399659e-07,-1.111749497795244679e-06,-5.497103757079457864e-06,-5.200220130063826218e-06,-4.806618107977556065e-06,-4.966854248777963221e-06,-4.704372258856892586e-06,-4.964142135577276349e-06,-5.429765678854892030e-06,-5.708140179194742814e-06,-5.234418040345190093e-06,-4.461621756490785629e-06,-4.467939106689300388e-06,-4.352952601038850844e-06,-4.647770310839405283e-06,-5.130411864229245111e-06,-5.448497631732607260e-06,-4.713220278063090518e-06,-3.841646957880584523e-06,-3.800505965045886114e-06,-4.132650246901903301e-06,-4.358298156148521230e-06,-4.479723884287523106e-06,-5.043772944191005081e-06,-3.954592557420255616e-06,-3.136971827188972384e-06,-3.393580072952318005e-06,-3.436447059357305989e-06,-3.689004870466305874e-06,-4.234104380884673446e-06,-4.914722012472338974e-06,-3.598115654313005507e-06,-3.097586386502371170e-06,-3.551234158294391818e-06,-3.435427288422943093e-06,-3.348242898937314749e-06,-3.813807552432990633e-06,-4.980962330591864884e-06,-3.928233127226121724e-06,-3.072777644774760120e-06,-3.048302232855348848e-06,-3.041798436242970638e-06,-3.057901949432562105e-06,-3.431543063925346360e-06,-4.406373136589536443e-06,-4.129041371925268322e-06,-3.319285724501241930e-06,-2.965046633107704110e-06,-2.713454250624636188e-06,-3.098141633017803542e-06,-3.575434902813867666e-06
-5.607261508703231812e-02,-7.074605673551559448e-02,-2.269248012453317642e-03,6.403675675392150879e-02,1.229716837406158447e-01,4.525777697563171387e-02,-1.138923224061727524e-02,-1.629712730646133423e-01,-1.362880319356918335e-01,-3.340500220656394958e-02,4.309424012899398804e-02,1.427023261785507202e-01,1.215327903628349304e-01,1.056959405541419983e-01,-1.965354084968566895e-01,-1.718600690364837646e-01,-8.279275894165039062e-02,2.918979525566101074e-02,1.670611351728439331e-01,1.597602069377899170e-01,1.498460322618484497e-01,-1.760534942150115967e-01,-1.925833970308303833e-01,-1.050143688917160034e-01,8.833924308419227600e-03,1.492183506488800049e-01,1.513992846012115479e-01,1.633520573377609253e-01,-1.582810133695602417e-01,-1.878038942813873291e-01,-8.871736377477645874e-02,-6.249833386391401291e-04,1.417672038078308105e-01,1.446751505136489868e-01,1.517192721366882324e-01,-1.495035290718078613e-01,-1.843362301588058472e-01,-8.831642568111419678e-02,-4.184517543762922287e-03,1.161910519003868103e-01,1.196729615330696106e-01,1.342188864946365356e-01,-1.338024139404296875e-01,-1.811600178480148315e-01,-9.922900050878524780e-02,-7.377130445092916489e-03,9.445577114820480347e-02,1.012066975235939026e-01,1.262673735618591309e-01,-7.814569026231765747e-02,-1.085306257009506226e-01,-2.880482003092765808e-02,5.589862912893295288e-02,1.307569891214370728e-01,7.767850905656814575e-02,2.939943410456180573e-02,-2.044354826211929321e-01,-1.919004023075103760e-01,-7.708448916673660278e-02,2.577390521764755249e-02,1.445716470479965210e-01,1.490187197923660278e-01,1.508446931838989258e-01,-2.382252067327499390e-01,-2.341547906398773193e-01,-1.277125626802444458e-01,1.747648045420646667e-02,1.809597313404083252e-01,2.082521766424179077e-01,2.231041043996810913e-01,-2.160420119762420654e-01,-2.499350160360336304e-01,-1.428096145391464233e-01,9.009583853185176849e-03,1.853081881999969482e-01,2.300579845905303955e-01,2.646364569664001465e-01,-1.982844918966293335e-01,-2.459359616041183472e-01,-1.244661211967468262e-01,-2.490931190550327301e-03,1.796512752771377563e-01,2.268358170986175537e-01,2.541545629501342773e-01,-1.908468306064605713e-01,-2.431198358535766602e-01,-1.283217817544937134e-01,-1.579106785356998444e-02,1.332976967096328735e-01,1.766889393329620361e-01,2.091950476169586182e-01,-1.530618965625762939e-01,-2.226186692714691162e-01,-1.290909498929977417e-01,-1.965711452066898346e-02,1.005072146654129028e-01,1.379090398550033569e-01,1.819967031478881836e-01,1.863002195023000240e-03,-6.089405342936515808e-02,-7.110982667654752731e-03,3.860703110694885254e-02,8.432725816965103149e-02,2.015815675258636475e-02,-2.631437033414840698e-02,-8.926993608474731445e-02,-1.307052075862884521e-01,-4.932228475809097290e-02,-4.939700011163949966e-03,6.776078045368194580e-02,6.197838112711906433e-02,6.429235637187957764e-02,-1.075632721185684204e-01,-1.494785100221633911e-01,-9.651678800582885742e-02,-2.642620727419853210e-02,8.045230060815811157e-02,1.000434383749961853e-01,1.127797067165374756e-01,-7.657186686992645264e-02,-1.598017066717147827e-01,-1.042608171701431274e-01,-2.652989514172077179e-02,9.732905030250549316e-02,1.259770542383193970e-01,1.599431633949279785e-01,-5.655893683433532715e-02,-1.526664793491363525e-01,-8.501429855823516846e-02,-2.572348155081272125e-02,1.027774289250373840e-01,1.301514208316802979e-01,1.485818028450012207e-01,-3.828169032931327820e-02,-1.470772922039031982e-01,-9.081689268350601196e-02,-4.081241041421890259e-02,6.154337152838706970e-02,8.737237751483917236e-02,1.164125055074691772e-01,-1.730953459627926350e-03,-1.205759197473526001e-01,-7.744304090738296509e-02,-3.060100413858890533e-02,4.831169173121452332e-02,7.193572074174880981e-02,1.136001646518707275e-01
2.228086628019809723e-02,2.846784703433513641e-02,9.226129204034805298e-02,9.333590418100357056e-02,1.685445755720138550e-02,-2.249906510114669800e-01,-3.056129515171051025e-01,-1.599675975739955902e-02,2.099689096212387085e-02,1.665649116039276123e-01,3.789081275463104248e-01,4.396830797195434570e-01,1.977438777685165405e-01,-7.725349813699722290e-02,-4.407664388418197632e-02,-9.178089350461959839e-02,1.820531859993934631e-02,2.917397916316986084e-01,5.832092761993408203e-01,5.073253512382507324e-01,2.040093094110488892e-01,-5.549546703696250916e-02,-1.936650723218917847e-01,-2.582837641239166260e-01,-1.433022618293762207e-01,2.723473906517028809e-01,4.542097747325897217e-01,3.228776156902313232e-01,-5.152302980422973633e-02,-2.191596925258636475e-01,-3.592072129249572754e-01,-5.074816346168518066e-01,-2.818547487258911133e-01,3.861068934202194214e-02,1.507715284824371338e-01,1.092751845717430115e-01,-2.259025909006595612e-02,-1.801104992628097534e-01,-4.200335443019866943e-01,-3.718637824058532715e-01,-1.497530341148376465e-01,1.887398585677146912e-02,1.824566125869750977e-01,1.535034030675888062e-01,3.809870779514312744e-02,-2.155314832925796509e-01,-2.887453734874725342e-01,-1.928965151309967041e-01,-6.414046883583068848e-02,-1.674278610153123736e-04,-1.454364787787199020e-02,-7.917014881968498230e-03,-3.704953938722610474e-02,4.052563963341526687e-05,1.199557166546583176e-02,7.192000746726989746e-02,-1.335848774760961533e-02,-5.255628842860460281e-03,-2.796347439289093018e-02,-4.679113253951072693e-02,-6.325403600931167603e-02,-7.626502960920333862e-02,-2.562304399907588959e-02,1.051767729222774506e-02,8.241401053965091705e-03,-3.603618592023849487e-03,-4.988445341587066650e-02,-6.880243122577667236e-02,-1.068257018923759460e-01,-7.352265715599060059e-02,1.250777114182710648e-02,2.175980806350708008e-02,2.090791054069995880e-02,-1.547006983309984207e-02,1.021310966461896896e-02,-5.166685581207275391e-02,-6.016642600297927856e-02,-9.959239512681961060e-03,8.409223519265651703e-03,2.849360555410385132e-02,-1.190457399934530258e-02,1.053051557391881943e-02,-2.617910131812095642e-02,-3.997793048620223999e-02,8.561547729186713696e-04,1.314246468245983124e-02,4.271646961569786072e-02,3.608763962984085083e-02,6.642900407314300537e-02,4.517391696572303772e-02,3.319029929116368294e-03,9.380592964589595795e-03,3.554892167448997498e-02,6.438983976840972900e-02,5.568300187587738037e-02,5.760225653648376465e-02,6.563908606767654419e-02,6.373275816440582275e-02,2.722323639318346977e-03,-2.785559743642807007e-02,-5.985259637236595154e-02,-8.960364758968353271e-02,1.774309389293193817e-02,1.973611563444137573e-01,2.866680920124053955e-01,1.326419878751039505e-02,-5.869675427675247192e-03,-1.354900151491165161e-01,-3.102731704711914062e-01,-3.551868796348571777e-01,-1.216282323002815247e-01,1.002974435687065125e-01,3.080814331769943237e-02,5.190967395901679993e-02,-2.248336747288703918e-02,-2.775889635086059570e-01,-5.311077833175659180e-01,-4.383929073810577393e-01,-1.388199925422668457e-01,7.374529540538787842e-02,1.956111788749694824e-01,2.630395293235778809e-01,1.468180418014526367e-01,-1.960208266973495483e-01,-3.778387606143951416e-01,-2.168221920728683472e-01,4.566719755530357361e-02,1.789566278457641602e-01,3.626818358898162842e-01,4.523165822029113770e-01,2.312998026609420776e-01,-6.074289232492446899e-02,-1.099888980388641357e-01,-8.393454551696777344e-02,-4.608780145645141602e-03,1.595373004674911499e-01,3.609012365341186523e-01,3.440523445606231689e-01,1.417882889509201050e-01,-2.668835967779159546e-02,-1.538999080657958984e-01,-1.795915067195892334e-01,-6.948290020227432251e-02,1.520741581916809082e-01,2.002829611301422119e-01,1.150404289364814758e-01,2.716392278671264648e-02
-5.106198415160179138e-02,-5.682529509067535400e-02,-4.721937328577041626e-02,-1.469441317021846771e-02,1.571414060890674591e-02,5.982325412333011627e-03,-1.896218955516815186e-02,-2.786601334810256958e-02,-2.837942913174629211e-03,8.843251504004001617e-03,8.527930080890655518e-02,1.454437971115112305e-01,1.104476824402809143e-01,5.505834147334098816e-02,-4.723058268427848816e-02,-7.895163260400295258e-03,2.931159920990467072e-02,1.512062847614288330e-01,1.970741301774978638e-01,1.436989009380340576e-01,9.575281292200088501e-02,-5.878669768571853638e-02,-1.907721348106861115e-02,3.804042562842369080e-02,1.482611894607543945e-01,2.037352472543716431e-01,1.773072481155395508e-01,9.721774607896804810e-02,-3.125234320759773254e-02,7.424622308462858200e-03,3.723334521055221558e-02,1.153542026877403259e-01,1.673027276992797852e-01,1.519572585821151733e-01,7.054030895233154297e-02,-4.480920732021331787e-02,3.179220482707023621e-03,5.201924592256546021e-03,6.293267011642456055e-02,8.088774234056472778e-02,8.186868578195571899e-02,4.857227951288223267e-02,-4.943672195076942444e-02,-1.256345119327306747e-02,4.794735927134752274e-03,4.648459702730178833e-02,3.716298937797546387e-02,1.945692859590053558e-02,6.300990004092454910e-03,6.859246641397476196e-02,3.789233788847923279e-02,2.371041104197502136e-02,-1.434165053069591522e-02,-1.891595125198364258e-02,7.183989509940147400e-03,1.863722875714302063e-02,4.426795989274978638e-02,1.796569675207138062e-02,-2.681691199541091919e-02,-5.407045036554336548e-02,-5.463490262627601624e-02,-3.867912292480468750e-02,-3.045620582997798920e-02,2.824271470308303833e-02,-9.455201216042041779e-04,-5.903204157948493958e-02,-9.583210200071334839e-02,-1.167779341340065002e-01,-1.026866361498832703e-01,-5.663300305604934692e-02,-6.282775662839412689e-03,-3.849574923515319824e-02,-8.775790780782699585e-02,-1.668518483638763428e-01,-1.910517513751983643e-01,-1.343818306922912598e-01,-9.603826701641082764e-02,1.666527055203914642e-02,-1.591287180781364441e-02,-8.771995455026626587e-02,-1.842628121376037598e-01,-2.083442062139511108e-01,-1.369005739688873291e-01,-1.070284023880958557e-01,3.933372348546981812e-02,2.691336348652839661e-02,-6.024114787578582764e-02,-1.476737260818481445e-01,-1.693173199892044067e-01,-8.883339911699295044e-02,-2.642123028635978699e-02,4.265762493014335632e-02,2.398231439292430878e-02,-2.507960796356201172e-02,-8.427243679761886597e-02,-1.039734482765197754e-01,-5.821694061160087585e-02,-1.743270084261894226e-02,-4.308470990508794785e-03,1.574460230767726898e-02,9.642055374570190907e-04,-1.708191633224487305e-02,-1.725279353559017181e-02,-3.692163154482841492e-02,-3.311266377568244934e-02,1.729837805032730103e-02,3.140743076801300049e-02,1.078467350453138351e-02,3.282288089394569397e-02,4.067611321806907654e-02,1.199577096849679947e-02,5.460248328745365143e-03,-3.304737911093980074e-04,3.082426264882087708e-02,2.002614364027976990e-02,6.432016938924789429e-02,5.589457228779792786e-02,1.862950250506401062e-02,4.201261326670646667e-02,-9.816865436732769012e-03,3.910089656710624695e-02,5.691041797399520874e-02,6.823691725730895996e-02,5.582955852150917053e-02,5.422547832131385803e-02,6.194037199020385742e-02,2.048990875482559204e-02,6.773550063371658325e-02,5.951186269521713257e-02,4.378711804747581482e-02,3.715120255947113037e-02,5.077681690454483032e-02,4.706297814846038818e-02,-3.509862581267952919e-03,6.577475368976593018e-02,3.173266723752021790e-02,1.755542121827602386e-02,7.453581783920526505e-03,3.514938801527023315e-02,5.563132092356681824e-02,5.809506867080926895e-03,6.938408315181732178e-02,5.678072199225425720e-02,5.991816893219947815e-02,3.954861685633659363e-02,3.579413145780563354e-02,3.834561258554458618e-02
2.404897660017013550e-02,4.685238003730773926e-02,4.384190589189529419e-02,3.972656652331352234e-02,3.750108927488327026e-02,1.632766425609588623e-02,9.167471900582313538e-03,2.430729754269123077e-02,4.634139686822891235e-02,3.871463611721992493e-02,4.299607127904891968e-02,4.591700434684753418e-02,2.909287251532077789e-02,1.620192267000675201e-02,3.232591599225997925e-02,5.204833671450614929e-02,4.922084882855415344e-02,5.013920366764068604e-02,5.263797938823699951e-02,3.565219044685363770e-02,2.953360415995121002e-02,3.621974214911460876e-02,4.993137344717979431e-02,4.518209025263786316e-02,4.546770453453063965e-02,4.967747628688812256e-02,3.137773647904396057e-02,3.477151319384574890e-02,3.744021058082580566e-02,4.826547205448150635e-02,4.068697243928909302e-02,4.116539657115936279e-02,4.101895168423652649e-02,2.356536313891410828e-02,3.215260803699493408e-02,3.422648832201957703e-02,4.613231122493743896e-02,4.219980910420417786e-02,3.876664862036705017e-02,2.911095321178436279e-02,1.103867031633853912e-02,2.025913260877132416e-02,2.636997215449810028e-02,4.268732666969299316e-02,4.529603570699691772e-02,4.467406868934631348e-02,3.900216892361640930e-02,2.009074389934539795e-02,1.614637672901153564e-02,-4.016468673944473267e-02,-2.446093223989009857e-02,-1.351504679769277573e-02,-1.748347841203212738e-02,-2.516821958124637604e-02,-5.217364430427551270e-02,-5.230549350380897522e-02,-4.969054460525512695e-02,-2.092259377241134644e-02,-6.834869273006916046e-04,1.325043290853500366e-02,1.235500350594520569e-02,-2.416406758129596710e-02,-4.888129606842994690e-02,-2.354890853166580200e-02,2.022529393434524536e-02,5.067637562751770020e-02,6.538482010364532471e-02,6.279198825359344482e-02,1.995210722088813782e-02,-1.451427862048149109e-02,-3.846685634925961494e-03,3.915737941861152649e-02,6.729429960250854492e-02,7.574743777513504028e-02,6.797246634960174561e-02,2.639563567936420441e-02,7.587123662233352661e-03,-4.774459637701511383e-03,2.978843450546264648e-02,5.015354603528976440e-02,5.808255448937416077e-02,4.333039745688438416e-02,7.080006413161754608e-03,2.277973340824246407e-03,-1.815218664705753326e-02,6.635662633925676346e-03,2.613877132534980774e-02,3.114276379346847534e-02,9.154113009572029114e-03,-2.488150820136070251e-02,-2.141394652426242828e-02,-3.363513574004173279e-02,-1.664430461823940277e-02,1.616042340174317360e-03,1.286431681364774704e-02,3.834987524896860123e-03,-2.401133067905902863e-02,-3.087552450597286224e-02,-2.316440083086490631e-02,-2.603671140968799591e-02,-1.998978108167648315e-02,-1.926953159272670746e-02,-1.998717151582241058e-02,-3.316730633378028870e-02,-1.988600753247737885e-02,-4.634997621178627014e-02,-4.232837632298469543e-02,-2.915895916521549225e-02,-1.200854219496250153e-02,-7.490068208426237106e-03,-2.734334021806716919e-02,-2.789833210408687592e-02,-3.588216379284858704e-02,-1.577007398009300232e-02,1.459603663533926010e-02,3.383331745862960815e-02,3.242390602827072144e-02,2.234875923022627831e-03,-7.090153172612190247e-03,-1.655009388923645020e-02,6.003222893923521042e-03,3.648879751563072205e-02,5.190684273838996887e-02,4.195918887853622437e-02,7.823470048606395721e-03,7.138443179428577423e-03,-6.260552443563938141e-03,6.413054186850786209e-03,2.608374319970607758e-02,3.759940713644027710e-02,2.230429835617542267e-02,-1.137461140751838684e-02,3.736033570021390915e-03,-5.116656422615051270e-03,-3.311759559437632561e-03,1.049270108342170715e-02,1.889359392225742340e-02,-1.458157901652157307e-03,-2.860646881163120270e-02,-5.629378836601972580e-03,-3.020361997187137604e-03,-4.561829846352338791e-03,4.096698481589555740e-03,1.737984083592891693e-02,1.379082817584276199e-02,-8.667618967592716217e-03,1.369770267046988010e-03
7.177594583481550217e-03,-8.882316760718822479e-03,-6.507182260975241661e-04,-1.436903979629278183e-02,-1.638179458677768707e-02,-5.368140060454607010e-03,-2.610900625586509705e-02,-1.598534360527992249e-02,-8.481735363602638245e-03,-4.550189711153507233e-03,-7.001367863267660141e-03,-9.723427705466747284e-03,9.388707694597542286e-04,-2.215186133980751038e-02,-9.368611499667167664e-03,-3.805326297879219055e-03,-3.570136614143848419e-03,-2.191803976893424988e-02,-1.400774996727705002e-02,-1.008003111928701401e-02,-3.529346361756324768e-02,-3.562352852895855904e-03,-4.814669955521821976e-03,-1.098780892789363861e-02,1.720870495773851871e-03,1.692948192358016968e-01,1.121945977210998535e-01,-3.082558885216712952e-02,-5.585744511336088181e-03,-5.947819910943508148e-03,-3.253231570124626160e-02,-4.961154889315366745e-03,1.887114644050598145e-01,1.172279119491577148e-01,-4.508848860859870911e-02,-1.821451634168624878e-02,-6.076503545045852661e-03,-1.015980727970600128e-02,-4.551947489380836487e-02,-1.330568827688694000e-02,-2.870955131947994232e-02,-5.932515859603881836e-02,-2.444531582295894623e-02,-2.005289308726787567e-02,-6.608351599425077438e-03,-2.678870037198066711e-02,-4.011900350451469421e-02,-2.635486610233783722e-02,-5.586312711238861084e-02,-9.236129932105541229e-03,-1.806469447910785675e-02,-3.801875282078981400e-03,-1.235391665250062943e-02,-1.767810247838497162e-02,-5.946936551481485367e-03,-1.725575514137744904e-02,-2.706304937601089478e-02,-1.619945839047431946e-02,-1.084036193788051605e-02,-1.336882170289754868e-02,-2.140940912067890167e-02,-1.140896417200565338e-02,-2.306315116584300995e-02,-1.931515522301197052e-02,-1.468936167657375336e-02,-1.203600224107503891e-02,-2.062104083597660065e-02,-1.487477682530879974e-02,-8.427434600889682770e-03,-3.262032195925712585e-02,1.529872301034629345e-03,5.268533248454332352e-03,1.346304453909397125e-02,5.749591439962387085e-02,2.403827756643295288e-01,1.781179755926132202e-01,1.555936969816684723e-02,4.045044071972370148e-03,1.061415579169988632e-02,2.953551011160016060e-03,6.672840565443038940e-02,2.767719030380249023e-01,2.001052498817443848e-01,8.290570229291915894e-03,-1.574338600039482117e-02,4.450899083167314529e-03,1.130800414830446243e-02,-6.615578895434737206e-04,3.698466345667839050e-02,2.653504349291324615e-02,-1.843362487852573395e-02,-1.603785529732704163e-02,-2.741048578172922134e-03,2.626327611505985260e-02,2.323031052947044373e-02,9.290952235460281372e-03,3.273870050907135010e-02,-3.260444500483572483e-04,1.997125148773193359e-02,1.081089721992611885e-03,1.590187847614288330e-02,1.999358274042606354e-02,2.576263621449470520e-02,3.645540028810501099e-02,1.696137338876724243e-02,4.940920975059270859e-03,-3.605808597058057785e-03,-1.590955653227865696e-03,1.319491770118474960e-02,1.647728122770786285e-02,2.664230763912200928e-02,7.955219596624374390e-03,1.245825272053480148e-02,-7.555868010967969894e-03,-1.510957907885313034e-02,-2.117240242660045624e-02,-1.189157087355852127e-02,-4.791839746758341789e-04,-1.618449948728084564e-02,2.948977984488010406e-02,1.228056382387876511e-03,-7.247153203934431076e-03,1.896314881742000580e-02,1.956800222396850586e-01,1.478435546159744263e-01,8.940516039729118347e-03,2.422050759196281433e-02,-1.366482581943273544e-03,-3.352379053831100464e-02,6.948611699044704437e-03,2.063773572444915771e-01,1.421219557523727417e-01,-1.752696000039577484e-02,-1.391629804857075214e-03,-1.256693806499242783e-02,-2.713422477245330811e-02,-5.828537419438362122e-02,-3.366578742861747742e-02,-2.917568385601043701e-02,-4.509255290031433105e-02,-5.550069734454154968e-03,-1.499770209193229675e-02,3.504049964249134064e-04,-8.072271011769771576e-03,-1.986191421747207642e-02,1.212146133184432983e-02,-6.183845456689596176e-03
-3.551022708415985107e-02,2.675113640725612640e-02,2.333423681557178497e-02,8.304639905691146851e-02,9.084887057542800903e-02,8.643651753664016724e-02,4.112196713685989380e-02,6.096961721777915955e-02,9.180899709463119507e-02,7.485057413578033447e-02,1.108900234103202820e-01,1.174860373139381409e-01,7.624837011098861694e-02,-9.640248492360115051e-03,8.360534161329269409e-02,7.882218062877655029e-02,7.280822843313217163e-02,9.584574401378631592e-02,9.018534421920776367e-02,3.088703192770481110e-02,-6.632371991872787476e-02,9.954172372817993164e-02,5.694565922021865845e-02,4.717152565717697144e-02,6.426421552896499634e-02,3.378278017044067383e-02,-4.422016814351081848e-02,-9.671784937381744385e-02,4.521621018648147583e-02,9.451295249164104462e-03,-3.634353168308734894e-03,9.739756584167480469e-03,-3.853270784020423889e-02,-1.259654313325881958e-01,-1.475207209587097168e-01,-2.319172024726867676e-03,-2.720903977751731873e-02,-6.096237897872924805e-02,-8.023869991302490234e-02,-1.273790001869201660e-01,-2.033557295799255371e-01,-1.858438700437545776e-01,-5.054916068911552429e-02,-1.014895886182785034e-01,-1.270527988672256470e-01,-1.880939602851867676e-01,-2.110790014266967773e-01,-2.178205549716949463e-01,-1.171737760305404663e-01,-4.322608001530170441e-03,4.306263476610183716e-02,4.488056898117065430e-02,1.023318767547607422e-01,1.000005528330802917e-01,9.483166784048080444e-02,6.107503548264503479e-02,7.037059217691421509e-02,8.086254447698593140e-02,6.087798997759819031e-02,9.733435511589050293e-02,9.697616100311279297e-02,4.578605666756629944e-02,-2.832273393869400024e-02,7.761790603399276733e-02,6.023469194769859314e-02,6.175639852881431580e-02,8.620988577604293823e-02,7.275780290365219116e-02,-1.492702635005116463e-03,-9.034815430641174316e-02,7.746939361095428467e-02,3.068390674889087677e-02,3.352990746498107910e-02,4.719045013189315796e-02,1.501912265666760504e-05,-8.977413177490234375e-02,-1.344517916440963745e-01,2.823527529835700989e-02,-1.273701246827840805e-02,-2.446516975760459900e-02,-1.432643923908472061e-02,-7.492502033710479736e-02,-1.696784496307373047e-01,-1.816840171813964844e-01,7.486819755285978317e-03,-3.018170222640037537e-02,-7.724798470735549927e-02,-1.017462685704231262e-01,-1.573748886585235596e-01,-2.311395406723022461e-01,-2.007942646741867065e-01,-3.230405598878860474e-02,-9.499996900558471680e-02,-1.264275163412094116e-01,-1.988178044557571411e-01,-2.312853187322616577e-01,-2.282664924860000610e-01,-1.165500730276107788e-01,-2.085135504603385925e-02,1.067031454294919968e-02,1.299672573804855347e-02,6.799215823411941528e-02,7.662671059370040894e-02,7.789460569620132446e-02,4.311631619930267334e-02,3.591636568307876587e-02,3.819816187024116516e-02,2.222524210810661316e-02,6.176932528614997864e-02,6.918307393789291382e-02,3.656901046633720398e-02,-3.264960646629333496e-02,5.059996247291564941e-02,2.573029324412345886e-02,2.904047444462776184e-02,5.192989110946655273e-02,5.972382798790931702e-02,6.465659476816654205e-03,-7.271891087293624878e-02,5.571454763412475586e-02,9.960282593965530396e-03,1.235436834394931793e-02,4.456960037350654602e-02,3.183439373970031738e-02,-3.659549355506896973e-02,-7.477854192256927490e-02,1.445678900927305222e-02,-1.722638867795467377e-02,-1.976520009338855743e-02,1.041584089398384094e-02,-1.206087414175271988e-02,-8.327690511941909790e-02,-9.357959032058715820e-02,2.789220772683620453e-02,2.102141734212636948e-03,-2.584645152091979980e-02,-2.803040668368339539e-02,-4.797508567571640015e-02,-1.057165339589118958e-01,-9.793840348720550537e-02,-1.097668055444955826e-02,-5.464619770646095276e-02,-6.928652524948120117e-02,-1.193116009235382080e-01,-1.274637728929519653e-01,-1.335754543542861938e-01,-4.531902074813842773e-02
-3.009441308677196503e-02,2.504534460604190826e-02,2.865361794829368591e-02,-6.164911389350891113e-02,-8.294561505317687988e-02,-4.468941316008567810e-02,5.920002609491348267e-02,-1.998456567525863647e-02,4.795437678694725037e-02,2.078264206647872925e-02,-1.637783795595169067e-01,-1.549816876649856567e-01,8.140978403389453888e-03,1.326267421245574951e-01,-3.932642750442028046e-03,7.880754023790359497e-02,-1.739949919283390045e-02,-2.753989696502685547e-01,-2.217298746109008789e-01,7.221379131078720093e-02,2.227467894554138184e-01,1.520221028476953506e-02,9.189282357692718506e-02,-3.612423688173294067e-02,-3.154593408107757568e-01,-2.174512445926666260e-01,1.387981027364730835e-01,2.882424890995025635e-01,9.969039820134639740e-03,8.167059719562530518e-02,-7.540909200906753540e-02,-2.906458079814910889e-01,-1.273907572031021118e-01,1.268950551748275757e-01,2.292715609073638916e-01,1.593481376767158508e-02,5.555294454097747803e-02,-8.217352628707885742e-02,-1.697659939527511597e-01,-2.892420440912246704e-02,9.313470125198364258e-02,1.980200558900833130e-01,-3.116815723478794098e-02,-8.093019947409629822e-03,-6.755418330430984497e-02,-7.432706654071807861e-02,8.199826814234256744e-03,7.569705694913864136e-02,1.601329445838928223e-01,-1.128303539007902145e-02,6.757204979658126831e-02,4.078365489840507507e-02,-6.194116547703742981e-02,-1.002520844340324402e-01,-4.137281700968742371e-02,7.650330662727355957e-02,1.698752865195274353e-02,9.884678572416305542e-02,1.423807162791490555e-02,-2.183483988046646118e-01,-2.234252989292144775e-01,3.830899251624941826e-03,1.540868431329727173e-01,3.422401472926139832e-02,1.184946894645690918e-01,-4.545763880014419556e-02,-3.603689670562744141e-01,-3.051498532295227051e-01,7.630416750907897949e-02,2.760981321334838867e-01,4.524142667651176453e-02,1.231009513139724731e-01,-8.545961230993270874e-02,-4.086024463176727295e-01,-2.708437740802764893e-01,1.902144402265548706e-01,3.751955926418304443e-01,2.709849923849105835e-02,9.309442341327667236e-02,-1.336169689893722534e-01,-3.752926588058471680e-01,-1.612157672643661499e-01,1.850697249174118042e-01,3.085055351257324219e-01,1.896623522043228149e-02,5.404137447476387024e-02,-1.333141773939132690e-01,-2.092663645744323730e-01,-3.590855002403259277e-02,1.309088170528411865e-01,2.537705302238464355e-01,-3.829926624894142151e-02,-1.510708965361118317e-02,-1.016369685530662537e-01,-8.840760588645935059e-02,-2.759354421868920326e-03,7.627038657665252686e-02,1.731071174144744873e-01,-3.004153445363044739e-02,8.374876342713832855e-03,2.667223662137985229e-02,6.093720439821481705e-03,-4.038164392113685608e-02,-4.340529441833496094e-02,-1.407107058912515640e-02,-5.254783201962709427e-03,4.242717847228050232e-02,4.259943589568138123e-02,-4.990653321146965027e-02,-8.481196314096450806e-02,-4.418226890265941620e-03,2.241394296288490295e-02,-4.500392824411392212e-03,5.259201675653457642e-02,1.097897719591856003e-02,-1.293449252843856812e-01,-1.445431411266326904e-01,1.507764775305986404e-02,6.926142424345016479e-02,1.195580977946519852e-02,7.276871055364608765e-02,1.702551916241645813e-02,-1.382527649402618408e-01,-1.219056993722915649e-01,8.413519710302352905e-02,1.317722350358963013e-01,5.633372813463211060e-03,6.450544297695159912e-02,-1.738218218088150024e-02,-1.351966112852096558e-01,-5.885296314954757690e-02,7.272285223007202148e-02,8.704895526170730591e-02,1.775068789720535278e-02,3.947150707244873047e-02,-3.133267164230346680e-02,-4.463917762041091919e-02,1.007227133959531784e-02,3.468717634677886963e-02,6.977017968893051147e-02,-9.950151666998863220e-03,-1.115005929023027420e-02,-3.497374057769775391e-02,6.083111278712749481e-03,7.818748243153095245e-03,5.428236443549394608e-03,3.272556886076927185e-02
5.177561193704605103e-02,-8.463068865239620209e-03,-4.293778538703918457e-02,-6.763515621423721313e-02,-7.784738391637802124e-02,-1.679468154907226562e-02,1.514398865401744843e-02,8.402000181376934052e-03,-7.803021464496850967e-03,-3.469303622841835022e-02,-6.477063149213790894e-02,-5.738441646099090576e-02,-2.446697279810905457e-02,-2.094785682857036591e-02,2.593904547393321991e-02,4.788726568222045898e-02,5.394710600376129150e-02,2.721762843430042267e-02,2.216047048568725586e-02,2.186541818082332611e-02,1.507290173321962357e-02,1.411621551960706711e-02,5.459048971533775330e-02,7.033648341894149780e-02,4.667863994836807251e-02,5.397607386112213135e-02,5.901263654232025146e-02,4.359184205532073975e-02,-2.805578056722879410e-03,3.176264092326164246e-02,6.387840956449508667e-02,6.997387111186981201e-02,6.547791510820388794e-02,8.343363553285598755e-02,7.950454950332641602e-02,-5.355619266629219055e-02,-2.792819775640964508e-02,1.479055732488632202e-02,3.543831780552864075e-02,5.275904759764671326e-02,5.201303213834762573e-02,2.395674027502536774e-02,-6.021080166101455688e-02,-4.779796302318572998e-02,-4.610811546444892883e-02,-3.394836932420730591e-02,-2.617824822664260864e-02,-1.370631065219640732e-02,-2.163806930184364319e-02,4.300437122583389282e-02,5.068394821137189865e-03,-4.324404895305633545e-02,-7.397784292697906494e-02,-8.549362421035766602e-02,-3.203656896948814392e-02,-4.772149492055177689e-03,3.612037375569343567e-02,3.213894739747047424e-02,-7.281056139618158340e-03,-3.967890143394470215e-02,-3.357733786106109619e-02,-1.068559661507606506e-02,-8.211188018321990967e-03,5.843319371342658997e-02,9.041479974985122681e-02,8.672875165939331055e-02,5.801973864436149597e-02,3.714335337281227112e-02,2.595561742782592773e-02,1.987985894083976746e-02,4.988128319382667542e-02,9.089261293411254883e-02,8.995469659566879272e-02,6.509383767843246460e-02,5.817800015211105347e-02,5.522873625159263611e-02,4.117986559867858887e-02,2.847087010741233826e-02,6.670635193586349487e-02,8.460744470357894897e-02,8.348648250102996826e-02,6.842649728059768677e-02,7.608456164598464966e-02,8.083991706371307373e-02,-6.707452703267335892e-03,3.118018619716167450e-02,6.431256234645843506e-02,7.239298522472381592e-02,8.776375651359558105e-02,7.795715332031250000e-02,5.516117438673973083e-02,-1.565585471689701080e-02,1.353532448410987854e-02,1.611951924860477448e-02,1.825888454914093018e-02,2.126718312501907349e-02,2.154423668980598450e-02,9.054753929376602173e-03,2.228940464556217194e-02,-1.234752312302589417e-02,-5.230614170432090759e-02,-8.035043627023696899e-02,-8.794643729925155640e-02,-3.827423602342605591e-02,-7.703455630689859390e-03,1.695970818400382996e-02,2.607575617730617523e-03,-3.091662190854549408e-02,-5.424375832080841064e-02,-4.404134675860404968e-02,-2.031438611447811127e-02,-1.182796619832515717e-02,3.665234148502349854e-02,4.935939610004425049e-02,3.558013588190078735e-02,2.064433880150318146e-02,4.038330633193254471e-03,-2.219523070380091667e-03,2.194024156779050827e-03,7.324195001274347305e-03,3.162157535552978516e-02,2.146073244512081146e-02,1.883582444861531258e-03,3.227727953344583511e-03,-2.850776538252830505e-03,-3.086547949351370335e-04,-1.185421366244554520e-02,7.518162950873374939e-03,1.454989891499280930e-02,1.749872788786888123e-02,8.115663193166255951e-03,2.033615484833717346e-02,3.987377509474754333e-02,-2.573249302804470062e-02,-6.473616696894168854e-03,1.442884653806686401e-02,2.431785129010677338e-02,4.206539317965507507e-02,3.715223446488380432e-02,3.047968819737434387e-02,-1.812469330616295338e-03,1.118075288832187653e-02,-2.259281463921070099e-04,3.996966988779604435e-04,-1.681666006334125996e-03,-1.687703421339392662e-03,3.083578543737530708e-03
1.987650431692600250e-02,1.195439472794532776e-01,2.387410216033458710e-02,-8.981631696224212646e-02,-1.217455863952636719e-01,-2.236584760248661041e-02,3.384203836321830750e-02,9.412419795989990234e-02,1.451700776815414429e-01,5.405065417289733887e-02,-7.656284421682357788e-02,-1.249541938304901123e-01,-4.970652237534523010e-02,1.037848182022571564e-02,7.889961451292037964e-02,1.635617911815643311e-01,5.777464434504508972e-02,-1.053484454751014709e-01,-1.354065835475921631e-01,-4.415230825543403625e-02,9.587133303284645081e-03,5.413807556033134460e-02,1.684734374284744263e-01,4.806335270404815674e-02,-1.009183749556541443e-01,-1.348273158073425293e-01,-5.223241820931434631e-02,1.154147833585739136e-02,3.527858108282089233e-02,1.366492360830307007e-01,3.136640787124633789e-02,-7.347296923398971558e-02,-1.087642535567283630e-01,-3.421096876263618469e-02,1.229454670101404190e-02,-1.585287158377468586e-03,1.120487153530120850e-01,8.722049184143543243e-03,-7.904902845621109009e-02,-8.396223932504653931e-02,1.181003917008638382e-02,1.477881614118814468e-02,-1.829474978148937225e-02,9.625666588544845581e-02,1.108411792665719986e-02,-8.266418427228927612e-02,-9.729979932308197021e-02,1.468193065375089645e-02,-2.939141169190406799e-02,8.644618839025497437e-02,1.386556327342987061e-01,2.125038579106330872e-02,-1.293937712907791138e-01,-1.864355951547622681e-01,-4.469915851950645447e-02,5.852203816175460815e-02,1.615679115056991577e-01,1.770169287919998169e-01,5.169348791241645813e-02,-1.445603370666503906e-01,-2.459932267665863037e-01,-1.204065978527069092e-01,1.990090822800993919e-03,1.397588253021240234e-01,1.974163800477981567e-01,5.948081612586975098e-02,-1.788214296102523804e-01,-2.633384466171264648e-01,-1.295287758111953735e-01,-1.357704773545265198e-02,1.117370277643203735e-01,1.958369761705398560e-01,4.377178847789764404e-02,-1.727404594421386719e-01,-2.573086023330688477e-01,-1.265409886837005615e-01,-3.060625167563557625e-03,9.589423239231109619e-02,1.671795845031738281e-01,3.256130591034889221e-02,-1.342860013246536255e-01,-2.248449623584747314e-01,-9.894996881484985352e-02,5.265960469841957092e-03,4.755661264061927795e-02,1.164600849151611328e-01,-1.444346271455287933e-03,-1.343674510717391968e-01,-1.741359233856201172e-01,-3.190487995743751526e-02,1.991751603782176971e-02,2.673969417810440063e-02,9.485364705324172974e-02,-5.086631979793310165e-03,-1.227064654231071472e-01,-1.633771359920501709e-01,-1.850546896457672119e-02,-1.496536005288362503e-02,9.818525053560733795e-03,5.175423994660377502e-02,-1.223543379455804825e-02,-7.824321091175079346e-02,-9.553167223930358887e-02,1.112248096615076065e-02,8.850573003292083740e-02,7.294137030839920044e-02,7.568656653165817261e-02,1.023488584905862808e-02,-8.516490459442138672e-02,-1.289403140544891357e-01,-4.095451161265373230e-02,3.156227618455886841e-02,4.864639416337013245e-02,7.980724424123764038e-02,1.117456145584583282e-02,-1.147764176130294800e-01,-1.347449421882629395e-01,-3.462036326527595520e-02,2.491365559399127960e-02,4.326708242297172546e-02,9.694393724203109741e-02,1.361820008605718613e-02,-9.219624102115631104e-02,-1.214396506547927856e-01,-3.425502032041549683e-02,3.659816831350326538e-02,4.889759048819541931e-02,8.211605995893478394e-02,4.673101939260959625e-03,-7.042199373245239258e-02,-1.042727679014205933e-01,-1.644947566092014313e-02,5.299023538827896118e-02,2.464356459677219391e-02,6.159546598792076111e-02,-1.424247771501541138e-02,-7.429242879152297974e-02,-8.251485973596572876e-02,2.680859714746475220e-02,5.183707922697067261e-02,2.135545201599597931e-02,5.800895020365715027e-02,-3.323294455185532570e-03,-5.698988586664199829e-02,-7.233486324548721313e-02,3.802469372749328613e-02,1.070573367178440094e-02
2.309182286262512207e-01,1.746998727321624756e-01,2.245846204459667206e-02,-1.143648624420166016e-01,-1.038229689002037048e-01,-2.352306060492992401e-02,-3.034306690096855164e-02,1.682651340961456299e-01,3.931350074708461761e-03,-2.233049422502517700e-01,-3.446654379367828369e-01,-1.994761228561401367e-01,-2.671847306191921234e-02,1.267581246793270111e-02,2.410951256752014160e-02,-2.034119963645935059e-01,-4.129393398761749268e-01,-4.431000947952270508e-01,-1.597793400287628174e-01,1.430954933166503906e-01,1.235567852854728699e-01,-1.209241226315498352e-01,-3.484127819538116455e-01,-4.664832651615142822e-01,-3.025189340114593506e-01,2.061178386211395264e-01,4.212746322154998779e-01,2.145101875066757202e-01,-1.092053055763244629e-01,-2.226071059703826904e-01,-1.831870675086975098e-01,2.359150201082229614e-01,6.303993463516235352e-01,4.993455410003662109e-01,1.049608960747718811e-01,-3.689952939748764038e-02,-4.671551659703254700e-02,1.166162118315696716e-01,4.385528564453125000e-01,5.106042623519897461e-01,1.673125922679901123e-01,-2.401293814182281494e-01,-3.895791620016098022e-02,6.554764229804277420e-03,1.418201625347137451e-01,2.499430477619171143e-01,1.419835388660430908e-01,-2.112012505531311035e-01,-4.256660342216491699e-01,-3.760222718119621277e-02,1.900680735707283020e-02,4.193116351962089539e-02,5.211206525564193726e-02,1.531730592250823975e-02,1.926859840750694275e-02,1.237259421031922102e-04,1.130683999508619308e-02,6.829052418470382690e-02,6.862892210483551025e-02,6.824361532926559448e-02,2.795294299721717834e-02,7.615281734615564346e-03,-5.454365629702806473e-03,3.466301038861274719e-02,6.238261237740516663e-02,6.672126799821853638e-02,6.697548925876617432e-02,-8.704075589776039124e-03,-1.681467518210411072e-02,-6.449129432439804077e-02,3.096995502710342407e-02,6.390330195426940918e-02,4.067078605294227600e-02,-3.840358927845954895e-02,-5.981602519750595093e-02,-7.383448630571365356e-02,-1.043967157602310181e-01,1.572609692811965942e-02,4.137712344527244568e-02,-2.020184695720672607e-02,-4.268554598093032837e-02,-6.742341816425323486e-02,-8.231614530086517334e-02,-4.700143262743949890e-02,2.612405270338058472e-02,1.784697757102549076e-03,-4.665932804346084595e-02,-7.913611829280853271e-02,-9.732485562562942505e-02,-3.847201541066169739e-02,-4.584293346852064133e-03,1.063395873643457890e-03,-2.487776055932044983e-02,-7.435436546802520752e-02,-9.114310145378112793e-02,-3.863065689802169800e-02,1.498313341289758682e-02,5.250920355319976807e-02,-2.137184888124465942e-01,-1.814721971750259399e-01,-7.402408868074417114e-02,7.119436562061309814e-02,3.906511515378952026e-02,5.117715336382389069e-03,1.474250201135873795e-02,-1.776935607194900513e-01,-6.985806673765182495e-02,1.095906794071197510e-01,2.612978518009185791e-01,1.616615206003189087e-01,1.677167974412441254e-02,-1.859742333181202412e-03,-5.876338481903076172e-02,1.151563003659248352e-01,3.480831980705261230e-01,4.349948167800903320e-01,1.345716863870620728e-01,-6.821228563785552979e-02,-7.568254321813583374e-02,7.401875406503677368e-02,2.767076790332794189e-01,4.299753010272979736e-01,2.718092501163482666e-01,-1.714745759963989258e-01,-3.273642063140869141e-01,-1.611213833093643188e-01,5.678837373852729797e-02,2.030337452888488770e-01,1.428368985652923584e-01,-1.636997908353805542e-01,-5.294890999794006348e-01,-4.161486625671386719e-01,-4.676611348986625671e-02,2.083366923034191132e-02,5.839796364307403564e-02,-5.991366878151893616e-02,-3.456747233867645264e-01,-4.486055374145507812e-01,-1.075073182582855225e-01,2.163260132074356079e-01,2.130533196032047272e-02,4.976059775799512863e-03,-8.955749124288558960e-02,-1.911401450634002686e-01,-8.202010393142700195e-02,1.914576590061187744e-01,3.425440192222595215e-01
-6.983445957303047180e-03,-4.671588540077209473e-02,-1.044654473662376404e-01,1.548095047473907471e-02,8.127250522375106812e-02,2.904560789465904236e-02,-2.032780833542346954e-02,2.538405917584896088e-02,1.077129393815994263e-01,3.211057782173156738e-01,1.828132122755050659e-01,-1.518325805664062500e-01,-1.091730743646621704e-01,-1.571532525122165680e-02,-3.904330777004361153e-03,-3.791903704404830933e-02,-4.466268718242645264e-01,-5.493376851081848145e-01,1.808506669476628304e-03,1.830821484327316284e-01,5.679602921009063721e-02,-4.179171472787857056e-02,-1.325730383396148682e-01,1.846645027399063110e-01,7.221353650093078613e-01,3.284879028797149658e-01,-1.068650037050247192e-01,-6.261745840311050415e-02,3.395798057317733765e-02,1.848606616258621216e-01,1.616922169923782349e-01,-4.040314555168151855e-01,-5.069905519485473633e-01,-1.501123979687690735e-02,4.782886058092117310e-02,-1.542018353939056396e-02,-1.020439416170120239e-01,-2.798813283443450928e-01,-1.438608393073081970e-02,3.152209818363189697e-01,3.939410671591758728e-02,-6.482191383838653564e-02,4.369936141301877797e-05,2.883834391832351685e-02,1.295864582061767578e-01,9.690358489751815796e-02,-7.557077705860137939e-02,-3.291540965437889099e-02,3.977110236883163452e-02,7.801196072250604630e-03,-1.628543436527252197e-02,-6.945680081844329834e-02,3.219008445739746094e-02,1.016532629728317261e-01,3.389788419008255005e-02,1.717103994451463223e-03,4.363980144262313843e-03,7.624256610870361328e-02,2.716284990310668945e-01,7.349547743797302246e-02,-2.581022083759307861e-01,-1.675706207752227783e-01,-1.817915029823780060e-02,-3.738177567720413208e-02,-1.204947009682655334e-01,-5.681177973747253418e-01,-6.042413115501403809e-01,7.751950621604919434e-02,2.634298205375671387e-01,9.406861662864685059e-02,-3.544725477695465088e-02,-8.295844495296478271e-02,3.808194696903228760e-01,1.004524707794189453e+00,5.106600522994995117e-01,-8.731765300035476685e-02,-9.140650928020477295e-02,8.608601987361907959e-02,2.787724733352661133e-01,2.149307727813720703e-01,-5.140569210052490234e-01,-6.814001798629760742e-01,-1.060113012790679932e-01,1.558127906173467636e-02,-1.703595742583274841e-02,-1.550556421279907227e-01,-3.956622481346130371e-01,-1.132527515292167664e-01,3.073131144046783447e-01,6.097679212689399719e-02,-5.892493575811386108e-02,-2.293612994253635406e-02,1.072488445788621902e-02,1.400052309036254883e-01,1.363931745290756226e-01,-4.393551498651504517e-02,-5.839963443577289581e-03,6.628935039043426514e-02,2.768829651176929474e-02,2.140080323442816734e-03,-9.307029098272323608e-02,-3.658907115459442139e-02,6.890846788883209229e-02,2.585746906697750092e-02,-9.281600825488567352e-03,-3.244623169302940369e-02,1.121802255511283875e-02,2.130694240331649780e-01,1.350333094596862793e-01,-1.314325183629989624e-01,-1.171254292130470276e-01,-2.505473606288433075e-02,-1.181219238787889481e-02,-1.149806077592074871e-03,-3.194638788700103760e-01,-4.291782975196838379e-01,6.928486283868551254e-03,1.316009759902954102e-01,5.808407813310623169e-02,-4.975713090971112251e-04,-8.896034955978393555e-02,1.621054708957672119e-01,5.783490538597106934e-01,2.746424674987792969e-01,-8.026374876499176025e-02,-8.759473450481891632e-03,4.451283067464828491e-02,1.420033574104309082e-01,1.245248541235923767e-01,-3.475097119808197021e-01,-3.694623112678527832e-01,4.479018226265907288e-02,4.187244176864624023e-02,1.078462693840265274e-02,-7.617096602916717529e-02,-1.923030167818069458e-01,8.549177646636962891e-02,3.204117715358734131e-01,1.623658090829849243e-02,-6.778664886951446533e-02,-9.432486258447170258e-03,-4.127470776438713074e-03,7.818460464477539062e-02,1.603881455957889557e-02,-1.402579545974731445e-01,-5.491497740149497986e-02,4.302030429244041443e-02
-1.352449040859937668e-02,-3.668194264173507690e-02,-3.754704073071479797e-02,1.792501099407672882e-02,2.034413628280162811e-02,3.435881808400154114e-02,3.073797374963760376e-02,-1.856230013072490692e-02,-2.620599698275327682e-03,-9.682770818471908569e-03,2.755238674581050873e-02,1.173351053148508072e-02,8.229084312915802002e-03,-7.372440770268440247e-03,-4.401101171970367432e-02,4.540745168924331665e-02,3.665910288691520691e-02,3.788018971681594849e-02,6.683931220322847366e-03,-1.981726288795471191e-02,-6.655316799879074097e-02,-5.307110771536827087e-02,1.102334782481193542e-01,1.229285374283790588e-01,9.250853955745697021e-02,-2.661215513944625854e-02,-9.554365277290344238e-02,-1.363323926925659180e-01,-2.881214581429958344e-02,1.559790819883346558e-01,1.768839657306671143e-01,1.033302247524261475e-01,-5.908307060599327087e-02,-1.322734653949737549e-01,-1.683624088764190674e-01,-1.183283282443881035e-03,1.242830529808998108e-01,1.303736269474029541e-01,7.783889025449752808e-02,-5.167083814740180969e-02,-1.175360605120658875e-01,-1.663912087678909302e-01,-1.915286062285304070e-03,7.910089194774627686e-02,8.707246929407119751e-02,5.710645392537117004e-02,-4.822917282581329346e-02,-9.890616685152053833e-02,-1.293092817068099976e-01,-1.465711183845996857e-02,-8.129774359986186028e-04,-9.437958709895610809e-03,2.731548994779586792e-02,9.076547808945178986e-03,2.619689144194126129e-02,2.733505144715309143e-02,8.414090611040592194e-03,7.198638468980789185e-02,4.812664911150932312e-02,4.523459821939468384e-02,-1.574577018618583679e-02,-3.003244847059249878e-02,-5.383813381195068359e-02,8.158063516020774841e-03,1.569337397813796997e-01,1.238932758569717407e-01,6.551736593246459961e-02,-2.859592065215110779e-02,-8.602490276098251343e-02,-1.470594853162765503e-01,1.424142532050609589e-02,2.456577271223068237e-01,2.356547117233276367e-01,1.376235038042068481e-01,-6.341623514890670776e-02,-1.887126863002777100e-01,-2.438954114913940430e-01,4.202912747859954834e-02,3.004666864871978760e-01,2.986429333686828613e-01,1.592478156089782715e-01,-8.619412779808044434e-02,-2.316491007804870605e-01,-2.857753038406372070e-01,5.895157903432846069e-02,2.519013583660125732e-01,2.365963906049728394e-01,1.320841461420059204e-01,-7.462991774082183838e-02,-2.043733149766921997e-01,-2.700350582599639893e-01,5.054647848010063171e-02,1.923010349273681641e-01,1.844727993011474609e-01,1.057570874691009521e-01,-7.201050966978073120e-02,-1.719079613685607910e-01,-2.113889008760452271e-01,-1.265847124159336090e-02,-2.398012671619653702e-03,-2.061609551310539246e-02,2.909045666456222534e-03,-1.633729669265449047e-03,2.251916378736495972e-02,2.033002302050590515e-02,1.267387531697750092e-02,6.535217911005020142e-02,3.290301933884620667e-02,1.679787226021289825e-02,-2.908514812588691711e-02,-3.006219863891601562e-02,-4.480917006731033325e-02,-2.834131242707371712e-03,1.277882903814315796e-01,8.952409774065017700e-02,1.874379254877567291e-02,-5.139015242457389832e-02,-9.134546667337417603e-02,-1.356835365295410156e-01,-8.045299910008907318e-03,2.103336751461029053e-01,2.027633190155029297e-01,8.986352384090423584e-02,-7.733864337205886841e-02,-1.715323328971862793e-01,-2.104123234748840332e-01,1.245100330561399460e-02,2.577620446681976318e-01,2.577334642410278320e-01,1.120309904217720032e-01,-9.848763793706893921e-02,-2.105290293693542480e-01,-2.516415417194366455e-01,2.667172998189926147e-02,2.048933953046798706e-01,1.883958280086517334e-01,7.539926469326019287e-02,-9.826369583606719971e-02,-1.959885060787200928e-01,-2.432559132575988770e-01,3.655825555324554443e-02,1.553725898265838623e-01,1.333795040845870972e-01,4.324292391538619995e-02,-9.399630874395370483e-02,-1.580267101526260376e-01,-1.770742535591125488e-01
