1.591559499502182007e-02,-3.108991682529449463e-01,1.261547021567821503e-02,8.678142912685871124e-03,-2.790377661585807800e-02,3.357364609837532043e-02,1.494040340185165405e-01,1.487329951487481594e-03,-1.562776044011116028e-02,1.189752221107482910e-01,-5.269046872854232788e-03,1.186483260244131088e-02,1.921739429235458374e-02,3.599778562784194946e-02,5.500795692205429077e-02,8.966339752078056335e-03,1.329522579908370972e-01,1.974963955581188202e-02,-1.498721092939376831e-01,-4.966012388467788696e-02,6.986721884459257126e-03,7.275909930467605591e-02,4.013700410723686218e-03,1.606610566377639771e-01,-4.535967949777841568e-03,1.602753065526485443e-02,1.508985087275505066e-02,-3.037275969982147217e-01,7.015503197908401489e-02,2.888686768710613251e-02,1.960793137550354004e-02,2.576355338096618652e-01,-1.041122451424598694e-01,-3.767355978488922119e-01,5.535254254937171936e-02,4.686429351568222046e-02,-4.432605952024459839e-02,2.277375608682632446e-01,2.674403600394725800e-02,1.764692552387714386e-02,-2.633895911276340485e-02,6.842754781246185303e-03,-3.932290710508823395e-04,-3.740913793444633484e-02,1.080970047041773796e-03,-5.049006938934326172e-01,1.284693740308284760e-02,-1.959053985774517059e-02,3.241550549864768982e-02,-6.136878859251737595e-03,1.413670252077281475e-03,2.712140604853630066e-02,-1.123888045549392700e-01,-6.468725949525833130e-02,2.220296487212181091e-02,-2.557839080691337585e-02,-1.101350039243698120e-02,6.470374017953872681e-02,-1.142253912985324860e-02,5.622068047523498535e-02,3.670108318328857422e-02,-1.672253459692001343e-01,1.269216556102037430e-02,1.315152551978826523e-02
3.552600275725126266e-03,-1.086772535927593708e-03,-8.288250304758548737e-03,-1.143657322973012924e-02,-1.130814943462610245e-02,-4.086704924702644348e-02,2.969761192798614502e-02,-8.067610673606395721e-03,1.460750214755535126e-02,4.572299122810363770e-02,1.530156936496496201e-02,-4.040415398776531219e-03,3.414976596832275391e-02,-7.026431616395711899e-03,-9.116680175065994263e-02,-1.749460212886333466e-02,2.978009637445211411e-03,-2.910580113530158997e-02,-7.485561817884445190e-02,1.770590431988239288e-02,2.412491478025913239e-02,1.985558075830340385e-03,-1.857199147343635559e-02,1.469368487596511841e-02,-1.295308582484722137e-02,2.090514823794364929e-02,-1.091957613825798035e-01,-1.563775911927223206e-02,3.934736922383308411e-02,2.187037654221057892e-02,1.873561367392539978e-02,1.828222302719950676e-03,-7.196567952632904053e-03,8.785440586507320404e-03,1.490162406116724014e-02,2.346547134220600128e-02,-3.924526274204254150e-02,5.243373662233352661e-02,4.797586426138877869e-02,1.009627012535929680e-03,5.220873281359672546e-02,1.879920833744108677e-03,-1.263828668743371964e-02,4.451996460556983948e-02,1.416135951876640320e-02,-2.785841934382915497e-02,4.084531217813491821e-02,3.974113240838050842e-02,3.783156722784042358e-02,1.009182538837194443e-02,-9.010939858853816986e-03,-1.239778939634561539e-03,5.339479446411132812e-02,-2.925683744251728058e-03,4.612326622009277344e-02,5.788455251604318619e-03,3.528701514005661011e-02,-7.258719205856323242e-02,3.558828681707382202e-02,-8.879811502993106842e-03,1.895298436284065247e-02,-2.344372496008872986e-02,-7.559178024530410767e-02,-1.262187678366899490e-02
-4.189799726009368896e-02,7.947780191898345947e-03,-1.662290543317794800e-01,-1.219938043504953384e-03,8.094603195786476135e-03,-1.476083509624004364e-02,-1.760913245379924774e-02,-6.531967222690582275e-02,1.822280883789062500e-02,-3.457847237586975098e-02,-1.867121458053588867e-02,-1.128263771533966064e-02,6.155236810445785522e-02,-3.324390575289726257e-02,-3.244403377175331116e-02,-1.862624846398830414e-02,6.603212654590606689e-02,3.169071301817893982e-02,1.271691638976335526e-02,1.353086624294519424e-02,1.876299455761909485e-02,-9.340863674879074097e-02,-5.383406206965446472e-02,1.813147589564323425e-02,1.416658144444227219e-02,2.667376771569252014e-02,2.209592796862125397e-02,-5.917783826589584351e-03,-1.936544477939605713e-02,4.143212921917438507e-03,3.962293267250061035e-03,7.976988330483436584e-03,-2.807236649096012115e-02,1.319135632365942001e-02,-1.022347249090671539e-02,3.947866708040237427e-02,2.968887984752655029e-02,-1.330459374003112316e-03,1.169685553759336472e-02,-3.206413984298706055e-02,-4.183203354477882385e-02,-2.304437011480331421e-02,-1.192643120884895325e-02,-1.514651719480752945e-02,1.071261591278016567e-03,-1.881468668580055237e-02,6.442820280790328979e-02,5.351852998137474060e-02,4.383759573101997375e-02,1.650149188935756683e-02,-1.517171692103147507e-02,-9.813492186367511749e-03,-3.272144868969917297e-02,-1.657925918698310852e-02,9.610199369490146637e-03,-1.106617599725723267e-02,-5.109523236751556396e-02,-1.908953860402107239e-02,-1.053002476692199707e-01,3.866586089134216309e-02,6.769998371601104736e-02,3.188727051019668579e-02,-1.876594126224517822e-02,6.450660526752471924e-02
5.330801475793123245e-03,-3.938030451536178589e-02,2.768927812576293945e-02,2.842749282717704773e-02,1.306281834840774536e-01,-2.599615976214408875e-02,8.668623864650726318e-02,-7.637829054147005081e-03,3.913733363151550293e-02,-8.392927702516317368e-04,-8.657193742692470551e-03,2.567442879080772400e-02,2.016940619796514511e-03,-1.466143224388360977e-02,-4.888040199875831604e-02,1.164428889751434326e-01,-1.254473030567169189e-01,-6.242957711219787598e-02,2.095809206366539001e-02,6.221480667591094971e-02,2.833938226103782654e-02,-3.590491041541099548e-02,-4.138013347983360291e-02,1.173882409930229187e-01,4.006221890449523926e-03,-1.113682091236114502e-01,-4.295021668076515198e-02,3.168708682060241699e-01,-1.187532544136047363e-01,-6.288432981818914413e-03,-1.552640646696090698e-02,-3.108364529907703400e-02,1.117074713110923767e-01,2.383099794387817383e-01,-4.154496639966964722e-02,-9.899333119392395020e-02,7.391408551484346390e-03,-1.370490044355392456e-01,-7.953958585858345032e-03,1.842236705124378204e-02,-7.280629593878984451e-03,-2.492561005055904388e-02,1.265469565987586975e-02,-5.060532316565513611e-02,1.941002719104290009e-02,2.443693876266479492e-01,-2.190271951258182526e-02,-4.972190782427787781e-02,-2.646131254732608795e-02,4.860878456383943558e-03,2.538248710334300995e-02,6.327747367322444916e-03,6.862097978591918945e-02,-1.555732265114784241e-02,-2.807820215821266174e-02,-2.278814092278480530e-02,5.149431154131889343e-02,-3.695676103234291077e-02,-3.517952933907508850e-02,-3.768428787589073181e-02,2.203144691884517670e-02,-2.537918835878372192e-02,2.906179241836071014e-02,3.364590927958488464e-02
-2.343058213591575623e-02,2.810954349115490913e-03,-3.878582641482353210e-02,2.431372180581092834e-02,-2.630536444485187531e-02,-1.197628956288099289e-02,5.224455380812287331e-04,-1.257323194295167923e-02,2.506240829825401306e-02,1.062645576894283295e-02,-4.110150970518589020e-03,-2.486789971590042114e-02,2.130175475031137466e-03,2.806597203016281128e-02,-2.091990550979971886e-03,4.361713305115699768e-02,-2.636693604290485382e-02,1.008231863379478455e-01,4.285408556461334229e-02,6.607606261968612671e-02,5.372832715511322021e-02,-3.039544261991977692e-02,-1.149663478136062622e-01,9.774337522685527802e-03,-9.258822537958621979e-03,4.017294570803642273e-02,-7.104547321796417236e-02,-2.287552505731582642e-02,2.493079937994480133e-02,-9.407097101211547852e-02,-3.830928355455398560e-02,-3.898151963949203491e-02,-7.532603573054075241e-03,1.955125108361244202e-02,-1.743998751044273376e-02,4.908541589975357056e-02,-6.182987615466117859e-02,1.682332903146743774e-02,-2.410230040550231934e-02,1.957016438245773315e-02,1.025299075990915298e-03,1.831533014774322510e-02,-1.684704795479774475e-02,-4.631924256682395935e-02,2.869795262813568115e-02,5.054833739995956421e-02,1.117163430899381638e-02,-3.368672356009483337e-02,-1.706351488828659058e-01,1.639502309262752533e-02,3.949717432260513306e-02,-3.448287770152091980e-02,1.759032369591295719e-03,3.200685977935791016e-02,-6.046492606401443481e-02,-2.580940909683704376e-02,-9.870166331529617310e-02,4.900302365422248840e-02,1.676464378833770752e-01,3.419762104749679565e-02,-7.751092314720153809e-02,9.790712036192417145e-03,-3.643378987908363342e-02,6.424585729837417603e-02
-1.854979805648326874e-02,-1.504718232899904251e-02,-8.863464742898941040e-02,9.250350296497344971e-02,-1.295590191148221493e-03,6.335461139678955078e-02,-4.287671670317649841e-02,4.451160784810781479e-03,4.820929095149040222e-02,6.498727202415466309e-02,-6.030042842030525208e-02,-3.453452512621879578e-02,-1.348811946809291840e-02,-6.989606469869613647e-02,1.212781742215156555e-01,-2.164221182465553284e-02,1.962482184171676636e-02,1.312989741563796997e-02,3.386384993791580200e-02,1.908637769520282745e-02,1.794211938977241516e-02,-1.322722285985946655e-01,-6.917475908994674683e-02,-9.543193504214286804e-03,6.531104911118745804e-03,-1.138895895564928651e-04,2.857009181752800941e-03,-6.342560797929763794e-02,-2.421716600656509399e-02,2.604458481073379517e-02,-6.987034808844327927e-03,-6.208049133419990540e-03,3.376125171780586243e-02,8.212659507989883423e-03,-3.170277178287506104e-02,-3.158692643046379089e-02,2.987955510616302490e-02,5.382787063717842102e-02,-4.457983002066612244e-02,4.079142957925796509e-02,-4.255890101194381714e-02,-1.927310042083263397e-02,-4.328417032957077026e-02,1.701799593865871429e-02,5.955170094966888428e-02,4.489635303616523743e-02,-2.619879785925149918e-03,-3.355526924133300781e-02,-1.549968216568231583e-02,-1.110793207772076130e-03,-6.212495639920234680e-02,-1.008671522140502930e-01,2.123362012207508087e-02,-9.342224337160587311e-03,-4.948116466403007507e-02,9.131867438554763794e-02,8.911895006895065308e-02,-3.652895241975784302e-02,-6.081441789865493774e-02,-8.142593502998352051e-02,-1.651264354586601257e-02,9.351382032036781311e-03,1.478542089462280273e-01,7.314889691770076752e-03
5.434623360633850098e-02,-5.532621964812278748e-02,-1.688364893198013306e-03,-9.257168322801589966e-02,-5.733047798275947571e-02,2.012378536164760590e-02,-2.157555148005485535e-02,-1.444696541875600815e-02,-9.690767154097557068e-03,4.385499656200408936e-02,-3.014460578560829163e-02,6.141940597444772720e-03,-2.374652586877346039e-02,-2.015537023544311523e-02,4.008950293064117432e-02,-2.998833172023296356e-02,8.881785720586776733e-02,6.715919077396392822e-02,-1.239481866359710693e-01,3.063103742897510529e-02,8.298093080520629883e-02,4.079330712556838989e-02,2.043797448277473450e-02,-5.508195236325263977e-02,-6.519010756164789200e-03,3.693267330527305603e-02,-9.653062373399734497e-02,-4.841250553727149963e-02,-7.451280951499938965e-02,9.084956347942352295e-02,3.518690913915634155e-02,4.701473191380500793e-02,2.661192230880260468e-02,-4.203829914331436157e-02,-6.583459675312042236e-02,5.687363073229789734e-02,2.442925237119197845e-02,4.262752085924148560e-02,-9.003803133964538574e-02,-7.849153876304626465e-02,-1.603830140084028244e-03,2.163217030465602875e-02,1.852191425859928131e-02,-2.408350072801113129e-02,3.453886508941650391e-02,-4.330920055508613586e-02,1.348595134913921356e-02,2.358995191752910614e-02,-3.671208396553993225e-03,-9.618719108402729034e-03,1.543800439685583115e-02,3.629805892705917358e-02,7.420106977224349976e-02,3.095820732414722443e-02,-2.311270311474800110e-02,2.292502671480178833e-02,1.252193003892898560e-01,6.209363043308258057e-02,-2.242565527558326721e-02,4.169530794024467468e-02,2.227495191618800163e-03,1.721696704626083374e-01,-2.623814903199672699e-02,-7.088241633027791977e-03
-1.138538401573896408e-02,2.751137502491474152e-02,-8.243052288889884949e-03,-2.082093618810176849e-02,4.547860473394393921e-02,-7.209526747465133667e-02,4.223664104938507080e-02,-2.515455894172191620e-02,-8.038111031055450439e-03,-1.842498034238815308e-02,-4.396947100758552551e-02,9.275049902498722076e-03,-1.999766193330287933e-02,-4.796276241540908813e-02,-5.726265162229537964e-02,-4.209022969007492065e-03,-1.991692557930946350e-02,-3.958121314644813538e-02,-4.357940703630447388e-02,-3.291387856006622314e-01,2.806420205160975456e-03,2.915711514651775360e-02,-1.335260178893804550e-02,6.263050716370344162e-03,-3.263038024306297302e-02,-5.836518108844757080e-02,2.305924594402313232e-01,2.946645952761173248e-02,-1.083763968199491501e-02,1.608593910932540894e-01,3.660954907536506653e-02,-5.846363306045532227e-02,-8.217801223509013653e-04,-1.578237861394882202e-02,5.947393551468849182e-02,5.270852707326412201e-03,1.246152073144912720e-02,-7.442398369312286377e-02,3.710826858878135681e-02,3.404292464256286621e-02,-4.827124532312154770e-03,2.373091131448745728e-02,-6.066737696528434753e-03,1.736671663820743561e-02,6.032617762684822083e-03,-3.177170082926750183e-02,-2.534046769142150879e-02,-8.282661437988281250e-03,8.068506419658660889e-02,4.915916174650192261e-02,2.058155089616775513e-02,-3.742951154708862305e-02,2.157791145145893097e-02,4.946536850184202194e-03,5.966968461871147156e-02,-1.247103791683912277e-02,-2.174935117363929749e-02,-4.002594053745269775e-01,-8.858821354806423187e-03,-1.728213205933570862e-02,1.804625429213047028e-02,-2.615161985158920288e-02,-6.178447976708412170e-02,-2.026148512959480286e-02
-4.415111243724822998e-02,6.059485673904418945e-02,-1.860885135829448700e-02,-5.436179786920547485e-02,-1.149118915200233459e-01,-4.940237477421760559e-02,2.008548378944396973e-02,-9.103644639253616333e-03,-1.126953493803739548e-02,1.701419986784458160e-02,-3.596405684947967529e-02,-1.478319801390171051e-02,-3.382844850420951843e-02,-3.023860976099967957e-02,-2.029443159699440002e-02,2.231954224407672882e-02,4.633263219147920609e-03,1.271340548992156982e-01,-3.823105990886688232e-02,-1.301750838756561279e-01,6.289485841989517212e-02,1.116878464818000793e-01,-3.811616078019142151e-02,-7.376570720225572586e-03,-5.675587803125381470e-02,1.021423786878585815e-01,1.631162911653518677e-01,-3.026371262967586517e-02,-7.824356667697429657e-03,1.615906059741973877e-01,-9.409218095242977142e-03,1.651420444250106812e-02,6.034045014530420303e-03,5.334640666842460632e-02,-8.789189159870147705e-02,2.591548487544059753e-02,-1.141069307923316956e-01,9.490733034908771515e-03,-2.101405896246433258e-02,1.306164450943470001e-02,3.532630624249577522e-03,6.671489030122756958e-02,-3.948584198951721191e-02,4.996043629944324493e-03,4.575315117835998535e-02,3.116384707391262054e-02,-3.293608129024505615e-02,-1.576811075210571289e-03,1.263407059013843536e-02,-1.389345061033964157e-02,-2.505730278789997101e-02,-7.845128327608108521e-02,-1.675632409751415253e-02,3.841777890920639038e-02,-3.216942399740219116e-02,-2.688291855156421661e-02,7.065759599208831787e-02,-6.927960366010665894e-02,8.175433613359928131e-03,2.113724872469902039e-02,-3.949018567800521851e-02,1.164208501577377319e-01,-5.627605319023132324e-02,1.730846613645553589e-02
1.941360980272293091e-01,-6.150141358375549316e-02,2.363903075456619263e-01,-9.454671293497085571e-02,-4.209194704890251160e-02,-9.734250605106353760e-03,7.108115404844284058e-02,1.619941927492618561e-02,-3.776733577251434326e-02,-8.248914033174514771e-02,-5.795681849122047424e-02,-3.353642672300338745e-02,2.959736809134483337e-02,5.085057578980922699e-03,-6.027466058731079102e-02,2.588086016476154327e-02,-4.707637056708335876e-02,-3.324289247393608093e-02,4.033564124256372452e-03,-1.827543042600154877e-02,-1.065305322408676147e-01,-1.199283897876739502e-01,5.687092989683151245e-02,8.195915818214416504e-02,1.374222338199615479e-01,-3.853152394294738770e-01,-7.881814986467361450e-02,1.520342286676168442e-02,-3.331770375370979309e-02,-4.352415353059768677e-02,-1.696938835084438324e-02,-3.227288275957107544e-02,-2.660492248833179474e-02,-2.504046447575092316e-02,5.729666352272033691e-02,-1.516177435405552387e-03,-5.605988553725183010e-04,9.997349232435226440e-02,-5.478482320904731750e-02,1.513520162552595139e-02,-6.502595543861389160e-02,6.563833355903625488e-02,2.247735392302274704e-03,4.244037717580795288e-02,5.496520176529884338e-02,2.949929237365722656e-02,-8.435138314962387085e-02,1.315947175025939941e-01,-3.132262825965881348e-02,1.952101103961467743e-02,-9.583965875208377838e-03,4.260963201522827148e-02,3.204978629946708679e-02,2.489175200462341309e-01,-5.546958371996879578e-02,1.218100488185882568e-01,6.793161481618881226e-02,-7.393893599510192871e-02,5.044449493288993835e-02,7.960788905620574951e-02,-2.150997705757617950e-02,-5.729960650205612183e-02,3.654229268431663513e-02,-4.230056703090667725e-02
3.152806311845779419e-02,-2.779501862823963165e-02,-8.508908748626708984e-02,1.303078897763043642e-04,-1.042874753475189209e-01,5.964194610714912415e-02,7.084287703037261963e-02,2.108216658234596252e-02,-1.617841795086860657e-02,-7.278854027390480042e-03,3.793670982122421265e-02,-1.782849244773387909e-02,-4.409892018884420395e-03,-4.612997546792030334e-02,-1.687221601605415344e-02,1.923351176083087921e-02,1.032052841037511826e-02,-3.504204377532005310e-02,-3.104288503527641296e-02,1.314457505941390991e-01,-7.349744439125061035e-02,2.479279041290283203e-02,3.147138655185699463e-02,-5.023338831961154938e-03,2.191480621695518494e-02,8.470259606838226318e-02,-1.610836386680603027e-02,9.343367815017700195e-02,-2.828328125178813934e-02,-8.505362272262573242e-02,1.681966707110404968e-02,-8.300413936376571655e-02,1.307052969932556152e-01,-1.759737730026245117e-01,-1.291010677814483643e-01,-2.270110547542572021e-01,-1.547353155910968781e-02,1.670642346143722534e-01,-4.612006247043609619e-03,5.834512040019035339e-02,7.784571789670735598e-05,3.269655629992485046e-02,3.741894150152802467e-03,2.089743129909038544e-02,6.171802058815956116e-02,2.274367362260818481e-01,-4.446686431765556335e-02,2.336773648858070374e-02,-9.586410596966743469e-03,1.242554653435945511e-02,-1.208902150392532349e-02,4.750170558691024780e-02,-4.024230688810348511e-02,8.454141207039356232e-03,5.039574461989104748e-04,-1.591034419834613800e-02,-9.247001260519027710e-03,5.803868919610977173e-02,2.862269058823585510e-02,6.650576740503311157e-02,4.211982339620590210e-02,-5.410999655723571777e-01,-2.360922470688819885e-02,-6.320399232208728790e-03
1.274512894451618195e-02,-1.773990318179130554e-02,-4.413403198122978210e-02,-5.177250131964683533e-02,-1.726649329066276550e-02,3.874314576387405396e-02,3.564367443323135376e-02,-2.799720736220479012e-03,-1.570500060915946960e-02,2.891816571354866028e-02,-1.868262887001037598e-02,-9.315998852252960205e-02,-6.979590980336070061e-04,6.384796462953090668e-03,1.771415323019027710e-01,1.997707411646842957e-03,6.329429335892200470e-03,-7.070279866456985474e-02,-1.135888602584600449e-02,-8.550912141799926758e-03,2.381149679422378540e-02,8.424900472164154053e-03,-2.873935997486114502e-01,3.631493821740150452e-02,-2.469560503959655762e-02,-1.464722678065299988e-02,-2.493561245501041412e-03,-4.288674797862768173e-03,1.922465860843658447e-02,3.926374018192291260e-02,-3.339815512299537659e-02,1.125407125800848007e-02,-1.335541997104883194e-02,-3.378738090395927429e-02,-3.181288018822669983e-02,2.222867682576179504e-02,1.714629493653774261e-02,4.063705727458000183e-02,4.237509891390800476e-02,-1.701916195452213287e-02,-2.619228325784206390e-02,-4.921247810125350952e-02,-4.665621370077133179e-02,-1.309400331228971481e-02,-2.539599314332008362e-02,-1.069621834903955460e-02,2.653353475034236908e-02,-6.162849441170692444e-02,-9.241091459989547729e-02,3.528896346688270569e-02,-3.728077188134193420e-02,1.735003665089607239e-02,3.967147320508956909e-02,-2.735340036451816559e-03,8.124577254056930542e-02,-2.403064258396625519e-02,-2.333772182464599609e-02,-3.244910761713981628e-02,1.814139187335968018e-01,4.488235339522361755e-02,-4.917668178677558899e-02,-1.372239589691162109e-01,3.876793012022972107e-02,-5.880218371748924255e-02
-2.770754694938659668e-02,2.120671123266220093e-01,2.864241600036621094e-03,-2.941206656396389008e-02,6.226514000445604324e-03,5.692060664296150208e-02,7.908634841442108154e-03,-2.706090547144412994e-02,-8.547467179596424103e-03,8.311161771416664124e-03,-2.261058543808758259e-04,-1.170202810317277908e-02,-5.476810969412326813e-03,6.103830784559249878e-02,8.916222490370273590e-03,1.130816563963890076e-01,3.578991442918777466e-02,1.170933246612548828e-02,-5.248871445655822754e-02,-7.941459119319915771e-02,-4.059608653187751770e-02,7.044366095215082169e-03,1.690124347805976868e-02,2.856456488370895386e-02,-7.623957470059394836e-03,-9.747363626956939697e-03,5.078753456473350525e-02,-2.210341691970825195e-01,2.421482056379318237e-01,-2.799225226044654846e-02,4.112457484006881714e-02,-3.171981871128082275e-01,-4.585377871990203857e-02,-1.530938148498535156e-01,-9.237255156040191650e-02,3.375119566917419434e-01,-1.765523105859756470e-02,5.653231590986251831e-02,1.924681290984153748e-02,6.897176150232553482e-03,-1.289980486035346985e-02,-3.273038193583488464e-02,-3.981422632932662964e-02,1.491387281566858292e-02,-3.864560276269912720e-02,-3.416900932788848877e-01,-1.359539944678544998e-02,2.945760637521743774e-02,2.109275758266448975e-02,-1.955806091427803040e-02,-2.167977578938007355e-02,-6.520161777734756470e-02,-8.435443788766860962e-02,-1.451244205236434937e-02,5.102168768644332886e-02,-3.883334249258041382e-02,-3.194260597229003906e-02,-4.163595288991928101e-02,2.884343732148408890e-03,5.238365381956100464e-02,-7.436370104551315308e-02,-2.229181304574012756e-02,-2.378255128860473633e-02,1.268659625202417374e-02
-1.450480371713638306e-01,-5.762033397331833839e-04,-1.084959208965301514e-01,9.922979399561882019e-03,-4.249634221196174622e-02,-1.315054576843976974e-02,2.431146055459976196e-02,-3.484484180808067322e-02,2.078939415514469147e-02,-3.168027848005294800e-02,4.620223492383956909e-02,-4.809926263988018036e-03,6.130920723080635071e-02,7.314411550760269165e-02,1.971174031496047974e-03,2.398973703384399414e-02,1.678424142301082611e-02,9.024578332901000977e-02,4.921285901218652725e-03,1.423835456371307373e-01,-4.266316071152687073e-02,4.262382537126541138e-02,5.634470842778682709e-03,3.608699515461921692e-02,-1.029483303427696228e-01,-6.965042650699615479e-02,6.227964535355567932e-03,-1.585842669010162354e-02,-1.313355192542076111e-02,-8.634159713983535767e-02,7.720240205526351929e-02,-3.654118254780769348e-02,3.273897746112197638e-04,-1.263666711747646332e-02,-4.379663616418838501e-02,-6.335153244435787201e-03,-4.393422603607177734e-02,6.102903932332992554e-02,-2.858402766287326813e-02,-3.062958642840385437e-02,-2.680634148418903351e-02,-3.932975232601165771e-02,2.587964572012424469e-02,6.369617301970720291e-03,-3.543467819690704346e-02,-2.079310640692710876e-02,4.960111156105995178e-02,-4.973544552922248840e-02,-1.194131970405578613e-01,-5.550240352749824524e-02,-2.449353225529193878e-03,-8.499081432819366455e-02,3.440170735120773315e-02,-4.346748813986778259e-03,-2.137217484414577484e-02,4.823182523250579834e-02,-6.207105517387390137e-02,1.074833273887634277e-01,3.802515566349029541e-02,-4.858249425888061523e-02,4.760435968637466431e-02,1.750867441296577454e-02,7.892834953963756561e-03,-1.213750429451465607e-02
-4.707136750221252441e-02,6.818613409996032715e-02,1.124151647090911865e-01,-5.305480584502220154e-02,1.564395427703857422e-01,-7.125243544578552246e-02,-1.577260643243789673e-01,-3.188731521368026733e-02,2.647833898663520813e-02,1.535719074308872223e-02,-1.228503733873367310e-01,-2.218685485422611237e-02,4.326182231307029724e-02,-4.072688985615968704e-03,-5.717403441667556763e-02,-5.967702716588973999e-02,-2.297182753682136536e-02,8.040318638086318970e-02,-1.429899185895919800e-01,-1.031048968434333801e-01,9.191235154867172241e-02,1.463575065135955811e-01,-2.203978598117828369e-02,5.293741077184677124e-02,-5.881768465042114258e-02,-1.242381259799003601e-01,-7.078913599252700806e-02,-5.399468168616294861e-02,8.151724934577941895e-03,1.584442406892776489e-01,3.606709465384483337e-02,1.098416447639465332e-01,-4.784720391035079956e-02,-3.101179376244544983e-02,1.108194421976804733e-02,-1.833044290542602539e-01,-1.679808087646961212e-02,3.658753260970115662e-02,-6.882917601615190506e-03,-1.962032727897167206e-02,-4.102322459220886230e-02,-4.365631937980651855e-02,1.640247181057929993e-02,-8.648004382848739624e-03,-3.567315265536308289e-02,-2.888083755970001221e-01,-1.480955444276332855e-02,-8.736401796340942383e-02,9.818661957979202271e-02,-2.826518565416336060e-02,2.063397318124771118e-02,-3.368987888097763062e-02,2.861964516341686249e-02,-3.008945845067501068e-02,6.315922737121582031e-02,-4.337667953222990036e-03,2.198917325586080551e-03,-6.570581346750259399e-02,-1.097453944385051727e-02,3.183602541685104370e-02,-4.489666223526000977e-02,3.740716576576232910e-01,7.313270866870880127e-02,1.122136693447828293e-02
-9.247639030218124390e-02,4.276517312973737717e-03,-1.798122376203536987e-01,7.144569605588912964e-02,-2.551635801792144775e-01,1.104587242007255554e-01,5.070529878139495850e-02,3.088973648846149445e-02,-1.768643036484718323e-02,7.857101410627365112e-02,8.044242858886718750e-02,3.263685479760169983e-02,-1.034546643495559692e-02,7.305785547941923141e-03,4.717300087213516235e-02,9.964528679847717285e-02,-5.923279095441102982e-03,3.526870906352996826e-02,1.915695518255233765e-02,1.500101834535598755e-01,1.202790960669517517e-01,6.789448112249374390e-02,-6.765827536582946777e-02,-2.468521473929286003e-03,-1.549750119447708130e-01,1.233775988221168518e-01,9.868440777063369751e-02,-1.413567513227462769e-01,-4.707117378711700439e-02,2.054679244756698608e-01,1.700127311050891876e-02,5.331676080822944641e-02,7.687571342103183270e-04,-6.070010736584663391e-02,-1.223353743553161621e-01,-8.387471549212932587e-03,-1.101082041859626770e-01,-8.534381166100502014e-03,-5.591247230768203735e-03,-1.256670951843261719e-01,-1.067247018218040466e-01,-7.336117327213287354e-02,-2.663307823240756989e-02,-9.974558837711811066e-03,4.630946740508079529e-02,-6.442889571189880371e-02,-7.489304244518280029e-02,-5.339749157428741455e-02,5.408160760998725891e-02,-2.393011376261711121e-02,-5.720486491918563843e-02,4.822519049048423767e-02,-1.783067174255847931e-02,-7.069259881973266602e-02,2.792446874082088470e-02,-9.913525730371475220e-02,4.122306779026985168e-02,1.055271252989768982e-01,-1.351603399962186813e-02,-1.616037078201770782e-02,4.617149010300636292e-02,9.145335108041763306e-02,8.865097910165786743e-02,1.057569519616663456e-03
5.578575283288955688e-02,1.026470330543816090e-03,3.061538003385066986e-02,1.435623764991760254e-01,-4.825500398874282837e-02,1.080725267529487610e-01,-2.103888057172298431e-02,4.346320871263742447e-03,-2.060704678297042847e-02,6.756584346294403076e-02,-4.586545005440711975e-02,-2.079756744205951691e-02,-2.643751911818981171e-03,4.465047270059585571e-02,-2.424628287553787231e-01,-7.150197774171829224e-02,-2.115130051970481873e-02,2.652938105165958405e-02,-3.928238898515701294e-02,7.950200699269771576e-03,-1.110879331827163696e-01,-1.995960995554924011e-02,8.671717718243598938e-03,-4.466119408607482910e-02,2.931453473865985870e-02,9.129194170236587524e-02,2.838297002017498016e-02,5.043444409966468811e-02,-6.366704590618610382e-03,2.438896149396896362e-02,5.382815748453140259e-02,2.014155685901641846e-02,-7.210596650838851929e-02,-4.638434387743473053e-03,-8.997989445924758911e-02,-6.642418354749679565e-02,-2.586342580616474152e-02,8.319992572069168091e-02,1.458899304270744324e-02,6.446351762861013412e-03,-3.540458157658576965e-02,-4.081337153911590576e-02,-1.613519527018070221e-02,-3.009694628417491913e-02,1.900202769320458174e-04,8.128741174004971981e-04,-8.308709599077701569e-03,-7.216265425086021423e-03,4.496024549007415771e-02,-1.831709034740924835e-02,-1.029866933822631836e-02,-1.250775624066591263e-02,-1.386585645377635956e-02,5.107570812106132507e-02,-2.474587177857756615e-03,9.048992767930030823e-03,3.963379561901092529e-02,-6.124440580606460571e-02,4.004700481891632080e-02,1.742433570325374603e-02,3.644749522209167480e-02,-5.923882499337196350e-02,1.252574026584625244e-01,2.534600533545017242e-02
-2.472627442330121994e-03,-8.251963183283805847e-03,7.051058113574981689e-02,1.394476145505905151e-01,-8.622731268405914307e-02,-4.591206833720207214e-02,3.942203894257545471e-02,-5.241071805357933044e-02,-4.648362472653388977e-02,5.223252251744270325e-02,3.052632696926593781e-02,2.085580304265022278e-02,-1.883194781839847565e-02,-2.409213781356811523e-02,-1.023424491286277771e-01,1.038880739361047745e-02,-6.278067361563444138e-03,1.764968968927860260e-02,4.992239549756050110e-02,2.290346100926399231e-02,-5.420831590890884399e-02,6.068623065948486328e-02,1.480249017477035522e-01,-1.628669910132884979e-02,-1.605331525206565857e-02,1.197467893362045288e-01,-5.711992084980010986e-02,-1.993926241993904114e-02,2.218769490718841553e-02,-7.889395952224731445e-02,6.918536871671676636e-02,4.490159451961517334e-02,3.327393531799316406e-02,1.154697220772504807e-02,-1.697245053946971893e-02,-5.126629024744033813e-02,-2.256807405501604080e-03,-3.280851058661937714e-03,-3.834059089422225952e-02,-2.618374302983283997e-02,-3.298022598028182983e-02,3.904153406620025635e-02,-2.506500296294689178e-02,2.425923757255077362e-02,5.984234437346458435e-02,2.850529365241527557e-02,1.205934025347232819e-02,2.928674593567848206e-02,-1.091368030756711960e-02,4.122471436858177185e-02,5.052481312304735184e-03,-5.555408820509910583e-02,3.516301140189170837e-02,1.166033186018466949e-02,-1.014667600393295288e-01,3.979383409023284912e-02,-7.130727916955947876e-02,1.779228299856185913e-01,-1.342701613903045654e-01,-1.250233408063650131e-02,1.101348455995321274e-02,5.756711214780807495e-02,9.787233173847198486e-02,2.018104307353496552e-02
-1.657340228557586670e-01,-5.320288985967636108e-02,1.924012154340744019e-01,-1.957082888111472130e-03,4.040547907352447510e-01,5.792749114334583282e-03,-4.261235706508159637e-03,2.342803962528705597e-02,8.691060356795787811e-03,-4.255082830786705017e-02,-3.167102485895156860e-02,8.937366306781768799e-03,2.994110621511936188e-02,-4.531411919742822647e-03,7.027453184127807617e-02,-3.357703238725662231e-02,-8.146764710545539856e-03,-1.600352302193641663e-02,-4.501345008611679077e-02,-1.141863409429788589e-02,-4.357199184596538544e-03,1.812352389097213745e-01,1.515668723732233047e-02,-6.391649693250656128e-02,-5.246143788099288940e-02,1.414858847856521606e-01,2.688502892851829529e-02,-7.976111024618148804e-02,7.657714653760194778e-03,-1.296064723283052444e-02,-1.079294085502624512e-02,-4.715070128440856934e-03,5.771854892373085022e-03,1.893648318946361542e-02,-1.276526004076004028e-01,-7.226465642452239990e-02,1.809514686465263367e-02,-1.168184354901313782e-02,-4.978182259947061539e-03,-7.662380230613052845e-04,-2.143754251301288605e-02,6.952457595616579056e-03,1.974011771380901337e-02,1.934796757996082306e-02,6.686150562018156052e-03,-2.228206768631935120e-02,-5.636709276586771011e-03,-7.875867933034896851e-02,-1.061269361525774002e-02,-8.015273138880729675e-03,5.220964550971984863e-03,-1.792958937585353851e-02,1.090421061962842941e-02,-2.854511141777038574e-01,-9.713393636047840118e-03,-1.219350844621658325e-01,9.132919949479401112e-04,1.616727560758590698e-02,-1.977814733982086182e-02,5.125319957733154297e-02,2.677648095414042473e-03,7.980111986398696899e-02,-7.529120892286300659e-02,2.728269621729850769e-02
4.466115310788154602e-02,1.490354910492897034e-02,-6.150237843394279480e-02,3.524250909686088562e-02,-7.135631144046783447e-02,4.898321256041526794e-02,-6.493753753602504730e-03,3.911087661981582642e-02,-2.816139347851276398e-02,9.605052880942821503e-03,3.875181451439857483e-02,1.043400447815656662e-02,2.253130450844764709e-02,6.620735395699739456e-03,2.222768031060695648e-02,2.061320096254348755e-02,-7.913451641798019409e-02,2.789854630827903748e-02,8.152913302183151245e-02,4.195721447467803955e-02,6.504312157630920410e-03,-8.193592727184295654e-02,-6.110933423042297363e-02,2.994514815509319305e-02,3.012405149638652802e-02,3.584523126482963562e-02,3.687919303774833679e-02,-2.968004532158374786e-02,-1.053202152252197266e-02,5.310472100973129272e-03,-5.384982004761695862e-02,-2.272115834057331085e-02,3.272047266364097595e-02,-3.955757245421409607e-03,-2.354986034333705902e-02,-2.908972278237342834e-02,-2.454405464231967926e-02,1.320821512490510941e-02,2.814600802958011627e-02,2.855182066559791565e-02,-4.222770035266876221e-02,2.562187612056732178e-02,-2.355980500578880310e-02,1.833260059356689453e-02,8.732952922582626343e-02,3.944352641701698303e-02,2.338230237364768982e-02,5.176259577274322510e-02,-3.984639048576354980e-02,8.132698945701122284e-03,6.191142369061708450e-03,1.839328743517398834e-02,-2.814826788380742073e-03,2.780942805111408234e-02,-7.674618065357208252e-02,-3.716974332928657532e-02,2.554366923868656158e-02,-5.052445456385612488e-02,-2.971550635993480682e-02,1.452444959431886673e-02,1.806819066405296326e-02,-7.328200340270996094e-02,-4.137072712182998657e-02,2.852546051144599915e-02
1.538010220974683762e-02,1.538389176130294800e-01,1.485068816691637039e-03,6.584566831588745117e-02,-5.048485472798347473e-02,-5.271559581160545349e-03,-1.678091287612915039e-01,3.249520435929298401e-02,2.718875743448734283e-02,5.882046371698379517e-02,2.450389973819255829e-02,1.913765259087085724e-02,1.989519968628883362e-02,6.820458173751831055e-02,-1.015662923455238342e-01,-8.186074346303939819e-02,-2.128784209489822388e-01,-1.235960889607667923e-02,-9.519137442111968994e-02,1.428930163383483887e-01,6.377045065164566040e-02,-2.904182067140936852e-03,-1.009135413914918900e-02,-4.162525385618209839e-02,5.457055568695068359e-02,3.496542200446128845e-02,3.826726460829377174e-03,-2.736801803112030029e-01,-1.902516931295394897e-01,-1.716258376836776733e-02,-5.385427270084619522e-03,-9.433729201555252075e-02,-2.651086077094078064e-02,2.625763714313507080e-01,-2.357965707778930664e-01,-1.814479827880859375e-01,-6.487607210874557495e-02,-2.009385079145431519e-02,7.885239087045192719e-03,3.522214293479919434e-02,1.003777887672185898e-02,3.787985537201166153e-03,-5.801019072532653809e-02,-1.226316089741885662e-03,1.211323216557502747e-02,4.225734770298004150e-01,-4.019702225923538208e-02,-3.457965794950723648e-03,2.281656302511692047e-02,1.514579914510250092e-02,-8.140265941619873047e-03,-1.987852901220321655e-02,1.515682488679885864e-01,-9.080248884856700897e-03,2.232049405574798584e-02,3.090794011950492859e-02,1.993619278073310852e-02,-5.224200710654258728e-02,1.385627500712871552e-02,-2.510739862918853760e-02,1.722843013703823090e-02,-1.181972548365592957e-01,6.139678880572319031e-02,2.387832663953304291e-02
7.170232012867927551e-03,2.264205180108547211e-02,1.026920741423964500e-03,-2.972062211483716965e-04,-1.279846299439668655e-02,-2.454207278788089752e-02,1.029145717620849609e-02,-2.355029433965682983e-02,-5.010247975587844849e-02,3.247440233826637268e-02,1.312768273055553436e-02,2.587682940065860748e-02,2.161769568920135498e-02,-1.638415083289146423e-02,-6.407109647989273071e-02,1.779774762690067291e-02,1.908534788526594639e-03,-8.214279660023748875e-04,1.162476465106010437e-02,-3.468783199787139893e-02,-2.290180325508117676e-02,-4.355197399854660034e-02,-7.135882973670959473e-03,-4.684348776936531067e-02,-3.120520524680614471e-02,-4.386999830603599548e-02,2.477685734629631042e-02,-4.038930311799049377e-02,7.774550933390855789e-03,-2.039106935262680054e-02,2.978922799229621887e-02,-8.438299410045146942e-03,-8.926022797822952271e-03,-5.392261780798435211e-03,-7.383873313665390015e-02,-1.779172942042350769e-02,-1.584221795201301575e-02,-1.034889556467533112e-02,1.725893095135688782e-02,8.960016071796417236e-03,1.719816401600837708e-02,3.620667755603790283e-02,-7.389624137431383133e-03,-1.840547844767570496e-02,-5.443879961967468262e-02,1.495616603642702103e-02,8.501061797142028809e-02,-4.496201872825622559e-02,8.168851025402545929e-03,1.891902461647987366e-02,5.844409763813018799e-02,-5.100212246179580688e-02,2.883299812674522400e-02,3.640438988804817200e-02,-3.132941573858261108e-02,-2.564757876098155975e-02,-4.530255496501922607e-02,-3.671574220061302185e-02,1.340930070728063583e-02,5.290417466312646866e-03,-8.087895065546035767e-02,-1.656527258455753326e-02,2.668784232810139656e-03,-3.533668350428342819e-04
6.837550550699234009e-02,-1.853883452713489532e-02,-1.773348450660705566e-01,1.823647529818117619e-03,-4.490423202514648438e-01,1.356260501779615879e-03,-2.752857841551303864e-02,-9.499101340770721436e-02,-9.674552828073501587e-02,-9.651631116867065430e-03,-1.242583841085433960e-01,-1.434254460036754608e-02,1.348918024450540543e-02,9.682115050964057446e-04,-6.898430641740560532e-03,-5.622942000627517700e-02,-2.124674618244171143e-02,-2.125715464353561401e-02,6.506800651550292969e-02,-1.744403541088104248e-01,7.353307213634252548e-03,-3.337388113141059875e-02,2.845171093940734863e-02,-8.575974404811859131e-02,3.630278632044792175e-02,2.856534719467163086e-01,-1.144244074821472168e-01,-1.545699127018451691e-02,4.885857179760932922e-02,1.106512993574142456e-01,-2.397983707487583160e-02,-3.181243315339088440e-02,7.880938798189163208e-02,-9.257230162620544434e-02,1.068073809146881104e-01,-1.699156127870082855e-02,-2.593881078064441681e-02,6.907197088003158569e-02,1.092526968568563461e-02,5.598434060811996460e-02,2.295270748436450958e-02,-1.010587289929389954e-01,-9.238765388727188110e-02,3.360596299171447754e-02,1.186191588640213013e-01,-4.425419494509696960e-03,3.275708109140396118e-02,-7.423290982842445374e-03,-2.167764864861965179e-02,1.024530827999114990e-02,-2.551820315420627594e-02,2.117861807346343994e-02,6.914608925580978394e-02,-5.072712525725364685e-02,-3.697012364864349365e-02,-1.356386840343475342e-01,-3.255421668291091919e-02,-2.301599085330963135e-02,2.688397420570254326e-03,-7.364990562200546265e-02,-2.130000852048397064e-02,-2.140331864356994629e-01,-4.597182385623455048e-03,-7.435504230670630932e-04
-1.631399057805538177e-02,-3.756677266210317612e-03,-5.275926738977432251e-02,-4.565559700131416321e-02,-1.779117854312062263e-03,-2.877484774217009544e-03,1.060705818235874176e-02,-2.640006877481937408e-02,-8.664642274379730225e-02,-2.119530178606510162e-02,3.318376839160919189e-02,1.301340293139219284e-02,-6.842414848506450653e-03,3.218324854969978333e-02,1.576167158782482147e-02,-4.207567125558853149e-02,-1.416449155658483505e-02,-6.691979616880416870e-02,3.769432753324508667e-02,3.719299286603927612e-02,-4.061470739543437958e-03,7.176551222801208496e-02,4.428958147764205933e-02,-2.880743518471717834e-02,-1.212574169039726257e-02,-5.748469382524490356e-02,3.827346954494714737e-03,6.260865833610296249e-03,-1.176506164483726025e-03,2.886197902262210846e-02,-3.966363519430160522e-02,-4.314537718892097473e-02,1.233842037618160248e-02,7.174565689638257027e-05,-4.762913286685943604e-02,7.901254110038280487e-03,1.441408041864633560e-02,-3.418001579120755196e-03,4.744837991893291473e-03,2.040992863476276398e-02,-4.592098295688629150e-02,-5.555674433708190918e-03,-5.345699843019247055e-03,7.931911200284957886e-02,-5.327065289020538330e-02,-9.489982388913631439e-03,-5.639972910284996033e-02,-1.087544113397598267e-01,-2.549629099667072296e-02,2.448070980608463287e-02,1.078631579875946045e-01,-9.587098658084869385e-02,2.623032033443450928e-02,-4.304847121238708496e-02,7.637673843419179320e-05,-4.429949040059000254e-04,1.845975033938884735e-02,1.283289678394794464e-02,4.809663165360689163e-03,2.318723313510417938e-02,-5.692455172538757324e-02,2.160351164638996124e-02,3.996300511062145233e-03,1.452367566525936127e-02
-2.375683486461639404e-01,7.734104245901107788e-02,-2.578965127468109131e-01,6.493912637233734131e-02,7.511781901121139526e-02,1.305615250021219254e-02,2.665169304236769676e-03,-4.132456704974174500e-02,2.333027310669422150e-02,1.356389094144105911e-02,-2.273094840347766876e-02,7.317367196083068848e-02,-1.830513216555118561e-02,-1.736613735556602478e-02,8.011145889759063721e-02,6.760941818356513977e-03,1.077290549874305725e-01,4.860043153166770935e-02,3.881430253386497498e-02,-1.011274755001068115e-02,8.005329221487045288e-02,1.605051755905151367e-01,-5.757417529821395874e-03,-2.438000589609146118e-02,-2.036067396402359009e-01,3.389709293842315674e-01,5.183349177241325378e-02,1.686168089509010315e-02,-9.480097214691340923e-04,4.627399519085884094e-02,8.184630423784255981e-03,3.075215965509414673e-02,4.241043701767921448e-02,-7.880101352930068970e-02,-1.554359588772058487e-02,4.676861315965652466e-02,-5.652737244963645935e-02,6.857594847679138184e-02,5.780550092458724976e-02,-6.118842959403991699e-02,4.441847279667854309e-02,-1.446096748113632202e-01,-7.664491236209869385e-02,2.123990654945373535e-02,4.737916216254234314e-02,-3.824168583378195763e-03,3.196069225668907166e-02,-1.705421954393386841e-01,4.078735038638114929e-02,9.113286621868610382e-03,1.365409232676029205e-02,-7.868327945470809937e-02,-5.273607093840837479e-03,-2.644089162349700928e-01,8.858241885900497437e-02,-1.966980099678039551e-01,-6.499422248452901840e-03,1.013692393898963928e-01,3.302280604839324951e-02,-7.348748296499252319e-02,-5.212745442986488342e-02,8.506286889314651489e-02,-3.905115276575088501e-02,4.352704435586929321e-02
-1.760802580974996090e-03,-2.540005557239055634e-02,8.654113858938217163e-03,-1.674848794937133789e-02,1.329598668962717056e-02,1.560118398629128933e-04,-7.060837466269731522e-03,-5.009972676634788513e-02,-1.846781931817531586e-02,-6.492513697594404221e-03,-3.628088533878326416e-02,5.071171326562762260e-04,3.770502051338553429e-03,1.222061645239591599e-02,1.189942471683025360e-02,-1.112749334424734116e-02,-4.791054874658584595e-03,4.221445322036743164e-02,-4.904328845441341400e-03,-2.207536250352859497e-02,3.985967114567756653e-02,1.447088178247213364e-02,2.166191674768924713e-02,-1.676000771112740040e-03,-7.852492853999137878e-03,-1.527816243469715118e-02,-2.358378656208515167e-02,1.007236074656248093e-02,-1.380844507366418839e-02,1.046318002045154572e-02,5.076116323471069336e-02,-2.034767344594001770e-02,-4.620154388248920441e-03,7.931398227810859680e-03,6.829615216702222824e-03,4.686828702688217163e-03,4.245469346642494202e-02,1.746640726923942566e-02,-2.222893573343753815e-02,-2.880817838013172150e-02,1.114646252244710922e-02,-1.922912523150444031e-02,3.890336491167545319e-03,-3.162435069680213928e-02,2.648152038455009460e-02,1.164071261882781982e-02,4.078984633088111877e-02,-4.061917215585708618e-02,1.183918304741382599e-02,1.493520801886916161e-03,3.292366489768028259e-02,5.204645916819572449e-02,3.398127481341362000e-02,-2.366310171782970428e-02,-7.108269259333610535e-03,-1.346503756940364838e-02,4.187968000769615173e-02,6.733710411936044693e-03,2.008846960961818695e-02,6.297539919614791870e-02,-4.097183048725128174e-02,1.519871316850185394e-02,-7.190919946879148483e-03,4.319903999567031860e-02
-7.613234221935272217e-03,7.393737137317657471e-02,-2.030728943645954132e-02,-5.220870021730661392e-03,-9.697703272104263306e-02,7.772699464112520218e-03,5.527830682694911957e-03,-2.297143824398517609e-02,6.154226604849100113e-03,-2.355091273784637451e-02,-4.443806409835815430e-02,3.893378004431724548e-02,5.865669623017311096e-02,2.500526979565620422e-02,2.293963730335235596e-02,-8.019607514142990112e-03,4.717395454645156860e-02,-1.760915219783782959e-01,-1.792496442794799805e-02,-1.271646767854690552e-01,-2.407294698059558868e-02,-2.264359034597873688e-03,-2.360084094107151031e-02,4.036400467157363892e-02,2.798108849674463272e-03,3.725297283381223679e-03,8.969642221927642822e-02,-7.543316483497619629e-02,2.497546933591365814e-02,9.390201419591903687e-02,-5.818332079797983170e-03,-3.372468799352645874e-02,4.416870418936014175e-03,3.450820595026016235e-02,-1.225540228188037872e-02,-1.363831944763660431e-02,3.492178767919540405e-02,-1.933079957962036133e-02,6.478124111890792847e-02,-7.240118086338043213e-02,-4.653979465365409851e-02,-5.845123901963233948e-02,4.369965568184852600e-02,-4.273664578795433044e-02,-5.876722186803817749e-02,2.343855798244476318e-02,1.855183392763137817e-02,-3.060915693640708923e-02,2.041565179824829102e-01,1.358701940625905991e-02,-1.151338405907154083e-02,2.931562997400760651e-02,1.502954959869384766e-02,-2.280551008880138397e-02,1.703313887119293213e-01,-1.256500370800495148e-02,-5.293817445635795593e-02,-2.120065689086914062e-01,-7.454780489206314087e-02,-2.929523214697837830e-02,3.966445475816726685e-02,-1.311393380165100098e-01,-1.768334954977035522e-02,-4.402009025216102600e-02
-2.943669212982058525e-03,1.393031775951385498e-01,-3.006268106400966644e-02,-3.412622958421707153e-02,8.670441806316375732e-02,5.431564059108495712e-03,4.331156238913536072e-02,-2.217300469055771828e-03,-1.451376639306545258e-02,2.686462178826332092e-02,-4.213109984993934631e-02,2.921190345659852028e-03,1.570135541260242462e-02,2.333790250122547150e-02,-5.635169520974159241e-02,-6.985458731651306152e-02,-4.986486434936523438e-01,-2.895385585725307465e-02,2.835088223218917847e-02,2.091091684997081757e-02,-8.649841882288455963e-03,2.971777506172657013e-02,1.141095813363790512e-02,2.502376772463321686e-02,6.974210962653160095e-03,-5.288708955049514771e-02,-8.732520788908004761e-02,-6.356652360409498215e-03,-3.022488579154014587e-02,-2.866259030997753143e-02,2.438831143081188202e-02,3.855558931827545166e-01,7.675742357969284058e-02,-2.129769511520862579e-02,4.571874439716339111e-02,-1.903797127306461334e-02,1.378931198269128799e-02,9.137839078903198242e-02,-1.296036504209041595e-02,4.325471352785825729e-03,-2.310277195647358894e-03,-3.920075669884681702e-02,-1.926021464169025421e-02,2.150678634643554688e-02,1.081966515630483627e-02,-9.255917370319366455e-02,-1.569698750972747803e-02,2.409656159579753876e-02,-7.302767038345336914e-02,-1.009791716933250427e-02,-5.087006837129592896e-03,-1.277069281786680222e-02,-1.104334667325019836e-01,-3.077314421534538269e-02,-1.044897479005157948e-03,-2.952798642218112946e-02,-3.213036805391311646e-02,5.617947131395339966e-02,-2.108086645603179932e-02,1.968712359666824341e-02,-3.419661894440650940e-02,-3.190062195062637329e-02,-8.595838397741317749e-02,7.669443264603614807e-03
-4.223963618278503418e-02,2.717074006795883179e-02,2.358178421854972839e-02,-4.965372383594512939e-02,3.078959882259368896e-01,6.260841339826583862e-02,5.401387438178062439e-02,3.486735001206398010e-02,4.668506979942321777e-02,-1.529145147651433945e-02,-3.643807768821716309e-02,2.247630991041660309e-02,5.066372081637382507e-02,2.505338564515113831e-02,-3.813123703002929688e-02,2.905433438718318939e-02,5.898821726441383362e-02,2.571049146354198456e-02,-2.471525818109512329e-01,-2.818167209625244141e-01,-1.008094195276498795e-02,1.201548650860786438e-01,5.005983170121908188e-03,-5.027427524328231812e-02,-2.388790016993880272e-03,-2.590875700116157532e-02,-9.068978577852249146e-02,-1.338039189577102661e-01,-5.656198412179946899e-02,8.946377784013748169e-03,4.257302731275558472e-02,-2.566016977652907372e-03,1.257851570844650269e-01,-1.639618277549743652e-01,-2.888404428958892822e-01,-2.022778540849685669e-01,-3.653622418642044067e-02,1.201737448573112488e-01,-1.079754065722227097e-02,1.287925429642200470e-02,-3.032247535884380341e-02,-1.194392424076795578e-02,2.947967126965522766e-02,3.408275172114372253e-02,-1.403106842190027237e-02,1.493169832974672318e-02,-6.250489968806505203e-03,1.644268445670604706e-02,9.660735726356506348e-02,-4.191704466938972473e-02,5.760626122355461121e-02,-1.370277535170316696e-02,3.526227921247482300e-02,-1.841526851058006287e-02,2.991482801735401154e-02,5.824908148497343063e-03,-9.477400779724121094e-02,-4.767513368278741837e-03,1.885438337922096252e-02,3.575438261032104492e-02,-1.658642850816249847e-02,2.070979177951812744e-01,5.081534758210182190e-02,2.770050428807735443e-02
-5.914898589253425598e-02,-1.753696799278259277e-02,-2.014358043670654297e-01,4.202425852417945862e-02,-1.765282824635505676e-02,-2.451803721487522125e-02,-6.180779077112674713e-03,-6.606384366750717163e-02,-3.667347505688667297e-02,-1.429868955165147781e-02,-4.635433480143547058e-02,-1.514727342873811722e-02,-3.909293934702873230e-02,7.746781408786773682e-02,-1.050746887922286987e-01,1.056841015815734863e-02,4.772979021072387695e-02,-1.357418391853570938e-02,-4.912689328193664551e-02,-3.394102752208709717e-01,-6.483637541532516479e-02,-1.098380163311958313e-01,-2.023429796099662781e-02,-5.808983743190765381e-02,-7.899014651775360107e-02,-2.405729740858078003e-01,-7.658983767032623291e-02,6.349887233227491379e-03,-2.163328416645526886e-02,-4.562649503350257874e-02,-2.655241824686527252e-02,-4.530009999871253967e-02,6.425892561674118042e-02,9.422332048416137695e-03,9.467791020870208740e-02,-3.738005086779594421e-02,1.751936972141265869e-02,3.858108073472976685e-02,1.693914271891117096e-02,2.079647220671176910e-02,3.187115117907524109e-02,-1.288444846868515015e-01,-1.134292855858802795e-01,-8.044811896979808807e-03,-1.461807638406753540e-02,-8.555942773818969727e-02,-1.747736521065235138e-02,-7.440979033708572388e-02,2.129463665187358856e-02,1.075915247201919556e-02,-1.755736954510211945e-02,-7.841822504997253418e-02,-2.582961134612560272e-02,-6.724755465984344482e-02,-5.991779267787933350e-02,-6.538142263889312744e-02,-1.861358731985092163e-01,2.396403998136520386e-02,8.531453786417841911e-04,-5.786303058266639709e-02,-1.355430334806442261e-01,4.591713249683380127e-01,-2.844376675784587860e-02,5.721282679587602615e-03
2.765196375548839569e-02,3.487630188465118408e-02,-1.147170513868331909e-01,-4.999615252017974854e-02,-7.222203165292739868e-02,-3.583180531859397888e-02,-3.532145172357559204e-03,5.235471203923225403e-02,6.163565069437026978e-02,7.641403935849666595e-04,6.364154815673828125e-02,5.822652950882911682e-03,-3.540210053324699402e-02,1.608840227127075195e-01,-2.333335950970649719e-02,4.519382491707801819e-02,-1.575349643826484680e-02,-9.556333720684051514e-02,2.004712447524070740e-02,-2.060278691351413727e-02,-1.014886721968650818e-01,7.598782330751419067e-02,6.719668861478567123e-03,-2.251818077638745308e-03,-1.287040412425994873e-01,-5.832018703222274780e-02,-2.598390355706214905e-02,1.901528052985668182e-02,-1.978012919425964355e-02,-1.249343995004892349e-02,7.938362658023834229e-02,-3.971405327320098877e-02,-4.233165085315704346e-02,2.072479017078876495e-02,-9.137153625488281250e-03,-6.910255644470453262e-03,2.306535607203841209e-03,1.666956767439842224e-02,-2.079251222312450409e-02,4.260882735252380371e-02,1.352124661207199097e-02,-8.133019320666790009e-03,6.104709953069686890e-02,-9.703399986028671265e-02,-4.040743689984083176e-03,-3.470642119646072388e-02,6.575686484575271606e-02,-5.772250145673751831e-02,-5.875513423234224319e-03,-1.569194160401821136e-02,-4.614245891571044922e-02,2.166346460580825806e-01,-2.235570177435874939e-02,-4.662743583321571350e-02,-1.744803972542285919e-02,3.212695941329002380e-02,-3.745364025235176086e-02,1.726290211081504822e-02,6.067037209868431091e-02,-5.192016437649726868e-02,-1.518815606832504272e-01,-3.737216116860508919e-03,-9.308525919914245605e-02,-4.582402482628822327e-02
8.763847500085830688e-02,-3.015287593007087708e-02,-5.382146313786506653e-02,3.754191473126411438e-02,2.682958729565143585e-02,1.782020367681980133e-02,2.102148719131946564e-03,-3.370678052306175232e-02,-3.297716379165649414e-02,-4.058662801980972290e-02,-5.409024655818939209e-02,-7.348722312599420547e-03,5.946915969252586365e-02,-9.070062078535556793e-03,-1.468173111788928509e-03,-4.852437227964401245e-02,2.061956934630870819e-02,2.317634597420692444e-02,3.688373416662216187e-02,-5.097582563757896423e-02,3.627778217196464539e-02,-8.232280611991882324e-02,-2.885403670370578766e-02,2.259633317589759827e-02,-4.216545075178146362e-02,4.550857003778219223e-03,-6.582724303007125854e-02,3.328835591673851013e-02,-1.107695885002613068e-02,-3.233047202229499817e-02,4.921532236039638519e-03,-1.514979754574596882e-03,1.368975639343261719e-02,-4.338058643043041229e-03,5.645870417356491089e-02,1.217515300959348679e-02,1.279820408672094345e-02,-2.119834534823894501e-02,2.625235728919506073e-02,-1.105600968003273010e-02,4.390356596559286118e-03,-3.869773820042610168e-02,5.005415156483650208e-02,5.651693418622016907e-02,5.536162480711936951e-02,1.076434087008237839e-02,-3.630553930997848511e-02,1.185074634850025177e-02,2.524313516914844513e-02,-3.976925835013389587e-02,-1.540919300168752670e-02,-7.048349082469940186e-02,-1.710549555718898773e-02,-5.711083486676216125e-02,-3.739128354936838150e-03,4.605524986982345581e-02,4.458674229681491852e-03,6.829470396041870117e-03,-2.807486057281494141e-02,-6.112434342503547668e-02,4.913491383194923401e-02,3.689460083842277527e-02,-7.748895441181957722e-04,9.679490700364112854e-03
3.592689521610736847e-03,3.962245956063270569e-02,-4.106656089425086975e-02,4.826766252517700195e-02,-1.358446031808853149e-01,6.700239330530166626e-02,-9.934823215007781982e-02,-4.117858409881591797e-02,-3.046808019280433655e-02,-2.129073143005371094e-01,-3.218540456146001816e-03,-6.648403941653668880e-04,-6.907097995281219482e-03,-7.135698106139898300e-04,-1.360584795475006104e-01,1.100290939211845398e-02,1.327449176460504532e-02,6.192220374941825867e-02,-1.377943605184555054e-01,1.496639102697372437e-02,4.321105405688285828e-02,-5.868829041719436646e-02,-1.294787041842937469e-02,5.576651170849800110e-02,-5.697865784168243408e-02,-1.315002143383026123e-01,-7.857134938240051270e-02,-8.075794577598571777e-02,5.021715164184570312e-02,-6.197767797857522964e-03,1.112854201346635818e-02,-9.414369240403175354e-03,6.909810751676559448e-02,-1.975098103284835815e-01,-4.162103682756423950e-02,-1.942463368177413940e-01,-7.196332328021526337e-03,1.602817028760910034e-01,7.624299731105566025e-03,-2.621539495885372162e-02,-1.619399152696132660e-02,-8.300776034593582153e-02,-5.717468634247779846e-02,1.923855021595954895e-02,-2.345849014818668365e-02,-1.106664352118968964e-02,-1.032192725688219070e-02,-4.390487074851989746e-02,3.056529723107814789e-02,1.099708583205938339e-02,1.834088377654552460e-02,-4.251353070139884949e-02,7.650841027498245239e-02,-2.196409972384572029e-03,1.236366922967135906e-03,-1.651042606681585312e-03,-5.905222147703170776e-03,4.171171167399734259e-05,5.457494780421257019e-02,-2.148433588445186615e-02,-6.559374928474426270e-02,-4.712648093700408936e-01,-9.802670031785964966e-02,8.126120083034038544e-03
3.128573298454284668e-01,-5.592723935842514038e-02,-8.709345757961273193e-02,5.586976930499076843e-02,-1.213599462062120438e-04,1.350403577089309692e-02,-1.560154370963573456e-02,5.553407222032546997e-02,1.516119297593832016e-02,-3.661703551188111305e-03,4.134273156523704529e-02,2.690159156918525696e-02,7.872021757066249847e-03,2.296844720840454102e-01,1.409983728080987930e-02,-5.820093303918838501e-02,-5.207615345716476440e-02,-5.602459236979484558e-02,-1.115111354738473892e-02,-1.335850805044174194e-01,1.935136504471302032e-02,2.642766535282135010e-01,4.341747239232063293e-02,6.788002327084541321e-03,1.323025375604629517e-01,-4.783407971262931824e-02,-8.730842918157577515e-02,-4.153960198163986206e-02,-2.310955198481678963e-03,-4.203341901302337646e-02,4.925247747451066971e-03,-8.975348621606826782e-02,1.009245123714208603e-02,-2.453996054828166962e-02,5.815839022397994995e-02,-4.914353787899017334e-02,-1.687826216220855713e-02,6.271650642156600952e-02,-1.992010511457920074e-03,-2.124154474586248398e-03,-5.116384103894233704e-02,-2.757472097873687744e-01,1.629132777452468872e-01,1.335473824292421341e-02,-1.613923311233520508e-01,1.371706463396549225e-02,-6.003524363040924072e-02,8.138769119977951050e-02,-3.467665985226631165e-02,1.721303095109760761e-03,-3.427404444664716721e-03,-1.838009655475616455e-01,1.205591298639774323e-02,-1.974532008171081543e-01,-2.807703800499439240e-03,-3.328335285186767578e-01,-6.129946094006299973e-03,-7.804439216852188110e-02,6.797029823064804077e-02,-3.582230210304260254e-02,1.039891093969345093e-01,5.470294505357742310e-03,2.471982501447200775e-02,1.262590941041707993e-02
2.112619429826736450e-01,-1.122581493109464645e-02,-1.836307495832443237e-01,5.815498530864715576e-03,-1.554146856069564819e-01,4.860058799386024475e-02,-1.561013888567686081e-02,1.019149348139762878e-01,1.164415851235389709e-01,8.124066516757011414e-03,9.740207344293594360e-02,-1.251921406947076321e-03,1.146185621619224548e-01,2.042276710271835327e-01,-4.175771027803421021e-03,2.099961042404174805e-02,-5.082611925899982452e-03,2.337008900940418243e-02,4.366421699523925781e-02,9.275002405047416687e-03,4.105106368660926819e-02,-3.685846626758575439e-01,5.489010363817214966e-02,2.219966240227222443e-02,9.195164591073989868e-02,-3.117237705737352371e-03,1.749691925942897797e-02,-8.807649835944175720e-03,2.425976470112800598e-02,1.880187541246414185e-02,5.301878228783607483e-02,-1.942895166575908661e-02,3.082562796771526337e-02,-3.030929528176784515e-02,4.071863740682601929e-02,-4.622157290577888489e-02,4.399091121740639210e-04,4.547131061553955078e-02,1.492519397288560867e-02,-2.886161208152770996e-02,-1.150288968347012997e-03,1.411949098110198975e-01,1.091493666172027588e-01,-1.446425914764404297e-03,2.336007654666900635e-01,2.225255966186523438e-02,5.448870733380317688e-02,-2.700283825397491455e-01,-7.074880413711071014e-03,-2.147051133215427399e-02,1.513261161744594574e-02,-1.777037084102630615e-01,7.261326536536216736e-03,-2.710843980312347412e-01,4.261383786797523499e-02,-1.414258480072021484e-01,-2.212028019130229950e-02,3.525466099381446838e-02,1.296642515808343887e-02,1.357012838125228882e-01,-1.331022083759307861e-01,-8.300793915987014771e-02,2.472039498388767242e-02,-2.944370731711387634e-02
-2.127632685005664825e-02,3.711476922035217285e-02,-5.421533808112144470e-02,-8.961293101310729980e-02,-6.882539391517639160e-02,-1.418650597333908081e-01,1.520495954900979996e-02,-2.403612993657588959e-02,1.690489426255226135e-02,-3.424026370048522949e-01,-5.343050137162208557e-02,1.271261088550090790e-02,-2.642212435603141785e-02,9.533219039440155029e-03,-2.837941050529479980e-01,3.728955052793025970e-03,-3.906189650297164917e-02,-1.123171765357255936e-02,1.637812890112400055e-02,-9.016127884387969971e-02,3.136590868234634399e-02,1.429643854498863220e-02,-4.331858456134796143e-02,6.373476702719926834e-03,1.661942712962627411e-02,9.826945513486862183e-02,-4.871389642357826233e-02,-1.256361752748489380e-01,5.798142030835151672e-02,-3.110213764011859894e-02,-1.417002733796834946e-02,-7.226890325546264648e-02,1.167591586709022522e-01,-3.163166344165802002e-02,-1.526886969804763794e-02,-6.140337325632572174e-03,8.993569761514663696e-03,1.867140084505081177e-02,-1.439718995243310928e-02,4.243527352809906006e-02,4.002794623374938965e-02,3.307189047336578369e-02,-1.616864837706089020e-02,3.985395282506942749e-02,5.384092405438423157e-02,-1.023068185895681381e-02,1.132434047758579254e-02,-2.653812291100621223e-03,1.079552900046110153e-02,-3.312383219599723816e-02,-2.264897339046001434e-02,2.443353459239006042e-02,4.436640441417694092e-02,1.001669000834226608e-02,-2.693673362955451012e-03,-1.930907741189002991e-02,-1.641742140054702759e-01,-3.518670424818992615e-02,-2.143058460205793381e-03,-1.575949415564537048e-02,2.062738128006458282e-02,2.759463340044021606e-02,-3.088518381118774414e-01,-3.933059796690940857e-02
5.500421673059463501e-02,-3.919333685189485550e-04,-1.066817417740821838e-01,8.287680335342884064e-03,-9.109019488096237183e-02,-8.764858543872833252e-02,1.825119554996490479e-02,1.289203576743602753e-02,5.317001044750213623e-02,-3.842498362064361572e-02,-1.388805080205202103e-02,1.722223311662673950e-02,-2.193658053874969482e-02,7.927245646715164185e-02,-1.269875764846801758e-01,1.191747188568115234e-02,2.544618397951126099e-02,-3.137829154729843140e-02,-2.157614752650260925e-02,-2.675858139991760254e-02,1.460220664739608765e-01,2.819624543190002441e-02,3.807968227192759514e-03,-4.804249387234449387e-03,9.611187130212783813e-02,1.268239617347717285e-01,4.822306334972381592e-03,2.153002656996250153e-02,2.131147682666778564e-02,8.434125036001205444e-02,3.375650942325592041e-02,6.368840578943490982e-03,1.430225558578968048e-02,9.049966000020503998e-03,-2.958079986274242401e-02,7.159339636564254761e-02,2.931158058345317841e-02,-5.550169851630926132e-03,-2.170529589056968689e-02,2.201950363814830780e-02,1.155253150500357151e-03,-5.555386096239089966e-02,-2.271099574863910675e-02,2.383874170482158661e-02,6.519501656293869019e-02,-1.727483980357646942e-02,3.165194392204284668e-02,9.067373350262641907e-03,1.916074566543102264e-02,3.859169036149978638e-02,-1.706417649984359741e-02,5.400518700480461121e-02,2.434497466310858727e-03,1.325489673763513565e-02,4.138591885566711426e-02,-8.609636127948760986e-02,-2.302602678537368774e-01,4.606682807207107544e-02,3.482766821980476379e-02,-2.386088483035564423e-02,8.106487244367599487e-02,-2.128974156221374869e-04,-3.168503195047378540e-02,-3.033035900443792343e-03
-3.789443895220756531e-02,7.583566755056381226e-02,2.314582653343677521e-02,6.918545067310333252e-02,3.215334415435791016e-01,4.213850188534706831e-04,1.089947111904621124e-02,-2.955917268991470337e-02,6.401862204074859619e-02,1.823830790817737579e-02,-5.973683670163154602e-02,-9.304363280534744263e-03,-5.649361293762922287e-03,-7.606174051761627197e-02,1.867348677478730679e-03,-7.367110811173915863e-03,3.134843707084655762e-02,6.079966947436332703e-02,2.629793994128704071e-02,-3.768868744373321533e-02,7.487411051988601685e-02,1.597754657268524170e-01,-2.269020304083824158e-02,-3.959236666560173035e-02,-2.045644260942935944e-02,-2.293385192751884460e-02,-4.849844798445701599e-02,-2.032248489558696747e-02,-1.195940095931291580e-02,4.304278641939163208e-03,-2.553154015913605690e-03,2.329269424080848694e-02,3.899209434166550636e-03,4.603210091590881348e-02,-1.890388689935207367e-02,-7.025340199470520020e-02,-1.155632268637418747e-02,-6.268608570098876953e-02,1.459519285708665848e-02,3.035827912390232086e-02,4.493688419461250305e-02,1.797178946435451508e-02,3.999717161059379578e-02,-4.598760604858398438e-02,-5.165271461009979248e-02,-7.216073106974363327e-03,-2.343390136957168579e-02,1.507959980517625809e-02,2.005106955766677856e-02,-2.233447320759296417e-02,1.986349932849407196e-02,-6.492553651332855225e-02,3.038175404071807861e-02,-1.097962409257888794e-01,4.032517969608306885e-02,-2.928198687732219696e-02,-5.892341141588985920e-04,6.774557288736104965e-03,-4.817517008632421494e-03,2.864602021872997284e-02,-8.889195322990417480e-02,-1.382861286401748657e-02,-3.581614419817924500e-02,1.849390566349029541e-02
3.714444860816001892e-02,1.698208972811698914e-02,-2.238549850881099701e-02,1.099518835544586182e-01,-4.639741033315658569e-02,-2.587938122451305389e-02,2.362217940390110016e-02,1.599177531898021698e-02,-9.445241838693618774e-02,-2.912324666976928711e-02,-3.143789991736412048e-02,7.294179499149322510e-02,-5.578781478106975555e-03,-5.068195518106222153e-03,-9.409607201814651489e-02,5.109781771898269653e-02,1.121099945157766342e-02,8.123947679996490479e-02,-4.968021530658006668e-03,1.823350228369235992e-02,-4.987984523177146912e-02,2.720314078032970428e-02,1.414641737937927246e-01,1.223445124924182892e-02,2.169822342693805695e-02,7.900836318731307983e-02,1.513789128512144089e-02,2.216225862503051758e-02,-2.094048075377941132e-02,-7.045971229672431946e-03,-9.684848482720553875e-04,6.774486508220434189e-03,2.072336524724960327e-02,-3.326945379376411438e-02,-6.078609731048345566e-03,3.245900943875312805e-02,1.906116865575313568e-02,2.163829281926155090e-02,1.062478683888912201e-02,-1.892628893256187439e-02,-4.918891936540603638e-02,5.190400406718254089e-02,-1.501709315925836563e-02,-1.579369232058525085e-02,7.443325221538543701e-02,-6.198969669640064240e-03,-4.484346136450767517e-02,4.619941115379333496e-03,1.351432800292968750e-01,-6.100128218531608582e-02,-1.640827208757400513e-02,5.680306255817413330e-02,3.521965071558952332e-02,-4.534323140978813171e-02,-1.848364323377609253e-01,-3.562856465578079224e-02,2.394496835768222809e-02,-2.413103915750980377e-02,-3.179012238979339600e-01,-4.087384417653083801e-02,-3.862608224153518677e-02,5.974741652607917786e-02,-4.087621718645095825e-02,5.744558200240135193e-02
7.425811886787414551e-02,1.405530702322721481e-02,-1.116424053907394409e-02,3.412299230694770813e-02,8.123239874839782715e-02,3.975626546889543533e-03,1.254686713218688965e-02,1.934485696256160736e-02,7.646260410547256470e-02,1.624650508165359497e-02,3.519638255238533020e-02,-4.492012411355972290e-02,6.411284673959016800e-03,3.993919864296913147e-02,7.453261408954858780e-03,1.116921473294496536e-02,-4.729042202234268188e-02,1.869013719260692596e-02,3.191982209682464600e-02,-6.028150208294391632e-03,3.914711624383926392e-02,5.711228004656732082e-04,-1.874130452051758766e-03,-8.759128302335739136e-02,-1.881182752549648285e-02,-1.600794121623039246e-02,4.217976820655167103e-04,1.461955253034830093e-03,-1.342018018476665020e-03,3.580320160835981369e-03,6.546346843242645264e-02,-9.656256996095180511e-03,-9.690056554973125458e-03,6.950381677597761154e-03,5.080030485987663269e-02,-2.699093660339713097e-03,4.945053905248641968e-02,-9.875560179352760315e-03,6.942597031593322754e-02,-3.271000459790229797e-02,-4.408274218440055847e-02,8.073968812823295593e-03,6.450183689594268799e-02,-4.598338156938552856e-02,1.473451964557170868e-02,3.642470389604568481e-02,1.713192462921142578e-02,-1.671962440013885498e-01,2.143551595509052277e-02,-4.017161577939987183e-02,-1.076665055006742477e-02,3.542091846466064453e-01,2.247581072151660919e-02,1.709404140710830688e-01,-4.188904911279678345e-02,-1.370839476585388184e-01,1.128845196217298508e-02,5.329425446689128876e-03,6.782791763544082642e-02,6.734672188758850098e-02,-2.729752361774444580e-01,-5.264769122004508972e-02,-1.587659493088722229e-02,6.439244002103805542e-02
9.435492008924484253e-02,-5.203434452414512634e-02,3.313437849283218384e-02,2.157071791589260101e-02,1.801278144121170044e-01,-1.603792794048786163e-02,2.584282495081424713e-02,-1.828757375478744507e-01,-5.881597474217414856e-02,-1.531573012471199036e-03,-2.120473980903625488e-01,-2.760038897395133972e-02,-3.999720141291618347e-02,-1.548364758491516113e-01,-7.009821478277444839e-03,-8.449570089578628540e-02,8.187198080122470856e-03,1.959808170795440674e-03,6.599113345146179199e-02,-2.559022046625614166e-02,3.460677340626716614e-02,-5.168326199054718018e-02,8.029195666313171387e-02,-3.849667031317949295e-03,1.031928230077028275e-02,-3.728612884879112244e-02,-1.155871003866195679e-01,3.484309092164039612e-02,-1.701726764440536499e-02,-6.187716126441955566e-02,1.395671162754297256e-02,-1.608421839773654938e-02,-6.165404804050922394e-03,2.516010031104087830e-02,8.423580229282379150e-02,6.145590171217918396e-02,-5.362575408071279526e-03,3.411315008997917175e-02,-3.622890915721654892e-03,-7.526626344770193100e-03,5.215795710682868958e-03,8.324921876192092896e-02,-3.128794953227043152e-02,-4.847915377467870712e-03,1.760904192924499512e-01,1.623073965311050415e-02,-7.746410369873046875e-02,2.626292034983634949e-02,-2.341133542358875275e-02,2.293950691819190979e-02,-3.984007239341735840e-02,-1.324933767318725586e-01,1.738123968243598938e-02,-2.595642022788524628e-02,-5.168761312961578369e-02,3.558930382132530212e-02,-1.557139679789543152e-02,3.514573723077774048e-02,3.647189214825630188e-02,6.412274669855833054e-03,-1.553090512752532959e-01,-4.347265139222145081e-02,3.297273069620132446e-03,-5.896835774183273315e-02
1.100977659225463867e-01,-3.942611627280712128e-03,-1.962837129831314087e-01,4.175831004977226257e-02,-4.054375886917114258e-01,3.153305500745773315e-02,4.482102021574974060e-02,-3.033416345715522766e-02,-8.741740137338638306e-02,1.619678921997547150e-02,4.642077162861824036e-02,1.389002241194248199e-02,9.684986434876918793e-03,8.562374114990234375e-02,6.763093173503875732e-02,3.780464082956314087e-02,-1.582681760191917419e-02,6.855159532278776169e-03,1.172032672911882401e-02,3.977981582283973694e-02,1.344167813658714294e-02,-1.505567431449890137e-01,3.713145107030868530e-02,8.326862007379531860e-02,3.572680428624153137e-02,-3.481603926047682762e-03,4.547504335641860962e-02,5.360867828130722046e-02,2.868321351706981659e-02,1.606793701648712158e-02,-6.902477703988552094e-03,5.780249461531639099e-02,-1.832950115203857422e-02,6.392960250377655029e-02,9.860783070325851440e-02,4.560325667262077332e-02,-2.307755686342716217e-02,-7.972958264872431755e-04,3.904169052839279175e-02,-1.445974316447973251e-02,2.568768523633480072e-02,-7.359741628170013428e-02,-6.026762351393699646e-02,-2.780315093696117401e-02,1.033939272165298462e-01,4.611978679895401001e-02,6.365270237438380718e-04,2.491643279790878296e-02,3.717590123414993286e-02,1.138723082840442657e-02,1.679142750799655914e-02,7.240853458642959595e-02,-3.119364939630031586e-02,1.400583237409591675e-01,3.201727941632270813e-02,3.476010635495185852e-02,1.782901398837566376e-02,6.362345069646835327e-02,5.647744983434677124e-03,-2.795606665313243866e-02,7.758654654026031494e-02,-1.151773240417242050e-02,4.767206963151693344e-03,2.306455932557582855e-02
-4.780712351202964783e-02,-7.683771848678588867e-02,5.145200993865728378e-03,5.724264681339263916e-02,2.001012675464153290e-02,6.697226315736770630e-02,-2.015662565827369690e-02,-3.018237650394439697e-02,-2.218198589980602264e-02,-5.385475978255271912e-02,-2.560255862772464752e-02,4.978896304965019226e-02,2.635499462485313416e-02,1.520109176635742188e-02,-6.507696956396102905e-02,2.232238501310348511e-01,-1.275691390037536621e-01,-9.048251062631607056e-02,1.414509303867816925e-02,-3.622048348188400269e-02,-8.863182738423347473e-03,-2.973484434187412262e-02,-7.625396549701690674e-02,2.630898356437683105e-01,-1.287988759577274323e-02,-3.149379417300224304e-02,-4.720587655901908875e-02,-4.699069634079933167e-02,2.893286347389221191e-01,1.992493122816085815e-02,1.697766035795211792e-02,-6.166338920593261719e-02,-9.010440856218338013e-02,1.787994429469108582e-02,-4.432319477200508118e-02,-1.669822484254837036e-01,-5.684904381632804871e-02,1.134200114756822586e-02,-1.417885813862085342e-02,-2.605506684631109238e-03,-4.548954777419567108e-03,-4.120023921132087708e-02,-9.691118262708187103e-03,-2.459301054477691650e-02,2.430094406008720398e-02,5.633339658379554749e-02,-3.908074274659156799e-02,-4.858427867293357849e-02,-4.720152821391820908e-03,-3.533964231610298157e-02,4.113139957189559937e-02,-2.018166705965995789e-02,-6.283792853355407715e-02,2.255710400640964508e-02,-5.023660138249397278e-03,5.315046384930610657e-02,1.274685841053724289e-02,1.687341183423995972e-02,-5.592384189367294312e-02,-3.206520155072212219e-02,8.249886333942413330e-03,7.344976812601089478e-02,-6.729740649461746216e-02,3.481446951627731323e-02
-4.592252150177955627e-02,-2.890620231628417969e-01,-8.119384199380874634e-02,6.714712362736463547e-03,-2.190628945827484131e-01,-5.031097680330276489e-02,-2.136242538690567017e-01,1.203972566872835159e-02,2.185607887804508209e-02,-4.776233807206153870e-02,6.543320417404174805e-02,-3.148543462157249451e-02,2.804987318813800812e-02,6.257853657007217407e-02,6.686199456453323364e-02,-1.037800312042236328e-01,1.851566135883331299e-02,-2.372680604457855225e-02,1.938764192163944244e-02,-5.941484123468399048e-03,7.930966094136238098e-03,1.166193466633558273e-02,-1.286880392581224442e-02,1.240550447255373001e-02,-3.299429267644882202e-02,-9.186709299683570862e-03,2.159078978002071381e-02,-1.206707209348678589e-01,-7.648416608572006226e-02,1.995323412120342255e-02,9.716989472508430481e-03,8.410661667585372925e-02,2.262155758216977119e-03,1.478349715471267700e-01,-1.829885989427566528e-01,-2.092742919921875000e-01,-1.394161209464073181e-02,1.076788902282714844e-01,1.139368861913681030e-02,6.322542671114206314e-03,-1.538574229925870895e-02,3.448821604251861572e-02,-2.158422581851482391e-02,-4.398152697831392288e-03,4.476135130971670151e-03,1.662863343954086304e-01,-2.241326309740543365e-02,-3.215628117322921753e-02,4.490133374929428101e-02,2.434018300846219063e-03,1.585703808814287186e-03,4.411312192678451538e-02,8.497525751590728760e-02,3.446045145392417908e-02,1.949223130941390991e-02,-1.978047005832195282e-02,3.154214844107627869e-02,4.570757970213890076e-02,-1.517829485237598419e-02,-8.536587702110409737e-04,9.286645799875259399e-02,-1.268933862447738647e-01,5.971674248576164246e-02,-8.062900044023990631e-03
2.836980819702148438e-01,2.315205521881580353e-02,-9.029312431812286377e-02,5.189400538802146912e-02,-2.305127829313278198e-01,2.614179067313671112e-02,1.243471354246139526e-02,2.106162905693054199e-02,2.835289016366004944e-02,2.690326364245265722e-04,-2.920446097850799561e-01,1.469970494508743286e-02,3.104082494974136353e-02,3.841730952262878418e-02,4.273373633623123169e-02,9.197505563497543335e-02,5.307352403178811073e-04,3.761536628007888794e-02,-1.819292269647121429e-02,7.443114370107650757e-02,9.157311171293258667e-02,3.682601079344749451e-02,-2.061170153319835663e-02,8.801686018705368042e-02,2.854987382888793945e-01,9.042239934206008911e-02,3.870128095149993896e-02,-9.880147874355316162e-02,1.266758795827627182e-02,6.337309628725051880e-02,-5.453072115778923035e-02,6.417081691324710846e-03,1.235123071819543839e-02,4.607556387782096863e-02,-6.713655591011047363e-02,-5.519987270236015320e-02,-1.712842658162117004e-02,4.514312744140625000e-02,2.289586514234542847e-02,8.199661970138549805e-02,1.057607159018516541e-01,-7.071427255868911743e-02,2.845958620309829712e-02,-2.695870585739612579e-02,-1.389068961143493652e-01,4.623051360249519348e-02,4.466375708580017090e-02,-1.451896727085113525e-01,4.165463149547576904e-02,-7.844602316617965698e-02,5.654222890734672546e-02,-4.243964254856109619e-01,-1.496015302836894989e-02,8.093179762363433838e-02,4.266823083162307739e-02,1.482281386852264404e-01,3.250982984900474548e-02,3.520077466964721680e-02,2.722670324146747589e-03,-7.315880805253982544e-02,-4.133076071739196777e-01,4.395522549748420715e-02,9.323599748313426971e-03,1.923072896897792816e-02
-1.690954202786087990e-03,-4.352390021085739136e-02,2.663260512053966522e-02,2.613342367112636566e-03,6.116983294486999512e-02,-1.487230416387319565e-02,-4.449311643838882446e-02,-1.167874503880739212e-02,9.658463299274444580e-03,-3.041902929544448853e-02,-3.904263675212860107e-02,2.452743472531437874e-03,1.857893727719783783e-02,-9.396124631166458130e-03,-7.092113792896270752e-02,-1.940379664301872253e-02,5.574545636773109436e-02,-6.540512293577194214e-02,-2.215939201414585114e-02,2.030565142631530762e-01,-5.471822340041399002e-03,1.394460629671812057e-02,-3.375075012445449829e-02,2.171144261956214905e-02,1.770484820008277893e-02,-6.570564210414886475e-02,-4.069836139678955078e-01,7.558354735374450684e-02,-3.974547609686851501e-03,-1.256764233112335205e-01,1.007649768143892288e-02,-8.436165004968643188e-02,-5.838627461344003677e-03,-4.170658811926841736e-02,3.507865592837333679e-02,-2.891954267397522926e-03,6.274101138114929199e-02,4.935800284147262573e-02,-3.163748979568481445e-02,-9.416142129339277744e-04,-7.590000052005052567e-03,-3.432495146989822388e-02,4.889373853802680969e-02,-3.775661811232566833e-02,3.140959888696670532e-02,-2.469769306480884552e-02,1.603150181472301483e-02,1.216588076204061508e-03,-5.563658103346824646e-02,6.611540168523788452e-02,-9.957156144082546234e-03,2.025969512760639191e-02,3.434571623802185059e-02,-6.586769595742225647e-03,-1.989118009805679321e-02,4.910208284854888916e-03,-7.163321599364280701e-03,3.892970383167266846e-01,-3.530582785606384277e-02,-1.635150238871574402e-02,-1.550645474344491959e-02,1.873565278947353363e-02,4.120836034417152405e-02,2.002644725143909454e-02
-3.155520930886268616e-02,-1.578609794378280640e-01,-1.339100860059261322e-02,-1.748022995889186859e-02,-7.797539234161376953e-02,-3.935753926634788513e-02,-1.172797568142414093e-02,4.436335340142250061e-02,2.146081533282995224e-03,-3.432422876358032227e-02,2.613653987646102905e-02,4.625554662197828293e-03,-2.590719610452651978e-03,-3.276685252785682678e-02,-2.124378457665443420e-02,1.303340494632720947e-01,3.025180399417877197e-01,7.618504110723733902e-03,9.887355379760265350e-03,2.100597321987152100e-02,-2.203899621963500977e-02,6.178339943289756775e-02,-3.497436991892755032e-04,-7.047116756439208984e-02,-9.012525901198387146e-03,-1.005139015614986420e-02,6.207964196801185608e-02,-5.100571364164352417e-02,-3.172868862748146057e-02,2.935943566262722015e-02,-1.748554594814777374e-02,-4.181870222091674805e-01,-1.001717224717140198e-01,3.407648531720042229e-03,-1.047418043017387390e-01,-8.922760933637619019e-02,-3.189793974161148071e-02,-6.072760745882987976e-02,-1.527076493948698044e-02,-9.157773107290267944e-03,-1.007301360368728638e-02,5.598930642008781433e-03,3.044961392879486084e-02,1.357401441782712936e-02,2.560847438871860504e-02,3.786146268248558044e-02,1.683795824646949768e-02,2.738205948844552040e-03,5.948011297732591629e-03,-1.735275052487850189e-02,-2.069033309817314148e-02,3.669060021638870239e-02,1.028430461883544922e-01,-2.094765752553939819e-02,-1.837581396102905273e-02,-1.926079392433166504e-02,-2.562441304326057434e-02,-6.161166355013847351e-02,-2.170374803245067596e-02,4.365624394267797470e-03,3.364311158657073975e-02,5.210122466087341309e-02,-9.036105126142501831e-03,7.205544505268335342e-03
2.611580304801464081e-03,-2.343988977372646332e-03,-3.038175217807292938e-02,-1.151115074753761292e-01,-3.224177658557891846e-02,1.029939353466033936e-01,-4.310314357280731201e-02,1.029017195105552673e-02,2.165904268622398376e-02,1.056400313973426819e-01,-1.642650179564952850e-02,2.099272422492504120e-02,-1.013529254123568535e-03,3.708551451563835144e-02,2.067667096853256226e-01,-7.689049839973449707e-02,-8.255196362733840942e-02,-2.030514553189277649e-02,-2.485911361873149872e-02,-4.930557683110237122e-03,9.652331471443176270e-02,-2.310927584767341614e-02,-9.249370545148849487e-02,-1.858138362877070904e-03,-2.024660445749759674e-02,-6.529130041599273682e-02,-4.235268756747245789e-02,9.392948448657989502e-02,4.090901836752891541e-02,7.010445930063724518e-03,3.107791068032383919e-03,3.361869230866432190e-02,-1.369378268718719482e-01,-1.205659378319978714e-02,-1.601187586784362793e-01,7.475242763757705688e-02,-3.108746744692325592e-02,7.782295346260070801e-02,2.222818136215209961e-02,-4.464108124375343323e-02,9.571737609803676605e-03,3.565771132707595825e-02,-2.130427211523056030e-02,6.025459617376327515e-02,2.621796168386936188e-02,-7.392117381095886230e-02,7.325262762606143951e-03,-2.308868989348411560e-02,-2.775681391358375549e-02,-3.706892579793930054e-02,1.931564323604106903e-02,-3.102631308138370514e-03,1.604010164737701416e-02,3.735880553722381592e-02,1.507588289678096771e-02,2.276943437755107880e-02,-9.289358556270599365e-02,1.382467616349458694e-02,3.633477259427309036e-03,-1.592166908085346222e-02,3.722652094438672066e-03,-7.539167255163192749e-02,4.105261713266372681e-02,-5.351110361516475677e-03
-1.979109086096286774e-02,-5.811440944671630859e-02,-2.363959513604640961e-02,-7.381952367722988129e-03,-2.106108702719211578e-02,-4.277533292770385742e-02,-1.265262532979249954e-02,-5.972963199019432068e-02,1.769280433654785156e-02,1.072357222437858582e-02,8.353189514309633523e-06,-4.258932918310165405e-02,6.922230590134859085e-03,-1.739554479718208313e-02,-1.511287596076726913e-02,2.250693971291184425e-03,2.523098699748516083e-02,-1.264368370175361633e-02,-3.136757761240005493e-02,4.697281122207641602e-02,-3.121587447822093964e-02,1.767165958881378174e-02,-2.675926126539707184e-02,8.774917572736740112e-03,3.720735013484954834e-02,2.698778733611106873e-02,1.338836853392422199e-03,-3.130294382572174072e-02,3.340493142604827881e-02,1.693915203213691711e-02,1.767445914447307587e-02,-1.194958109408617020e-02,3.265780583024024963e-02,-4.024837631732225418e-03,2.842950867488980293e-03,-3.445397596806287766e-03,2.437470713630318642e-03,1.278438791632652283e-02,4.691591113805770874e-02,1.922345347702503204e-02,-2.617656253278255463e-02,1.569324918091297150e-02,-5.100407823920249939e-02,1.716295070946216583e-02,-5.523303989320993423e-03,-3.919017501175403595e-03,-1.590825803577899933e-02,-1.357213314622640610e-02,-5.391297116875648499e-02,4.214135929942131042e-02,7.812341209501028061e-03,-5.102104041725397110e-03,2.094972133636474609e-02,-4.016881436109542847e-02,1.549204532057046890e-02,4.016815125942230225e-02,-5.487841367721557617e-02,5.111144110560417175e-02,-4.381241742521524429e-03,7.450132980011403561e-04,5.408532172441482544e-02,-1.682945713400840759e-02,5.621979013085365295e-02,4.295283183455467224e-02
2.439067512750625610e-02,2.863639267161488533e-03,-2.915915660560131073e-02,4.317651316523551941e-02,-3.254289925098419189e-02,4.635631293058395386e-02,3.990101814270019531e-02,1.273392885923385620e-02,9.503391385078430176e-02,2.654833160340785980e-02,1.051655504852533340e-02,3.453942772466689348e-04,-3.242080286145210266e-02,-1.567442566156387329e-01,3.436801582574844360e-02,-9.623633697628974915e-03,-3.731246292591094971e-02,2.412009285762906075e-03,6.848375499248504639e-02,-6.130056083202362061e-02,9.008124470710754395e-02,-2.393024861812591553e-01,-5.787277966737747192e-02,8.725512027740478516e-02,5.880791693925857544e-02,4.474406689405441284e-02,4.615788534283638000e-02,1.787794288247823715e-03,1.363371033221483231e-02,5.316217429935932159e-03,-1.166173070669174194e-02,4.214919637888669968e-03,-1.082726288586854935e-02,-4.314815253019332886e-02,-1.483824197202920914e-02,1.441761851310729980e-02,3.943875432014465332e-02,3.256350010633468628e-02,-1.827425509691238403e-02,-7.471666322089731693e-04,-3.444811329245567322e-02,1.161250844597816467e-01,3.700903058052062988e-02,3.141354769468307495e-03,2.094841450452804565e-01,3.045853227376937866e-02,-1.431568413972854614e-01,-1.402898877859115601e-01,8.831902593374252319e-02,-3.938396275043487549e-02,-7.263804227113723755e-02,-1.702668815851211548e-01,1.746030338108539581e-02,-7.848507165908813477e-02,3.147805482149124146e-02,-1.566532440483570099e-02,-4.560264293104410172e-03,-4.468080028891563416e-02,-8.919087052345275879e-02,7.559066265821456909e-02,-6.698683649301528931e-02,1.601001247763633728e-02,2.104412950575351715e-02,-2.177557721734046936e-02
-2.738841623067855835e-02,-1.133747864514589310e-02,4.946370050311088562e-02,-7.154950872063636780e-03,1.386217307299375534e-02,8.642100542783737183e-02,4.612306132912635803e-03,3.967820480465888977e-02,-3.054001927375793457e-02,-1.932120136916637421e-02,1.531202346086502075e-02,7.444720249623060226e-03,1.526160538196563721e-02,-3.217247081920504570e-03,1.864045485854148865e-02,1.391879022121429443e-01,5.698749050498008728e-02,2.783014625310897827e-02,-1.115788817405700684e-01,-4.051385819911956787e-02,4.489351063966751099e-03,1.519506797194480896e-02,1.243665814399719238e-02,8.176134526729583740e-02,-2.631140314042568207e-02,-7.449156045913696289e-02,2.044382505118846893e-02,3.396826386451721191e-01,-1.465550810098648071e-01,4.005907475948333740e-02,-4.951699450612068176e-02,-1.228486560285091400e-02,2.013478428125381470e-01,5.641378462314605713e-02,-1.260063052177429199e-01,-1.976465731859207153e-01,-5.494416225701570511e-03,-3.451309353113174438e-02,2.367581939324736595e-03,-4.396852105855941772e-02,2.488883212208747864e-02,1.139331422746181488e-02,-4.721172899007797241e-02,2.322777733206748962e-02,1.626702956855297089e-02,4.541155695915222168e-01,-2.964040962979197502e-03,-7.168401032686233521e-03,7.188963703811168671e-03,7.662993157282471657e-04,-1.561761251650750637e-03,-2.347049303352832794e-03,-9.363036602735519409e-02,6.305718328803777695e-03,2.857767231762409210e-02,-7.000427227467298508e-03,2.539412491023540497e-02,-3.954046219587326050e-02,5.391723825596272945e-04,4.669606860261410475e-04,-1.566544547677040100e-02,-1.087835151702165604e-02,5.751818045973777771e-02,-1.646981015801429749e-02
-1.108751147985458374e-01,2.742037922143936157e-02,5.745860282331705093e-03,-5.781621206551790237e-03,-6.081586237996816635e-03,3.074864670634269714e-02,4.245189949870109558e-02,1.498502399772405624e-02,1.049302071332931519e-01,-1.889794506132602692e-02,-9.878439456224441528e-02,-5.200354754924774170e-02,-6.227059289813041687e-02,-1.272051185369491577e-01,1.017040945589542389e-02,1.290904544293880463e-02,4.249027371406555176e-02,-1.967416889965534210e-02,1.836838200688362122e-02,-3.993233665823936462e-02,6.745492108166217804e-03,-1.019324585795402527e-01,-3.793361410498619080e-02,2.324549667537212372e-02,4.156534373760223389e-02,4.186990112066268921e-02,-1.287113409489393234e-02,-1.629957929253578186e-02,-1.017201133072376251e-02,-4.820286855101585388e-02,-4.111775010824203491e-02,-1.758268848061561584e-02,1.318764779716730118e-02,-8.095752447843551636e-03,-2.602170780301094055e-02,3.027464263141155243e-04,1.404139772057533264e-02,2.990374155342578888e-02,-5.237377807497978210e-02,-1.287500858306884766e-01,1.848716847598552704e-02,6.171617284417152405e-02,-1.189346387982368469e-01,-5.429287254810333252e-02,9.594155848026275635e-02,1.487285457551479340e-02,-7.996599376201629639e-02,-4.545806720852851868e-02,3.377114888280630112e-03,-5.523793399333953857e-02,-1.975558511912822723e-02,-3.069934621453285217e-02,1.583067118190228939e-03,6.557320710271596909e-03,-4.119797050952911377e-02,-4.209497943520545959e-02,2.704703249037265778e-02,2.551690861582756042e-02,-3.376832976937294006e-02,3.964373096823692322e-02,-8.444989472627639771e-02,2.569456212222576141e-02,3.761013969779014587e-03,6.146187428385019302e-03
5.954679567366838455e-03,1.905522495508193970e-02,-7.438335567712783813e-02,-1.660883985459804535e-02,-2.471924014389514923e-02,-5.526029318571090698e-02,-3.100009169429540634e-03,8.111178874969482422e-03,1.322838198393583298e-02,-7.775603979825973511e-02,5.011609569191932678e-02,5.329704843461513519e-03,3.355282545089721680e-02,-9.894190356135368347e-03,-6.660291552543640137e-02,1.222304627299308777e-02,3.578617423772811890e-02,-1.329671032726764679e-02,-5.770993977785110474e-02,9.262172877788543701e-02,1.829449459910392761e-02,-8.628003299236297607e-03,-1.351981703191995621e-02,1.399932429194450378e-03,-3.988815099000930786e-02,-5.513976514339447021e-02,6.553665548563003540e-02,2.908439934253692627e-02,8.646721835248172283e-04,-1.435399204492568970e-01,2.794314920902252197e-02,1.073144655674695969e-02,3.177225589752197266e-03,-5.570885166525840759e-02,3.883167728781700134e-02,-4.378101322799921036e-03,1.268251147121191025e-02,2.223540842533111572e-02,5.755725130438804626e-02,1.177264656871557236e-02,2.324511297047138214e-02,2.902940660715103149e-02,6.504714023321866989e-03,2.109792456030845642e-02,-5.595223605632781982e-02,-1.874039508402347565e-02,2.883445285260677338e-02,1.602859992999583483e-04,-3.813866293057799339e-03,4.355185106396675110e-02,2.625325694680213928e-03,-1.800618506968021393e-02,-5.842925515025854111e-03,1.760805211961269379e-02,-1.479505095630884171e-02,-9.918987751007080078e-03,-1.390725523233413696e-01,-4.512485861778259277e-02,3.318532370030879974e-03,8.690388873219490051e-03,1.190087292343378067e-02,-1.648584194481372833e-02,-6.071431934833526611e-02,1.387845072895288467e-02
2.723483927547931671e-02,3.059622272849082947e-02,3.323997557163238525e-02,2.794088982045650482e-02,-1.760053932666778564e-01,-1.621597707271575928e-01,1.491246093064546585e-02,1.269418653100728989e-02,5.512723699212074280e-03,-8.758690953254699707e-02,2.884845808148384094e-02,2.541416883468627930e-02,3.345898119732737541e-03,6.013584136962890625e-02,9.822796285152435303e-02,-3.840465843677520752e-01,5.902563780546188354e-02,1.674092002213001251e-02,-6.020986661314964294e-02,1.241472922265529633e-02,2.416193671524524689e-02,-3.449170663952827454e-02,-1.253048982471227646e-02,-4.982862472534179688e-01,5.501816049218177795e-02,9.749675542116165161e-02,8.664137870073318481e-02,1.938563399016857147e-02,2.763406932353973389e-02,2.807460539042949677e-02,3.768118843436241150e-02,-2.818298898637294769e-02,7.358577102422714233e-02,-6.268341839313507080e-02,-9.028632193803787231e-02,-1.452459245920181274e-01,-7.872168719768524170e-02,9.052829444408416748e-02,-1.366813853383064270e-02,-1.907789497636258602e-03,2.119612880051136017e-02,4.777104593813419342e-03,-2.296101860702037811e-02,1.829336251830682158e-04,-1.603723503649234772e-02,1.827721893787384033e-01,-1.113004889339208603e-02,4.853612184524536133e-02,2.808045037090778351e-02,-3.694555023685097694e-03,-1.779839210212230682e-02,8.019451634027063847e-04,-6.249622255563735962e-02,-6.346879526972770691e-03,6.845198571681976318e-02,4.411491379141807556e-02,2.647520229220390320e-02,1.003093495965003967e-01,8.645306341350078583e-03,1.584632694721221924e-02,5.266894772648811340e-02,1.919685006141662598e-01,2.295680902898311615e-02,2.080132439732551575e-02
-1.404992341995239258e-01,2.278066053986549377e-02,-1.811371184885501862e-02,4.459255933761596680e-02,1.862031817436218262e-01,-1.494526304304599762e-02,1.483412552624940872e-02,-1.056172624230384827e-01,-1.542459125630557537e-03,-4.576086997985839844e-02,-7.902336865663528442e-02,5.714306607842445374e-03,-1.354542467743158340e-02,-1.133120059967041016e-01,-2.686290442943572998e-02,1.106185838580131531e-02,3.381407260894775391e-02,8.783706463873386383e-03,8.331836014986038208e-02,-4.424197971820831299e-02,-9.088396094739437103e-03,1.467716395854949951e-01,-5.195653811097145081e-02,3.242143616080284119e-02,-3.429721295833587646e-02,-1.660988479852676392e-02,-3.764062374830245972e-02,6.319005042314529419e-02,-8.722005411982536316e-03,3.826218098402023315e-02,-1.640154048800468445e-02,-1.591353677213191986e-02,9.861751459538936615e-03,1.869924739003181458e-02,4.654181748628616333e-02,-2.721876464784145355e-02,-1.295329257845878601e-02,3.814864531159400940e-02,4.228289425373077393e-02,-1.421709451824426651e-02,4.576699808239936829e-03,-1.501444876194000244e-01,-1.650949716567993164e-01,9.808884002268314362e-03,-5.771582573652267456e-02,3.644109936431050301e-03,5.173085257411003113e-02,1.389030367136001587e-02,8.043381385505199432e-03,3.189592063426971436e-02,-3.072545118629932404e-02,3.935096040368080139e-02,1.583146676421165466e-02,1.464371532201766968e-01,-1.694183424115180969e-02,1.084185857325792313e-02,-5.533109977841377258e-02,9.731907397508621216e-03,-2.264790795743465424e-02,-9.076110273599624634e-02,-1.592192798852920532e-02,5.972664058208465576e-02,-5.913104116916656494e-02,5.714043974876403809e-02
2.134603448212146759e-02,2.213996648788452148e-02,-1.224515680223703384e-02,5.089150369167327881e-02,-2.520897090435028076e-01,-1.094630584120750427e-01,-4.034096300601959229e-01,8.159702643752098083e-03,5.174930673092603683e-03,-6.268933415412902832e-02,2.220078185200691223e-02,-1.164906099438667297e-02,-2.075350657105445862e-02,2.489365078508853912e-02,3.351536765694618225e-02,-2.334666699171066284e-01,-5.624149739742279053e-02,-1.250794436782598495e-02,-7.595667988061904907e-02,2.081480436027050018e-02,5.052172020077705383e-02,-5.957688391208648682e-02,-2.258291840553283691e-02,-1.835764050483703613e-01,5.886572226881980896e-02,1.762935817241668701e-01,7.577874511480331421e-02,-2.159127593040466309e-01,2.339708656072616577e-01,1.142718456685543060e-02,1.348398625850677490e-02,1.853692904114723206e-02,-1.494488120079040527e-01,-1.825908422470092773e-01,-5.880178138613700867e-02,-2.764587700366973877e-01,-6.178976967930793762e-02,2.297714054584503174e-01,-1.543462276458740234e-02,2.856268361210823059e-02,-1.019141729921102524e-02,2.521940506994724274e-02,-2.046386012807488441e-03,3.682175278663635254e-02,-2.403258346021175385e-02,-3.479823768138885498e-01,2.622924512252211571e-03,2.147344127297401428e-02,1.162665523588657379e-02,1.293491479009389877e-02,-3.406468778848648071e-02,7.476668804883956909e-03,1.241240426898002625e-01,1.580025814473628998e-02,3.306573256850242615e-02,1.276086177676916122e-02,-4.306193441152572632e-02,9.364875406026840210e-02,-9.809174574911594391e-03,9.952357038855552673e-03,3.788131475448608398e-02,1.205964833498001099e-01,-1.315543614327907562e-02,1.529810763895511627e-02
4.200952872633934021e-02,1.089724432677030563e-02,4.562611132860183716e-02,-4.455066844820976257e-02,-1.368785947561264038e-01,-3.622403368353843689e-02,2.090419828891754150e-02,8.032035082578659058e-02,1.166326552629470825e-02,-7.651755213737487793e-02,1.597674004733562469e-02,3.099119476974010468e-02,4.926183260977268219e-03,-6.569492816925048828e-02,1.312174499034881592e-01,-7.427182979881763458e-03,-7.614728808403015137e-02,-6.374755874276161194e-03,-2.439871616661548615e-02,1.697504073381423950e-01,3.706828504800796509e-02,-6.964007019996643066e-02,-2.903713844716548920e-02,8.351523429155349731e-02,4.310911521315574646e-02,5.576709285378456116e-02,1.799670904874801636e-01,-7.571187335997819901e-03,3.894879249855875969e-03,-1.181569173932075500e-01,-7.045830786228179932e-02,3.510304540395736694e-02,-2.185127325356006622e-02,1.140539720654487610e-01,2.665264904499053955e-01,7.987066172063350677e-03,-2.081592381000518799e-02,4.739170148968696594e-02,3.127959743142127991e-02,-7.235392928123474121e-02,-3.177908807992935181e-02,4.208075348287820816e-03,-4.310114774852991104e-03,1.314953994005918503e-02,-2.750549279153347015e-02,-2.334167435765266418e-02,8.510518819093704224e-03,3.447309136390686035e-03,4.887255281209945679e-02,-1.502391416579484940e-02,-5.733672156929969788e-02,3.106012381613254547e-02,-3.665593639016151428e-02,-1.243806350976228714e-02,4.311896488070487976e-02,-5.812883377075195312e-03,8.996837586164474487e-02,-1.346445232629776001e-01,-4.066672641783952713e-03,2.213677624240517616e-03,-1.164472778327763081e-03,-3.579850122332572937e-02,-1.073717623949050903e-01,-1.472829375416040421e-02
-6.670917570590972900e-02,-5.567779764533042908e-02,7.397075742483139038e-02,6.516296882182359695e-03,-3.864790871739387512e-02,-2.024121768772602081e-02,3.871421813964843750e-01,3.065005131065845490e-02,1.934609189629554749e-02,1.938944011926651001e-01,6.585199385881423950e-03,3.077169135212898254e-02,1.589890383183956146e-02,-3.250892087817192078e-02,-3.342046961188316345e-02,-1.437986083328723907e-02,3.031114675104618073e-02,2.174275740981101990e-02,-2.427101582288742065e-01,-4.412977024912834167e-02,-2.018067520111799240e-03,2.275627478957176208e-02,-1.616227626800537109e-02,-5.573583394289016724e-02,-2.587652951478958130e-02,-8.108221227303147316e-04,-2.968822233378887177e-02,2.152634710073471069e-01,1.166143268346786499e-02,-5.400615744292736053e-03,-5.946551915258169174e-03,1.261715143918991089e-01,-9.117592126131057739e-02,5.243037939071655273e-01,2.806300222873687744e-01,3.777388334274291992e-01,-9.576235897839069366e-03,-3.775823712348937988e-01,1.802955381572246552e-02,9.005295112729072571e-03,-2.304903417825698853e-02,-6.329446914605796337e-04,4.806798417121171951e-03,1.114696357399225235e-02,-6.756281852722167969e-02,1.001563817262649536e-01,3.992388397455215454e-02,1.432421989738941193e-02,1.427412219345569611e-02,-1.244676019996404648e-02,1.947978697717189789e-02,2.296387404203414917e-02,-9.544698148965835571e-02,-7.900708168745040894e-02,-3.697688225656747818e-03,-1.741376146674156189e-02,-7.882212288677692413e-03,-9.816203266382217407e-03,1.328392047435045242e-02,1.134163606911897659e-02,2.502540312707424164e-02,1.343423500657081604e-02,-1.611737883649766445e-03,3.600581549108028412e-03
-1.187311932444572449e-01,1.696794480085372925e-02,6.253098696470260620e-02,-3.572291927412152290e-03,1.244951784610748291e-01,1.490478590130805969e-02,-2.128777094185352325e-02,1.593277975916862488e-02,-3.519177809357643127e-02,-1.924441568553447723e-02,-1.245851628482341766e-02,4.063793271780014038e-02,-4.102605208754539490e-02,-9.329395741224288940e-02,-6.699527875753119588e-05,1.026538200676441193e-02,8.091976866126060486e-03,-4.045782610774040222e-02,3.646608814597129822e-02,-2.232426404953002930e-02,-4.032636433839797974e-02,1.111361384391784668e-01,-1.522278320044279099e-02,-4.216219298541545868e-03,-9.479047730565071106e-03,6.365653127431869507e-02,-4.021414741873741150e-02,4.836033657193183899e-02,-1.969050383195281029e-03,1.553753949701786041e-02,-2.675375901162624359e-02,-3.224102035164833069e-02,-3.110320493578910828e-02,5.197816342115402222e-02,2.383321151137351990e-02,-2.292924746870994568e-02,-2.472706511616706848e-02,4.616354417521506548e-04,-2.367051318287849426e-02,3.746581822633743286e-02,3.247135505080223083e-02,-2.450225502252578735e-02,-8.092117309570312500e-02,-8.440352044999599457e-03,-6.170186400413513184e-02,6.724433507770299911e-03,-3.234928473830223083e-02,3.107262589037418365e-02,5.094005027785897255e-04,2.750967442989349365e-02,1.144916005432605743e-02,6.909585744142532349e-02,-1.453219912946224213e-02,4.367909952998161316e-02,-4.608692135661840439e-03,3.881774097681045532e-02,4.684713482856750488e-02,-1.715279556810855865e-02,-2.322641201317310333e-02,-4.324255511164665222e-02,4.780598357319831848e-02,-1.343526411801576614e-02,-2.180486917495727539e-02,1.945443823933601379e-02
8.412240445613861084e-02,-7.386302947998046875e-02,-3.350888192653656006e-02,2.677860856056213379e-02,8.188834413886070251e-03,-2.151713473722338676e-03,-1.699413731694221497e-02,2.995635382831096649e-02,2.940407209098339081e-02,6.739932578057050705e-03,1.217137742787599564e-02,-2.190435305237770081e-02,1.698962785303592682e-02,1.189783513545989990e-01,3.471508156508207321e-03,2.551462501287460327e-02,-3.114364109933376312e-02,-4.897694662213325500e-02,-1.197893172502517700e-03,-7.007087022066116333e-02,-5.404468392953276634e-04,1.763654798269271851e-01,2.104305475950241089e-02,-1.831628754734992981e-02,-1.100136563181877136e-01,3.524083271622657776e-02,-2.783307246863842010e-02,2.413425967097282410e-02,-1.890501193702220917e-02,1.930668577551841736e-02,6.465099006891250610e-02,-5.596079677343368530e-02,4.247845616191625595e-03,-5.533852055668830872e-02,2.135235816240310669e-02,-3.207318484783172607e-02,-3.910552710294723511e-02,1.431857328861951828e-02,3.343804180622100830e-02,1.128805950284004211e-01,-2.057685330510139465e-02,-8.684234321117401123e-02,3.586304606869816780e-03,-1.377547830343246460e-01,-6.722443550825119019e-02,-1.169125176966190338e-02,2.414627745747566223e-02,-1.359318196773529053e-01,-4.892048984766006470e-02,2.773117460310459137e-02,1.069013401865959167e-02,2.489693909883499146e-01,2.611546963453292847e-02,1.303956359624862671e-01,7.777205854654312134e-02,-1.724487841129302979e-01,-1.684808917343616486e-02,-6.112798675894737244e-02,-4.490450024604797363e-03,-3.700287267565727234e-02,-2.701113820075988770e-01,2.831413783133029938e-02,7.807781221345067024e-04,1.027176827192306519e-01
-8.563891053199768066e-02,1.086382893845438957e-03,-1.943619363009929657e-02,-1.039921212941408157e-02,-1.290978980250656605e-03,-1.010404992848634720e-02,-4.426671192049980164e-02,-6.728076934814453125e-02,3.724882379174232483e-02,6.410080473870038986e-03,4.361524060368537903e-02,6.942270789295434952e-03,-6.863719969987869263e-02,6.072630360722541809e-02,2.301573939621448517e-02,-2.177159488201141357e-02,-1.008829101920127869e-02,-2.847098745405673981e-02,-1.102016586810350418e-02,-4.272200167179107666e-02,1.568671129643917084e-02,-1.757720485329627991e-02,1.928094029426574707e-02,-3.119934815913438797e-03,-3.825560212135314941e-02,-2.046424895524978638e-02,-6.377393007278442383e-02,1.172761712223291397e-02,3.206816315650939941e-02,-3.703654557466506958e-02,3.213490173220634460e-02,1.550214830785989761e-02,2.043081680312752724e-03,-1.610912010073661804e-02,6.174601241946220398e-02,2.830260805785655975e-02,-2.990562934428453445e-03,1.480964827351272106e-03,1.082862634211778641e-02,-1.278782263398170471e-02,-2.949527278542518616e-02,5.812935158610343933e-02,8.183704689145088196e-03,1.244121417403221130e-02,-5.284857004880905151e-02,-2.802194561809301376e-03,3.177454322576522827e-02,1.434415671974420547e-02,-5.226785317063331604e-02,7.175509631633758545e-02,3.082487732172012329e-02,2.057336084544658661e-02,3.339713439345359802e-02,7.389324903488159180e-02,-3.896955773234367371e-02,5.953897908329963684e-02,4.973023384809494019e-02,-8.383966237306594849e-02,2.305383095517754555e-03,-4.534044861793518066e-02,8.611587807536125183e-03,2.011176571249961853e-02,9.271820075809955597e-03,-1.703007519245147705e-02
