8.086185902357101440e-03,-1.920826174318790436e-02,-1.727197133004665375e-02,1.363309100270271301e-02,-4.064428061246871948e-02,-3.650777041912078857e-02,-1.507881004363298416e-02,3.558209538459777832e-02,-6.398005038499832153e-02,6.106337159872055054e-02,-8.756410330533981323e-03,-3.630452323704957962e-03,-2.249812521040439606e-02,-2.753078471869230270e-03,-3.680093868752010167e-05,-3.193750604987144470e-02,1.112765260040760040e-02,1.503957342356443405e-02,-3.381274640560150146e-02,-6.457204930484294891e-03,9.313370101153850555e-03,6.753284251317381859e-04,-6.910683214664459229e-02,1.318164821714162827e-02,-2.354427799582481384e-02,-3.637513890862464905e-02,-2.244879305362701416e-02,-9.893022477626800537e-03,-2.463534660637378693e-02,-4.256760701537132263e-02,2.825782634317874908e-02,-1.965877600014209747e-02,-4.086576029658317566e-02,4.079909063875675201e-03,-2.713243290781974792e-02,-1.771386526525020599e-02,-1.965693011879920959e-02,5.831111595034599304e-02,-5.440167337656021118e-02,-3.926140815019607544e-02,-1.159744337201118469e-01,6.377064436674118042e-02,-2.685127966105937958e-02,1.830121316015720367e-02,-5.735771730542182922e-02,-1.781631261110305786e-02,-5.586187355220317841e-03,2.443495206534862518e-02,2.070093341171741486e-02,-2.941010706126689911e-02,4.137649200856685638e-03,-7.224878761917352676e-03,-4.059830307960510254e-02,-1.383354235440492630e-02,2.203879505395889282e-02,-9.985841810703277588e-03,3.913935215678066015e-04,-7.638914883136749268e-02,-2.156833559274673462e-02,-5.931475665420293808e-03,-1.543073263019323349e-02,6.262286007404327393e-02,-2.260229084640741348e-03,-4.996168240904808044e-02,9.418585337698459625e-03,2.858092449605464935e-02,-2.321810834109783173e-02,-9.839657694101333618e-03,-4.692198336124420166e-02,-1.049923151731491089e-02,5.139473825693130493e-02,-3.256314992904663086e-02,-5.208728462457656860e-02,-3.313150629401206970e-02,-4.799706116318702698e-02,6.335092335939407349e-02,-3.279022127389907837e-02,1.547207590192556381e-02,1.875068619847297668e-02,-2.301309071481227875e-02,2.277039922773838043e-02,-2.542856149375438690e-02,-3.576760739088058472e-02,-1.405669469386339188e-02,6.017332430928945541e-03,-1.756395585834980011e-02,4.650353640317916870e-02,7.519767619669437408e-03,1.290081162005662918e-02,1.214829925447702408e-02,6.639203429222106934e-02,2.111199498176574707e-02,6.025380454957485199e-03,7.315139751881361008e-03,7.214912329800426960e-04,-1.134445052593946457e-02,4.407076537609100342e-02,2.109220623970031738e-02,-3.891897574067115784e-02,3.026475012302398682e-02,-2.549534849822521210e-02,3.060744702816009521e-02,1.025692187249660492e-02,3.443552553653717041e-02,-5.553730297833681107e-03,3.374545369297266006e-03,8.845083415508270264e-03,1.613001152873039246e-02,1.203360501676797867e-03,5.646454170346260071e-03,-3.042438626289367676e-02,-3.325293958187103271e-02,-1.328224502503871918e-02,-2.336739376187324524e-02,9.621982462704181671e-04,3.323625400662422180e-02,-2.220389805734157562e-02,3.665130212903022766e-02,-1.352331042289733887e-02,2.099730819463729858e-02,-3.172998875379562378e-02,3.324757516384124756e-02,-1.151463575661182404e-02,3.277070075273513794e-02,-2.217252738773822784e-03,-1.275750156491994858e-02,2.549627330154180527e-03,5.354654043912887573e-03
-1.428361888974905014e-02,-5.542790517210960388e-02,-3.456805646419525146e-02,5.043512210249900818e-02,-3.006499074399471283e-02,3.192634135484695435e-02,-3.651450946927070618e-02,-7.090737670660018921e-02,-7.292658835649490356e-02,5.175212398171424866e-02,3.593298420310020447e-02,-4.628919437527656555e-02,-2.682033739984035492e-02,-6.156503688544034958e-03,-4.765528813004493713e-02,-1.658287015743553638e-03,-3.459218516945838928e-02,3.524742089211940765e-03,-7.121103256940841675e-02,-1.388418301939964294e-02,2.679172158241271973e-02,1.578143797814846039e-02,7.539194822311401367e-02,-3.239412792026996613e-03,-2.539283409714698792e-02,2.312568575143814087e-02,2.321125240996479988e-03,1.506008859723806381e-02,-5.907415412366390228e-03,6.547203660011291504e-02,-8.762283250689506531e-04,2.852404117584228516e-02,-2.704367041587829590e-02,1.564736291766166687e-02,5.835793912410736084e-02,1.015832182019948959e-02,6.644638255238533020e-03,-1.209300942718982697e-02,5.913729593157768250e-02,-7.984934374690055847e-03,-3.528178483247756958e-02,1.434474997222423553e-02,-4.550435766577720642e-02,2.515068463981151581e-02,2.300201728940010071e-02,-3.994747065007686615e-03,1.550223957747220993e-02,-1.583757996559143066e-02,-1.227550581097602844e-02,-5.419585108757019043e-02,-5.710155516862869263e-02,2.193226292729377747e-02,-2.566547691822052002e-02,3.167147934436798096e-02,1.134183537214994431e-02,3.228197619318962097e-02,2.121945656836032867e-02,-2.149261720478534698e-02,-1.974912919104099274e-02,-3.120989911258220673e-02,-4.104319214820861816e-02,-1.950729265809059143e-02,-9.754025377333164215e-03,-5.428940523415803909e-03,1.480029430240392685e-02,2.731957659125328064e-02,-1.124405767768621445e-02,-3.141308948397636414e-02,2.578637376427650452e-02,4.141399264335632324e-02,1.595387235283851624e-02,-8.026308380067348480e-03,1.971330493688583374e-03,3.815126139670610428e-03,-4.349356889724731445e-02,-2.673767320811748505e-02,3.380231931805610657e-02,1.768977753818035126e-02,1.685803942382335663e-02,-3.293083235621452332e-02,2.213136106729507446e-02,8.271644823253154755e-03,-3.284234553575515747e-02,-1.378646586090326309e-02,1.707830093801021576e-02,-1.058218553662300110e-01,-1.672901399433612823e-02,-8.639689534902572632e-03,-7.669693976640701294e-02,2.531456528231501579e-03,2.001025155186653137e-02,-5.930912494659423828e-02,3.882206277921795845e-03,-2.719510579481720924e-03,-4.349126666784286499e-02,-1.676502823829650879e-02,2.754266373813152313e-03,-6.039918400347232819e-03,-1.125506008975207806e-03,-1.404379960149526596e-02,-4.705501720309257507e-02,4.448448866605758667e-02,-1.969284610822796822e-03,-2.342134714126586914e-02,-1.803522184491157532e-02,2.781799063086509705e-03,-2.214924246072769165e-02,3.994778264313936234e-03,-1.590186730027198792e-02,-4.725570976734161377e-02,-1.190362591296434402e-02,-2.818533033132553101e-02,9.311427362263202667e-03,-3.234700113534927368e-02,-1.329469401389360428e-02,1.386292837560176849e-02,-3.225832805037498474e-02,1.866868324577808380e-02,-2.132770977914333344e-02,6.874286103993654251e-03,-2.804177254438400269e-02,1.056714802980422974e-01,-2.412072569131851196e-02,-6.422184407711029053e-02,1.839885488152503967e-02,2.747646346688270569e-02,3.596422448754310608e-02,2.399363741278648376e-02
7.614832837134599686e-03,2.072487585246562958e-02,-1.006564963608980179e-02,-2.650946006178855896e-02,1.461142580956220627e-02,-2.495874185115098953e-03,1.065709162503480911e-02,1.812274195253849030e-02,-1.908268593251705170e-02,1.655309088528156281e-02,-3.494543209671974182e-02,-2.153595536947250366e-02,-1.052715629339218140e-02,-1.994299329817295074e-02,1.862604729831218719e-02,2.839328348636627197e-02,-8.509711478836834431e-04,-6.504300236701965332e-02,1.982991397380828857e-02,-1.548031996935606003e-02,1.220368314534425735e-02,-2.386900410056114197e-02,1.850585266947746277e-02,-2.960680238902568817e-02,2.801410853862762451e-02,-3.153728321194648743e-02,-1.637616194784641266e-02,1.290386263281106949e-02,8.214755915105342865e-03,8.867749013006687164e-03,-2.107286266982555389e-02,-8.564211428165435791e-03,2.295763045549392700e-02,-6.100723985582590103e-03,2.987570688128471375e-02,-2.278948202729225159e-02,3.830837784335017204e-03,2.093664743006229401e-02,-2.122028358280658722e-02,-6.119139026850461960e-03,-1.494359690696001053e-03,-5.505959317088127136e-02,1.589568890631198883e-02,-1.637152023613452911e-02,-2.997373230755329132e-02,-3.484447672963142395e-02,-2.250025235116481781e-02,-1.064576301723718643e-02,-9.888464584946632385e-03,4.054290801286697388e-02,-1.713157835183665156e-04,-3.654211387038230896e-02,-2.338074613362550735e-03,3.561226651072502136e-02,-9.405745659023523331e-04,1.100459508597850800e-02,-5.426189396530389786e-03,7.349769771099090576e-02,1.777360588312149048e-02,2.101104520261287689e-02,-1.753255166113376617e-02,1.722991815768182278e-03,-2.939440682530403137e-02,-4.190331697463989258e-02,-1.232640235684812069e-03,-4.658331722021102905e-02,-6.556345615535974503e-03,4.275849834084510803e-02,-2.863461151719093323e-02,1.571115851402282715e-02,4.287743475288152695e-03,2.800585934892296791e-03,-5.137560423463582993e-03,-6.485313177108764648e-03,-2.119751647114753723e-02,-5.758285522460937500e-03,-1.273074001073837280e-02,8.478079922497272491e-03,4.060750361531972885e-03,7.970356382429599762e-03,1.188379363156855106e-03,-8.708367240615189075e-04,3.987593576312065125e-02,2.324357628822326660e-02,4.203041642904281616e-02,7.951880991458892822e-02,-5.238793673925101757e-04,3.576646372675895691e-02,-1.970823109149932861e-02,-1.690443605184555054e-02,4.933528974652290344e-02,7.151638856157660484e-04,-2.689582295715808868e-02,-2.453838847577571869e-02,-5.963483825325965881e-02,2.177847921848297119e-02,-5.193427205085754395e-02,2.694040909409523010e-02,2.172456681728363037e-02,9.813301730901002884e-04,2.479049842804670334e-03,-1.800556294620037079e-02,7.030683569610118866e-03,-2.356975525617599487e-02,-3.194962069392204285e-02,-1.950944960117340088e-02,-6.467873230576515198e-03,-1.024597790092229843e-02,-2.042027190327644348e-03,-1.126881316304206848e-02,-1.174135133624076843e-02,-4.313176497817039490e-02,1.085980702191591263e-02,-1.628766953945159912e-02,-1.400159951299428940e-02,-2.229410037398338318e-02,-3.861762210726737976e-02,1.020353008061647415e-02,4.866658523678779602e-02,-3.570833429694175720e-02,-3.125982731580734253e-02,-6.754564587026834488e-03,-4.116974398493766785e-02,-3.244749829173088074e-02,-6.934391334652900696e-03,-2.775612287223339081e-02,6.395560689270496368e-03,-2.201577415689826012e-03
-4.349777102470397949e-02,-5.137668177485466003e-02,2.513002138584852219e-03,-5.488347262144088745e-02,6.988417357206344604e-02,-3.149112686514854431e-02,-1.962808333337306976e-02,3.887167945504188538e-02,-1.250635366886854172e-02,-1.923597417771816254e-02,-4.701001942157745361e-02,1.293711480684578419e-03,-2.302096225321292877e-02,3.821236267685890198e-02,6.883990019559860229e-02,-4.313434474170207977e-03,-6.792616099119186401e-03,2.607401274144649506e-02,-4.141379520297050476e-02,-5.405911803245544434e-02,2.354725450277328491e-02,-2.475981786847114563e-02,-2.514676749706268311e-02,1.750190928578376770e-02,-9.818214457482099533e-04,2.025671070441603661e-03,3.445818647742271423e-02,-2.762277144938707352e-03,-7.958639413118362427e-02,-1.962359249591827393e-02,-1.710825890768319368e-04,-9.755072183907032013e-03,-8.058588206768035889e-02,1.476946752518415451e-02,-1.570526696741580963e-02,-2.110440842807292938e-02,2.655534073710441589e-03,-6.264390796422958374e-02,7.846191525459289551e-03,1.147816692537162453e-05,4.259394109249114990e-02,-6.507306545972824097e-02,1.291846483945846558e-02,-1.150263920426368713e-01,7.590475026518106461e-03,5.230257287621498108e-02,1.168965268880128860e-02,-6.257285177707672119e-02,-2.876809425652027130e-02,-1.600747182965278625e-02,5.182295665144920349e-02,-1.494860649108886719e-02,-1.980403438210487366e-02,-4.070855304598808289e-02,-4.161029122769832611e-03,-6.303806602954864502e-02,-6.270342320203781128e-02,1.571345925331115723e-01,5.515249911695718765e-03,2.072260528802871704e-02,-4.665418714284896851e-02,1.367953512817621231e-02,1.538765244185924530e-02,1.000689268112182617e-01,2.301554009318351746e-02,3.516996651887893677e-02,3.762402385473251343e-02,1.440307777374982834e-02,1.234672032296657562e-02,-2.406512573361396790e-02,-3.319960087537765503e-02,-5.088294297456741333e-02,4.512499086558818817e-03,-2.760369144380092621e-02,2.258384227752685547e-02,1.635641418397426605e-02,-3.738763555884361267e-02,-1.117525342851877213e-02,-6.952043622732162476e-02,2.035994641482830048e-02,1.397302374243736267e-02,-8.213884197175502777e-03,-8.044406771659851074e-02,1.003817282617092133e-02,1.150197908282279968e-02,-5.262624472379684448e-02,8.203644305467605591e-02,3.567164018750190735e-02,-3.516478836536407471e-02,7.879395782947540283e-02,2.995497547090053558e-02,-2.930275723338127136e-02,5.044632032513618469e-02,-3.813498094677925110e-02,-6.924627721309661865e-02,3.102758899331092834e-02,6.656724214553833008e-02,1.768470741808414459e-02,-4.076572880148887634e-02,3.670033300295472145e-03,-4.619516432285308838e-02,1.627449132502079010e-02,-9.873826056718826294e-02,-3.502470627427101135e-02,-3.172552585601806641e-02,-4.846751317381858826e-02,-4.006469622254371643e-02,1.773804426193237305e-02,-2.571194991469383240e-02,-3.868366405367851257e-02,-1.367874816060066223e-02,2.560695447027683258e-02,-1.377982739359140396e-02,-1.643315330147743225e-02,4.207208286970853806e-03,-2.084158733487129211e-02,2.767353877425193787e-02,-1.108043082058429718e-02,-3.353457723278552294e-04,-3.019574331119656563e-03,-5.534121021628379822e-02,-1.047108620405197144e-01,-1.667018793523311615e-02,-5.945023521780967712e-02,-9.747284464538097382e-03,1.042349115014076233e-01,-8.298417925834655762e-02,1.425984408706426620e-02
-1.950228959321975708e-02,-4.783592373132705688e-02,2.651640446856617928e-03,-1.794359646737575531e-02,-1.597133814357221127e-03,-2.127469144761562347e-02,1.982662454247474670e-02,-2.325242012739181519e-02,3.798175230622291565e-02,1.961244642734527588e-02,5.051356926560401917e-02,-2.567423321306705475e-02,-9.302596561610698700e-03,-2.386680990457534790e-02,-4.833519086241722107e-02,1.198595389723777771e-02,5.280827358365058899e-02,3.980937227606773376e-02,1.470252405852079391e-02,1.379071734845638275e-02,-3.350447490811347961e-02,-1.126694213598966599e-02,1.093562971800565720e-02,1.922138407826423645e-02,-3.588146995753049850e-03,2.184547111392021179e-02,2.295899204909801483e-03,-3.938416019082069397e-02,-2.925572730600833893e-02,-5.637837573885917664e-02,-6.635071244090795517e-03,8.711330592632293701e-04,5.043330043554306030e-02,3.022969141602516174e-02,-1.417268719524145126e-02,-2.302441373467445374e-02,-5.163578782230615616e-03,2.057966962456703186e-02,3.219804726541042328e-03,-7.447004318237304688e-03,-7.565970532596111298e-03,-3.101923875510692596e-02,-2.435338124632835388e-02,-5.303147807717323303e-02,-2.765006013214588165e-02,7.470931112766265869e-02,5.055122077465057373e-02,-9.995597600936889648e-02,-5.031687673181295395e-03,-9.526878595352172852e-03,2.507940493524074554e-02,1.295462343841791153e-02,-1.852845028042793274e-02,-3.990678489208221436e-02,1.397473644465208054e-02,-8.527605794370174408e-03,3.301496803760528564e-02,1.354028191417455673e-02,-6.296793930232524872e-03,3.349538519978523254e-02,-7.133801933377981186e-03,-2.527777105569839478e-02,-1.887061446905136108e-02,-3.059850074350833893e-03,2.088750479742884636e-03,-2.979608485475182533e-03,-1.874434202909469604e-02,1.320959441363811493e-02,-6.362232379615306854e-03,2.088598161935806274e-02,-5.899409204721450806e-02,-8.005546778440475464e-02,1.039489824324846268e-02,-1.417676452547311783e-02,-3.430888289585709572e-03,1.107749063521623611e-02,2.119151502847671509e-02,-1.180531922727823257e-02,-8.338891202583909035e-04,2.236037328839302063e-02,-2.128277160227298737e-02,2.575544640421867371e-02,-3.349168226122856140e-02,-2.819124609231948853e-02,-4.246963560581207275e-02,5.887600034475326538e-02,-2.911651693284511566e-02,1.124000921845436096e-02,7.666973397135734558e-03,-2.358568832278251648e-02,2.997469855472445488e-03,2.460590563714504242e-02,3.158561885356903076e-02,4.467457532882690430e-02,-1.592596061527729034e-02,-2.280249260365962982e-03,1.093427836894989014e-02,-3.908446058630943298e-02,4.891561344265937805e-03,-1.437301281839609146e-02,2.562063746154308319e-02,6.581289693713188171e-03,4.142746794968843460e-03,6.182952225208282471e-02,1.509935036301612854e-02,-1.800788566470146179e-02,2.114904113113880157e-02,-2.277438761666417122e-03,1.778952591121196747e-02,-5.973334237933158875e-02,-1.253520883619785309e-02,-1.731192879378795624e-02,-1.581351272761821747e-02,-2.200162224471569061e-02,-2.333373390138149261e-02,-1.975031383335590363e-02,-9.119246387854218483e-04,-7.359265349805355072e-03,2.615491300821304321e-02,2.579309977591037750e-02,1.324797747656702995e-03,1.672688499093055725e-02,2.647278271615505219e-02,3.550352901220321655e-02,-1.824899204075336456e-02,3.410390019416809082e-02,-8.019590377807617188e-02,1.275560725480318069e-02
-1.128433719277381897e-01,4.016834497451782227e-02,-1.032049953937530518e-02,1.711514964699745178e-02,-2.212029322981834412e-02,-2.101560868322849274e-02,1.389077585190534592e-02,-1.806880161166191101e-02,1.462681498378515244e-02,1.589744351804256439e-02,3.715164959430694580e-02,1.121169794350862503e-02,-8.263816684484481812e-02,3.275261819362640381e-02,-6.523799151182174683e-02,-1.641074568033218384e-02,2.970793470740318298e-02,-3.282239288091659546e-02,-4.956456366926431656e-03,-1.494883326813578606e-03,1.679037883877754211e-02,-2.244914136826992035e-02,-5.266536399722099304e-02,5.283585283905267715e-03,2.546154428273439407e-03,-4.099581274203956127e-04,-3.176322951912879944e-02,-4.132096469402313232e-02,3.017526119947433472e-03,-2.590840309858322144e-02,1.401532208546996117e-03,2.078587934374809265e-02,-3.785702958703041077e-02,5.533550679683685303e-02,1.471423543989658356e-03,-2.481871284544467926e-02,-5.633513443171977997e-03,-1.535461097955703735e-02,-2.916628494858741760e-02,2.699899952858686447e-03,4.213593155145645142e-02,-2.793996222317218781e-02,3.561170399188995361e-02,1.695067249238491058e-02,2.902469225227832794e-02,2.298252843320369720e-02,-1.283746678382158279e-02,1.381412800401449203e-02,-1.400898024439811707e-02,-9.145097807049751282e-03,-2.904435060918331146e-02,-6.976301316171884537e-03,-3.840207355096936226e-03,1.390591263771057129e-02,1.919098384678363800e-02,-1.368972957134246826e-01,-1.160425134003162384e-02,8.045459538698196411e-02,-4.225527402013540268e-03,-1.842258870601654053e-02,3.564254846423864365e-03,-1.365458825603127480e-03,-3.836093703284859657e-03,1.419334206730127335e-03,1.524270698428153992e-02,-1.484511233866214752e-02,3.245526179671287537e-02,-2.616953849792480469e-02,-4.521362017840147018e-03,-1.787207787856459618e-03,-5.313510820269584656e-02,4.659965168684720993e-03,8.962324820458889008e-03,1.454123947769403458e-02,4.544527828693389893e-02,1.227106433361768723e-02,-3.412866732105612755e-03,-5.922994110733270645e-03,1.053414214402437210e-02,-2.596072293817996979e-02,2.247395366430282593e-02,1.682805828750133514e-02,8.368620648980140686e-03,-1.976494118571281433e-02,-3.621516004204750061e-02,-4.517787322402000427e-02,1.710248924791812897e-02,-2.987709376611746848e-05,-2.780515514314174652e-02,-7.546997815370559692e-02,2.452798560261726379e-02,2.038478106260299683e-02,-3.514427319169044495e-02,-2.613031305372714996e-02,-8.646406233310699463e-02,4.993572458624839783e-02,-1.436646189540624619e-02,1.033204868435859680e-01,2.771561779081821442e-02,7.874010130763053894e-03,-4.321926739066839218e-03,3.386721387505531311e-02,1.400795113295316696e-02,1.650917157530784607e-02,-7.217378355562686920e-03,-3.315506130456924438e-02,-3.473528474569320679e-02,3.606009483337402344e-02,1.103456784039735794e-02,3.788546472787857056e-02,-3.956227097660303116e-03,4.164733365178108215e-02,-6.125839892774820328e-03,-2.826068177819252014e-02,-8.739604963921010494e-04,2.818106301128864288e-02,-2.083027176558971405e-02,1.060959883034229279e-02,4.053915292024612427e-02,4.603779688477516174e-02,2.959531848318874836e-04,-5.152451619505882263e-02,4.037642385810613632e-03,-9.784157387912273407e-03,1.133620832115411758e-02,-1.724137342534959316e-03,2.691641682758927345e-03,2.830151654779911041e-02
5.655592773109674454e-03,-3.751758486032485962e-02,1.051153149455785751e-02,-8.823412470519542694e-03,2.382923476397991180e-02,-3.697176231071352959e-03,3.628373146057128906e-02,-5.752601474523544312e-02,-5.004611611366271973e-02,7.276089489459991455e-02,-2.855243347585201263e-02,-3.602256625890731812e-02,-6.675782613456249237e-03,-2.869127877056598663e-02,1.397615997120738029e-03,2.093132026493549347e-02,2.796018496155738831e-02,1.999835669994354248e-02,-5.858494713902473450e-02,2.978023514151573181e-02,-1.345311384648084641e-02,9.362633340060710907e-03,1.848640106618404388e-02,5.322385206818580627e-02,-4.565776791423559189e-03,9.310041554272174835e-03,6.551890820264816284e-02,-1.841809041798114777e-02,-2.358875051140785217e-02,-7.110239937901496887e-03,-3.377613797783851624e-02,-3.163171699270606041e-03,-4.112317226827144623e-03,6.231911852955818176e-02,3.439496830105781555e-02,-2.261986024677753448e-02,-5.270172283053398132e-02,-4.254207760095596313e-02,2.731485851109027863e-02,2.579089440405368805e-02,-7.383275032043457031e-02,-5.879141762852668762e-02,1.625561527907848358e-02,2.638589590787887573e-02,4.298251867294311523e-02,-5.813596025109291077e-02,-3.098010644316673279e-02,3.325968235731124878e-02,-3.780000284314155579e-02,-5.134841892868280411e-03,-2.778446068987250328e-03,-2.851714007556438446e-02,-1.468153856694698334e-02,1.052451902069151402e-03,-2.949956431984901428e-02,2.421943470835685730e-02,-1.868462935090065002e-02,-1.700426079332828522e-02,5.789604783058166504e-02,4.877175018191337585e-02,-1.015309095382690430e-01,4.087180830538272858e-03,-6.993503868579864502e-02,5.274760350584983826e-02,2.997981570661067963e-02,4.055358469486236572e-02,1.704908348619937897e-02,-2.521185018122196198e-02,1.690109056653454900e-04,1.171517744660377502e-02,7.329601212404668331e-04,-1.369668552797520533e-05,2.504594065248966217e-02,-5.678711459040641785e-02,-1.553009822964668274e-02,-1.850000396370887756e-02,-3.385677561163902283e-02,2.544963173568248749e-02,-1.379587221890687943e-02,6.041621789336204529e-03,-3.484920039772987366e-02,3.065404109656810760e-02,4.332699999213218689e-02,2.258982323110103607e-02,-3.061714814975857735e-04,-3.714621439576148987e-02,1.030978467315435410e-02,5.796473845839500427e-02,1.399059873074293137e-02,-5.066274851560592651e-02,3.222135454416275024e-02,-6.606808304786682129e-02,-6.621103733777999878e-02,2.827597036957740784e-02,1.467696111649274826e-02,-1.854375377297401428e-02,-2.602635882794857025e-02,-1.583268865942955017e-02,-5.876237526535987854e-03,6.367597728967666626e-02,-2.460893429815769196e-02,-6.611997634172439575e-02,-1.934621483087539673e-02,-1.277875434607267380e-02,1.662593148648738861e-02,-6.667537987232208252e-02,2.130391821265220642e-02,-7.882328703999519348e-03,2.792046219110488892e-02,-6.864747405052185059e-02,2.372946823015809059e-03,-4.024088382720947266e-02,4.718861356377601624e-02,2.675482071936130524e-02,-2.679595351219177246e-02,1.653087325394153595e-02,5.930288136005401611e-02,6.088800262659788132e-03,8.335325866937637329e-03,7.503166794776916504e-03,-6.822835654020309448e-02,4.133704304695129395e-02,-2.913653850555419922e-02,-5.853415001183748245e-03,7.171945273876190186e-02,1.233987044543027878e-02,3.334594191983342171e-03,2.161953039467334747e-02
-9.670574800111353397e-04,-1.448712591081857681e-02,-4.519264400005340576e-02,-3.703173995018005371e-02,-2.178850397467613220e-02,-3.824136406183242798e-02,2.371213957667350769e-02,4.208766669034957886e-02,4.749484732747077942e-02,-9.996733814477920532e-02,-2.910486236214637756e-02,-5.175083503127098083e-02,2.230856195092201233e-02,9.524445049464702606e-04,3.737123683094978333e-03,-9.490798227488994598e-03,1.549747679382562637e-02,-2.286342345178127289e-02,-5.350833013653755188e-02,-6.312682293355464935e-03,-7.349790073931217194e-03,1.118758111260831356e-03,3.206926956772804260e-02,-2.658655308187007904e-02,5.267443135380744934e-02,-2.506667003035545349e-02,-5.106093361973762512e-02,-6.208731979131698608e-02,-1.419747946783900261e-03,3.025508485734462738e-02,-1.424399204552173615e-02,-5.073050409555435181e-02,-9.944084100425243378e-03,-4.707355424761772156e-02,2.219381555914878845e-02,-5.194826051592826843e-02,-5.563072860240936279e-03,-6.054851226508617401e-03,-5.125279538333415985e-03,-2.074886485934257507e-02,-1.636812463402748108e-02,5.495957657694816589e-02,9.848509915173053741e-03,-3.539759665727615356e-02,7.834106683731079102e-03,-1.753543131053447723e-02,1.995875313878059387e-02,-3.789765527471899986e-03,-1.038625487126410007e-03,9.765968658030033112e-03,-1.519725378602743149e-02,-3.045954275876283646e-03,-1.956174150109291077e-02,-2.427770383656024933e-02,-1.716536283493041992e-02,5.427814554423093796e-03,2.353017777204513550e-02,-1.438419055193662643e-02,-7.423219084739685059e-02,-5.072080995887517929e-03,9.706594049930572510e-03,8.443753235042095184e-03,1.989620178937911987e-02,5.945070087909698486e-02,2.819021232426166534e-02,9.701743721961975098e-03,-6.787732988595962524e-02,-1.273222640156745911e-02,4.502833634614944458e-02,-1.620218344032764435e-02,1.611349545419216156e-02,1.256208680570125580e-02,-6.049592792987823486e-02,8.204405196011066437e-03,-2.811700105667114258e-02,-2.215586975216865540e-02,-4.924626648426055908e-02,6.774039566516876221e-02,-8.375200559385120869e-04,-5.406931042671203613e-02,3.367496654391288757e-02,1.715573668479919434e-02,-6.279630213975906372e-02,2.494597062468528748e-02,1.099421642720699310e-02,-4.077585041522979736e-02,5.829804576933383942e-03,-5.811364576220512390e-02,-1.377492398023605347e-02,6.982596218585968018e-02,-4.499124735593795776e-02,-2.542064897716045380e-02,5.994216352701187134e-02,2.927662432193756104e-02,1.661861874163150787e-02,-2.894570678472518921e-02,3.004200011491775513e-02,4.144849721342325211e-03,4.698728024959564209e-02,5.353569053113460541e-03,-8.178685791790485382e-03,-3.504686988890171051e-03,-3.407327085733413696e-02,-3.605315089225769043e-02,-1.510727871209383011e-02,-2.698560245335102081e-02,-4.993437975645065308e-02,-1.817089319229125977e-02,-3.990942612290382385e-02,-5.752514302730560303e-02,-1.387492474168539047e-02,-1.742788031697273254e-02,-1.110207289457321167e-02,-1.942614279687404633e-02,-1.458950433880090714e-02,-1.960732601583003998e-02,-6.101384758949279785e-02,3.511720523238182068e-02,2.757569542154669762e-03,1.241061557084321976e-02,4.172599688172340393e-02,-6.314704567193984985e-02,3.984795510768890381e-02,4.158327355980873108e-02,-5.951029807329177856e-02,-2.265347912907600403e-02,-6.724998354911804199e-02,-2.613157220184803009e-02
-4.663300886750221252e-02,-4.886795952916145325e-02,-3.339056856930255890e-03,-4.523894935846328735e-02,3.123078681528568268e-02,1.096505112946033478e-02,-2.575112879276275635e-02,3.120006062090396881e-03,2.649007365107536316e-02,-4.164323955774307251e-02,1.881415769457817078e-02,-1.971235685050487518e-02,-2.254861406981945038e-02,5.836354568600654602e-03,-5.659908987581729889e-03,1.076791808009147644e-02,1.684124954044818878e-02,1.177006773650646210e-02,-2.903600409626960754e-02,-3.586919605731964111e-02,4.278593137860298157e-02,2.709897235035896301e-02,9.299719706177711487e-03,2.409561164677143097e-02,1.823280565440654755e-02,-6.154105998575687408e-03,-3.818269073963165283e-02,-3.086396120488643646e-02,-4.164887964725494385e-02,-1.490715891122817993e-02,-1.504933647811412811e-02,-6.304733920842409134e-03,3.490262106060981750e-02,1.643106661504134536e-04,-6.202564388513565063e-02,-2.497677505016326904e-02,7.031605578958988190e-03,-1.329659577459096909e-02,1.078818365931510925e-02,1.925679296255111694e-02,-2.508667111396789551e-02,-6.633920595049858093e-03,-1.590797863900661469e-02,-2.214779704809188843e-02,-1.145766209810972214e-02,-5.969346035271883011e-03,2.387374639511108398e-02,1.350462902337312698e-02,1.105508953332901001e-02,-1.271231565624475479e-02,-6.834374275058507919e-03,2.922566607594490051e-02,9.987426921725273132e-03,-5.358163733035326004e-03,1.456114742904901505e-02,-2.459901198744773865e-02,-5.299611017107963562e-03,-3.630945086479187012e-02,-1.982697099447250366e-02,-1.467233896255493164e-02,6.121338345110416412e-03,2.293909055879339576e-04,3.893414512276649475e-02,-1.136250142008066177e-02,-3.061682917177677155e-03,-2.213264582678675652e-03,-1.453274209052324295e-02,3.737905621528625488e-02,1.760990358889102936e-02,2.064396627247333527e-02,-2.733714878559112549e-02,-1.996035315096378326e-02,1.838921010494232178e-02,6.800335831940174103e-03,-4.522636160254478455e-02,4.849276971071958542e-03,1.887948438525199890e-02,2.501169778406620026e-02,-1.659178547561168671e-02,5.394664127379655838e-03,2.455735346302390099e-03,3.257318399846553802e-03,-5.383091047406196594e-03,2.913736924529075623e-02,4.931302741169929504e-03,3.217289922758936882e-03,-3.461761027574539185e-02,-3.545752912759780884e-02,2.281413180753588676e-03,-1.305929664522409439e-02,-5.863370839506387711e-03,-1.633727364242076874e-02,4.610963910818099976e-02,3.619782254099845886e-02,-1.407786551862955093e-02,-8.632145472802221775e-04,1.548681315034627914e-02,-9.952760301530361176e-03,-3.081239946186542511e-02,-1.691799610853195190e-02,1.423606462776660919e-02,1.614737138152122498e-02,-9.468450210988521576e-03,-6.095637101680040359e-03,-3.224360942840576172e-02,4.490410536527633667e-02,8.325250819325447083e-03,-2.217396628111600876e-03,-9.887723252177238464e-03,2.276212908327579498e-02,-8.467216975986957550e-03,1.466149929910898209e-02,5.327727179974317551e-03,2.445974014699459076e-02,-2.176483906805515289e-02,3.621628507971763611e-03,-4.468219354748725891e-02,3.285708604380488396e-03,-3.231999464333057404e-03,4.098627716302871704e-02,-7.872452959418296814e-03,1.664669625461101532e-02,-1.964882202446460724e-02,8.965293876826763153e-03,-3.174411505460739136e-02,4.713843110948801041e-03,2.197268977761268616e-02,-2.125491620972752571e-03
8.567676879465579987e-03,4.564385488629341125e-02,-1.114087738096714020e-02,2.697527967393398285e-02,1.137940119951963425e-02,4.088968038558959961e-02,3.999203816056251526e-02,-3.212833404541015625e-02,3.551250323653221130e-02,2.994558587670326233e-02,-1.624933257699012756e-02,-1.550545450299978256e-02,-2.953842468559741974e-02,5.658774636685848236e-03,-2.883977256715297699e-02,-1.783720403909683228e-02,-1.562209334224462509e-02,4.836271516978740692e-03,5.362627562135457993e-03,2.591837570071220398e-02,-7.482864893972873688e-04,2.990155667066574097e-02,2.038326114416122437e-03,7.730584591627120972e-03,-5.606560409069061279e-02,-1.798132993280887604e-02,-2.386045083403587341e-02,2.490230463445186615e-02,-1.727798581123352051e-02,-1.654794253408908844e-02,-4.268227517604827881e-02,-3.142573684453964233e-02,1.467493548989295959e-02,-1.346116233617067337e-02,-6.125672161579132080e-02,-1.523741800338029861e-02,-3.713635727763175964e-03,-4.993544891476631165e-03,-9.748622775077819824e-03,3.345729038119316101e-02,2.867810986936092377e-02,-1.571803726255893707e-02,-2.055352553725242615e-02,5.561111494898796082e-03,-2.014266699552536011e-02,1.961494237184524536e-02,3.011522581800818443e-03,-1.813908480107784271e-02,2.049660496413707733e-02,-5.032592266798019409e-02,5.281861405819654465e-03,3.112423606216907501e-02,-1.458009239286184311e-02,1.243667094968259335e-03,6.268147379159927368e-02,-1.646652072668075562e-02,1.708471775054931641e-02,-6.690605543553829193e-03,-9.733748622238636017e-03,5.235559493303298950e-02,2.694827504456043243e-02,-2.041261829435825348e-02,-2.478023432195186615e-02,-2.207030542194843292e-02,-2.928913757205009460e-02,-2.941099740564823151e-02,3.594276728108525276e-03,1.214200281538069248e-03,-4.089678078889846802e-02,5.414457619190216064e-02,9.903992526233196259e-03,1.788463443517684937e-02,1.407069270499050617e-03,8.699919097125530243e-03,-1.571702398359775543e-02,-7.328241597861051559e-03,3.507175424601882696e-04,1.459804270416498184e-02,-7.452709134668111801e-03,2.220816351473331451e-02,1.781949400901794434e-02,9.248803369700908661e-03,-1.560366153717041016e-02,-1.573603600263595581e-02,1.431594602763652802e-02,1.137210335582494736e-02,1.924527436494827271e-02,-2.486291155219078064e-02,-1.927050389349460602e-02,-6.607174407690763474e-03,-1.398791931569576263e-02,-1.004047226160764694e-02,1.576846465468406677e-02,6.714718416333198547e-03,-1.015780866146087646e-02,5.461460910737514496e-03,3.788665635511279106e-03,2.026460319757461548e-02,4.542633518576622009e-02,3.115222789347171783e-02,-7.620978634804487228e-03,2.201619744300842285e-02,-9.703311952762305737e-04,7.919628173112869263e-03,4.777696728706359863e-02,4.021986573934555054e-02,6.970454473048448563e-03,-3.567646490409970284e-03,-7.110048085451126099e-02,-5.574486404657363892e-02,8.428639732301235199e-03,-1.469569373875856400e-02,8.399368077516555786e-02,1.165259815752506256e-02,1.909959479235112667e-03,3.943373914808034897e-03,-5.799806863069534302e-02,7.322059944272041321e-03,1.474332716315984726e-02,1.849726587533950806e-02,-6.371000409126281738e-02,3.193267621099948883e-03,-2.579415217041969299e-03,5.237611476331949234e-03,-1.758984662592411041e-02,2.971287630498409271e-02,4.567639902234077454e-02,-2.870841510593891144e-02
2.075326070189476013e-02,-3.582007810473442078e-02,-1.207966264337301254e-02,2.901211567223072052e-02,-3.355539217591285706e-02,2.317223697900772095e-03,-2.823682874441146851e-02,-1.444079331122338772e-03,-1.710889115929603577e-02,4.351284727454185486e-02,-1.260875910520553589e-01,-1.848842389881610870e-02,1.904162950813770294e-02,-1.453172694891691208e-02,-2.654943242669105530e-02,-1.258177217096090317e-02,3.848837688565254211e-02,-1.969480887055397034e-02,-5.316881462931632996e-03,-1.128004118800163269e-02,7.409637421369552612e-02,1.174181047827005386e-02,-2.617191523313522339e-02,2.126030996441841125e-02,-4.442579578608274460e-03,7.978457026183605194e-03,2.498202025890350342e-02,7.478324696421623230e-03,4.559090360999107361e-02,4.635528661310672760e-03,2.542729675769805908e-02,7.195557467639446259e-03,-2.784459106624126434e-02,-2.319857850670814514e-02,-1.507048867642879486e-02,3.885155916213989258e-02,2.127600833773612976e-02,3.228697925806045532e-02,-5.585172772407531738e-02,6.887493655085563660e-03,-8.374578901566565037e-04,4.891303833574056625e-03,3.464893251657485962e-02,-1.013358961790800095e-02,-1.347972173243761063e-02,-1.971335150301456451e-02,2.144564501941204071e-02,1.248957682400941849e-02,2.051928266882896423e-02,-5.694922874681651592e-04,6.953064352273941040e-02,6.226486526429653168e-03,-1.135588623583316803e-02,-1.282734889537096024e-02,2.877887105569243431e-03,6.048919633030891418e-02,1.653731055557727814e-02,-1.815293543040752411e-02,-6.206019315868616104e-03,-1.353250816464424133e-02,-5.023564677685499191e-03,-1.242819521576166153e-02,2.896028757095336914e-02,-8.877965621650218964e-03,-2.730241417884826660e-02,1.486853137612342834e-02,1.833515986800193787e-02,1.635230891406536102e-02,-4.525308683514595032e-02,5.973680876195430756e-03,2.962001599371433258e-02,-2.168189734220504761e-02,8.901854977011680603e-03,3.113885875791311264e-03,1.357850804924964905e-02,-1.751223020255565643e-02,-1.835406757891178131e-02,1.025632955133914948e-03,5.466868728399276733e-02,3.782870713621377945e-03,1.004657335579395294e-02,-4.652180243283510208e-03,-5.785250104963779449e-03,-1.491343486122786999e-03,-2.422211132943630219e-02,-1.134772673249244690e-01,4.399579763412475586e-02,-7.005806546658277512e-03,3.109670057892799377e-02,9.213027358055114746e-02,-1.678499579429626465e-02,1.937694475054740906e-02,2.849333453923463821e-03,-1.304941717535257339e-02,-6.372671108692884445e-03,-1.263975445181131363e-02,-2.588078752160072327e-02,1.016696728765964508e-02,1.340841595083475113e-02,6.391973234713077545e-03,-5.793761461973190308e-03,2.903665229678153992e-02,-1.959337480366230011e-02,-2.796823903918266296e-02,-4.202301427721977234e-02,2.644965797662734985e-02,-8.872980251908302307e-03,4.028491675853729248e-02,2.888908493332564831e-04,-3.056797012686729431e-02,7.187470328062772751e-03,-1.565122790634632111e-02,-6.440818775445222855e-03,7.915542460978031158e-03,-1.074971258640289307e-02,1.272206287831068039e-02,-1.143002603203058243e-02,-2.790362946689128876e-02,2.116568386554718018e-02,2.417010441422462463e-02,-8.549260906875133514e-03,-4.563668742775917053e-02,1.683695986866950989e-02,-1.051193922758102417e-01,-2.058753510937094688e-03,-2.465255558490753174e-02,4.096833243966102600e-02,3.766729962080717087e-03
6.950309500098228455e-03,3.300942853093147278e-02,4.093610122799873352e-02,2.029021084308624268e-02,3.832462802529335022e-02,-2.595788985490798950e-02,3.026278689503669739e-02,1.006359932944178581e-03,-1.526096090674400330e-02,-3.586559090763330460e-03,3.669307380914688110e-02,2.032988518476486206e-02,2.954504219815135002e-03,1.660728268325328827e-02,-6.462036073207855225e-02,-1.582527911523357034e-04,1.707755215466022491e-02,5.672521889209747314e-03,2.632009331136941910e-03,7.509818673133850098e-02,-1.562151964753866196e-02,-8.197481743991374969e-03,5.121213942766189575e-02,2.237339876592159271e-02,1.557337678968906403e-02,1.581089198589324951e-02,5.327152833342552185e-02,1.784469746053218842e-02,4.001098126173019409e-02,-4.364595934748649597e-02,1.056688930839300156e-02,3.445220366120338440e-02,5.298861116170883179e-02,9.735133498907089233e-03,-7.093391381204128265e-03,2.011853083968162537e-02,3.136304020881652832e-02,1.338208094239234924e-02,-5.291268462315201759e-04,6.235840264707803726e-03,4.377089906483888626e-03,-4.289526119828224182e-02,-1.616205833852291107e-02,7.041788846254348755e-02,2.607196383178234100e-02,1.778164505958557129e-02,3.514911979436874390e-02,8.864626288414001465e-03,3.996286913752555847e-02,3.855786100029945374e-02,-2.151053398847579956e-02,4.663691297173500061e-02,-1.669980958104133606e-02,-8.282565511763095856e-03,-1.655116304755210876e-02,8.420582860708236694e-03,6.027432903647422791e-02,-4.283279925584793091e-02,-2.596007660031318665e-02,-1.169170718640089035e-02,-2.017029188573360443e-02,-1.973785646259784698e-02,-5.609908141195774078e-03,-4.146115854382514954e-02,-8.206875645555555820e-04,-8.632247336208820343e-03,-8.139021694660186768e-03,-6.547393742948770523e-03,-7.731114979833364487e-03,-7.398031186312437057e-03,1.485460344702005386e-02,6.750014610588550568e-03,-2.039429172873497009e-02,-1.640072674490511417e-03,-5.172719433903694153e-02,-1.050271000713109970e-02,-1.361225266009569168e-02,-3.760418295860290527e-02,3.715125471353530884e-02,1.055310759693384171e-02,-1.320696086622774601e-03,1.578853651881217957e-02,-2.925676666200160980e-02,-1.620185747742652893e-02,-9.528227150440216064e-02,3.391313925385475159e-02,-3.084822371602058411e-02,1.092917751520872116e-02,1.860493607819080353e-02,-1.964670605957508087e-02,-5.659463256597518921e-02,7.530155032873153687e-02,-5.855616927146911621e-02,-5.051001440733671188e-03,3.156170994043350220e-02,2.328144386410713196e-02,-7.818869315087795258e-03,5.803840234875679016e-02,-1.947337202727794647e-02,-3.812403231859207153e-02,2.808501943945884705e-02,-1.185696688480675220e-03,-7.254951447248458862e-02,2.063287980854511261e-02,1.203791890293359756e-02,-5.101201683282852173e-02,5.583089217543601990e-02,-1.048863232135772705e-01,2.180834673345088959e-02,-8.455636911094188690e-03,-6.510279327630996704e-02,-5.398778617382049561e-02,1.627183333039283752e-02,3.400317626073956490e-03,2.743204683065414429e-02,2.626261115074157715e-02,4.653445910662412643e-03,-8.188195526599884033e-03,3.387206420302391052e-02,1.327503751963376999e-02,-3.327166778035461903e-04,1.314267665147781372e-01,-4.031708091497421265e-02,-2.999550104141235352e-02,-3.059962391853332520e-02,-1.877421326935291290e-02,5.505453795194625854e-02,1.744723320007324219e-02
-4.806967452168464661e-03,-2.431371435523033142e-02,3.302884288132190704e-04,4.413703922182321548e-03,-1.276450976729393005e-02,-2.820861525833606720e-02,-6.003533955663442612e-03,-8.853149600327014923e-03,-1.592927426099777222e-02,-1.978195086121559143e-02,1.419610111042857170e-03,2.009341865777969360e-02,1.971523463726043701e-02,-4.754880908876657486e-03,-7.063372060656547546e-03,-1.689292490482330322e-02,-5.495632067322731018e-03,-2.286178618669509888e-02,-2.355786412954330444e-02,1.941001391969621181e-03,6.457209237851202488e-04,-6.048710644245147705e-02,6.909099873155355453e-03,-2.591790817677974701e-02,-2.396997250616550446e-02,-1.633215323090553284e-02,-1.677205786108970642e-02,-1.167589612305164337e-02,1.825509965419769287e-02,-6.227799691259860992e-03,-6.335038342513144016e-04,-2.185787743655964732e-04,-1.384312659502029419e-02,-4.140403121709823608e-03,-1.354654878377914429e-02,-7.858384400606155396e-03,5.858550965785980225e-02,2.872524037957191467e-02,1.002719439566135406e-02,1.120377033948898315e-01,5.061913281679153442e-03,2.801762893795967102e-03,-2.422014996409416199e-02,-9.878970682621002197e-03,-1.164430985227227211e-03,-8.547427132725715637e-03,-2.382154390215873718e-02,2.228008210659027100e-02,-2.719760127365589142e-02,2.192826010286808014e-02,-1.334987860172986984e-02,-1.210514642298221588e-02,-7.934438996016979218e-03,-1.528869010508060455e-02,-1.978132128715515137e-02,9.961240924894809723e-03,3.796938573941588402e-03,-1.700916513800621033e-02,2.084475941956043243e-02,-2.485731802880764008e-02,3.993918374180793762e-02,-2.811509417369961739e-03,-1.111749187111854553e-02,4.012991208583116531e-03,-4.566077142953872681e-02,4.620947875082492828e-03,-6.310401856899261475e-02,-3.309648483991622925e-03,-3.332890919409692287e-04,-3.846385516226291656e-03,3.961724042892456055e-02,-1.223024632781744003e-02,-1.621686667203903198e-02,7.885253056883811951e-03,1.643785461783409119e-02,4.558193311095237732e-02,3.200987726449966431e-02,-1.252909842878580093e-02,-4.491217434406280518e-03,3.248811513185501099e-02,-3.841362195089459419e-03,7.870093733072280884e-02,3.959446679800748825e-03,-1.185536105185747147e-02,3.012146428227424622e-02,-3.125645965337753296e-02,-4.025734961032867432e-02,-2.449520304799079895e-02,-3.179158782586455345e-03,-3.605814999900758266e-04,3.091885522007942200e-02,3.202273743227124214e-03,-1.764787733554840088e-02,8.041146211326122284e-04,1.965516805648803711e-02,-8.502633124589920044e-02,2.603649906814098358e-02,-5.697262007743120193e-03,2.051195362582802773e-03,-3.026931080967187881e-04,-2.197892218828201294e-02,4.501539841294288635e-02,-7.637495640665292740e-03,-5.609499756246805191e-03,-2.016057074069976807e-02,-4.865616792812943459e-04,-3.138184919953346252e-02,-4.327842593193054199e-02,-1.771274209022521973e-02,-1.292190235108137131e-02,-2.150443010032176971e-02,1.956341415643692017e-02,-8.930326998233795166e-02,4.849084839224815369e-02,-4.261043667793273926e-02,2.075760997831821442e-02,9.778806008398532867e-03,3.519599139690399170e-02,9.021640755236148834e-03,-1.699579763226211071e-03,-1.037789881229400635e-02,-4.152967780828475952e-02,5.772771779447793961e-03,6.475264672189950943e-03,1.396970730274915695e-02,1.459321286529302597e-02,-2.700271457433700562e-02,-1.628376170992851257e-02
2.990414761006832123e-02,2.899938635528087616e-02,-8.574368432164192200e-03,-1.743876561522483826e-02,-2.793709933757781982e-02,3.747384995222091675e-02,2.529585920274257660e-02,-3.218244761228561401e-02,9.286462329328060150e-03,2.126584202051162720e-02,2.214514277875423431e-02,1.486116833984851837e-02,-1.336572505533695221e-02,-5.648299586027860641e-03,8.980107493698596954e-03,-3.873059526085853577e-02,2.761667594313621521e-02,4.200591892004013062e-02,8.951014839112758636e-03,-1.339655928313732147e-02,1.328509300947189331e-03,-1.238791970536112785e-03,1.085396762937307358e-02,7.779805921018123627e-03,-1.590160652995109558e-02,-2.456194721162319183e-02,1.333424914628267288e-02,1.045315247029066086e-02,4.892501514405012131e-03,1.797326840460300446e-02,-9.975508600473403931e-02,2.062650956213474274e-02,-8.264872245490550995e-03,1.663662493228912354e-02,4.617180675268173218e-03,3.072476945817470551e-02,3.249133005738258362e-02,-3.263043612241744995e-02,3.290811181068420410e-02,-2.517465651035308838e-01,-5.497145280241966248e-02,-9.663417935371398926e-03,-7.225845009088516235e-03,-6.323346402496099472e-03,3.449719399213790894e-03,1.739222183823585510e-02,-4.718619864434003830e-03,1.069321017712354660e-02,1.192658394575119019e-01,-1.823355851229280233e-04,2.395002916455268860e-02,-1.552486419677734375e-02,1.452016737312078476e-02,1.654860377311706543e-02,-1.407236512750387192e-02,2.042266074568033218e-03,2.409964241087436676e-02,-8.003056980669498444e-03,-3.194343671202659607e-02,-8.024122565984725952e-02,1.962176524102687836e-02,1.189355156384408474e-03,2.368271350860595703e-02,-2.743864664807915688e-03,-1.322232037782669067e-01,-3.286466747522354126e-02,7.648624479770660400e-02,2.998106181621551514e-02,2.029059454798698425e-02,-2.310203388333320618e-02,-9.073290042579174042e-03,-7.474631536751985550e-03,-7.475138455629348755e-02,1.703987480141222477e-03,-1.179138291627168655e-02,3.647466748952865601e-02,4.088879004120826721e-02,-1.994812302291393280e-02,1.272377558052539825e-02,-8.260753750801086426e-02,-6.753587629646062851e-03,-1.418829262256622314e-01,-4.945520311594009399e-03,3.677836153656244278e-03,1.842797733843326569e-03,3.315670043230056763e-02,-1.942041330039501190e-02,1.082256995141506195e-02,1.011658646166324615e-02,2.145791240036487579e-02,2.283845655620098114e-02,3.391282260417938232e-02,1.856995932757854462e-02,4.463734850287437439e-02,1.970888674259185791e-02,1.123029142618179321e-01,3.664676100015640259e-03,9.447695687413215637e-03,7.473725359886884689e-03,-2.317349985241889954e-02,-3.017500508576631546e-03,-3.736733924597501755e-03,9.490530937910079956e-03,-1.101061515510082245e-02,-4.897640552371740341e-03,-1.302879117429256439e-02,-6.474927067756652832e-03,-1.140153221786022186e-02,-3.102206625044345856e-02,2.231104858219623566e-02,1.731565594673156738e-02,-1.612503081560134888e-02,1.182242259383201599e-01,6.022518128156661987e-02,7.315274793654680252e-03,1.354409847408533096e-02,2.404372207820415497e-02,-9.344417601823806763e-03,-2.695641480386257172e-02,3.070645034313201904e-03,3.521007252857089043e-03,-2.509189024567604065e-02,2.930353581905364990e-02,5.716483428841456771e-05,1.005352474749088287e-02,1.974589377641677856e-02,-3.049787366762757301e-03,-2.120586484670639038e-02
-2.759475726634263992e-03,2.197182364761829376e-02,-1.521773356944322586e-02,-1.210744492709636688e-02,6.105253007262945175e-03,6.218548398464918137e-03,5.822234787046909332e-03,-1.233869814313948154e-03,-2.995799481868743896e-02,-1.734006218612194061e-02,-1.586617669090628624e-03,-1.501381513662636280e-03,-2.370906248688697815e-02,1.491976715624332428e-02,1.754416152834892273e-02,3.612442314624786377e-02,2.968028187751770020e-02,5.232770368456840515e-02,1.485099177807569504e-02,3.187652304768562317e-02,1.842124038375914097e-03,-1.398761663585901260e-02,1.361809670925140381e-02,3.478093817830085754e-02,-4.518389701843261719e-03,-5.931663140654563904e-02,2.907810965552926064e-03,2.849755808711051941e-02,4.453721456229686737e-03,-1.553214713931083679e-02,-9.687878191471099854e-03,2.340264990925788879e-02,2.072304114699363708e-02,-1.455306913703680038e-02,2.034842595458030701e-02,-1.872992143034934998e-02,-4.823642224073410034e-02,8.073835633695125580e-03,-1.377658639103174210e-02,-2.795182168483734131e-02,6.093889009207487106e-03,-4.922514036297798157e-02,2.234491147100925446e-02,2.311667613685131073e-02,1.597860455513000488e-02,4.355000704526901245e-02,2.477883547544479370e-02,-6.367083173245191574e-03,-5.876351520419120789e-02,-1.465299166738986969e-02,1.840604655444622040e-02,-3.020556457340717316e-02,6.305824033915996552e-03,3.472493588924407959e-02,6.412734836339950562e-02,3.188269212841987610e-02,1.500665023922920227e-02,1.133139128796756268e-03,-9.139669127762317657e-03,4.122794792056083679e-02,3.735097497701644897e-02,2.330104587599635124e-03,-1.499735633842647076e-03,-1.931716501712799072e-02,1.675513200461864471e-02,4.099644348025321960e-02,-5.095170065760612488e-02,-4.471032693982124329e-02,-2.204477350460365415e-04,7.743841968476772308e-03,-4.886986222118139267e-03,-1.476079877465963364e-02,5.386887118220329285e-02,-3.737020865082740784e-02,2.510900981724262238e-02,-2.882054075598716736e-02,4.556287545710802078e-03,1.047198697924613953e-01,-5.870220484212040901e-04,-8.299420587718486786e-03,4.983216989785432816e-03,6.776079535484313965e-02,1.394772343337535858e-02,3.491018712520599365e-02,-1.178425736725330353e-02,-5.722244735807180405e-03,-1.661676727235317230e-02,-4.406677186489105225e-02,1.115631032735109329e-02,-2.552419528365135193e-02,3.144384548068046570e-02,1.868888735771179199e-02,-1.980714872479438782e-02,-2.480312809348106384e-02,-1.258805394172668457e-02,6.963936239480972290e-02,4.031970724463462830e-02,2.850746177136898041e-02,-7.114255428314208984e-02,-5.540342256426811218e-02,-3.023591078817844391e-02,-1.523554045706987381e-02,1.035514939576387405e-02,-5.218099802732467651e-02,3.426614403724670410e-02,7.252164068631827831e-04,3.131632134318351746e-02,5.813099443912506104e-02,4.483507573604583740e-02,5.241105705499649048e-02,-1.442186720669269562e-02,-1.595519855618476868e-02,2.597017679363489151e-03,-3.875164687633514404e-02,8.057249709963798523e-03,-3.004041034728288651e-03,-1.037742048501968384e-01,2.530291676521301270e-02,-2.041462576016783714e-03,-2.105930179823189974e-04,-8.486793935298919678e-02,-1.356101874262094498e-02,-3.495846316218376160e-02,-2.480828203260898590e-03,1.411119010299444199e-02,3.246332332491874695e-02,-2.774806693196296692e-03,8.055558055639266968e-02
-2.674694731831550598e-02,6.804848089814186096e-03,-3.157740691676735878e-03,-4.104641266167163849e-03,2.576864091679453850e-03,3.520369529724121094e-02,2.864630147814750671e-02,1.059064175933599472e-03,-1.746847480535507202e-02,-9.021478705108165741e-03,5.340785253793001175e-03,-1.291695702821016312e-02,-1.389563083648681641e-02,6.130148470401763916e-02,3.156327456235885620e-02,3.221566090360283852e-03,-2.753203548491001129e-02,1.884690113365650177e-02,-6.397992372512817383e-03,-5.240376666188240051e-02,-1.729634776711463928e-02,1.280130725353956223e-02,-2.336907945573329926e-02,6.965305190533399582e-03,-2.392489463090896606e-02,-8.227866142988204956e-03,1.304195076227188110e-02,-2.672430872917175293e-02,8.702026680111885071e-03,3.487983345985412598e-02,-5.031083151698112488e-02,5.106332246214151382e-03,-7.297905161976814270e-03,4.834477603435516357e-02,-3.060184419155120850e-02,1.891696266829967499e-02,-5.893782898783683777e-02,-2.738390117883682251e-02,-8.680346421897411346e-03,7.772841490805149078e-04,-5.114610493183135986e-02,1.338023692369461060e-03,1.258003991097211838e-02,1.553127425722777843e-03,7.498115301132202148e-03,2.332532219588756561e-02,-9.080894291400909424e-03,1.862334273755550385e-02,-1.426061149686574936e-02,3.643263503909111023e-02,3.233184665441513062e-02,-1.296419277787208557e-02,-1.281963195651769638e-02,1.452576741576194763e-02,-4.993648082017898560e-02,-9.125688113272190094e-03,1.715596579015254974e-02,-2.497574314475059509e-02,-3.521269187331199646e-02,4.865192342549562454e-03,3.249583765864372253e-02,-4.745236784219741821e-02,-1.310232444666326046e-03,-3.125835955142974854e-02,-1.361408457159996033e-02,-1.027459744364023209e-02,2.582610584795475006e-03,3.265072777867317200e-02,1.189295761287212372e-02,4.902411601506173611e-04,2.134262584149837494e-02,1.505103521049022675e-02,-1.066526956856250763e-02,1.042112708091735840e-02,-4.926506895571947098e-03,-2.397755160927772522e-02,-5.825765547342598438e-04,-7.076247595250606537e-03,-1.425741938874125481e-03,6.204125937074422836e-03,-2.085261512547731400e-03,1.332647539675235748e-02,8.157516829669475555e-03,2.895452827215194702e-02,-2.090283483266830444e-02,-2.082379534840583801e-02,-2.613138593733310699e-02,-7.707997690886259079e-03,-1.758221350610256195e-02,1.386351231485605240e-02,-8.881759829819202423e-03,-1.581396348774433136e-02,2.205307828262448311e-03,-2.923066494986414909e-03,-9.158425964415073395e-03,1.802057959139347076e-02,-3.572201728820800781e-02,6.132198963314294815e-03,2.481038309633731842e-02,9.936013817787170410e-02,-2.892084978520870209e-02,-5.794133245944976807e-02,-1.470811292529106140e-02,1.911915489472448826e-03,-1.318425778299570084e-02,2.268691547214984894e-02,-6.335078179836273193e-02,4.189534112811088562e-02,-1.661449857056140900e-02,1.492161490023136139e-02,-4.339163005352020264e-02,1.419504079967737198e-02,-8.617241866886615753e-03,-3.189070615917444229e-03,-2.045952482149004936e-03,-9.298486635088920593e-03,-5.345965549349784851e-02,-2.184684015810489655e-02,-1.780334976501762867e-03,-1.886871643364429474e-02,1.190125476568937302e-02,-3.536593168973922729e-02,-1.786000677384436131e-03,2.572696655988693237e-02,1.675848849117755890e-02,4.162839427590370178e-02,8.351887576282024384e-03,-1.572086475789546967e-02
1.542895566672086716e-02,-3.096779249608516693e-02,7.462151814252138138e-03,-5.724239745177328587e-04,5.054090544581413269e-02,-3.295994549989700317e-02,1.045751199126243591e-02,-3.931951522827148438e-02,-4.371291771531105042e-02,-8.057531714439392090e-02,-1.363601535558700562e-02,2.191308699548244476e-02,1.530670188367366791e-02,-3.476390847936272621e-04,-7.512779533863067627e-02,-2.493610791862010956e-02,-2.848544158041477203e-02,-3.725905716419219971e-02,2.479758858680725098e-02,-1.208214182406663895e-02,-5.027447640895843506e-02,5.167616158723831177e-02,-5.493814498186111450e-02,-1.434538792818784714e-02,5.304991826415061951e-02,1.957992836833000183e-02,-2.389869187027215958e-03,-2.281277440488338470e-02,-9.555324912071228027e-03,7.941827178001403809e-02,-6.312722712755203247e-02,-5.121856927871704102e-02,6.100906757637858391e-04,-1.998801901936531067e-02,-1.096938271075487137e-03,-1.527478080242872238e-02,-2.342850342392921448e-02,-7.118807733058929443e-02,-7.986611686646938324e-03,1.772036589682102203e-02,1.441513188183307648e-02,-1.510299891233444214e-01,5.598360206931829453e-03,1.207839418202638626e-02,-3.393808007240295410e-02,-9.912031888961791992e-02,1.234735711477696896e-03,-2.708833478391170502e-02,-2.629936300218105316e-02,1.622206717729568481e-02,-1.116818399168550968e-03,-4.122432321310043335e-03,4.345703125000000000e-02,3.923581913113594055e-03,-6.790159642696380615e-02,-1.448270492255687714e-02,1.684298180043697357e-02,1.515970472246408463e-02,-4.469290375709533691e-02,2.503862977027893066e-02,-6.216826848685741425e-03,-1.415499858558177948e-02,6.107490975409746170e-03,1.094609685242176056e-02,5.959201604127883911e-02,-5.925305560231208801e-02,7.677939534187316895e-02,-1.635367982089519501e-02,-4.845587164163589478e-02,-5.237749218940734863e-02,-9.926208294928073883e-03,-3.623229265213012695e-02,-3.594519197940826416e-02,-2.638672478497028351e-02,-2.595004066824913025e-02,2.434041351079940796e-02,-5.294207483530044556e-02,2.397078275680541992e-02,-4.774985369294881821e-03,2.363468147814273834e-02,5.003447085618972778e-02,-2.762459591031074524e-02,5.339225754141807556e-02,-1.115231439471244812e-01,-1.753388717770576477e-02,1.256225816905498505e-02,6.317400932312011719e-02,-3.585674986243247986e-02,-7.390522863715887070e-03,1.433856133371591568e-02,1.294993679039180279e-03,-3.582921624183654785e-02,-6.630723178386688232e-02,-9.268999099731445312e-03,-1.614763028919696808e-02,-1.272414438426494598e-02,3.212391957640647888e-02,-3.170428331941366196e-03,-4.008607193827629089e-02,5.488775670528411865e-02,4.027035087347030640e-02,1.554741873405873775e-03,2.543620951473712921e-02,-6.138812284916639328e-03,1.529079116880893707e-02,3.185596689581871033e-02,2.556901425123214722e-02,-3.903945907950401306e-02,-5.477759614586830139e-02,-9.449762105941772461e-02,-4.404012858867645264e-02,-3.829110180959105492e-03,-1.474119722843170166e-02,3.119539469480514526e-02,1.361751090735197067e-02,5.347051192075014114e-03,4.051276016980409622e-03,8.719854988157749176e-03,-1.010668743401765823e-02,-1.616728142835199833e-03,-4.609673842787742615e-02,-3.592381486669182777e-03,-4.537173733115196228e-02,-2.925144508481025696e-02,6.903720647096633911e-02,-7.499040663242340088e-02,1.919021084904670715e-02,-2.812438085675239563e-02
-4.149034991860389709e-02,2.273689396679401398e-02,2.116859517991542816e-02,3.593694054870866239e-05,3.244435042142868042e-02,-6.719545461237430573e-03,1.653001643717288971e-02,7.027290016412734985e-02,7.392548955976963043e-03,1.039043441414833069e-01,-2.581772394478321075e-02,-5.047328770160675049e-02,2.572231926023960114e-02,1.772568188607692719e-02,-2.090062387287616730e-02,-3.560300217941403389e-03,5.637419968843460083e-02,-1.334398053586483002e-02,2.931970171630382538e-02,3.334641223773360252e-03,-2.332775853574275970e-02,-3.227954264730215073e-03,-3.029801696538925171e-02,-5.473244935274124146e-03,-6.996986269950866699e-02,-2.486239373683929443e-02,3.992645815014839172e-02,-1.801388524472713470e-02,-3.676331788301467896e-02,-8.071066439151763916e-02,2.259052172303199768e-02,-2.619561180472373962e-02,-1.840393990278244019e-02,1.315185148268938065e-02,6.885927170515060425e-02,2.751916460692882538e-02,8.132205344736576080e-03,1.464072894304990768e-02,-1.496923435479402542e-02,-2.057168819010257721e-02,-4.836488887667655945e-02,-3.735567629337310791e-02,3.101972164586186409e-03,-4.915034398436546326e-03,-3.608511760830879211e-02,-2.319440431892871857e-02,4.645074252039194107e-03,-1.132486853748559952e-03,-8.176906965672969818e-03,-1.513381954282522202e-02,-1.951974257826805115e-02,-3.648158535361289978e-02,1.014243159443140030e-02,1.412044093012809753e-02,-1.188707053661346436e-01,-4.565625637769699097e-02,1.145462691783905029e-02,7.913803309202194214e-02,-4.811754822731018066e-02,-1.031404081732034683e-02,-3.683580085635185242e-02,1.109632384032011032e-02,-4.087372217327356339e-03,3.620456904172897339e-02,-5.359831824898719788e-02,4.719628952443599701e-03,-7.934475317597389221e-03,1.868325471878051758e-02,2.725392766296863556e-02,2.120919339358806610e-02,-1.224803854711353779e-03,-4.213979467749595642e-03,4.301982000470161438e-02,-3.083714470267295837e-02,4.640565603040158749e-04,6.875473260879516602e-02,-4.552195314317941666e-03,-3.661365434527397156e-02,-5.447478964924812317e-02,6.250632926821708679e-03,6.868810206651687622e-02,-1.265416573733091354e-02,3.521019592881202698e-02,-4.411038756370544434e-02,-5.744241178035736084e-02,-1.212976314127445221e-02,-7.583093363791704178e-03,-3.594293084461241961e-04,6.650588661432266235e-02,-3.799877315759658813e-02,-3.839591285213828087e-03,4.730411618947982788e-02,7.406236231327056885e-02,-2.079045213758945465e-02,-7.621411234140396118e-02,2.608666196465492249e-02,-3.940688073635101318e-02,9.056743001565337181e-04,4.144794866442680359e-02,-8.003029227256774902e-02,-2.100604027509689331e-02,1.827733591198921204e-02,-5.057043582201004028e-02,-6.564740091562271118e-02,-5.190337821841239929e-02,-8.373396471142768860e-03,-2.510852739214897156e-02,1.164930220693349838e-02,5.016766861081123352e-02,-1.202424988150596619e-03,7.822682708501815796e-02,-9.961608797311782837e-02,-1.951816142536699772e-03,1.621893048286437988e-02,-4.953061789274215698e-02,-1.495481934398412704e-02,-1.360471919178962708e-02,1.983716711401939392e-02,5.367636680603027344e-03,-2.436258271336555481e-02,-2.769474231172353029e-04,5.319480784237384796e-03,-2.666651271283626556e-02,6.695280224084854126e-02,-1.938953064382076263e-02,-5.978486686944961548e-02,-2.218339219689369202e-02,-4.261459037661552429e-02
-2.477375324815511703e-03,2.379499375820159912e-02,-1.291448809206485748e-02,2.302314154803752899e-02,1.243783254176378250e-02,3.387820348143577576e-02,1.021921925712376833e-04,-6.080162245780229568e-03,1.184046268463134766e-02,2.941065095365047455e-02,-9.741085581481456757e-03,-1.414363272488117218e-02,1.024666242301464081e-02,1.439857203513383865e-02,-1.079856324940919876e-02,3.499007970094680786e-02,4.315632954239845276e-02,-1.458741258829832077e-02,-3.831720352172851562e-02,1.012169290333986282e-02,6.639895960688591003e-03,-5.090621486306190491e-02,-1.403599884361028671e-02,2.982064709067344666e-02,2.033176273107528687e-02,5.044675245881080627e-02,-9.631988592445850372e-03,4.097443073987960815e-03,-2.003658097237348557e-03,-1.097447518259286880e-02,-2.679054811596870422e-02,1.068699732422828674e-02,1.752288453280925751e-02,2.583502233028411865e-02,-2.597302943468093872e-02,-2.307082526385784149e-02,3.503504395484924316e-02,1.334411930292844772e-02,-1.867348514497280121e-02,6.384904962033033371e-03,-5.199973937124013901e-03,-1.661853492259979248e-02,-6.459339056164026260e-03,-1.528355106711387634e-02,2.224204875528812408e-02,1.191981253214180470e-03,1.709264703094959259e-02,2.694822847843170166e-02,-1.613958925008773804e-02,4.609314352273941040e-02,2.526952140033245087e-02,4.665223881602287292e-02,-2.633161097764968872e-02,6.824745796620845795e-03,-2.783900499343872070e-02,-4.171707201749086380e-03,1.360071450471878052e-02,-4.154853895306587219e-02,-5.589437112212181091e-02,-1.222161669284105301e-02,-2.447549439966678619e-02,-1.666381140239536762e-03,1.614485867321491241e-02,1.094817183911800385e-02,-8.389033377170562744e-03,9.619464166462421417e-03,1.130348071455955505e-02,-4.484902694821357727e-02,-1.941298320889472961e-02,4.659153148531913757e-02,-2.546196430921554565e-02,-1.364358514547348022e-02,1.155787147581577301e-02,-8.442667312920093536e-03,3.977504372596740723e-02,4.226356372237205505e-02,-4.659684002399444580e-02,5.608647130429744720e-03,-1.433404255658388138e-02,-2.766251564025878906e-02,1.260483916848897934e-02,-2.436044998466968536e-02,2.517405711114406586e-02,2.996860258281230927e-02,2.271643839776515961e-02,-1.757593266665935516e-02,-1.818133331835269928e-02,4.077205434441566467e-03,-1.951350644230842590e-02,-1.450484432280063629e-02,4.467047750949859619e-03,1.955132372677326202e-02,2.066742395982146263e-03,3.313499689102172852e-02,2.561867237091064453e-02,-6.644301465712487698e-04,2.995912171900272369e-02,-3.266267850995063782e-02,-6.604669988155364990e-02,1.351924892514944077e-02,-1.896883710287511349e-03,-1.612651161849498749e-02,-3.063837252557277679e-02,-1.452175807207822800e-02,7.872718386352062225e-03,-1.066398248076438904e-02,-1.664718985557556152e-02,3.363906219601631165e-02,3.281644778326153755e-03,-1.647258922457695007e-02,2.079653367400169373e-02,-2.556771738454699516e-03,5.663468502461910248e-03,2.425057999789714813e-02,-2.192581072449684143e-02,3.853708878159523010e-02,8.296622894704341888e-03,1.324360724538564682e-02,-9.697512723505496979e-03,-2.429561689496040344e-02,-1.840872282627969980e-04,-2.240587025880813599e-02,-2.806747145950794220e-02,-1.600230694748461246e-03,1.139652635902166367e-02,2.121492102742195129e-02,-2.061679214239120483e-02,-2.456152066588401794e-02
-2.962355269119143486e-03,-1.886804774403572083e-02,-1.694029383361339569e-02,-1.193218980915844440e-03,-8.984168991446495056e-03,-4.052285104990005493e-02,-1.559191849082708359e-02,-9.928048402070999146e-02,-1.083775330334901810e-02,-1.790458522737026215e-02,-1.615674793720245361e-02,-3.193799173459410667e-03,9.833085350692272186e-03,5.641790572553873062e-03,3.116322914138436317e-03,-9.013422764837741852e-03,2.151855826377868652e-02,3.510782495141029358e-02,1.097850780934095383e-02,6.236486602574586868e-03,-7.089690305292606354e-03,-7.327322382479906082e-03,-1.493064593523740768e-02,8.938428945839405060e-03,1.959517411887645721e-02,-8.210501633584499359e-03,-3.003063611686229706e-02,4.632333666086196899e-02,1.709778420627117157e-02,2.948513440787792206e-02,-1.152875833213329315e-02,5.124443676322698593e-03,4.980474710464477539e-03,-2.120879478752613068e-02,6.887584459036588669e-03,4.138091579079627991e-03,1.939241215586662292e-02,-5.672086495906114578e-03,-1.081722695380449295e-02,-6.883219350129365921e-03,1.432184036821126938e-02,-3.973393887281417847e-02,-1.269494462758302689e-02,9.592778980731964111e-03,-3.406004980206489563e-03,2.196592837572097778e-02,-1.836184971034526825e-02,-2.457785047590732574e-02,-6.990263238549232483e-03,1.477206591516733170e-02,-2.895253710448741913e-03,5.596783943474292755e-03,3.386128321290016174e-02,1.826535537838935852e-02,-2.907916717231273651e-02,1.119527406990528107e-02,5.650383234024047852e-02,-1.567998155951499939e-02,1.331466529518365860e-02,-2.463587000966072083e-02,-4.426639992743730545e-03,-1.509881392121315002e-02,7.561015430837869644e-03,-6.555479485541582108e-04,-1.091885846108198166e-02,-1.108431164175271988e-02,-1.635827682912349701e-02,-1.317581534385681152e-02,3.164369985461235046e-02,-1.112979836761951447e-02,-2.076919935643672943e-02,-6.526331882923841476e-03,1.220683567225933075e-02,-1.071078144013881683e-02,2.223896607756614685e-02,-1.109859813004732132e-02,-1.392391882836818695e-02,7.946261204779148102e-03,-1.183994393795728683e-02,-2.258176170289516449e-02,1.746962405741214752e-02,4.731077700853347778e-03,3.472786769270896912e-02,-1.269373483955860138e-02,1.762938685715198517e-03,-4.297997057437896729e-02,1.566974818706512451e-02,-3.785140812397003174e-02,-2.690892666578292847e-03,1.794888265430927277e-02,6.217847112566232681e-03,1.959792338311672211e-02,1.967206224799156189e-02,-1.163220033049583435e-02,2.453252300620079041e-02,-2.029088884592056274e-02,-7.006143778562545776e-02,-6.879404187202453613e-03,-9.213236160576343536e-03,2.316959016025066376e-02,-4.482525214552879333e-02,-1.220883056521415710e-02,2.720439247786998749e-02,4.105365276336669922e-02,1.547745894640684128e-02,1.708213612437248230e-02,-1.572553068399429321e-02,-3.242448344826698303e-02,-5.852709710597991943e-02,-6.575261801481246948e-02,1.037764549255371094e-02,6.952255032956600189e-03,-3.255654126405715942e-02,9.635953232645988464e-03,-2.846345864236354828e-02,2.328897640109062195e-02,-7.461999077349901199e-03,-8.987054228782653809e-03,-1.529783196747303009e-02,1.477379817515611649e-02,-1.435701618902385235e-03,8.766308426856994629e-03,1.923117414116859436e-02,-6.348987109959125519e-03,-6.075109704397618771e-04,1.608897000551223755e-02,2.179380878806114197e-02,-1.134564634412527084e-02
-1.492023188620805740e-02,2.009001933038234711e-02,-4.489687457680702209e-02,-1.842157915234565735e-02,-2.500410377979278564e-02,-3.417558595538139343e-02,-3.084688447415828705e-02,-4.235650971531867981e-02,2.957043424248695374e-02,-1.347808819264173508e-02,1.469453796744346619e-02,-1.820231415331363678e-02,5.116729531437158585e-03,2.172535471618175507e-02,2.069654176011681557e-03,-5.191553849726915359e-03,-2.890961058437824249e-02,1.770118437707424164e-02,7.034763693809509277e-04,4.358249902725219727e-02,3.779809921979904175e-04,-2.361050434410572052e-02,-3.395110741257667542e-02,-7.362592965364456177e-02,-1.219688449054956436e-02,1.421606633812189102e-02,3.999263420701026917e-02,-1.087975781410932541e-02,-3.379118861630558968e-03,1.740052178502082825e-02,1.084605976939201355e-01,7.732142694294452667e-03,-1.430477295070886612e-02,-4.497894272208213806e-02,-1.289089675992727280e-02,1.123334467411041260e-02,1.960648782551288605e-02,4.262073338031768799e-02,-3.899101167917251587e-02,2.610015869140625000e-02,-1.157280802726745605e-01,3.698262153193354607e-03,-5.867145955562591553e-03,-2.306192554533481598e-02,1.971336267888545990e-02,-1.679187826812267303e-02,-1.585576497018337250e-02,6.251946091651916504e-03,-3.697438165545463562e-02,-3.623644588515162468e-03,6.375160533934831619e-03,-7.302872091531753540e-02,-8.510791696608066559e-03,-7.165354210883378983e-03,-1.496756374835968018e-01,9.730354882776737213e-03,-6.183030083775520325e-03,8.815446635708212852e-04,-1.769362241029739380e-01,-4.839316383004188538e-02,-8.719693869352340698e-02,1.276121288537979126e-02,5.797693040221929550e-03,1.915187388658523560e-02,-1.760564185678958893e-02,8.180761709809303284e-03,2.131384611129760742e-02,-3.950406238436698914e-02,9.222045540809631348e-03,2.489864639937877655e-02,8.289603516459465027e-03,-6.238547153770923615e-03,-5.387817695736885071e-02,-2.034397795796394348e-02,2.021710574626922607e-02,1.961254747584462166e-03,-9.928479790687561035e-03,-6.709694862365722656e-02,-4.591460525989532471e-02,-6.000293418765068054e-03,-2.990003861486911774e-02,-7.852154970169067383e-02,-1.621441915631294250e-02,-3.078024461865425110e-02,-2.043511485680937767e-03,-3.371911495923995972e-02,5.099706351757049561e-03,5.857142433524131775e-02,-2.417936921119689941e-03,-1.814037933945655823e-02,1.967275887727737427e-02,-4.938566684722900391e-02,-4.653147235512733459e-02,-1.580076850950717926e-02,1.581539213657379150e-02,2.464019693434238434e-02,-3.211048990488052368e-02,-1.721525937318801880e-02,6.884521245956420898e-02,4.203849658370018005e-02,6.390639115124940872e-03,-2.076702006161212921e-02,4.735390655696392059e-03,3.024056367576122284e-02,8.035488426685333252e-03,-6.562353670597076416e-02,2.557677961885929108e-02,1.883342862129211426e-02,8.158868551254272461e-02,-4.206965491175651550e-02,4.195149242877960205e-02,2.807493880391120911e-02,2.440900169312953949e-02,-1.201120787300169468e-03,-1.340960990637540817e-02,3.644634038209915161e-02,1.346499025821685791e-01,-1.738047040998935699e-02,3.891741856932640076e-02,1.156110502779483795e-02,7.301744818687438965e-02,4.252063855528831482e-02,-3.625220805406570435e-02,-3.134741634130477905e-02,1.687538251280784607e-02,-9.591558016836643219e-03,-5.189648829400539398e-03,-9.325806749984622002e-04
1.194620621390640736e-03,-3.824590938165783882e-03,-2.280300855636596680e-02,3.194113669451326132e-04,9.662035852670669556e-03,4.187561571598052979e-03,2.426294051110744476e-02,-6.814937293529510498e-02,4.446204006671905518e-02,1.402635127305984497e-02,5.984943360090255737e-03,-1.672091521322727203e-02,-4.958385135978460312e-03,5.668073892593383789e-02,1.501057296991348267e-02,1.621502079069614410e-02,-3.305150894448161125e-03,-1.190966553986072540e-02,1.425681286491453648e-03,-5.276112817227840424e-03,1.394992787390947342e-02,1.340298634022474289e-02,-3.135236212983727455e-03,-1.368234748952090740e-03,-1.809468865394592285e-02,-4.596808459609746933e-03,7.211037725210189819e-02,-3.239097818732261658e-02,5.577870644629001617e-03,1.642791368067264557e-02,1.380678033456206322e-03,-1.345503889024257660e-02,5.379459820687770844e-03,-4.016066342592239380e-02,-5.998729728162288666e-03,2.210164209827780724e-03,2.558508701622486115e-02,-1.112772710621356964e-02,1.355558075010776520e-02,-1.080004312098026276e-02,2.835080958902835846e-02,1.502260938286781311e-02,2.556745521724224091e-02,-6.736103445291519165e-03,-4.411026835441589355e-03,-4.354942217469215393e-02,-3.440588712692260742e-02,1.108230929821729660e-02,-2.696082182228565216e-02,3.433894366025924683e-02,2.091133780777454376e-02,6.399142555892467499e-03,-4.573220759630203247e-02,1.422189874574542046e-03,1.042558439075946808e-02,4.285544855520129204e-05,2.058005332946777344e-02,-2.549836179241538048e-03,-1.061649899929761887e-02,-3.751818556338548660e-03,1.879291050136089325e-02,1.504707615822553635e-02,-2.137698233127593994e-02,1.432050112634897232e-02,-8.987538516521453857e-03,1.099424436688423157e-02,4.559251014143228531e-03,1.906939037144184113e-02,3.521224716678261757e-03,-2.715808711946010590e-02,1.418365631252527237e-02,1.714747585356235504e-02,4.220539703965187073e-03,2.540314942598342896e-02,-2.470817789435386658e-02,2.334823459386825562e-02,4.683844745159149170e-03,-1.960393413901329041e-02,-1.891197264194488525e-02,-3.253440931439399719e-02,-1.684414595365524292e-02,-4.597067832946777344e-02,-7.810902316123247147e-03,-1.574013754725456238e-02,3.073525987565517426e-02,-1.492100488394498825e-02,-6.357194390147924423e-03,2.150802873075008392e-02,5.266956053674221039e-03,-1.921049878001213074e-02,-3.805265575647354126e-02,2.501252666115760803e-02,2.631743811070919037e-02,-8.184242062270641327e-03,2.888464659918099642e-04,-4.758336395025253296e-02,-3.078820183873176575e-02,-1.480532437562942505e-02,2.383126318454742432e-02,4.354557488113641739e-03,1.587359048426151276e-02,1.916518993675708771e-02,3.506871405988931656e-03,-4.112498369067907333e-03,-2.406905638054013252e-03,-2.772117964923381805e-03,4.959485493600368500e-03,-2.201350219547748566e-02,-4.589473363012075424e-03,-2.836594544351100922e-02,-2.131455019116401672e-02,1.310168765485286713e-03,-1.203257311135530472e-02,-1.683471351861953735e-02,-2.641164930537343025e-03,4.060823004692792892e-03,1.284723449498414993e-02,1.099604181945323944e-02,3.824699670076370239e-03,1.049559749662876129e-02,-2.798720076680183411e-02,-1.199382636696100235e-02,6.309996359050273895e-03,2.608137391507625580e-02,2.384359575808048248e-02,9.248747490346431732e-03,1.312521751970052719e-02,-1.953645795583724976e-02
1.376936584711074829e-02,-2.451493171975016594e-03,1.594532653689384460e-02,-2.232584916055202484e-02,-1.914482749998569489e-02,5.706697702407836914e-03,-4.006993956863880157e-03,-7.577009033411741257e-03,-6.661133840680122375e-03,2.420134842395782471e-03,-3.137841448187828064e-02,-4.671374335885047913e-02,-1.904230332002043724e-03,-2.002745866775512695e-02,-5.564971826970577240e-03,1.176960766315460205e-02,5.730883777141571045e-02,3.094998933374881744e-02,9.009349159896373749e-03,-1.100754924118518829e-02,-3.733767895027995110e-03,-2.998147532343864441e-02,6.611542776226997375e-03,-9.643639437854290009e-03,5.600229487754404545e-04,7.867039530538022518e-04,-2.085124142467975616e-02,-1.400613971054553986e-02,-1.464673504233360291e-02,3.061694279313087463e-02,-2.949486114084720612e-02,2.539748884737491608e-02,-1.042288821190595627e-02,-1.278673391789197922e-02,4.102786071598529816e-03,1.123131369240581989e-03,1.014502570033073425e-01,2.189745754003524780e-02,1.245507039129734039e-02,2.443042397499084473e-02,3.314726799726486206e-02,-4.733110778033733368e-03,8.572921156883239746e-03,6.633813492953777313e-03,1.412595249712467194e-02,1.238569244742393494e-02,3.989874944090843201e-02,-1.940364390611648560e-02,2.104398794472217560e-03,-1.208030339330434799e-02,1.341807562857866287e-02,2.931934781372547150e-03,2.506507001817226410e-02,1.056567486375570297e-02,-1.215782668441534042e-02,1.578135602176189423e-02,-1.532291527837514877e-02,2.617054246366024017e-02,4.810105264186859131e-02,1.967078261077404022e-02,7.600400713272392750e-04,-8.239436894655227661e-03,2.344858087599277496e-02,-1.000571995973587036e-02,-3.702756483107805252e-03,2.418613759800791740e-03,2.657655626535415649e-03,2.535764826461672783e-03,1.092571951448917389e-02,4.762791504617780447e-04,-1.299437228590250015e-02,-1.552022248506546021e-02,-1.922283507883548737e-02,-9.632150642573833466e-03,-1.582773961126804352e-02,-2.442933805286884308e-02,-4.468937870115041733e-03,-1.777305500581860542e-03,3.198712365701794624e-03,-6.144556216895580292e-03,5.148253869265317917e-03,1.075250376015901566e-02,-2.228674292564392090e-02,4.051321186125278473e-03,3.380132466554641724e-02,2.860671281814575195e-02,-3.541947528719902039e-02,2.322621829807758331e-02,-4.687421023845672607e-03,4.572950769215822220e-03,5.568607244640588760e-03,1.531403604894876480e-02,2.495564520359039307e-02,-3.859286755323410034e-02,-7.831775583326816559e-03,1.456096675246953964e-02,1.252924930304288864e-02,6.976344157010316849e-03,2.905908506363630295e-03,9.007533080875873566e-03,2.897703787311911583e-03,2.005644142627716064e-02,5.127401673234999180e-04,3.015820495784282684e-02,-7.284448947757482529e-03,2.438981458544731140e-02,-1.310104429721832275e-01,-3.065427998080849648e-03,1.226966083049774170e-02,-6.794271990656852722e-03,-5.268179811537265778e-03,-1.791109330952167511e-02,1.588265411555767059e-02,-4.200133308768272400e-02,-1.330416370183229446e-02,-2.398328483104705811e-02,-1.946376077830791473e-02,1.546062994748353958e-02,4.108648281544446945e-03,-3.297052171546965837e-04,-2.426382526755332947e-02,1.477565243840217590e-02,-2.451733872294425964e-02,2.316666580736637115e-02,1.276718825101852417e-02,-1.312260236591100693e-02,4.299749620258808136e-03,-5.634981789626181126e-04
-2.121972292661666870e-02,-7.773014251142740250e-03,-6.774890422821044922e-02,-2.462647855281829834e-02,-3.451459482312202454e-02,-1.477408409118652344e-02,1.324982941150665283e-02,6.192507222294807434e-03,-5.147855263203382492e-03,-4.987244307994842529e-02,-2.018174901604652405e-02,-1.118107326328754425e-02,-2.617243863642215729e-02,-1.454217452555894852e-02,3.745558671653270721e-03,2.088543213903903961e-02,-2.491486258804798126e-02,-2.147048525512218475e-02,-9.126264601945877075e-03,-2.377681247889995575e-02,-1.077946089208126068e-02,-5.029858648777008057e-02,6.922175642102956772e-03,-3.617556393146514893e-02,-1.485872268676757812e-02,4.791657626628875732e-02,5.182568915188312531e-03,3.647911595180630684e-03,2.127350121736526489e-02,-2.192120067775249481e-02,-4.318543151021003723e-02,8.804237097501754761e-02,-4.579379223287105560e-03,-4.508342966437339783e-02,-2.462255954742431641e-02,5.398272071033716202e-03,-4.018909297883510590e-03,3.280732780694961548e-02,-1.499215792864561081e-02,-7.511553168296813965e-02,4.185882210731506348e-02,-2.072910964488983154e-02,1.285990513861179352e-02,-1.948691159486770630e-02,-1.033099181950092316e-02,-1.635139435529708862e-02,-2.304994873702526093e-02,-9.266780689358711243e-03,-2.109477482736110687e-02,-6.297934055328369141e-02,-1.857065781950950623e-02,-3.684259951114654541e-02,-2.601857110857963562e-02,5.739565007388591766e-03,-1.579158939421176910e-02,-1.000468712300062180e-02,-1.959536748472601175e-04,7.381245959550142288e-03,-1.271521747112274170e-01,-3.012037836015224457e-02,-3.166722878813743591e-02,1.624856889247894287e-02,7.659447193145751953e-02,3.539709746837615967e-02,-5.639081820845603943e-03,1.931734196841716766e-02,9.052604436874389648e-03,-3.272097185254096985e-02,-1.434692926704883575e-02,1.232021208852529526e-02,-2.632387448102235794e-03,-1.643057167530059814e-02,1.347198802977800369e-02,9.148857742547988892e-02,3.255639970302581787e-02,1.195020601153373718e-02,5.177373066544532776e-02,-1.503821476944722235e-05,-1.239002123475074768e-02,2.358888462185859680e-02,1.518415054306387901e-03,-3.501937538385391235e-02,3.079480491578578949e-02,-3.632376715540885925e-02,-2.995652332901954651e-02,-2.896166592836380005e-02,1.087254378944635391e-03,-1.819734461605548859e-02,-1.322978409007191658e-03,-1.924700662493705750e-02,1.813121140003204346e-02,3.889922425150871277e-02,-1.067129243165254593e-02,3.108417615294456482e-03,-5.501104053109884262e-03,1.211255509406328201e-02,2.293159626424312592e-02,-7.257571909576654434e-03,-2.214265614748001099e-02,1.052889320999383926e-02,2.333949878811836243e-02,6.657667923718690872e-03,-1.057518180459737778e-02,2.246530540287494659e-02,4.275801125913858414e-03,-5.270386580377817154e-03,-9.403717704117298126e-03,7.032293360680341721e-03,1.367832627147436142e-02,2.060485631227493286e-02,4.524390771985054016e-02,5.268195644021034241e-02,-1.065882854163646698e-02,-1.667814888060092926e-02,-3.073439933359622955e-02,2.453370392322540283e-02,-8.002648502588272095e-02,1.229215227067470551e-02,-1.196950115263462067e-02,7.214873284101486206e-02,-5.023950338363647461e-02,-7.006599754095077515e-02,3.231184929609298706e-02,-4.679523780941963196e-02,9.633069857954978943e-03,3.823472559452056885e-02,5.911072250455617905e-03,5.622936040163040161e-02
-2.484372816979885101e-02,-2.313981577754020691e-02,8.527050726115703583e-03,-5.717151239514350891e-02,-1.427803281694650650e-02,7.636611699126660824e-04,6.512068212032318115e-03,1.242677867412567139e-01,3.687706217169761658e-02,-1.993630081415176392e-02,3.759461268782615662e-02,4.403048008680343628e-02,-9.425465762615203857e-02,-2.710924483835697174e-02,-1.433885544538497925e-01,-2.248839847743511200e-02,6.769455969333648682e-02,-1.099318452179431915e-02,4.957019910216331482e-02,4.878544062376022339e-02,2.840246446430683136e-02,1.532651297748088837e-02,-9.537373669445514679e-03,2.053508302196860313e-03,6.496536731719970703e-02,-1.328331232070922852e-02,1.432194607332348824e-03,-9.898840449750423431e-03,-4.470998421311378479e-02,-1.355850845575332642e-01,-3.508986206725239754e-03,-2.582515589892864227e-03,2.780940197408199310e-02,-6.304659415036439896e-03,-2.816485427320003510e-02,-2.142196521162986755e-02,-8.809310384094715118e-03,-4.218455031514167786e-02,-3.876814991235733032e-02,3.017098642885684967e-02,2.582673216238617897e-03,-2.472949028015136719e-02,4.727144166827201843e-02,-1.091773435473442078e-01,1.900622993707656860e-02,2.447745203971862793e-02,-2.612662501633167267e-02,1.162778865545988083e-02,5.854273680597543716e-03,-7.426349911838769913e-03,6.848473846912384033e-02,-1.009365823119878769e-02,-1.190645247697830200e-02,9.567686170339584351e-02,-3.819397650659084320e-03,-7.176182419061660767e-02,5.187448579818010330e-03,-1.044806092977523804e-01,2.355372719466686249e-02,-2.249098755419254303e-02,-6.493096705526113510e-03,3.510536625981330872e-02,-7.669398328289389610e-04,5.951494723558425903e-02,-4.905368667095899582e-03,1.579183340072631836e-02,1.175966206938028336e-02,2.586505608633160591e-03,3.233803063631057739e-02,-1.984587498009204865e-02,2.501266449689865112e-02,-4.102310538291931152e-02,-1.573721878230571747e-02,1.453645993024110794e-02,3.030618093907833099e-02,9.713897481560707092e-03,-7.601632736623287201e-03,2.649993449449539185e-02,-3.935299068689346313e-02,1.279920525848865509e-02,-4.205219447612762451e-02,-3.695542924106121063e-03,-9.711209684610366821e-02,-2.331025898456573486e-02,1.091882213950157166e-02,1.019924059510231018e-01,6.977608893066644669e-03,-1.385171432048082352e-02,-6.206897553056478500e-03,-2.714042179286479950e-02,-5.606731027364730835e-02,3.993522748351097107e-02,6.075823307037353516e-02,-8.651375025510787964e-02,-1.763691660016775131e-03,-5.592068191617727280e-03,-1.316556893289089203e-02,-2.363825589418411255e-02,-4.313303157687187195e-02,6.034743040800094604e-03,-2.926534786820411682e-02,-3.188189119100570679e-02,8.014576882123947144e-02,-2.455801516771316528e-02,3.513681888580322266e-02,-2.142000710591673851e-03,-5.061214417219161987e-02,1.104879938066005707e-02,5.816830322146415710e-03,-2.263381890952587128e-02,-2.147189527750015259e-02,1.544330734759569168e-02,1.094008423388004303e-02,1.425789576023817062e-02,2.742101997137069702e-02,-2.315302379429340363e-03,9.799640625715255737e-03,1.673669554293155670e-02,1.815857365727424622e-02,1.189412623643875122e-01,5.704904720187187195e-02,-5.743239820003509521e-02,-5.469561088830232620e-03,6.820961087942123413e-02,-4.391249641776084900e-02,1.146896090358495712e-02,-3.177136182785034180e-02,-5.148950964212417603e-03
1.350176986306905746e-02,-1.630080863833427429e-02,-5.096235871315002441e-02,8.038598462007939816e-04,-1.984581910073757172e-02,2.292065136134624481e-02,9.728844277560710907e-03,-5.257859826087951660e-02,6.196489557623863220e-03,-6.696520745754241943e-02,8.956429548561573029e-03,1.936195418238639832e-02,7.096849381923675537e-03,6.563799828290939331e-02,-1.876141526736319065e-03,-2.185327187180519104e-02,-1.328486762940883636e-02,2.169085480272769928e-02,1.000372320413589478e-02,3.379815444350242615e-02,-1.528406632132828236e-03,-1.340811979025602341e-02,-2.095242030918598175e-02,5.381068587303161621e-02,-7.081233896315097809e-03,-1.144064813852310181e-01,3.400347009301185608e-02,-7.880331948399543762e-03,-7.292058318853378296e-03,1.395334023982286453e-02,-4.906204994767904282e-03,5.466144531965255737e-02,4.595508333295583725e-03,2.120276913046836853e-02,3.372951224446296692e-02,2.147056721150875092e-02,3.722909465432167053e-02,1.154333539307117462e-02,-3.964510280638933182e-03,6.309953052550554276e-03,-2.263195998966693878e-02,6.074342131614685059e-02,-1.326296944171190262e-02,1.762068085372447968e-02,1.470486260950565338e-02,2.458326052874326706e-03,-1.995033398270606995e-02,5.900609772652387619e-03,6.182207725942134857e-03,-2.536054700613021851e-02,1.228114496916532516e-02,-1.213280111551284790e-02,6.969638168811798096e-02,-1.162527967244386673e-02,-2.450857311487197876e-01,-2.887985296547412872e-02,-2.199695259332656860e-02,-1.925845630466938019e-02,-3.587335813790559769e-03,-6.730014085769653320e-02,-4.373404383659362793e-02,2.938901260495185852e-02,-4.250699654221534729e-02,-1.330576464533805847e-02,-3.764412179589271545e-02,-2.337664924561977386e-02,-4.235008731484413147e-02,-2.718457579612731934e-02,-2.435698360204696655e-02,-2.923386171460151672e-02,-7.288098800927400589e-03,-3.973850980401039124e-03,-3.034005872905254364e-02,-3.419310227036476135e-02,-8.005719631910324097e-03,-9.744700044393539429e-03,-6.726128980517387390e-03,-1.027664542198181152e-01,-2.296353317797183990e-02,-7.273827493190765381e-02,6.318795029073953629e-03,-8.769307285547256470e-02,2.975870156660676003e-03,-2.820066921412944794e-02,2.145949052646756172e-03,-2.078472077846527100e-02,4.070953582413494587e-05,2.964064944535493851e-03,-3.244094178080558777e-02,-2.327087894082069397e-02,-2.133677899837493896e-02,-8.024509996175765991e-03,1.757215335965156555e-02,-1.774551346898078918e-02,-5.756138707511126995e-04,-8.709637820720672607e-02,-2.338334359228610992e-02,-1.900782436132431030e-02,3.742471337318420410e-02,4.242539871484041214e-03,-1.563117839395999908e-02,-9.747820906341075897e-03,-2.727624727413058281e-03,2.292403765022754669e-02,-4.543099086731672287e-03,-1.229282002896070480e-02,3.809674084186553955e-02,1.868756115436553955e-02,2.011864073574542999e-02,-1.943640038371086121e-02,6.690313667058944702e-02,6.133042275905609131e-02,-4.138977080583572388e-02,-5.646185483783483505e-03,1.144404709339141846e-02,1.601531915366649628e-02,1.359760016202926636e-01,-3.175176680088043213e-02,-1.358238514512777328e-02,2.993835834786295891e-03,6.109828874468803406e-02,-1.561390701681375504e-02,-1.994861289858818054e-02,-4.367672652006149292e-02,-3.150239214301109314e-02,-1.034855726175010204e-03,-1.148230396211147308e-02,5.018345266580581665e-02
-7.512004673480987549e-02,-5.530431121587753296e-02,-4.198836628347635269e-03,7.998409681022167206e-03,3.351333783939480782e-03,1.644650101661682129e-02,-1.646639406681060791e-02,-1.529390551149845123e-02,1.541773416101932526e-02,2.336626872420310974e-02,-1.188964210450649261e-02,-2.474208548665046692e-02,2.398328855633735657e-03,1.171426498331129551e-03,6.957856565713882446e-02,3.152663633227348328e-02,-8.928936719894409180e-02,-6.667822599411010742e-03,3.869459405541419983e-02,-9.027738124132156372e-02,-2.741560153663158417e-02,1.454568374902009964e-02,2.281417138874530792e-02,2.970651956275105476e-03,1.516073197126388550e-02,-3.496167063713073730e-02,-4.477587062865495682e-03,1.786062493920326233e-02,8.457154035568237305e-03,4.542723670601844788e-02,-2.255287021398544312e-02,7.739981170743703842e-03,-1.101916357874870300e-01,1.667506061494350433e-02,9.490728378295898438e-03,3.111593797802925110e-02,6.474439287558197975e-04,-1.338858529925346375e-02,1.714697852730751038e-02,2.696936205029487610e-02,2.086904272437095642e-02,-3.524316102266311646e-02,2.778164809569716454e-03,-4.569730907678604126e-02,2.060018479824066162e-02,2.060990966856479645e-02,-1.981568522751331329e-02,1.144122555851936340e-01,-9.665802121162414551e-03,-8.188115432858467102e-03,4.869802668690681458e-02,1.217852812260389328e-02,1.017498783767223358e-02,-1.667210087180137634e-02,8.153052069246768951e-03,-1.748409122228622437e-02,7.910957559943199158e-03,3.068400360643863678e-02,7.697404827922582626e-03,-1.801745267584919930e-03,-3.723419830203056335e-02,-2.718369010835886002e-03,4.150185734033584595e-02,-6.918507814407348633e-02,5.367112345993518829e-03,-1.355796703137457371e-03,1.339151803404092789e-02,-1.206458359956741333e-02,-1.897519268095493317e-02,1.940005645155906677e-02,-2.174923196434974670e-02,4.759677499532699585e-02,6.386964581906795502e-03,-1.104049384593963623e-02,-3.610393032431602478e-02,-5.005071312189102173e-02,-1.552838645875453949e-02,2.801154926419258118e-02,2.154019847512245178e-02,-5.478139501065015793e-03,2.713005244731903076e-02,2.749111130833625793e-02,7.626484334468841553e-02,-9.182759560644626617e-03,2.138819172978401184e-02,2.073725685477256775e-02,1.964162290096282959e-02,-2.154762484133243561e-02,4.564765095710754395e-02,8.182525634765625000e-02,3.719939850270748138e-03,-2.358487108722329140e-04,-2.228762581944465637e-02,1.615807563066482544e-01,-4.972719028592109680e-02,3.157026320695877075e-02,-6.455773487687110901e-03,-9.182830899953842163e-02,-2.566185593605041504e-02,3.693988174200057983e-02,-2.353784255683422089e-02,6.261873058974742889e-03,2.211475931107997894e-02,1.496644597500562668e-02,-5.256139673292636871e-03,-3.230505064129829407e-02,3.100554458796977997e-02,4.136176779866218567e-02,-1.535715814679861069e-02,2.898398088291287422e-03,6.016903091222047806e-03,-1.155209355056285858e-02,9.634719230234622955e-03,1.069441786967217922e-03,-4.203184216748923063e-04,2.657712064683437347e-02,-2.735623158514499664e-02,1.514442451298236847e-02,-5.217234417796134949e-02,-1.437193155288696289e-01,-4.960444942116737366e-02,5.771070718765258789e-02,-3.272478282451629639e-02,-9.188281744718551636e-02,2.425214089453220367e-02,-5.020353570580482483e-02,1.018625274300575256e-01,3.060224093496799469e-02
1.075225602835416794e-02,3.104994259774684906e-02,-1.097803842276334763e-02,-2.033572643995285034e-02,-1.913632452487945557e-02,1.738526113331317902e-02,9.686302393674850464e-03,9.903453290462493896e-03,-3.238263726234436035e-02,-5.243870988488197327e-02,-1.273936685174703598e-02,2.280991524457931519e-02,-1.636618562042713165e-02,3.196715191006660461e-02,-2.010053023695945740e-02,-2.247266098856925964e-02,-1.483392436057329178e-03,-1.045965682715177536e-02,1.012027170509099960e-02,1.215982832945883274e-03,2.814839966595172882e-02,9.884508326649665833e-03,1.550093945115804672e-02,3.893037326633930206e-03,-2.554492384660989046e-04,-2.431830391287803650e-02,1.194036193192005157e-02,-1.876731216907501221e-02,-1.367528736591339111e-02,-3.180978121235966682e-03,1.263949647545814514e-02,-2.977907285094261169e-02,1.506333332508802414e-02,1.597765251062810421e-03,4.649413004517555237e-02,-1.319085340946912766e-02,-9.617822617292404175e-02,1.662426628172397614e-02,1.701434515416622162e-02,-2.765189111232757568e-02,-3.053103107959032059e-03,2.272632531821727753e-02,1.731341704726219177e-02,2.594710886478424072e-02,-1.183301117271184921e-02,-9.137484245002269745e-03,-2.287026681005954742e-02,2.798992022871971130e-02,2.121819852618500590e-04,2.593646524474024773e-03,7.248835638165473938e-03,-2.811826393008232117e-02,5.535610951483249664e-03,-3.672524821013212204e-03,-8.647108450531959534e-03,3.420744324102997780e-03,-1.190122775733470917e-02,-3.114325925707817078e-02,-1.478456519544124603e-02,1.177732180804014206e-02,-8.992410264909267426e-03,-2.343398751690983772e-03,-1.895770616829395294e-02,-1.151392795145511627e-02,-3.862410958390682936e-04,-1.053981762379407883e-02,-2.481443621218204498e-02,2.187767624855041504e-02,3.006297722458839417e-02,-4.266248643398284912e-02,2.891986630856990814e-03,-5.940990522503852844e-04,-4.892559349536895752e-02,-9.532182477414608002e-03,-3.497162088751792908e-02,-2.772437594830989838e-02,2.207157202064990997e-02,1.291440520435571671e-02,5.161504726856946945e-03,-1.796375401318073273e-02,2.220633253455162048e-02,-7.742076180875301361e-03,-6.315220613032579422e-03,-1.087532192468643188e-02,2.243172377347946167e-02,-5.362182389944791794e-03,5.255357827991247177e-03,-1.825560070574283600e-02,1.463302411139011383e-02,9.792855940759181976e-03,1.051439438015222549e-02,6.519525195471942425e-04,1.127555780112743378e-02,-7.703911978751420975e-03,-1.995170861482620239e-02,1.327678188681602478e-02,1.621198467910289764e-02,-3.621454234234988689e-04,1.322383899241685867e-02,-3.829708788543939590e-03,-3.616420552134513855e-02,4.841716028749942780e-03,-2.691794419661164284e-03,-3.520171344280242920e-02,-5.411664955317974091e-03,-1.967157609760761261e-02,4.277390241622924805e-02,-1.100964657962322235e-02,7.356441929005086422e-04,1.236628834158182144e-02,-1.640485599637031555e-02,-2.331511117517948151e-02,2.571163699030876160e-03,7.548600435256958008e-02,-7.228221278637647629e-03,-1.289747469127178192e-02,-2.062413096427917480e-02,1.384194102138280869e-02,-2.698676194995641708e-03,1.463934034109115601e-02,-2.976852003484964371e-03,-3.409238159656524658e-02,-2.022635564208030701e-02,-1.000957377254962921e-02,3.328102082014083862e-02,4.682498984038829803e-03,-7.573366630822420120e-03,-2.094055339694023132e-02
2.088904008269309998e-02,1.324205938726663589e-02,-2.791749127209186554e-02,-3.656478598713874817e-03,-7.535346597433090210e-02,2.133976854383945465e-02,-7.877812720835208893e-03,-3.836703952401876450e-03,-2.158774249255657196e-02,2.251750417053699493e-02,-2.302286773920059204e-02,1.031059864908456802e-02,3.138309344649314880e-03,6.743682175874710083e-02,-4.714418610092252493e-04,-3.202756168320775032e-03,-1.965278014540672302e-02,2.991984970867633820e-02,-1.536785974167287350e-03,9.531229734420776367e-03,-9.835631586611270905e-03,4.604394081979990005e-03,-1.872515305876731873e-02,1.232755021192133427e-03,-5.962666496634483337e-02,-7.245236542075872421e-03,1.448368839919567108e-02,-1.074212486855685711e-03,-1.581046916544437408e-02,3.709580749273300171e-02,-3.964682668447494507e-02,2.798036485910415649e-02,-1.440962962806224823e-02,-2.640204969793558121e-03,1.831693202257156372e-02,1.186854671686887741e-02,4.529203101992607117e-02,1.120429765433073044e-02,7.229818403720855713e-02,-3.273712471127510071e-02,2.207347564399242401e-02,4.073849320411682129e-02,-2.042571641504764557e-02,2.542088506743311882e-03,-3.340077027678489685e-02,-1.597469300031661987e-02,-1.449267100542783737e-02,-1.089484151452779770e-02,-3.670665994286537170e-02,-3.674109652638435364e-02,6.680538877844810486e-03,2.600571885704994202e-02,9.227570146322250366e-03,-7.833763957023620605e-03,-4.146645218133926392e-02,-3.797856625169515610e-03,2.173225767910480499e-02,-2.140222489833831787e-02,-3.031707135960459709e-03,-5.176862701773643494e-02,1.171111688017845154e-02,-9.513957193121314049e-04,1.550430431962013245e-02,-2.286065556108951569e-02,-6.008578091859817505e-02,4.814915359020233154e-02,-6.948540359735488892e-02,1.220574323087930679e-02,4.010526463389396667e-02,-1.280892826616764069e-02,6.423495244234800339e-03,-1.575182750821113586e-02,-4.781871289014816284e-02,1.023283973336219788e-02,-2.615188993513584137e-02,1.622217148542404175e-02,1.387074030935764313e-02,-5.990780889987945557e-02,1.738972216844558716e-02,-4.938520491123199463e-02,-1.321167591959238052e-02,-1.073507685214281082e-02,-6.223927251994609833e-03,1.564178802073001862e-02,2.292986586689949036e-02,1.224478054791688919e-02,-3.451520204544067383e-02,-1.106836125254631042e-01,1.778217847459018230e-03,6.859434768557548523e-03,-3.044309839606285095e-02,-3.900702344253659248e-03,-4.780696239322423935e-03,-9.165662049781531096e-05,1.167113427072763443e-02,-7.827525585889816284e-02,-1.056383829563856125e-02,2.754332497715950012e-03,3.130918368697166443e-02,8.677907288074493408e-03,2.074263244867324829e-02,3.068150766193866730e-02,1.109196431934833527e-02,-5.665857810527086258e-03,7.154002320021390915e-03,2.556401072070002556e-03,2.780359424650669098e-02,4.101693257689476013e-02,3.871962055563926697e-02,-6.669029127806425095e-03,-1.704691164195537567e-02,-8.229696191847324371e-03,-6.397382169961929321e-02,-1.188009232282638550e-02,-3.051968291401863098e-02,7.322000805288553238e-03,3.847289457917213440e-02,-4.004884511232376099e-02,2.240605652332305908e-02,1.632860302925109863e-02,7.403545826673507690e-02,-5.944635719060897827e-02,-1.423025410622358322e-02,1.029365882277488708e-02,8.262144401669502258e-03,-9.086499921977519989e-03,2.542768418788909912e-02,1.145482901483774185e-02
-5.693390499800443649e-03,2.242027595639228821e-02,-4.102651774883270264e-02,2.086314931511878967e-02,-3.007301688194274902e-02,-4.242049157619476318e-02,-2.523059956729412079e-02,-2.852581813931465149e-02,2.003699354827404022e-02,-1.275437511503696442e-02,7.403046824038028717e-03,1.966024516150355339e-03,-1.983184553682804108e-02,1.905312202870845795e-02,-1.587292924523353577e-02,-1.561913639307022095e-02,-1.303326152265071869e-02,4.373307898640632629e-02,-1.608709804713726044e-02,-1.131135784089565277e-02,1.554550137370824814e-02,-4.988958686590194702e-02,5.533144809305667877e-03,-6.092965602874755859e-02,-1.635569892823696136e-02,-3.628016263246536255e-02,4.419862478971481323e-02,-6.698354613035917282e-03,1.779625378549098969e-02,9.852172806859016418e-03,-3.286169841885566711e-02,-3.118759253993630409e-03,1.374887675046920776e-02,1.198025885969400406e-02,-2.679341286420822144e-02,4.628440365195274353e-03,5.768865346908569336e-02,1.413299515843391418e-02,2.532958984375000000e-02,-5.518627166748046875e-02,-2.757611870765686035e-02,4.046475142240524292e-02,1.650618575513362885e-02,-1.541120465844869614e-03,2.797311171889305115e-02,8.626317605376243591e-03,6.719394586980342865e-03,-6.226023659110069275e-03,-2.028234070166945457e-03,-1.273446157574653625e-02,-3.546303836628794670e-03,3.044272586703300476e-02,-1.182028371840715408e-02,-1.248423010110855103e-02,-8.317143470048904419e-02,-2.097165770828723907e-02,1.668343693017959595e-02,4.318033345043659210e-03,-1.078051179647445679e-01,-9.088857471942901611e-02,-2.032433077692985535e-02,3.260404046159237623e-04,2.613406814634799957e-02,-2.908410876989364624e-02,-4.930762201547622681e-02,2.984848571941256523e-03,-3.670288249850273132e-02,1.338771265000104904e-02,1.785536529496312141e-03,-9.653692133724689484e-03,1.090782927349209785e-03,-1.034795306622982025e-02,-6.119740009307861328e-02,-8.834327571094036102e-03,-8.225975558161735535e-03,1.685031503438949585e-02,-2.887200005352497101e-02,-5.166836455464363098e-02,2.173052541911602020e-02,-1.171921379864215851e-02,-7.207379676401615143e-03,-3.748016059398651123e-02,-9.954053908586502075e-03,-9.187662973999977112e-03,-2.495827712118625641e-02,-2.430691011250019073e-02,-1.071589626371860504e-02,4.350979253649711609e-02,-2.292152494192123413e-04,-2.072774991393089294e-02,-1.644896343350410461e-02,-1.048672292381525040e-02,3.480358573142439127e-04,4.476001486182212830e-04,-5.261398851871490479e-03,-2.249784767627716064e-02,-1.055094972252845764e-02,1.204608473926782608e-02,3.715371713042259216e-03,-2.038880623877048492e-02,9.345130994915962219e-03,2.011988125741481781e-02,-2.535782009363174438e-02,-6.183876655995845795e-03,-8.487194776535034180e-03,-4.167669638991355896e-02,-4.082446172833442688e-02,1.136478688567876816e-02,9.792510420083999634e-03,-1.450200378894805908e-02,2.191604115068912506e-02,2.551960386335849762e-02,-2.201384678483009338e-02,-2.697482146322727203e-02,5.567434709519147873e-03,-5.344416480511426926e-03,7.180275768041610718e-02,-2.824003994464874268e-02,-2.513961493968963623e-02,2.494924142956733704e-02,2.005913667380809784e-02,-3.946247044950723648e-03,2.221649326384067535e-02,2.601602859795093536e-02,-4.348305240273475647e-02,8.074449375271797180e-03,-1.882845908403396606e-02,-8.856555446982383728e-03
