-2.157369442284107208e-02,-4.568776115775108337e-03,4.548268392682075500e-03,-8.187001571059226990e-03,4.173960909247398376e-02,2.300973795354366302e-02,-8.928319439291954041e-03,5.735248699784278870e-02,2.981751039624214172e-02,5.862684547901153564e-02,4.286430031061172485e-02,4.491180926561355591e-02,2.228118479251861572e-02,-1.296873576939105988e-02,7.609856780618429184e-03,4.537314921617507935e-02,3.071182779967784882e-02,3.770017623901367188e-02,-1.545563898980617523e-02,-3.869164735078811646e-02,-4.601022973656654358e-02,-2.312345057725906372e-02,2.829321846365928650e-02,4.779030103236436844e-03,-2.032828517258167267e-02,1.375580206513404846e-02,2.588308975100517273e-02,1.510747708380222321e-03,-8.307310938835144043e-02,-4.599094763398170471e-02,-4.747695848345756531e-02,-1.506626158952713013e-01,-1.061793640255928040e-01,7.638488314114511013e-04,-7.448343187570571899e-02,-5.640494823455810547e-02,-5.681592505425214767e-03,-2.163617312908172607e-02,9.000377729535102844e-03,-4.511015489697456360e-03,1.446866896003484726e-02,1.806195080280303955e-02,-2.378896996378898621e-02,-2.625278197228908539e-02,-3.700557723641395569e-02,-1.835645176470279694e-03,4.693122114986181259e-03,9.197601117193698883e-03,9.638322517275810242e-03,-3.927780780941247940e-04,-1.688388921320438385e-02,2.448512986302375793e-02,1.392931956797838211e-02,-2.317049913108348846e-02,5.540984217077493668e-03,-1.464675739407539368e-02,8.833266329020261765e-04,-3.040983155369758606e-02,-1.259171124547719955e-02,3.363225609064102173e-02,4.538318607956171036e-03,3.851105459034442902e-03,1.981278322637081146e-02,2.909379778429865837e-03,3.289776504971086979e-04,-1.112530659884214401e-02,4.267751704901456833e-03,1.021821796894073486e-02,7.757992483675479889e-03,-1.386947464197874069e-02,-7.341473829001188278e-03,5.948553793132305145e-03,-2.253283746540546417e-03,-1.690638368017971516e-03,8.733086287975311279e-03,3.518185345456004143e-03,-9.869402274489402771e-04,5.061243195086717606e-03,-3.831691667437553406e-02,-4.275827482342720032e-02,-3.701587021350860596e-02,-2.970608323812484741e-02,-9.352433495223522186e-03,-1.995629817247390747e-02,3.186715999618172646e-03,-5.141979781910777092e-04,-1.936517842113971710e-02,-1.336776930838823318e-02,-3.586824983358383179e-02,-2.511996962130069733e-02,3.240736573934555054e-02,6.515356153249740601e-02,4.358099028468132019e-02,1.082845255732536316e-01,4.315103217959403992e-02,-7.900529354810714722e-02,7.054260373115539551e-02,-1.819391502067446709e-03,-1.048494428396224976e-01,8.708396926522254944e-03,-1.570329815149307251e-02,-1.849835924804210663e-02,-3.572710230946540833e-02,-4.100198298692703247e-02,-4.090202599763870239e-02,1.173977740108966827e-02,-2.660358138382434845e-02,2.802939852699637413e-03,3.683910937979817390e-03,7.234761957079172134e-03,5.058476701378822327e-03,3.763702698051929474e-03,2.728051273152232170e-03,1.574474945664405823e-02,3.055091761052608490e-02,7.134485058486461639e-03,9.290311136282980442e-04,-4.429171606898307800e-02,-3.438441827893257141e-02,3.800972132012248039e-03,-7.148630917072296143e-02,-1.365211755037307739e-01,-5.990325007587671280e-04,-8.844845741987228394e-02,-1.145379841327667236e-01,-2.168924780562520027e-03,4.279594868421554565e-03,-3.750382736325263977e-02,-7.026260253041982651e-03,-2.858745632693171501e-03,-5.574000533670186996e-03,9.793601930141448975e-03,-3.962177783250808716e-03,-7.408559788018465042e-03,3.930209949612617493e-02,-6.481171399354934692e-02,-6.749237328767776489e-02,-4.077237471938133240e-02,-6.032057851552963257e-02,-6.685304641723632812e-02,-5.046126246452331543e-02,-4.851880297064781189e-02,-4.763358831405639648e-02,-6.328795850276947021e-02,4.314325749874114990e-03,-5.063793156296014786e-03,-3.121522441506385803e-02,3.652733052149415016e-03,-6.743841804563999176e-04,1.558350399136543274e-02,-1.132880989462137222e-02,-1.879681274294853210e-02,-4.900267347693443298e-03,1.218366809189319611e-02,9.393536485731601715e-03,2.370123984292149544e-03,-1.950736274011433125e-03,-1.057150773704051971e-02,-1.128400396555662155e-02,-2.919480903074145317e-03,-1.430092658847570419e-02,-1.531715504825115204e-02,-6.626860797405242920e-02,-9.296087175607681274e-02,-4.675345867872238159e-02,-1.454288810491561890e-01,-2.008145898580551147e-01,-1.179644018411636353e-01,-1.312468498945236206e-01,-1.615481525659561157e-01,-1.016559898853302002e-01,3.087668120861053467e-02,1.023209095001220703e-02,2.274733223021030426e-02,1.776469871401786804e-02,3.478148719295859337e-03,1.662866398692131042e-02,1.420233398675918579e-02,7.364685647189617157e-03,1.437671110033988953e-02,7.883351296186447144e-03,-1.215595169924199581e-03,-6.841139402240514755e-03,2.500213123857975006e-02,8.331579156219959259e-03,-6.658084690570831299e-03,-1.213104836642742157e-02,-1.651556044816970825e-02,-2.323691174387931824e-02,-6.142345257103443146e-03,-5.917440168559551239e-03,-6.497129797935485840e-03,5.464781820774078369e-02,2.205794909968972206e-03,3.217057883739471436e-02,-9.898685850203037262e-03,-2.729537524282932281e-02,5.093828216195106506e-02,1.991198584437370300e-02,1.874986663460731506e-02,2.643879689276218414e-02,1.343091111630201340e-02,-5.923721008002758026e-03,1.403209939599037170e-02,1.118159852921962738e-02,2.215899527072906494e-02,1.707946509122848511e-02,8.080565370619297028e-03,-1.429069880396127701e-02,2.344246394932270050e-02,-1.001368463039398193e-02,-5.098768696188926697e-02,2.075435221195220947e-02,1.567598246037960052e-02,1.304392796009778976e-02,3.491428121924400330e-02,-8.562456816434860229e-03,7.096935994923114777e-03,1.707212883047759533e-03,8.047970011830329895e-03,5.163400433957576752e-03,2.657116157934069633e-03,-1.140928175300359726e-02,-1.828597299754619598e-02,-2.323077246546745300e-02,2.131223306059837341e-02,-1.705198362469673157e-02,-3.492347151041030884e-02,5.121061112731695175e-03,-1.827744650654494762e-03,7.213906385004520416e-03,-5.150973447598516941e-04,4.991884343326091766e-03,-1.814938150346279144e-02,-1.130700949579477310e-02,-8.814057335257530212e-03,-1.801476068794727325e-02,1.840795390307903290e-02,-4.660686943680047989e-03,-1.973589695990085602e-02,4.873454570770263672e-03,-9.847254492342472076e-03,-1.701797125861048698e-03,4.499410861171782017e-04,2.794507145881652832e-02,6.785030663013458252e-02,-2.051173336803913116e-02,3.239190578460693359e-02,3.684429824352264404e-02,-3.854678943753242493e-02,-9.832824580371379852e-03,7.293566130101680756e-03,-7.218123413622379303e-03,-1.539844367653131485e-02,-2.124946191906929016e-02,-1.704061962664127350e-02,-1.201330684125423431e-02,-1.328400243073701859e-02,-2.795698307454586029e-02,-2.200866676867008209e-02,-1.385533716529607773e-02,-1.836091838777065277e-02,-5.816194228827953339e-03,8.195488713681697845e-03,6.379589904099702835e-03,-1.520932884886860847e-03,3.629553830251097679e-03,5.608247127383947372e-03,-1.009288895875215530e-02,-2.706167660653591156e-02,-4.055041447281837463e-02,-4.731109365820884705e-02,-6.468139588832855225e-02,-7.817424088716506958e-02,-4.110769927501678467e-02,-4.447847604751586914e-02,-1.950501650571823120e-02,1.230024918913841248e-02,1.802118308842182159e-02,-4.710914939641952515e-02,-1.148408278822898865e-01,-6.389982998371124268e-02,-6.414870172739028931e-02,-9.437747299671173096e-02,-8.330458402633666992e-02,-2.914938516914844513e-02,-5.424629151821136475e-02,-7.003779709339141846e-02,2.203274145722389221e-02,3.101497702300548553e-02,2.584173902869224548e-02,2.085741609334945679e-02,7.353525608777999878e-02,7.302759587764739990e-02,2.582146972417831421e-02,6.836941838264465332e-02,1.046774759888648987e-01,-1.974621415138244629e-02,1.167519856244325638e-02,-1.595076464582234621e-04,9.128635865636169910e-04,6.318143010139465332e-02,5.411605164408683777e-02,-2.829440310597419739e-02,1.796280406415462494e-02,3.268732130527496338e-02,1.013122778385877609e-02,-2.565106563270092010e-02,-3.124353243038058281e-03,-3.342651994898915291e-03,-4.001377522945404053e-02,-3.248570859432220459e-02,2.174406871199607849e-02,-5.847666878253221512e-03,1.438626460731029510e-02,1.153188012540340424e-02,-1.580368261784315109e-03,4.877933766692876816e-03,2.926652878522872925e-02,-4.938817117363214493e-03,-1.128458138555288315e-02,3.260139748454093933e-02,2.052161842584609985e-03,3.096209093928337097e-02,3.713461756706237793e-02,2.971204929053783417e-02,-9.015804156661033630e-03,4.549870267510414124e-02,6.168663129210472107e-02,-6.435214076191186905e-03,2.697485312819480896e-02,4.603120684623718262e-02,7.858554832637310028e-03,4.526686388999223709e-03,6.076577119529247284e-03,-2.897759154438972473e-02,-1.245162449777126312e-03,-2.789206046145409346e-04,-2.916395105421543121e-02,9.520060848444700241e-04,-1.598356850445270538e-02,-2.093496359884738922e-02,1.920370385050773621e-02,1.177334971725940704e-02,1.575238257646560669e-02,1.111196912825107574e-02,1.977874897420406342e-02,5.557036027312278748e-03,2.169607207179069519e-02,5.318493768572807312e-02,6.159194186329841614e-02,3.551903180778026581e-03,-3.580915555357933044e-02,-1.261364482343196869e-02,1.575225265696644783e-03,-1.448210328817367554e-03,-3.086289577186107635e-02,-2.380469813942909241e-02,1.953781396150588989e-02,1.808267831802368164e-02,-4.268607124686241150e-02,-7.336425781250000000e-02,-7.924894243478775024e-02,-4.503126442432403564e-02,-4.432022944092750549e-02,-4.090913385152816772e-02,-3.617405146360397339e-02,-3.686732798814773560e-02,-1.871237717568874359e-02,1.106249447911977768e-02,4.206477105617523193e-02,4.799797385931015015e-02,-2.892246656119823456e-02,-7.857609540224075317e-03,3.264394029974937439e-02,-7.767552044242620468e-03,1.149609219282865524e-02,1.970165409147739410e-02,5.447089206427335739e-03,-2.994260983541607857e-03,4.001645836979150772e-03,-3.809443442150950432e-03,1.921433955430984497e-02,2.394596673548221588e-02,-2.031634934246540070e-02,-6.159847835078835487e-04,2.390226349234580994e-02,4.134350456297397614e-03,1.559301186352968216e-02,9.875133633613586426e-03,-3.760098293423652649e-02,-1.941474154591560364e-02,5.313760135322809219e-03,-7.012137770652770996e-02,-6.369559466838836670e-02,-3.752618283033370972e-02,-4.810082167387008667e-02,-4.642806202173233032e-02,-2.457412332296371460e-02,-4.430144652724266052e-02,-5.515458807349205017e-02,-3.414817899465560913e-02,1.780734863132238388e-03,1.620775274932384491e-02,1.169476471841335297e-02,-2.354577183723449707e-02,-6.468012928962707520e-02,-4.611917957663536072e-02,-2.076385356485843658e-02,-1.007820665836334229e-01,-1.194286197423934937e-01,1.973925717175006866e-02,-3.088519722223281860e-02,-5.369827523827552795e-02,-3.795174183323979378e-03,-1.552525814622640610e-02,-2.404338493943214417e-02,-1.264039892703294754e-02,-1.709060370922088623e-02,-2.831309288740158081e-02,-7.145186420530080795e-03,-9.058558382093906403e-03,-2.252795733511447906e-02,-4.601726680994033813e-02,1.065268064849078655e-03,2.883715322241187096e-03,2.046215161681175232e-02,3.524865210056304932e-02,4.294186830520629883e-02,-1.785225421190261841e-02,-1.542597170919179916e-02,-4.248327761888504028e-02,-1.110269874334335327e-02,-3.330988064408302307e-02,-4.287846013903617859e-02,2.456330135464668274e-02,1.682806992903351784e-03,3.165298327803611755e-02,-7.549528963863849640e-03,2.066133171319961548e-02,2.983335591852664948e-02,-9.190834243781864643e-04,-3.895480185747146606e-02,-3.326937556266784668e-02,-4.806760698556900024e-03,-1.527938712388277054e-02,-1.355893909931182861e-02,-3.240789473056793213e-02,-1.130947656929492950e-02,-2.647909708321094513e-02,-8.379438892006874084e-03,-6.959449965506792068e-03,-1.548232417553663254e-02,2.016294188797473907e-02,2.430681698024272919e-02,6.452417932450771332e-03,2.227158471941947937e-02,2.286128699779510498e-02,-4.579707048833370209e-03,-1.374613866209983826e-02,1.585288904607295990e-02,1.797303929924964905e-02,-4.178352188318967819e-03,4.714517295360565186e-02,6.565693765878677368e-02,2.111158333718776703e-02,7.071541994810104370e-02,6.292016804218292236e-02,5.909290537238121033e-02,8.355771750211715698e-02,6.202210485935211182e-02,3.567616641521453857e-02,3.459632769227027893e-02,6.347709894180297852e-02,2.577190287411212921e-02,3.032339364290237427e-02,4.810499027371406555e-02,4.154539480805397034e-02,4.529378935694694519e-02,3.042282722890377045e-02,2.129668183624744415e-02,2.068755030632019043e-02,1.334545202553272247e-02,3.057525120675563812e-02,4.895360022783279419e-02,4.894088488072156906e-03,5.045077577233314514e-02,2.126414515078067780e-02,5.390035454183816910e-03,2.680458500981330872e-02,1.292606629431247711e-02,-4.071508720517158508e-02,3.774605318903923035e-02,4.442232847213745117e-02,2.532806620001792908e-02,5.971805658191442490e-03,-2.221055515110492706e-02,5.531667266041040421e-04,-1.140532828867435455e-02,-1.914381422102451324e-02,3.365229582414031029e-03,-8.221132680773735046e-03,-4.075946658849716187e-02,-1.149461884051561356e-02,3.910117968916893005e-02,2.143056504428386688e-02,1.145138498395681381e-02,3.262513317167758942e-03,-1.524263061583042145e-02,-5.006064102053642273e-02,-3.767934860661625862e-03,3.892037086188793182e-03,-3.606124967336654663e-02,-1.376017834991216660e-02,6.396933458745479584e-04,2.341827005147933960e-02,-2.102774102240800858e-03,-3.260141005739569664e-03,8.350167423486709595e-03,-1.431344426237046719e-03,4.359884478617459536e-04,-1.231530029326677322e-02,5.058433860540390015e-03,9.780278429388999939e-03,-1.108995638787746429e-02,2.663485473021864891e-03,3.240437060594558716e-02,1.723525580018758774e-03,4.025828558951616287e-03,2.832308225333690643e-02,-5.740051157772541046e-03,8.232997730374336243e-03,4.346282035112380981e-02,3.429310023784637451e-02,-4.948065150529146194e-03,-3.068531118333339691e-02,-7.941954769194126129e-03,-6.396216806024312973e-03,-4.052492231130599976e-02,-6.964673846960067749e-02,-2.321339026093482971e-02,-1.203313190490007401e-02,-3.593055531382560730e-02,2.405544742941856384e-02,3.520790860056877136e-02,1.488222274929285049e-02,3.945970535278320312e-02,4.627281054854393005e-02,4.314006119966506958e-02,5.130157992243766785e-02,4.229134693741798401e-02,5.783276259899139404e-02,4.521016776561737061e-02,5.585012212395668030e-02,1.431802753359079361e-02,1.424072124063968658e-02,1.796845905482769012e-02,1.434391550719738007e-02,4.601160064339637756e-03,1.256614830344915390e-02,4.893060773611068726e-02,-6.575371138751506805e-03,-2.643135562539100647e-02,1.585527323186397552e-02,1.319235656410455704e-02,1.901086047291755676e-02,1.384160481393337250e-02,6.198269501328468323e-02,6.991946697235107422e-02,6.103453785181045532e-02,6.125276908278465271e-02,9.955688565969467163e-02,5.905969440937042236e-02,5.829776078462600708e-02,8.165166527032852173e-02,8.149866014719009399e-02
-1.008823886513710022e-02,-1.295943092554807663e-02,9.779767133295536041e-03,5.540770292282104492e-02,4.350091889500617981e-02,5.698289722204208374e-02,5.342668294906616211e-02,3.511764481663703918e-02,3.678159043192863464e-02,2.444199286401271820e-03,-3.020671010017395020e-02,-1.037731580436229706e-02,-4.529737308621406555e-02,-4.531791061162948608e-02,5.462266504764556885e-03,-4.476188495755195618e-02,-1.550761424005031586e-02,6.974545307457447052e-03,3.965779766440391541e-02,3.683832287788391113e-02,5.879597738385200500e-03,2.320724725723266602e-02,3.923959564417600632e-03,-2.088730596005916595e-02,-1.482939906418323517e-02,5.360590759664773941e-03,1.740445615723729134e-03,-4.057611525058746338e-02,-4.846337810158729553e-02,-5.827319994568824768e-02,-1.918080076575279236e-02,2.037950791418552399e-02,4.334521479904651642e-03,-2.200788818299770355e-03,2.064586058259010315e-02,7.050604093819856644e-03,-9.158108383417129517e-03,1.328260917216539383e-02,1.633201492950320244e-03,2.097805961966514587e-02,5.857478454709053040e-02,1.070042792707681656e-02,-2.644632570445537567e-02,-1.365428697317838669e-02,2.270452864468097687e-02,3.019732236862182617e-02,3.618372976779937744e-02,2.276337333023548126e-02,1.443003024905920029e-02,1.064980751834809780e-03,-7.589986082166433334e-03,7.103947922587394714e-03,-1.824294403195381165e-02,1.840607449412345886e-02,1.560720801353454590e-02,4.731212556362152100e-02,3.807513415813446045e-02,-2.664463035762310028e-02,3.127119317650794983e-02,3.945783153176307678e-02,-3.283623978495597839e-02,2.964362129569053650e-02,3.195443749427795410e-02,1.547520793974399567e-02,1.243638843297958374e-01,9.060293436050415039e-02,2.305046841502189636e-02,1.853641122579574585e-01,1.426702737808227539e-01,2.559259906411170959e-02,3.726496919989585876e-02,3.875135257840156555e-02,-1.856889761984348297e-02,2.931951172649860382e-02,1.581086777150630951e-02,-3.637135401368141174e-02,-1.771992817521095276e-02,-4.410881665535271168e-04,-4.023178666830062866e-02,-2.127518504858016968e-02,6.341993808746337891e-03,8.419748395681381226e-03,6.558821350336074829e-02,-7.996357046067714691e-03,-1.415637228637933731e-02,6.466862559318542480e-02,3.200323879718780518e-02,2.028584852814674377e-02,6.473133713006973267e-02,1.552203763276338577e-02,4.171712789684534073e-03,1.880490407347679138e-02,-4.153582267463207245e-03,-1.602767879376187921e-04,4.881401546299457550e-03,1.477755513042211533e-02,4.314930120017379522e-04,-7.179830688983201981e-03,4.108066856861114502e-02,-3.965662047266960144e-02,4.056073725223541260e-02,6.124675273895263672e-02,-7.106536626815795898e-02,-4.350372124463319778e-03,3.415041044354438782e-02,-2.415614202618598938e-02,-4.606026690453290939e-03,7.655698340386152267e-03,1.215421408414840698e-02,-2.673299424350261688e-02,2.102196589112281799e-02,2.446151524782180786e-02,-1.855828240513801575e-02,2.839441969990730286e-02,4.160131141543388367e-02,3.259932622313499451e-02,5.817355588078498840e-02,-7.610872853547334671e-03,1.168229803442955017e-02,2.513122744858264923e-03,-1.355674862861633301e-02,-8.904465474188327789e-03,8.915832731872797012e-04,-1.503402460366487503e-02,7.657047361135482788e-03,-6.108115892857313156e-03,7.635947316884994507e-03,1.010169275104999542e-02,2.128199115395545959e-02,-2.427120879292488098e-02,-2.195583656430244446e-02,3.192909806966781616e-02,4.016638547182083130e-02,2.849819511175155640e-02,1.582880131900310516e-02,-1.968512311577796936e-02,7.047278922982513905e-04,1.349879428744316101e-02,-4.855734482407569885e-02,-2.172951959073543549e-02,2.051078155636787415e-02,-2.290780656039714813e-02,2.077164873480796814e-02,3.169471770524978638e-02,1.337746530771255493e-02,4.147555679082870483e-02,-1.544968341477215290e-03,-1.126280054450035095e-01,-9.792927652597427368e-03,2.440850250422954559e-02,-5.148372799158096313e-02,2.585531398653984070e-02,8.775507658720016479e-02,-8.052418380975723267e-02,-8.450472354888916016e-02,-8.945608139038085938e-02,-3.172557801008224487e-02,5.864115431904792786e-03,2.300539240241050720e-02,3.862211480736732483e-02,8.073834329843521118e-02,1.005272790789604187e-01,2.130071073770523071e-02,2.596643567085266113e-02,1.895940629765391350e-03,8.491681888699531555e-03,1.805983111262321472e-02,-4.875837359577417374e-03,3.292053565382957458e-02,2.065122313797473907e-02,-3.126205876469612122e-02,9.128808043897151947e-03,3.514797613024711609e-02,3.808046504855155945e-02,-3.087000176310539246e-02,-1.842526020482182503e-03,-4.079042933881282806e-03,-2.150014741346240044e-03,1.027927175164222717e-02,-1.910940557718276978e-02,-2.352403476834297180e-02,-3.286591498181223869e-03,-8.073872886598110199e-03,-2.870258875191211700e-02,5.377563182264566422e-03,-4.332382697612047195e-03,3.367315744981169701e-03,1.487910188734531403e-02,-3.582168603315949440e-03,8.662764914333820343e-03,8.307732641696929932e-03,-8.495257236063480377e-03,3.216290101408958435e-02,1.533207297325134277e-02,1.481408532708883286e-02,-6.158757023513317108e-03,9.467695839703083038e-03,5.940038827247917652e-04,1.475969422608613968e-02,8.616808801889419556e-03,5.063027609139680862e-03,5.632176995277404785e-03,8.188739302568137646e-04,2.104672603309154510e-02,-3.589130938053131104e-02,-5.045684799551963806e-02,-7.119224872440099716e-03,-1.122151315212249756e-02,-3.076574392616748810e-02,1.560118887573480606e-02,-3.290246473625302315e-03,1.555132400244474411e-02,-4.189178347587585449e-03,-1.125783100724220276e-02,3.601338341832160950e-02,4.906634241342544556e-02,-4.936139285564422607e-02,-5.800241976976394653e-02,-3.310774220153689384e-03,-1.141519658267498016e-02,-2.669924683868885040e-02,-1.356018614023923874e-02,1.852322928607463837e-02,1.311491616070270538e-02,-1.753016747534275055e-02,1.446058158762753010e-03,2.562624588608741760e-02,1.821292005479335785e-02,8.878890424966812134e-03,6.628319155424833298e-03,5.807923153042793274e-04,-1.513709966093301773e-02,-3.457186743617057800e-02,-3.707671910524368286e-02,6.766498554497957230e-04,6.868873257189989090e-03,3.671045228838920593e-02,-2.777631394565105438e-02,-1.691297627985477448e-02,9.290357120335102081e-03,-4.521572589874267578e-02,-3.073757886886596680e-02,1.511214300990104675e-02,-2.099662460386753082e-02,-5.940021201968193054e-02,-4.421434924006462097e-02,3.562405705451965332e-03,-1.930716820061206818e-02,-1.340216491371393204e-02,1.804574020206928253e-02,-1.109802979044616222e-03,-1.437318325042724609e-02,7.366709411144256592e-03,-2.645560773089528084e-03,1.164236571639776230e-02,5.106562748551368713e-03,-5.707434378564357758e-03,-3.413401776924729347e-03,4.886730387806892395e-02,4.871501028537750244e-02,2.281700447201728821e-02,-1.197615172713994980e-02,-3.341954946517944336e-02,-3.095572441816329956e-02,8.175257593393325806e-03,-4.573924839496612549e-02,-4.969361796975135803e-02,-1.535931508988142014e-02,-4.899285361170768738e-02,-6.101685389876365662e-02,3.193255979567766190e-03,-2.449109964072704315e-02,-1.025564689189195633e-02,2.925709635019302368e-02,1.586209237575531006e-02,7.879641838371753693e-03,3.088232502341270447e-02,6.385796517133712769e-02,4.159471765160560608e-02,-1.559225283563137054e-02,-6.397268921136856079e-02,-6.697115302085876465e-02,5.614843219518661499e-03,-7.214258424937725067e-03,-2.902089245617389679e-02,3.644230961799621582e-02,5.902111902832984924e-02,4.759469628334045410e-02,-2.911144401878118515e-03,2.178777940571308136e-02,2.092896588146686554e-02,-3.118554886896163225e-04,-1.419341750442981720e-02,-2.321728132665157318e-02,6.766324397176504135e-03,2.717597235459834337e-04,-1.580644957721233368e-02,-1.446412410587072372e-02,-1.781914569437503815e-02,-6.173298135399818420e-02,2.042336948215961456e-02,-3.903922392055392265e-03,-1.876964233815670013e-02,-7.266219239681959152e-03,-5.903241410851478577e-02,-5.053477734327316284e-02,-2.878548204898834229e-02,-1.702292263507843018e-02,1.571511849761009216e-02,3.384377807378768921e-03,2.537492662668228149e-02,3.654862195253372192e-02,-1.569639705121517181e-02,2.585959807038307190e-02,1.085505541414022446e-02,2.286137081682682037e-02,2.772560715675354004e-02,3.441287204623222351e-02,-8.353160810656845570e-04,-8.857237175107002258e-03,-9.522014297544956207e-03,1.770348846912384033e-02,2.539135701954364777e-02,3.366365656256675720e-02,-5.298934876918792725e-02,-7.583878189325332642e-02,-5.044642463326454163e-02,-1.788875274360179901e-02,-1.766614988446235657e-02,-2.100466936826705933e-02,-8.169563487172126770e-03,1.646206900477409363e-02,-1.245733350515365601e-02,-1.265299227088689804e-02,-1.502906624227762222e-02,-8.992950432002544403e-03,-4.519457463175058365e-03,-3.164154663681983948e-02,-3.134479746222496033e-02,1.467130798846483231e-02,-1.384864561259746552e-02,-1.262536644935607910e-02,-3.528702259063720703e-02,-3.450282663106918335e-02,-4.728747531771659851e-03,-4.765998199582099915e-02,-1.684564352035522461e-02,-2.042067050933837891e-02,3.980712220072746277e-02,7.586526125669479370e-02,5.744939669966697693e-02,-2.696658857166767120e-02,7.237340789288282394e-03,2.901726961135864258e-02,-5.923825502395629883e-02,-1.268007792532444000e-02,3.337984671816229820e-03,7.378038484603166580e-03,7.494784425944089890e-03,2.842560969293117523e-02,-5.255866050720214844e-02,-5.718001350760459900e-02,-5.637604370713233948e-02,6.302747875452041626e-03,5.622008466161787510e-04,1.754616759717464447e-02,4.820313304662704468e-03,1.834344118833541870e-02,5.953324493020772934e-03,3.142695873975753784e-02,-6.486759521067142487e-03,-8.470219559967517853e-03,-1.197888236492872238e-02,4.926334135234355927e-03,5.494305118918418884e-02,-1.981953531503677368e-02,-1.740207336843013763e-02,5.644678603857755661e-03,-2.141638286411762238e-02,-2.633029408752918243e-02,-3.879093006253242493e-02,-1.858890429139137268e-02,-2.826502360403537750e-02,-1.824878156185150146e-02,-4.278637841343879700e-02,-1.784261874854564667e-02,-2.006312645971775055e-02,-6.245691794902086258e-03,-3.212169557809829712e-02,-4.157177172601222992e-03,-1.294666063040494919e-02,-6.044777482748031616e-02,-2.585747279226779938e-02,-7.893424481153488159e-03,-4.248421266674995422e-02,1.732590980827808380e-02,1.855142973363399506e-02,3.560359776020050049e-02,3.546090796589851379e-02,-1.532726269215345383e-02,-2.148905396461486816e-02,-3.437179327011108398e-02,2.673130668699741364e-02,3.686867654323577881e-02,2.375952713191509247e-02,2.995168976485729218e-02,9.097766131162643433e-03,-2.160364389419555664e-02,-1.885560899972915649e-02,-2.657537534832954407e-02,-1.540957856923341751e-02,2.055923920124769211e-03,-1.845300197601318359e-02,-3.313248045742511749e-03,-3.727025166153907776e-02,-1.684655994176864624e-02,-2.013795310631394386e-03,-1.546525117009878159e-02,-1.165708713233470917e-02,-6.170799024403095245e-03,-4.202181939035654068e-03,-1.683786138892173767e-02,-2.075627632439136505e-02,-6.857346277683973312e-03,-4.115244373679161072e-02,5.209102761000394821e-03,-3.587435930967330933e-03,-6.673872470855712891e-02,-1.632237285375595093e-01,2.232778258621692657e-02,9.142057038843631744e-03,-1.320322901010513306e-01,1.570145040750503540e-02,-1.449490524828433990e-02,4.471985448617488146e-04,3.816910833120346069e-02,-2.345609711483120918e-03,4.300694912672042847e-02,1.469276193529367447e-02,-4.588180035352706909e-02,-8.083852939307689667e-03,-2.579873614013195038e-02,2.700024470686912537e-02,7.208796683698892593e-03,-3.854175447486341000e-04,6.295353174209594727e-02,1.499796193093061447e-02,1.974484510719776154e-02,2.597478777170181274e-02,-4.336882010102272034e-02,-5.059918388724327087e-02,-6.056505814194679260e-02,-4.120355099439620972e-02,1.626543141901493073e-02,1.380266807973384857e-02,-1.016307808458805084e-02,-2.087979018688201904e-02,-3.612047433853149414e-02,-4.599166661500930786e-02,2.942499518394470215e-02,4.878366366028785706e-02,4.973974078893661499e-02,2.565909177064895630e-02,2.440897189080715179e-02,1.556311640888452530e-02,8.699554018676280975e-03,2.398329600691795349e-02,1.126540824770927429e-02,3.109455108642578125e-02,-6.865562405437231064e-03,-2.868816070258617401e-02,5.069957673549652100e-02,1.579432934522628784e-02,-2.760097384452819824e-02,1.584964990615844727e-02,2.726040780544281006e-02,-1.438035536557435989e-02,-2.603096328675746918e-02,-3.275887295603752136e-02,-3.262551873922348022e-02,3.310529864393174648e-04,1.889229193329811096e-02,4.134228918701410294e-03,3.381559625267982483e-02,5.605289340019226074e-02,5.764478072524070740e-02,-1.551012508571147919e-02,-2.519762783776968718e-04,2.711979206651449203e-03,-1.546381972730159760e-04,-1.962200365960597992e-02,2.711472660303115845e-02,8.406861685216426849e-03,1.456654071807861328e-02,1.336672995239496231e-02,-1.545579433441162109e-01,-2.645269036293029785e-01,-2.499776780605316162e-01,-1.866824924945831299e-01,-3.113680779933929443e-01,-2.881642878055572510e-01,-1.548160314559936523e-01,-1.378198117017745972e-01,-1.861523240804672241e-01,-1.072856318205595016e-02,-1.372224558144807816e-02,-3.280807286500930786e-02,-2.305157249793410301e-03,-9.836080484092235565e-03,-1.373398862779140472e-02,5.929736420512199402e-02,4.080695658922195435e-02,-7.293868809938430786e-03,-5.621881689876317978e-03,-7.104822434484958649e-03,2.775482460856437683e-02,-3.755877539515495300e-02,-4.061777610331773758e-03,3.470889059826731682e-03,1.519166678190231323e-02,-9.889921173453330994e-03,-2.517955936491489410e-02,-8.648469112813472748e-03,8.482703939080238342e-03,3.291885554790496826e-02,-3.333663195371627808e-02,-5.665276199579238892e-03,2.347858808934688568e-02,2.091006841510534286e-03,3.022096119821071625e-03,2.759177186817396432e-05,-2.252317033708095551e-02,-1.845626719295978546e-02,-2.868373692035675049e-02,-2.041720598936080933e-02,-2.044486999511718750e-02,8.893708698451519012e-03,-7.092865183949470520e-03,2.055044099688529968e-02,4.868369549512863159e-02,4.572705179452896118e-02,5.037451535463333130e-02,4.362897947430610657e-02,1.766931265592575073e-02,4.205507412552833557e-02,1.862895791418850422e-03,-1.313157146796584129e-03,1.865808502770960331e-03,-4.272531718015670776e-03,3.215953335165977478e-02,5.904189869761466980e-02,4.843326658010482788e-02,-2.646375447511672974e-02,-8.066677488386631012e-03,-1.035853568464517593e-02,-2.669914066791534424e-02,-9.541064500808715820e-03,-2.890150621533393860e-02,-2.923462726175785065e-02,-3.907798230648040771e-02,-4.495549947023391724e-02,-2.034550532698631287e-02,-4.489105194807052612e-02,-3.747717291116714478e-02,1.965251937508583069e-02,-1.556156785227358341e-03,-5.824549123644828796e-03,-5.069632455706596375e-02,-4.890209808945655823e-02,9.163084439933300018e-03,5.166842136532068253e-03,2.050851285457611084e-02,6.687396019697189331e-02,2.893408201634883881e-02,4.671702906489372253e-02,2.137117646634578705e-02
2.174431085586547852e-02,-2.835443615913391113e-02,-3.255744650959968567e-02,3.051921725273132324e-02,1.853589341044425964e-02,1.524402946233749390e-02,1.383162336423993111e-03,1.705061085522174835e-02,3.202048689126968384e-02,-3.629252687096595764e-02,1.091449428349733353e-02,4.537104070186614990e-02,1.339924335479736328e-02,6.427215784788131714e-02,8.820976316928863525e-02,4.669713973999023438e-02,9.965308010578155518e-02,8.760648220777511597e-02,-2.433573268353939056e-02,-2.962694689631462097e-02,1.953709498047828674e-02,-3.341240063309669495e-02,-2.229036204516887665e-02,-2.887874655425548553e-02,1.476512290537357330e-02,1.723416335880756378e-02,-1.818522065877914429e-02,-3.795423731207847595e-02,1.225780416280031204e-02,-2.222528122365474701e-02,-2.547139860689640045e-02,6.228065490722656250e-02,3.234665840864181519e-02,-1.211496628820896149e-02,7.692902535200119019e-02,6.000639498233795166e-02,3.039772249758243561e-02,2.928605303168296814e-02,-1.324339210987091064e-02,3.705019876360893250e-02,7.317011803388595581e-02,1.673246920108795166e-02,5.120335891842842102e-02,9.726663678884506226e-02,7.558985054492950439e-02,-3.927656449377536774e-03,-1.410777121782302856e-02,2.018457092344760895e-02,1.929746568202972412e-02,6.653784308582544327e-03,7.412060350179672241e-02,5.553783848881721497e-03,1.069631706923246384e-02,2.813674695789813995e-02,3.390041645616292953e-03,5.412002792581915855e-04,2.301160804927349091e-02,5.058593675494194031e-02,5.431052669882774353e-02,1.012068614363670349e-02,4.170878231525421143e-02,6.175964325666427612e-02,4.612421244382858276e-02,-1.529345568269491196e-02,-2.070662379264831543e-02,-1.380886882543563843e-02,1.183233503252267838e-02,2.250955253839492798e-02,2.073483169078826904e-02,-2.432434074580669403e-02,-8.412064984440803528e-03,1.043638586997985840e-02,2.705590799450874329e-02,-3.083744272589683533e-02,-3.698931075632572174e-03,1.683507300913333893e-02,1.073233084753155708e-03,4.476007539778947830e-03,7.032581605017185211e-03,5.589711014181375504e-03,2.956644631922245026e-03,-6.137084215879440308e-03,-1.604627817869186401e-02,-1.092629693448543549e-02,-1.991134835407137871e-03,-2.586300857365131378e-02,-3.927204292267560959e-03,1.958283968269824982e-02,2.100105583667755127e-02,3.283409867435693741e-03,1.024097111076116562e-02,1.181655004620552063e-02,6.433894485235214233e-02,-4.388321191072463989e-03,2.468559332191944122e-02,8.503895998001098633e-02,-4.922451451420783997e-02,-7.068967446684837341e-03,6.247041374444961548e-02,5.667394772171974182e-02,1.989890262484550476e-02,-2.116595581173896790e-02,5.695359408855438232e-02,5.678561050444841385e-03,-9.364809840917587280e-02,7.459299266338348389e-02,2.527125878259539604e-03,-3.878217563033103943e-02,-7.248485926538705826e-03,1.764352666214108467e-03,-3.608507663011550903e-02,1.691513136029243469e-02,8.132474124431610107e-02,3.139540925621986389e-02,4.043397679924964905e-02,6.389496475458145142e-02,1.688855886459350586e-02,2.887385198846459389e-03,-3.312174521852284670e-05,2.666753716766834259e-02,4.188254103064537048e-02,4.947667568922042847e-02,1.523731928318738937e-02,5.641038715839385986e-02,1.029022186994552612e-01,4.830197244882583618e-02,-1.792003586888313293e-02,7.784351706504821777e-03,4.514464363455772400e-02,3.219499019905924797e-03,2.356764627620577812e-03,3.818097710609436035e-02,-1.141208596527576447e-02,-7.619270123541355133e-03,-3.636915702372789383e-03,-7.843638304620981216e-04,1.672158390283584595e-02,3.204718977212905884e-02,2.885494753718376160e-02,9.094757586717605591e-02,1.022233888506889343e-01,-2.672241814434528351e-02,4.220810905098915100e-02,3.681315854191780090e-02,2.757302671670913696e-02,2.210481464862823486e-02,2.544850483536720276e-02,-4.055779427289962769e-04,-5.176704376935958862e-03,8.277788758277893066e-03,1.180706173181533813e-02,-1.915333606302738190e-02,-2.658138424158096313e-02,-1.973083801567554474e-02,1.331409160047769547e-02,1.693424396216869354e-02,2.786934748291969299e-02,4.901304095983505249e-02,4.162734746932983398e-02,7.459451444447040558e-03,1.981899328529834747e-02,2.244488894939422607e-02,-4.514490719884634018e-03,-1.840283512137830257e-03,2.609931118786334991e-02,-2.847069874405860901e-02,-3.453582897782325745e-02,3.883168566972017288e-03,-2.338745398446917534e-03,-4.452910739928483963e-03,2.174498140811920166e-02,-4.022690653800964355e-02,-2.762814983725547791e-02,-4.118152707815170288e-02,-1.460760738700628281e-02,3.362736105918884277e-02,-1.105037238448858261e-02,-3.990838304162025452e-02,-5.971916951239109039e-03,-2.683947235345840454e-02,-4.706407338380813599e-02,-3.955827653408050537e-02,-4.622655361890792847e-02,-1.020018011331558228e-02,3.109678067266941071e-02,3.920962102711200714e-03,-3.700838191434741020e-03,3.506711497902870178e-02,1.251506432890892029e-02,1.897219754755496979e-02,-3.242076933383941650e-02,2.434664964675903320e-02,-3.007078915834426880e-02,-5.183509737253189087e-02,-6.190327927470207214e-03,2.196920663118362427e-02,1.266490388661623001e-02,1.053595449775457382e-02,-3.990323841571807861e-02,-4.134330153465270996e-02,-2.857745625078678131e-02,-1.859691925346851349e-02,1.318460237234830856e-02,1.760392263531684875e-02,-1.835100539028644562e-02,4.358302429318428040e-02,2.240890637040138245e-02,1.396535243839025497e-02,-6.237823981791734695e-03,-1.855549216270446777e-02,2.768613025546073914e-02,1.834088563919067383e-02,4.960766434669494629e-02,5.748671665787696838e-02,9.647523611783981323e-02,6.355298310518264771e-02,-1.363433431833982468e-02,-1.259743608534336090e-02,-4.138586297631263733e-02,-8.124301210045814514e-03,1.975439861416816711e-02,-1.099974941462278366e-02,-1.089741848409175873e-02,-8.663495071232318878e-03,1.164088491350412369e-02,-2.401630394160747528e-02,-1.944945380091667175e-02,-8.057311177253723145e-02,2.941446844488382339e-03,3.832049295306205750e-02,4.059951379895210266e-02,4.541742801666259766e-02,1.080646738409996033e-01,1.111417561769485474e-01,-1.804688014090061188e-02,-1.274642720818519592e-02,-6.794670969247817993e-02,-2.568835020065307617e-02,-2.397056482732295990e-02,-5.956013500690460205e-02,-1.195505447685718536e-02,-1.667456887662410736e-02,-3.834087774157524109e-02,3.927311301231384277e-02,1.695588417351245880e-02,4.566589742898941040e-02,1.779862493276596069e-02,1.697851531207561493e-02,4.144109785556793213e-02,3.526858240365982056e-02,3.927625715732574463e-03,6.266450136899948120e-02,7.448108866810798645e-03,3.007573634386062622e-02,-4.372729454189538956e-03,4.181936010718345642e-02,6.126623600721359253e-02,1.727716997265815735e-02,-7.672067731618881226e-03,-6.645080167800188065e-03,-8.688298985362052917e-03,-8.698464371263980865e-03,5.402844864875078201e-03,1.740964315831661224e-02,-7.097255904227495193e-03,1.223809272050857544e-02,9.933944791555404663e-03,-6.071668118238449097e-03,9.838431142270565033e-03,-4.938421025872230530e-02,-2.120205201208591461e-02,2.458445355296134949e-02,-6.119397468864917755e-03,3.099795058369636536e-02,5.983743071556091309e-02,4.236694797873497009e-02,9.263394400477409363e-03,2.951572649180889130e-02,4.822667688131332397e-03,7.512956857681274414e-03,5.395223945379257202e-02,6.807408481836318970e-02,-2.053554356098175049e-02,6.227982416749000549e-02,6.015007197856903076e-02,-1.240807678550481796e-02,2.694547921419143677e-02,4.460592195391654968e-02,2.712109684944152832e-02,6.224142387509346008e-02,3.218947723507881165e-02,3.004868142306804657e-02,8.030486106872558594e-02,4.929309338331222534e-02,-4.349970258772373199e-03,3.968885913491249084e-02,-3.236605785787105560e-03,-1.694997400045394897e-02,-3.473369777202606201e-02,5.403338582254946232e-04,-3.442057967185974121e-02,1.137906871736049652e-02,2.334524411708116531e-03,-4.291053116321563721e-02,9.623113088309764862e-03,-1.708093797788023949e-03,-4.852862656116485596e-02,-1.112211029976606369e-02,-1.564125716686248779e-02,-1.653709798119962215e-03,3.158651664853096008e-02,4.733245447278022766e-02,-8.384396205656230450e-04,3.845678269863128662e-02,3.126200288534164429e-02,6.686359178274869919e-03,-2.087592519819736481e-02,-6.746963411569595337e-02,2.396810427308082581e-02,6.778866983950138092e-03,-7.375179976224899292e-02,-3.336286544799804688e-02,-4.660081490874290466e-02,-1.173041686415672302e-01,3.679604455828666687e-02,4.599785432219505310e-02,1.222410518676042557e-02,2.971793152391910553e-02,3.112424723803997040e-02,-1.309069106355309486e-03,1.009150035679340363e-02,-1.745207421481609344e-02,-2.202273719012737274e-02,-2.265047468245029449e-02,6.998576689511537552e-03,5.033459514379501343e-03,-1.000863499939441681e-02,4.772281274199485779e-03,-3.423682413995265961e-03,-1.696908660233020782e-02,8.047800511121749878e-03,4.365371540188789368e-03,2.896207943558692932e-02,3.782799467444419861e-02,2.924764342606067657e-02,8.195503056049346924e-02,1.411904394626617432e-01,7.661821693181991577e-02,5.377661809325218201e-02,9.416618943214416504e-02,3.273027390241622925e-02,4.587810859084129333e-02,1.355983689427375793e-02,2.876404323615133762e-04,1.082589104771614075e-02,1.170008722692728043e-02,-7.754575461149215698e-03,-6.697712931782007217e-03,1.440787035971879959e-02,1.990662515163421631e-02,-9.560809470713138580e-03,5.914949346333742142e-03,6.334125529974699020e-03,4.179345816373825073e-02,8.039188385009765625e-02,7.371956110000610352e-02,4.962363280355930328e-03,4.997583851218223572e-02,1.893419586122035980e-02,-1.195516623556613922e-02,-1.673882454633712769e-02,5.317964032292366028e-02,2.847019769251346588e-02,6.419837474822998047e-02,6.063465774059295654e-02,3.586067259311676025e-02,1.050313189625740051e-01,1.004960834980010986e-01,-3.427847847342491150e-02,-3.335838392376899719e-02,-1.414871425367891788e-03,-1.726568676531314850e-02,2.888905443251132965e-02,4.932183399796485901e-02,5.003107711672782898e-03,5.562728270888328552e-02,5.398536473512649536e-02,1.913461834192276001e-02,1.136742066591978073e-02,2.433108165860176086e-03,-9.340276941657066345e-03,-2.204797416925430298e-02,3.358580637723207474e-03,-3.563809767365455627e-02,-6.082981452345848083e-02,-5.380186066031455994e-02,1.023574266582727432e-02,3.959611430764198303e-02,7.504142075777053833e-02,-2.278366871178150177e-02,1.879526861011981964e-02,4.862668737769126892e-02,-2.100102370604872704e-03,1.516443304717540741e-02,4.240409657359123230e-02,-5.286159925162792206e-03,-6.954034790396690369e-03,2.413778193295001984e-02,-1.284244656562805176e-02,2.331164851784706116e-02,8.989190310239791870e-02,-3.779664263129234314e-02,3.888263180851936340e-02,1.100430935621261597e-01,-9.989737533032894135e-03,5.234024021774530411e-03,7.949571590870618820e-04,-1.113195158541202545e-02,2.079650387167930603e-02,2.207033336162567139e-02,-1.235719397664070129e-02,1.459034066647291183e-02,1.134813297539949417e-02,7.000690326094627380e-03,1.829535700380802155e-02,1.903148554265499115e-02,-3.718974813818931580e-02,-9.827430360019207001e-03,2.230717800557613373e-03,-2.915394119918346405e-02,2.099394425749778748e-02,4.823875799775123596e-02,1.985987182706594467e-03,-1.108188088983297348e-02,1.042011193931102753e-02,-3.768467903137207031e-02,9.597969055175781250e-02,1.059881076216697693e-01,-5.939421430230140686e-02,1.467877477407455444e-01,1.843084394931793213e-01,2.439104765653610229e-02,1.327523123472929001e-02,-1.084899902343750000e-02,4.187495633959770203e-02,2.670648321509361267e-02,1.606607809662818909e-02,-8.744945749640464783e-03,-1.807143725454807281e-02,-2.882115542888641357e-02,4.855808988213539124e-02,3.759718313813209534e-02,5.153478123247623444e-03,2.116883173584938049e-02,2.074786089360713959e-02,1.000272855162620544e-02,-1.466023828834295273e-02,-2.609523572027683258e-02,-2.422191947698593140e-02,6.354942172765731812e-02,1.176352649927139282e-01,1.128935217857360840e-01,-1.890017464756965637e-02,2.192123234272003174e-02,5.146139115095138550e-02,-3.306820616126060486e-02,-1.416451949626207352e-02,5.559624172747135162e-03,-1.864734105765819550e-02,-2.067997492849826813e-02,-1.105165202170610428e-02,-1.985188201069831848e-02,3.612037107814103365e-04,2.585302479565143585e-02,-2.198907174170017242e-02,2.641933970153331757e-02,4.725711047649383545e-02,-5.874875932931900024e-02,-1.166308671236038208e-02,-1.296351291239261627e-02,-2.702738717198371887e-02,3.418628871440887451e-02,6.879181135445833206e-03,-2.464321069419384003e-02,4.767885059118270874e-02,-2.098966855555772781e-03,3.539951518177986145e-02,4.014309868216514587e-02,5.604554899036884308e-03,1.168526057153940201e-02,6.167540699243545532e-02,5.766110867261886597e-02,-1.033774763345718384e-02,2.304094843566417694e-02,2.258324250578880310e-02,1.909995451569557190e-02,1.837169378995895386e-02,3.567367792129516602e-02,4.790147766470909119e-03,1.667495258152484894e-02,2.476175315678119659e-02,1.939965225756168365e-02,-1.279740221798419952e-02,4.336797166615724564e-03,-3.338711708784103394e-02,-9.301111102104187012e-03,5.908790603280067444e-02,-6.688649766147136688e-03,1.357012428343296051e-02,3.759961575269699097e-02,-3.324270993471145630e-02,3.594021126627922058e-02,8.516497164964675903e-02,-1.193641591817140579e-02,6.295098923146724701e-03,-1.499219238758087158e-02,-1.621045172214508057e-02,1.031471323221921921e-02,3.463532403111457825e-02,-4.998113028705120087e-03,1.018935628235340118e-02,1.480024959892034531e-02,-8.409906178712844849e-03,-2.738653915002942085e-03,1.021922100335359573e-02,-3.588560596108436584e-02,7.240052800625562668e-03,-7.125264964997768402e-03,-7.568096742033958435e-03,2.957392483949661255e-02,1.576755195856094360e-02,-4.580253735184669495e-03,8.668771479278802872e-04,5.335464142262935638e-03,5.237178131937980652e-02,7.309187203645706177e-02,5.478133633732795715e-02,4.755799099802970886e-02,8.717859536409378052e-02,6.671623140573501587e-02,-1.590796164236962795e-03,8.524972014129161835e-03,-5.260291509330272675e-03,-2.746065519750118256e-02,-2.382486686110496521e-02,-2.473458275198936462e-02,-5.701645743101835251e-03,-9.554857388138771057e-03,-2.139947563409805298e-02,-3.985870629549026489e-02,-7.107492536306381226e-02,-5.854625999927520752e-02,2.290246821939945221e-02,1.118441298604011536e-02,-2.365371026098728180e-02,8.189746737480163574e-02,1.199636310338973999e-01,9.324204176664352417e-02,3.198388591408729553e-02,7.493135333061218262e-02,6.602018326520919800e-02,2.848950773477554321e-02,1.193101704120635986e-01,1.209997385740280151e-01,7.925935206003487110e-04,4.381195455789566040e-02,4.464827105402946472e-02,3.274777159094810486e-02,4.144383594393730164e-02,-8.193212561309337616e-03,4.554133117198944092e-02,2.942589111626148224e-02,-8.543965406715869904e-03,1.163379056379199028e-04,1.804479863494634628e-03,1.482585817575454712e-02
-1.424676626920700073e-01,2.271089889109134674e-02,4.804555326700210571e-02,-1.094643697142601013e-01,-1.901840418577194214e-02,-3.495594486594200134e-02,-4.867526888847351074e-02,3.479338809847831726e-02,4.314269870519638062e-03,-1.110835559666156769e-02,1.305315527133643627e-03,2.802364761009812355e-03,-6.990705151110887527e-03,-6.586118601262569427e-03,-9.360498515889048576e-04,2.201970294117927551e-02,1.041439012624323368e-03,5.239811912178993225e-02,7.446791231632232666e-02,4.905892536044120789e-02,5.170200392603874207e-02,-1.467409580945968628e-01,-5.458525940775871277e-02,3.574144840240478516e-02,-1.832827925682067871e-01,-8.965070010162889957e-04,1.058393251150846481e-02,-3.268032742198556662e-05,1.629400625824928284e-02,3.737483639270067215e-03,3.227685764431953430e-02,3.997699171304702759e-02,6.352600455284118652e-02,-1.839732006192207336e-02,-1.262839045375585556e-02,1.504089566878974438e-03,-1.546385418623685837e-02,-2.515977015718817711e-03,1.626981305889785290e-03,-2.548873238265514374e-02,-1.577508449554443359e-02,3.775366768240928650e-02,1.211064681410789490e-02,5.821736901998519897e-02,5.453667789697647095e-02,1.238849107176065445e-02,-7.597445696592330933e-02,-7.767122238874435425e-02,-3.124747052788734436e-02,1.864487538114190102e-03,5.330309644341468811e-02,-5.320287123322486877e-02,9.974053828045725822e-04,6.212702393531799316e-02,7.877626270055770874e-02,2.749218977987766266e-02,-2.262414898723363876e-03,5.424377042800188065e-03,3.786621242761611938e-02,1.608452945947647095e-02,-1.626303046941757202e-02,6.381649989634752274e-03,-1.336694415658712387e-02,2.257233252748847008e-03,-2.731612324714660645e-02,-1.716608880087733269e-03,4.702242091298103333e-02,-2.595603652298450470e-02,8.119195699691772461e-03,6.095347926020622253e-02,-1.432925369590520859e-02,-3.453246876597404480e-02,2.490105293691158295e-02,-1.027887687087059021e-02,-3.025496937334537506e-02,3.220206126570701599e-02,6.047659739851951599e-02,2.889570966362953186e-02,3.848342224955558777e-03,2.260953374207019806e-02,3.493070229887962341e-02,2.590331621468067169e-02,-8.485845290124416351e-03,3.427955321967601776e-03,1.003594882786273956e-02,-4.525218624621629715e-03,4.800454527139663696e-02,4.097945056855678558e-03,8.301476016640663147e-03,1.874087005853652954e-02,2.632946521043777466e-02,8.863472379744052887e-03,-6.606315821409225464e-02,-1.964179053902626038e-02,3.608426079154014587e-02,6.892287172377109528e-03,-3.414206951856613159e-02,1.743504963815212250e-02,-9.340952150523662567e-03,3.499254817143082619e-03,-9.738938510417938232e-02,-7.195632904767990112e-03,-1.743393577635288239e-02,-1.881581246852874756e-01,-4.832226037979125977e-02,6.889020651578903198e-02,-8.435787260532379150e-02,-4.261901602149009705e-02,-8.241540938615798950e-02,-1.085387021303176880e-01,-5.271704122424125671e-02,-5.458255857229232788e-02,1.645312458276748657e-02,7.832961156964302063e-03,-4.835879430174827576e-02,-2.449118718504905701e-02,-3.521662205457687378e-02,4.191107291262596846e-04,7.483178749680519104e-03,-1.358601916581392288e-02,2.784923883154988289e-03,3.821996971964836121e-02,4.793152678757905960e-03,4.321809858083724976e-03,-3.440547268837690353e-03,-1.282943319529294968e-02,-2.819074876606464386e-02,3.825304331257939339e-03,-5.243109911680221558e-02,-2.708805352449417114e-02,5.405946448445320129e-02,-2.226609212812036276e-04,-2.217447618022561073e-03,3.344252705574035645e-02,2.546145580708980560e-02,-1.258955430239439011e-02,-4.543228447437286377e-02,-2.407802827656269073e-02,-1.191151067614555359e-01,1.176265534013509750e-02,1.114097982645034790e-01,-6.912730634212493896e-02,4.101178795099258423e-02,7.074856758117675781e-02,5.110531300306320190e-02,3.659228235483169556e-02,5.263647064566612244e-03,-2.902276441454887390e-02,-7.354754954576492310e-02,3.483435511589050293e-02,3.661518916487693787e-02,2.162363147363066673e-03,3.990836814045906067e-02,-1.611264981329441071e-02,2.209104364737868309e-03,-6.659695878624916077e-03,8.933789096772670746e-03,7.955276407301425934e-03,-4.410717636346817017e-03,-7.669787853956222534e-03,5.255747586488723755e-03,8.620123378932476044e-03,-1.417063642293214798e-02,-3.279828652739524841e-02,3.937555104494094849e-02,-3.586892411112785339e-02,-2.511249855160713196e-02,4.775367304682731628e-02,-2.419046126306056976e-02,-5.205709952861070633e-03,6.698388606309890747e-02,4.601379856467247009e-02,-6.227182596921920776e-02,7.488833274692296982e-03,1.841142624616622925e-01,-1.162477806210517883e-01,-1.061998009681701660e-01,1.059069409966468811e-01,-8.903097361326217651e-02,-3.827401995658874512e-02,9.744687005877494812e-03,1.148928981274366379e-02,3.302057087421417236e-02,3.297837078571319580e-02,-9.576884098351001740e-03,-1.927342452108860016e-02,6.083934009075164795e-02,1.655896939337253571e-02,-2.152462489902973175e-02,1.563484407961368561e-02,6.775230634957551956e-03,-4.575545340776443481e-02,6.450945138931274414e-02,-8.244693279266357422e-02,-1.781891845166683197e-02,7.276452146470546722e-03,-1.573471352458000183e-02,-1.567413099110126495e-03,3.198481723666191101e-02,1.279356423765420914e-02,-5.024818703532218933e-03,-5.926682800054550171e-02,2.261872403323650360e-02,3.343273326754570007e-02,-3.362892940640449524e-02,-2.360394224524497986e-03,3.064044564962387085e-02,-2.248482592403888702e-02,2.071042545139789581e-02,2.232162095606327057e-02,-3.670102357864379883e-02,-5.675110500305891037e-03,-1.693301461637020111e-02,-2.506460621953010559e-02,-4.737991467118263245e-02,-4.388355836272239685e-02,-2.041033469140529633e-02,1.078666467219591141e-02,3.790665790438652039e-02,-2.157461084425449371e-02,-2.165285311639308929e-02,-2.624207921326160431e-02,-9.236721321940422058e-03,-6.747400388121604919e-03,-4.878087714314460754e-02,4.695318173617124557e-03,2.018434181809425354e-02,2.330259606242179871e-02,5.692122038453817368e-03,-1.266848854720592499e-02,3.233396261930465698e-02,1.825862936675548553e-02,-3.830017894506454468e-02,-4.371878877282142639e-02,-1.665578596293926239e-02,-4.763732850551605225e-02,-2.305709384381771088e-02,7.437637448310852051e-02,2.461967803537845612e-02,4.280186444520950317e-02,4.368168115615844727e-02,-1.616591401398181915e-02,-4.177378863096237183e-02,2.551241964101791382e-02,4.628285299986600876e-03,1.527041010558605194e-02,3.123553656041622162e-02,-5.445031821727752686e-02,3.765263780951499939e-02,-1.567784138023853302e-02,-4.463912546634674072e-02,4.490325972437858582e-02,8.273214101791381836e-03,-1.961014047265052795e-02,-2.513597719371318817e-03,2.054413966834545135e-02,-1.285356376320123672e-02,-5.414211191236972809e-03,-3.834334202110767365e-03,-1.271793991327285767e-02,1.942792208865284920e-03,3.893530694767832756e-03,2.157299593091011047e-02,2.318095788359642029e-02,2.735376590862870216e-03,1.202664989978075027e-02,2.973544225096702576e-02,1.629207166843116283e-03,1.712696254253387451e-02,1.559142954647541046e-02,2.824168466031551361e-02,-2.634860202670097351e-02,-1.404135581105947495e-02,8.245412260293960571e-03,-5.154351703822612762e-03,-3.671050071716308594e-02,7.871627807617187500e-03,-4.164180904626846313e-02,-2.782195433974266052e-02,5.050923209637403488e-03,-8.527460508048534393e-03,-2.720507234334945679e-02,-1.153894700109958649e-02,-1.165529806166887283e-02,4.668594803661108017e-03,-1.837663352489471436e-02,-2.826458367053419352e-04,1.580148935317993164e-02,-3.439786285161972046e-02,-5.174328107386827469e-03,-2.086482010781764984e-02,-1.047542840242385864e-01,7.339030504226684570e-02,5.816243588924407959e-02,-4.636548459529876709e-02,6.116459518671035767e-02,6.676440534647554159e-05,-1.203697361052036285e-02,5.551657080650329590e-02,2.945140004158020020e-02,-1.982933655381202698e-02,2.613709680736064911e-02,-7.996860146522521973e-02,-1.320141088217496872e-02,1.144343987107276917e-02,-7.224807143211364746e-02,2.887027710676193237e-02,5.405887588858604431e-02,3.279794380068778992e-02,3.325609490275382996e-02,7.883723825216293335e-03,2.456523850560188293e-02,-1.238903403282165527e-02,-1.308712456375360489e-02,-2.340548112988471985e-02,2.559274248778820038e-02,-1.429471746087074280e-02,2.510893903672695160e-02,1.122798025608062744e-02,4.380760714411735535e-02,6.637532263994216919e-02,7.210725545883178711e-02,6.387557089328765869e-02,2.980339154601097107e-02,-1.879205368459224701e-02,-2.531079202890396118e-02,-3.541951626539230347e-02,4.473130032420158386e-02,1.896201446652412415e-02,9.884892031550407410e-03,2.352904342114925385e-02,-1.146402209997177124e-02,-1.385588082484900951e-03,2.835718216374516487e-03,1.765141636133193970e-02,-2.097718790173530579e-02,-5.755948834121227264e-03,-8.735078386962413788e-03,-2.216844633221626282e-02,1.594657450914382935e-02,2.288065850734710693e-02,1.192916836589574814e-02,-2.573347836732864380e-02,-3.784511610865592957e-02,2.509284019470214844e-02,-3.969405218958854675e-02,-1.930012926459312439e-02,1.303098946809768677e-01,1.522702444344758987e-02,-4.299754276871681213e-03,6.454711407423019409e-02,-9.478855878114700317e-02,-3.672502934932708740e-02,-5.987876653671264648e-02,-1.032332107424736023e-01,5.049144849181175232e-02,3.855032846331596375e-02,4.390105605125427246e-02,9.881709516048431396e-02,6.697712093591690063e-02,-1.348153781145811081e-02,2.325383201241493225e-02,1.940204948186874390e-02,8.061318658292293549e-03,-1.715821027755737305e-02,-4.032763186842203140e-03,2.060163952410221100e-02,2.128596417605876923e-03,-1.914335414767265320e-02,-7.714430242776870728e-02,-4.260621964931488037e-02,-1.299038156867027283e-02,1.944592967629432678e-02,1.524704601615667343e-02,-9.669821709394454956e-03,6.308526732027530670e-03,6.096047349274158478e-03,2.949003595858812332e-03,-4.305404424667358398e-02,-1.041794661432504654e-02,-1.664858497679233551e-02,2.956198528409004211e-02,-2.233066596090793610e-02,-4.784039780497550964e-02,-4.477133508771657944e-03,2.872420288622379303e-02,-1.301515474915504456e-02,-1.374441236257553101e-01,4.642979055643081665e-02,2.751202508807182312e-02,-1.129626184701919556e-01,6.099065393209457397e-02,7.556745409965515137e-02,-4.129261523485183716e-02,4.497661441564559937e-02,1.284918747842311859e-02,2.891340851783752441e-02,4.718190990388393402e-03,7.123399525880813599e-02,-2.761666290462017059e-02,-4.160990938544273376e-03,8.256498724222183228e-02,-7.261102087795734406e-03,-3.424577414989471436e-02,-8.758760057389736176e-03,-3.332736436277627945e-03,1.082070171833038330e-02,-7.938763126730918884e-03,-2.976687066256999969e-02,4.045081138610839844e-02,-8.615599013864994049e-03,-1.653632149100303650e-02,4.502526298165321350e-02,2.518261596560478210e-02,1.755034551024436951e-02,-4.421159159392118454e-03,-1.325331907719373703e-02,3.753072768449783325e-02,7.018523290753364563e-03,-4.189570993185043335e-02,4.138968884944915771e-02,6.180134601891040802e-03,-4.056108370423316956e-02,5.188804934732615948e-04,-1.107796654105186462e-02,-3.560367971658706665e-02,-2.343973517417907715e-02,2.487251185812056065e-04,3.833483159542083740e-02,3.837111406028270721e-03,1.323743630200624466e-02,6.703842431306838989e-03,1.238127239048480988e-02,-7.164378184825181961e-03,1.435762736946344376e-03,1.701313629746437073e-02,-4.126867651939392090e-02,-6.798737496137619019e-02,-3.112669475376605988e-02,-4.454882442951202393e-02,-4.527290165424346924e-02,5.711656063795089722e-03,3.585181757807731628e-02,5.245207995176315308e-02,-2.156797237694263458e-02,-2.390496619045734406e-02,9.073892235755920410e-02,-1.261314656585454941e-02,-2.179706841707229614e-02,5.567808821797370911e-02,-1.083065848797559738e-02,2.197536639869213104e-02,2.657035924494266510e-02,-1.634477823972702026e-02,1.600813306868076324e-02,1.524658314883708954e-02,-1.116193644702434540e-02,6.756282877177000046e-03,7.205526344478130341e-03,-1.483516860753297806e-02,-5.860222503542900085e-02,-1.411869190633296967e-02,3.542144969105720520e-02,-3.820886369794607162e-03,2.998147159814834595e-02,4.907311871647834778e-02,4.455934744328260422e-03,8.593065664172172546e-03,-3.139848634600639343e-02,-3.293995559215545654e-02,-9.727322310209274292e-02,1.839369088411331177e-01,9.129758179187774658e-02,-8.665562421083450317e-02,1.465178281068801880e-01,9.635384380817413330e-02,2.327484689885750413e-04,-2.245296910405158997e-02,4.773544892668724060e-02,3.730344027280807495e-02,-1.307240724563598633e-01,1.159182712435722351e-01,1.622797399759292603e-01,-1.096502095460891724e-01,3.496104106307029724e-02,7.251033186912536621e-02,-6.303810328245162964e-02,-9.130832552909851074e-02,-3.633446246385574341e-02,5.847084894776344299e-02,-1.057981476187705994e-01,-3.868162631988525391e-02,1.110716238617897034e-01,-1.986566465348005295e-03,4.928015172481536865e-02,2.880733460187911987e-02,-1.965159550309181213e-02,-9.144631214439868927e-03,5.090716853737831116e-02,-2.264299429953098297e-02,-8.784447796642780304e-03,3.121145814657211304e-02,-1.454380247741937637e-02,7.652646861970424652e-03,-1.451205369085073471e-02,-9.314572438597679138e-03,5.822514649480581284e-03,4.751492664217948914e-02,5.454726144671440125e-02,9.748462587594985962e-03,2.914686873555183411e-02,-8.099767379462718964e-03,-1.575830206274986267e-02,2.757521905004978180e-02,1.221687253564596176e-02,2.411070652306079865e-02,-9.218052774667739868e-02,-2.156855538487434387e-02,7.052838802337646484e-02,-8.302023261785507202e-02,-2.881578914821147919e-02,1.281340699642896652e-02,3.267067670822143555e-02,5.634281784296035767e-02,-6.045029684901237488e-02,6.639277189970016479e-02,5.054328218102455139e-02,-1.278159022331237793e-01,-9.056015871465206146e-03,-4.738454148173332214e-02,-1.330863684415817261e-01,-5.571499466896057129e-02,-2.145843021571636200e-02,-5.611835047602653503e-03,-2.639891766011714935e-02,-1.417453121393918991e-02,1.063944399356842041e-02,-1.762833446264266968e-02,1.167470589280128479e-02,1.657142071053385735e-03,-3.474599495530128479e-02,-1.474245358258485794e-02,-5.902472767047584057e-04,-1.747458800673484802e-02,2.092264825478196144e-03,-1.083306781947612762e-02,-3.168608294799923897e-03,-2.134322188794612885e-02,4.643275402486324310e-03,1.769916340708732605e-02,6.935099605470895767e-03,-7.402507215738296509e-02,-2.949266694486141205e-02,2.601117594167590141e-03,-5.500580742955207825e-02,-7.065555453300476074e-02,-1.678918302059173584e-02,-3.216763958334922791e-02,-1.912391558289527893e-02,6.300350651144981384e-03,-3.258923441171646118e-02,-7.418311387300491333e-02,3.103913739323616028e-02,-4.574959725141525269e-02,-1.163556519895792007e-02,4.822362214326858521e-03,-3.478565067052841187e-02,5.918655917048454285e-02,4.578833281993865967e-02,4.567283764481544495e-02,1.378416270017623901e-01,2.761642634868621826e-02,-2.886545471847057343e-02,-4.440856724977493286e-02,-6.389967352151870728e-02,-1.341110318899154663e-01
2.203242667019367218e-02,-8.458087104372680187e-04,-7.830915041267871857e-03,-4.197161644697189331e-03,-2.047966606914997101e-02,-2.135072462260723114e-02,-2.584179304540157318e-02,-5.611603707075119019e-02,-1.658275909721851349e-02,1.138344965875148773e-02,3.615089133381843567e-02,1.686307229101657867e-02,3.099412471055984497e-02,6.018515303730964661e-02,5.635995417833328247e-02,1.332902116701006889e-03,3.286536410450935364e-02,3.284984501078724861e-03,7.835643365979194641e-03,5.498353391885757446e-02,4.984734952449798584e-02,7.465025410056114197e-03,-1.004276331514120102e-02,2.492742612957954407e-02,3.052196279168128967e-02,3.411420807242393494e-02,4.283646121621131897e-02,2.840733714401721954e-02,7.285448163747787476e-02,6.516879796981811523e-02,-2.968607284128665924e-02,3.198369964957237244e-02,1.459281612187623978e-02,2.451258897781372070e-02,9.211689978837966919e-02,7.063716650009155273e-02,-1.774639636278152466e-02,-4.750018566846847534e-02,-4.899718612432479858e-02,4.853143170475959778e-02,6.682108342647552490e-02,1.036018319427967072e-02,2.479173056781291962e-02,5.729125812649726868e-02,2.934309467673301697e-02,1.245400682091712952e-02,3.518959507346153259e-02,5.355532094836235046e-02,1.442554127424955368e-02,7.833649218082427979e-02,1.111780107021331787e-01,-1.353923347778618336e-03,5.680098012089729309e-02,8.668143302202224731e-02,-1.070024818181991577e-02,-1.637237519025802612e-02,1.199988182634115219e-02,9.702737443149089813e-03,5.426677409559488297e-03,1.718596741557121277e-02,4.537041485309600830e-02,4.406180232763290405e-02,9.534276090562343597e-03,-7.567546330392360687e-03,-3.897957876324653625e-02,-1.148444018326699734e-03,1.944401860237121582e-02,1.519263908267021179e-02,1.079544518142938614e-02,3.276373073458671570e-02,3.366365283727645874e-02,7.342302706092596054e-03,2.080585807561874390e-02,-1.666772924363613129e-02,-1.422270387411117554e-02,2.897089160978794098e-02,-8.134843781590461731e-03,-1.347856130450963974e-02,1.282047200947999954e-02,-1.689803414046764374e-02,-2.661909908056259155e-02,4.667133558541536331e-03,1.058427523821592331e-02,1.784073002636432648e-02,4.880403634160757065e-03,-1.550080813467502594e-02,1.445550937205553055e-02,1.553239673376083374e-02,2.062065899372100830e-02,2.732568606734275818e-02,1.935781911015510559e-02,1.035416033118963242e-02,1.552564324811100960e-03,-4.698874894529581070e-03,2.542182244360446930e-02,5.671528354287147522e-02,-1.055015530437231064e-02,4.154576361179351807e-02,5.080211907625198364e-02,7.663269061595201492e-04,-5.534000229090452194e-03,1.766731776297092438e-02,-3.632745891809463501e-02,-6.186132878065109253e-02,-1.680823392234742641e-03,-1.690454594790935516e-02,-5.959187075495719910e-02,1.410713186487555504e-03,2.884934470057487488e-02,5.026122555136680603e-02,2.414902299642562866e-02,1.607069745659828186e-02,5.416138470172882080e-02,4.160439223051071167e-02,1.981553249061107635e-02,7.441597431898117065e-02,5.927641317248344421e-02,4.155252873897552490e-02,3.036113455891609192e-02,1.163446996361017227e-02,1.102327033877372742e-01,8.051074296236038208e-02,-1.958085410296916962e-02,9.100743383169174194e-02,6.929192692041397095e-02,-4.544679075479507446e-02,-1.476757135242223740e-02,3.752984921447932720e-04,4.900143016129732132e-03,-2.786821685731410980e-03,1.655787788331508636e-02,2.568307891488075256e-02,-1.678650081157684326e-02,-1.242853002622723579e-03,-2.952303364872932434e-02,-5.841391161084175110e-03,-3.545666486024856567e-02,-1.202347781509160995e-02,2.670001238584518433e-02,8.934380486607551575e-03,1.669513061642646790e-02,1.663907431066036224e-02,-4.180256277322769165e-03,-4.566556308418512344e-03,1.051404327154159546e-02,1.016465667635202408e-02,-1.436473708599805832e-02,-1.588690094649791718e-03,7.616079412400722504e-03,-2.398265898227691650e-02,9.102951735258102417e-03,1.205812953412532806e-02,-3.158823028206825256e-02,3.026510355994105339e-03,4.929990507662296295e-03,1.142176520079374313e-02,-1.340780523605644703e-03,1.937754685059189796e-03,3.762629115954041481e-03,3.666275180876255035e-03,1.342279650270938873e-02,1.661834120750427246e-02,2.848386950790882111e-02,2.578682079911231995e-02,2.102608978748321533e-02,5.123652145266532898e-02,6.454685330390930176e-02,3.695634752511978149e-02,5.580363795161247253e-02,7.198337465524673462e-02,3.573548793792724609e-02,-2.781574148684740067e-03,8.580849505960941315e-03,-5.210294853895902634e-03,-1.783438492566347122e-03,1.905355602502822876e-02,-2.067105472087860107e-02,-4.494341090321540833e-03,9.191583842039108276e-03,-2.131509594619274139e-02,6.259599234908819199e-03,-1.453675236552953720e-02,-2.047856897115707397e-02,-1.600344665348529816e-02,-2.374603785574436188e-02,-3.293643146753311157e-02,-1.431829296052455902e-02,-2.440694533288478851e-02,-2.494758181273937225e-02,5.653919279575347900e-02,4.166432842612266541e-02,2.954995073378086090e-02,-1.010093558579683304e-02,-6.492244079709053040e-03,4.176672548055648804e-03,9.487731382250785828e-03,5.062045063823461533e-03,-8.015585131943225861e-03,3.160135820508003235e-02,3.730356693267822266e-02,3.520626947283744812e-02,4.790190607309341431e-02,7.981468737125396729e-02,7.585306465625762939e-02,1.763331703841686249e-02,3.737749904394149780e-02,3.463945537805557251e-02,-2.028921060264110565e-02,8.183890022337436676e-03,-1.334135513752698898e-02,6.394324824213981628e-03,8.205650746822357178e-02,2.039884775876998901e-02,-2.067848108708858490e-02,3.085744380950927734e-02,1.146557554602622986e-02,3.705093404278159142e-03,-2.288697659969329834e-02,2.004915289580821991e-02,-1.077658496797084808e-02,-2.695483155548572540e-02,4.841436166316270828e-03,-4.320580977946519852e-03,-3.178464993834495544e-02,1.701251231133937836e-02,3.240589797496795654e-02,4.743227735161781311e-02,-4.807557445019483566e-03,3.296113386750221252e-02,8.315047621726989746e-02,5.911342427134513855e-02,-3.154865279793739319e-02,2.142575941979885101e-02,1.329725701361894608e-02,5.081567913293838501e-03,2.070928923785686493e-02,2.249184763059020042e-03,2.063521184027194977e-02,4.932320117950439453e-02,-1.072300598025321960e-02,1.328855287283658981e-02,4.264559969305992126e-02,-1.322876196354627609e-03,6.321499589830636978e-03,-1.887797936797142029e-02,2.174876164644956589e-03,-2.126421220600605011e-02,-3.986276313662528992e-02,-6.013739854097366333e-02,-2.736930502578616142e-03,-2.405242808163166046e-02,-3.088076785206794739e-02,2.480209432542324066e-02,2.546670287847518921e-02,-1.675789011642336845e-03,3.549017012119293213e-02,4.253358766436576843e-02,4.523006267845630646e-03,1.908244378864765167e-02,8.250800892710685730e-03,-9.822130203247070312e-03,-1.087584532797336578e-02,2.347070723772048950e-03,5.358734633773565292e-03,6.767098326236009598e-03,1.640456728637218475e-02,2.433414570987224579e-03,5.223216488957405090e-03,1.995471864938735962e-02,4.673949908465147018e-03,-4.307818040251731873e-02,-4.364563524723052979e-02,-5.370769277215003967e-02,-1.762659102678298950e-02,1.793054514564573765e-03,-2.099035121500492096e-02,-1.524894777685403824e-02,3.582099685445427895e-03,-1.634260080754756927e-02,6.431558728218078613e-02,1.676697582006454468e-01,1.579776406288146973e-01,3.866036236286163330e-02,1.335697323083877563e-01,1.302449852228164673e-01,2.371966466307640076e-02,7.843783497810363770e-02,6.537175178527832031e-02,3.134703438263386488e-04,2.585711888968944550e-02,1.074755378067493439e-02,-4.461486358195543289e-03,4.366243258118629456e-02,4.565836116671562195e-02,1.164781861007213593e-03,2.398537099361419678e-02,3.492114692926406860e-02,-2.530292049050331116e-02,-1.169626191258430481e-01,-5.208512023091316223e-02,-9.012342989444732666e-02,-1.697015464305877686e-01,-8.142722398042678833e-02,-4.267375916242599487e-02,-6.594280153512954712e-02,-1.597449183464050293e-02,9.522068314254283905e-03,1.475190650671720505e-02,-1.536631677299737930e-02,-7.589627522975206375e-03,-2.127732150256633759e-03,-2.445427328348159790e-02,-5.397703498601913452e-04,4.429423715919256210e-03,-1.847081631422042847e-02,3.865967318415641785e-02,5.100212618708610535e-02,4.440624266862869263e-02,-1.001140847802162170e-02,-4.442922398447990417e-02,-7.802658528089523315e-02,-3.303768485784530640e-02,-9.292101114988327026e-02,-1.013329103589057922e-01,8.054364472627639771e-03,2.412021532654762268e-02,3.107956238090991974e-02,-2.005119062960147858e-02,-1.320398692041635513e-02,-3.109048819169402122e-03,-1.883441954851150513e-02,-4.113603010773658752e-02,-2.408294379711151123e-02,-9.664317476563155651e-04,1.548780314624309540e-02,3.940166160464286804e-02,-1.878112927079200745e-02,-1.740413531661033630e-02,6.535187829285860062e-03,-2.941939979791641235e-02,-2.954002656042575836e-02,-2.433179132640361786e-02,5.726268142461776733e-02,4.080221056938171387e-02,5.709770601242780685e-03,5.904009565711021423e-02,6.567161530256271362e-02,3.642896935343742371e-02,3.992428630590438843e-02,2.489745430648326874e-02,3.560859337449073792e-02,6.028199195861816406e-02,4.093006625771522522e-02,2.953367540612816811e-03,5.151217430830001831e-02,6.279081851243972778e-02,1.088145934045314789e-02,4.373682662844657898e-02,7.643817365169525146e-02,4.693476110696792603e-02,-1.057107280939817429e-02,5.296026356518268585e-03,-1.264518033713102341e-02,1.147412043064832687e-02,2.835353650152683258e-02,-5.070460028946399689e-03,1.802684739232063293e-02,2.955066226422786713e-02,8.801424875855445862e-03,2.473862469196319580e-02,-7.970277220010757446e-03,1.694159465841948986e-03,5.042497534304857254e-03,4.348249360918998718e-02,3.611624985933303833e-02,-3.594143688678741455e-02,2.577581070363521576e-02,1.792049035429954529e-02,-2.623750828206539154e-02,-1.145713590085506439e-02,-5.591836757957935333e-03,-2.948694117367267609e-02,-8.884422481060028076e-03,1.591596403159201145e-03,-3.123675100505352020e-02,4.586155060678720474e-03,1.170619018375873566e-02,2.826775610446929932e-02,4.670428112149238586e-02,2.945640683174133301e-02,2.465022169053554535e-02,6.111720576882362366e-02,3.388831391930580139e-02,-4.196766763925552368e-03,-7.796749123372137547e-04,-3.188897157087922096e-03,8.554130909033119678e-04,5.414742976427078247e-02,2.235253714025020599e-02,7.242923136800527573e-03,4.311608523130416870e-02,2.539646998047828674e-02,-4.022927954792976379e-03,-5.049685016274452209e-03,-2.758257836103439331e-02,-2.989630447700619698e-03,1.902983523905277252e-02,1.755513995885848999e-02,-3.172964975237846375e-02,-1.499080099165439606e-03,3.646542131900787354e-02,-8.433757722377777100e-02,-4.120414704084396362e-02,1.636070571839809418e-02,1.074753236025571823e-02,5.239703226834535599e-03,-8.121056482195854187e-03,-7.251911796629428864e-03,-2.402668120339512825e-03,-9.880826808512210846e-03,-7.295293733477592468e-03,-8.478071540594100952e-03,-1.251133996993303299e-02,-7.277640979737043381e-03,-8.129247464239597321e-03,7.910018786787986755e-03,-3.523327037692070007e-02,-1.164109446108341217e-02,7.814533077180385590e-03,-2.787475287914276123e-02,4.462075885385274887e-04,1.949510164558887482e-02,-5.795620381832122803e-03,-1.495744660496711731e-02,-2.769729867577552795e-02,-2.352499961853027344e-02,1.571817509829998016e-02,-1.923579163849353790e-02,-3.425393998622894287e-02,3.514896845445036888e-03,-2.780952118337154388e-02,-2.624350972473621368e-02,1.061117555946111679e-02,-2.054339274764060974e-02,-2.808294724673032761e-03,3.073867596685886383e-02,3.629852551966905594e-03,3.069489030167460442e-03,1.568765193223953247e-02,-5.355896428227424622e-03,7.473029661923646927e-03,4.186927340924739838e-03,7.846266031265258789e-03,-2.577080763876438141e-02,-1.939848996698856354e-02,-2.535950578749179840e-02,-3.062611259520053864e-02,-3.395496681332588196e-02,-1.832535117864608765e-02,5.700464826077222824e-03,2.835660614073276520e-02,6.374894641339778900e-03,-5.785657558590173721e-03,1.684115454554557800e-02,4.274350591003894806e-03,7.032912224531173706e-03,3.529698029160499573e-02,5.205849185585975647e-03,-2.227570489048957825e-02,-1.429728791117668152e-02,-2.655736915767192841e-02,-1.406223699450492859e-02,-4.289064183831214905e-02,-5.607540160417556763e-02,-2.321629039943218231e-02,-3.871692344546318054e-02,-6.886000186204910278e-02,3.965692594647407532e-03,2.286969125270843506e-02,9.167583659291267395e-03,-5.902081466047093272e-05,2.804946899414062500e-02,2.716558240354061127e-02,5.081370472908020020e-03,5.526439845561981201e-02,3.562263399362564087e-02,-8.043800480663776398e-03,9.800512343645095825e-03,7.609355729073286057e-03,-1.847287453711032867e-02,1.510823611170053482e-02,3.779265657067298889e-02,2.405784837901592255e-02,2.384501881897449493e-02,2.205571718513965607e-02,-5.233273375779390335e-03,-1.361820008605718613e-02,-1.125966664403676987e-02,-1.427152380347251892e-02,-2.651063725352287292e-02,-5.008069053292274475e-02,-8.390629664063453674e-04,-3.148770704865455627e-02,-3.352624177932739258e-02,4.665201064199209213e-03,4.983678460121154785e-02,6.215077638626098633e-02,1.618327805772423744e-03,3.152933716773986816e-02,6.095549836754798889e-02,-3.306540101766586304e-02,3.496822342276573181e-02,4.861309379339218140e-02,2.621584013104438782e-02,9.209932386875152588e-02,7.667053490877151489e-02,5.772516876459121704e-02,1.242491826415061951e-01,1.062355935573577881e-01,6.659393012523651123e-02,1.072459071874618530e-01,8.530915528535842896e-02,1.156581006944179535e-02,-2.099375240504741669e-02,-8.437928743660449982e-03,1.691858842968940735e-02,2.204693388193845749e-03,1.811471022665500641e-02,-6.386696361005306244e-03,-2.641000226140022278e-02,-4.448703024536371231e-03,2.307922951877117157e-02,3.383003175258636475e-02,-1.679207384586334229e-02,1.640117168426513672e-02,8.631075918674468994e-02,8.326818048954010010e-02,-2.855793759226799011e-02,7.858643680810928345e-02,1.265723407268524170e-01,3.273362526670098305e-03,-3.374296054244041443e-02,-1.956108771264553070e-02,-1.876416732557117939e-03,-2.148203738033771515e-02,-1.706096529960632324e-02,-8.844437077641487122e-03,-5.344362556934356689e-02,-3.749409317970275879e-02,3.457617759704589844e-02,4.679860174655914307e-02,3.309682384133338928e-02,6.483436445705592632e-04,-7.707300130277872086e-03,-2.206221967935562134e-02,-4.804253578186035156e-02,-8.395328372716903687e-02,-7.177281379699707031e-02,-7.134384941309690475e-04,1.787877082824707031e-02,2.482412569224834442e-02,1.510428410256281495e-04,4.991512373089790344e-02,2.635805122554302216e-02,1.493078656494617462e-03,3.274652175605297089e-03,7.946823723614215851e-03,3.728697448968887329e-02,1.341018080711364746e-02,-2.164934203028678894e-02,-1.400870736688375473e-02,-2.545380219817161560e-02,-2.539351768791675568e-02,-3.059552796185016632e-02,-2.354243397712707520e-02,2.005668170750141144e-02
-3.055172972381114960e-02,-5.048057530075311661e-03,3.203491494059562683e-02,-3.722989931702613831e-02,4.330107476562261581e-03,-1.326017268002033234e-02,-2.216701768338680267e-02,3.744273679330945015e-03,-2.437664195895195007e-02,-9.570330381393432617e-03,-1.091444119811058044e-02,5.162416491657495499e-03,-2.136472426354885101e-02,-3.585199266672134399e-02,-1.570671051740646362e-02,-1.365054212510585785e-02,-2.041396312415599823e-02,1.347971701761707664e-04,4.915245994925498962e-02,4.079780355095863342e-02,8.906631730496883392e-03,6.932281702756881714e-02,4.945052042603492737e-02,1.722712814807891846e-02,-1.922971382737159729e-02,-2.717719413340091705e-02,-4.775261506438255310e-03,1.245160214602947235e-02,-3.227097168564796448e-02,-3.798373788595199585e-02,2.043117955327033997e-02,-2.151162922382354736e-02,1.596094109117984772e-03,5.137430503964424133e-03,-6.117284297943115234e-02,-2.802453748881816864e-02,9.166915901005268097e-03,-1.389572583138942719e-02,-1.966760121285915375e-02,3.322193771600723267e-02,-6.133137270808219910e-03,-2.378369122743606567e-02,1.516567775979638100e-03,2.586627379059791565e-02,3.327277675271034241e-02,-3.192504122853279114e-02,-5.445960443466901779e-03,-2.936495468020439148e-02,-2.626573108136653900e-02,-2.448399318382143974e-03,6.826926954090595245e-03,-4.281071573495864868e-02,7.224604487419128418e-04,2.243760414421558380e-02,-2.564438432455062866e-02,-4.544579889625310898e-03,2.474166639149188995e-02,-9.059816366061568260e-04,-1.138355862349271774e-02,2.037031203508377075e-02,-9.508291259407997131e-03,-2.032664045691490173e-02,5.061473697423934937e-03,3.482833504676818848e-03,3.053501062095165253e-02,-4.218564182519912720e-02,-2.447267528623342514e-03,3.797416575253009796e-03,-3.345712274312973022e-02,-3.586096689105033875e-02,3.543897531926631927e-03,1.735056377947330475e-02,-1.714077219367027283e-02,-6.564112007617950439e-02,-2.661513909697532654e-02,-5.771132186055183411e-02,-1.413834542036056519e-01,-8.784878067672252655e-03,-4.254735261201858521e-02,-7.363860309123992920e-02,-1.950124092400074005e-02,-1.143558546900749207e-01,6.588678807020187378e-02,8.509887754917144775e-02,-1.065442804247140884e-02,2.719154767692089081e-02,-3.849861398339271545e-02,4.266761988401412964e-02,-2.228571102023124695e-02,-1.079732850193977356e-01,-1.067623589187860489e-02,-2.116148732602596283e-02,-6.490167230367660522e-03,3.193675540387630463e-03,1.686525717377662659e-02,-1.871673390269279480e-02,4.230897501111030579e-02,2.987767942249774933e-02,-5.446609109640121460e-02,3.971676155924797058e-02,-4.532893747091293335e-02,-1.413955166935920715e-02,8.508948609232902527e-03,-8.111333847045898438e-02,-3.373522683978080750e-02,-7.489719428122043610e-03,-5.023281648755073547e-02,-2.925064601004123688e-02,-6.650541909039020538e-03,-1.516272127628326416e-02,-3.663273155689239502e-02,2.233127690851688385e-02,1.351414393866434693e-04,2.985724993050098419e-02,6.895232014358043671e-03,-1.873928681015968323e-02,2.185535617172718048e-02,-8.641648106276988983e-03,1.636613532900810242e-02,-3.597293794155120850e-02,-5.399231612682342529e-02,4.454119876027107239e-02,-1.023866795003414154e-02,-3.077545948326587677e-02,3.723588585853576660e-02,9.740530513226985931e-03,-9.465394914150238037e-02,1.878060102462768555e-01,-1.069389097392559052e-02,1.883473247289657593e-03,2.286459505558013916e-01,-1.827426441013813019e-02,1.036938093602657318e-02,-9.235457330942153931e-02,-4.575027152895927429e-03,-1.894785091280937195e-02,-3.083395212888717651e-02,5.152330733835697174e-03,1.048906426876783371e-02,-1.607348397374153137e-02,6.299130152910947800e-03,1.776496134698390961e-02,2.606347389519214630e-02,8.245692588388919830e-03,3.259530663490295410e-02,8.563347160816192627e-02,4.223713651299476624e-02,6.644760072231292725e-02,1.745141893625259399e-01,5.310144647955894470e-02,5.587951838970184326e-02,6.647934764623641968e-02,7.297668606042861938e-02,-2.935875963885337114e-04,1.370346173644065857e-02,-1.126890536397695541e-02,1.171677000820636749e-02,1.439332682639360428e-02,-1.837451569736003876e-02,-1.772291399538516998e-02,-3.179715201258659363e-02,-2.197416871786117554e-02,1.346378400921821594e-02,6.196218309924006462e-04,1.074060448445379734e-03,-1.327050663530826569e-02,8.064594119787216187e-03,3.904386609792709351e-02,5.628566941595636308e-05,2.049032784998416901e-02,5.236467719078063965e-02,-2.458081813529133797e-03,-1.716189458966255188e-02,-5.052335560321807861e-03,3.043731860816478729e-02,-1.023295428603887558e-02,2.457505650818347931e-02,-3.089042380452156067e-03,-1.998058520257472992e-02,-1.738752610981464386e-02,-1.349706351757049561e-01,-7.749015092849731445e-02,2.583803609013557434e-02,-1.039452180266380310e-01,-8.329821377992630005e-02,3.454845165833830833e-03,-1.385584566742181778e-02,-6.260158494114875793e-03,4.215063527226448059e-02,1.514142495580017567e-03,1.505774073302745819e-02,-1.111570280045270920e-02,2.560747787356376648e-02,2.158262021839618683e-02,-4.545922204852104187e-02,-1.614484935998916626e-02,-1.753179915249347687e-02,-2.414222620427608490e-02,-7.618437055498361588e-03,2.567354030907154083e-02,2.382325381040573120e-02,-3.548950422555208206e-03,-2.626460231840610504e-02,3.003733465448021889e-03,-1.443166658282279968e-02,-5.968710780143737793e-02,2.694799797609448433e-03,7.975157350301742554e-03,-1.163039007224142551e-03,3.675039624795317650e-03,1.266548410058021545e-02,2.672312036156654358e-02,-1.380791887640953064e-02,-4.324672371149063110e-02,4.434276744723320007e-02,-8.860412985086441040e-03,4.043073952198028564e-02,2.931391075253486633e-02,3.082790225744247437e-02,2.114670537412166595e-02,1.561803091317415237e-02,1.760885305702686310e-02,-2.259177155792713165e-02,-1.781993731856346130e-02,-1.198249496519565582e-02,-5.851136986166238785e-03,-1.301377266645431519e-02,1.498487219214439392e-02,-4.012785211671143770e-04,-6.091821007430553436e-03,-2.168945781886577606e-02,9.514056146144866943e-03,5.937053356319665909e-03,-4.958866164088249207e-03,-1.705650985240936279e-02,6.453388929367065430e-02,2.162383124232292175e-02,-2.459146641194820404e-02,6.629981845617294312e-02,8.689137175679206848e-03,-2.905439771711826324e-02,3.994554281234741211e-02,-6.490596570074558258e-03,4.150746017694473267e-02,4.076688736677169800e-02,-8.502384647727012634e-03,1.768385618925094604e-02,3.784906491637229919e-02,-1.267582178115844727e-02,-2.225782163441181183e-02,4.763057455420494080e-02,-1.629113033413887024e-02,4.707792773842811584e-02,-1.552934199571609497e-02,-5.568795651197433472e-02,6.157368794083595276e-02,-3.094103652983903885e-03,-4.591601714491844177e-02,3.780622780323028564e-02,-3.243402019143104553e-02,-5.309730023145675659e-02,2.212507650256156921e-02,1.507545113563537598e-01,4.442946985363960266e-02,6.000964343547821045e-02,3.030656278133392334e-01,3.274383395910263062e-02,6.852892041206359863e-02,2.518368959426879883e-01,3.702875971794128418e-02,1.718381792306900024e-02,-4.934851825237274170e-02,-5.722867790609598160e-03,4.024030640721321106e-02,-5.968591570854187012e-02,6.941206287592649460e-03,4.005376249551773071e-02,-1.630456931889057159e-02,2.640387229621410370e-02,-1.794930174946784973e-02,2.446882717777043581e-04,-1.953219063580036163e-02,2.998396754264831543e-02,3.240194544196128845e-02,1.042162068188190460e-02,1.499545387923717499e-02,2.861281484365463257e-02,-1.086577656678855419e-03,8.598421700298786163e-03,4.791393503546714783e-02,2.590461168438196182e-03,-1.800477690994739532e-02,9.267053566873073578e-03,3.027405962347984314e-02,-1.609052158892154694e-02,1.887609995901584625e-02,2.228083461523056030e-02,-2.689203061163425446e-02,-1.559398416429758072e-02,-2.567885071039199829e-02,-6.086471490561962128e-03,5.041567236185073853e-02,5.034613423049449921e-03,-2.093446440994739532e-02,2.208397723734378815e-02,-2.749667502939701080e-02,-2.057154104113578796e-02,2.111134678125381470e-02,-1.214197091758251190e-02,-4.624517634510993958e-03,2.827728353440761566e-02,1.655811443924903870e-02,-3.105320781469345093e-02,2.162115648388862610e-02,7.010438479483127594e-03,-2.007955685257911682e-02,-6.517147645354270935e-03,-2.098422311246395111e-02,1.362003851681947708e-02,1.220785640180110931e-02,2.794970013201236725e-02,1.253610011190176010e-02,1.698843762278556824e-02,1.004016175866127014e-01,-3.538853675127029419e-02,-3.089042380452156067e-02,2.687627635896205902e-02,-7.912079244852066040e-02,-6.236766930669546127e-03,4.970857501029968262e-02,2.062903717160224915e-02,4.895922169089317322e-02,-4.705193638801574707e-02,-4.130236431956291199e-02,4.408641532063484192e-02,3.480205684900283813e-02,-9.458871930837631226e-02,3.865114413201808929e-03,1.451647281646728516e-02,-1.313970685005187988e-01,-5.922119133174419403e-03,8.634977042675018311e-02,-6.704215891659259796e-03,-1.363721489906311035e-02,-7.955380715429782867e-03,-2.909577079117298126e-02,-5.475517734885215759e-02,2.580801583826541901e-02,8.131946437060832977e-03,1.748255221173167229e-03,2.263634093105792999e-02,-1.560386642813682556e-02,2.723593823611736298e-02,1.200039498507976532e-02,2.109671011567115784e-02,-7.692485116422176361e-03,1.221379358321428299e-02,-2.380689792335033417e-02,-2.483599819242954254e-02,-2.307229675352573395e-02,1.718231476843357086e-02,-4.220539238303899765e-03,-3.144277259707450867e-02,9.523726999759674072e-03,1.972886035218834877e-03,-1.562902703881263733e-02,-2.147177793085575104e-02,9.388015605509281158e-04,-2.102802321314811707e-02,1.775701344013214111e-02,1.017407234758138657e-02,-2.976754121482372284e-02,-6.557018496096134186e-03,1.986503601074218750e-02,1.187499379739165306e-03,-2.868671715259552002e-02,2.017261274158954620e-02,3.221238031983375549e-02,-2.116316743195056915e-02,-1.363411173224449158e-02,-5.862890742719173431e-03,-3.570694476366043091e-02,-2.785151265561580658e-02,-2.549889497458934784e-02,-4.146460071206092834e-02,-4.191007092595100403e-02,-4.784230515360832214e-02,-1.432195957750082016e-02,-3.070168569684028625e-02,6.544298026710748672e-03,-2.971290610730648041e-03,3.516201977618038654e-04,5.694250576198101044e-03,2.011596783995628357e-02,4.276106879115104675e-02,1.763099245727062225e-02,-3.954876959323883057e-02,-1.359613612294197083e-03,-4.591256007552146912e-02,2.785258926451206207e-02,-8.517962880432605743e-03,-6.841767113655805588e-03,3.836185112595558167e-02,2.645084634423255920e-02,1.414030138403177261e-02,-2.103866823017597198e-02,3.574989736080169678e-02,1.295707095414400101e-02,3.949421457946300507e-03,2.764801122248172760e-02,4.616785794496536255e-03,1.844204613007605076e-03,-6.895532831549644470e-03,2.191172243328765035e-04,-1.923904940485954285e-02,1.045609731227159500e-02,2.358487993478775024e-02,-4.252459481358528137e-02,3.087107557803392410e-03,7.165221497416496277e-03,-2.387815527617931366e-02,1.388569921255111694e-02,-5.797567311674356461e-03,-6.033995375037193298e-02,-1.128209158778190613e-01,-2.334671095013618469e-02,-2.111143432557582855e-02,-1.757935285568237305e-01,-5.269264802336692810e-02,-6.922091543674468994e-02,-1.337010711431503296e-01,-5.377722531557083130e-02,-2.351637557148933411e-02,2.513594366610050201e-02,1.134194972109980881e-04,3.304769843816757202e-02,-1.118844468146562576e-02,-6.018397957086563110e-02,4.893276840448379517e-03,1.628694124519824982e-02,-8.563295006752014160e-03,1.877653971314430237e-02,-1.403109133243560791e-01,-6.539136171340942383e-03,-4.214969649910926819e-02,-3.396549820899963379e-01,-8.152946829795837402e-02,-3.038191422820091248e-02,-2.455908805131912231e-01,-3.555828705430030823e-02,6.521543115377426147e-02,-3.006200678646564484e-02,-1.311652809381484985e-01,-1.058208104223012924e-02,1.067167706787586212e-02,-9.172418713569641113e-02,-5.548814311623573303e-02,8.037447929382324219e-02,3.375357761979103088e-02,-4.397223144769668579e-02,-1.083449926227331161e-02,-2.407302148640155792e-02,-8.161676116287708282e-03,5.335080623626708984e-02,5.563833285123109818e-03,-8.071971125900745392e-03,1.954983361065387726e-02,-6.661055143922567368e-03,3.139288350939750671e-02,4.158094897866249084e-02,1.353743299841880798e-02,4.312891513109207153e-02,1.310319174081087112e-02,-2.679144963622093201e-02,2.610119991004467010e-02,3.085579164326190948e-02,-2.837538952007889748e-03,-1.910611055791378021e-02,-1.372007094323635101e-02,-3.000307828187942505e-03,4.263620823621749878e-02,1.427096128463745117e-02,3.890114650130271912e-02,1.770946197211742401e-02,-1.660376787185668945e-02,-4.807906690984964371e-03,-3.125734254717826843e-02,-2.569808065891265869e-02,-3.527427464723587036e-02,6.084826309233903885e-03,2.347934292629361153e-03,2.030989713966846466e-02,-1.210719067603349686e-02,-3.696982562541961670e-02,9.481207467615604401e-03,-1.898232474923133850e-02,-1.169075816869735718e-02,2.378413639962673187e-02,-5.261316522955894470e-02,7.404563948512077332e-04,2.458331920206546783e-02,3.625671565532684326e-02,4.343285039067268372e-02,-3.989324346184730530e-02,-3.174704313278198242e-02,3.919908031821250916e-02,1.629052869975566864e-02,-4.799831367563456297e-04,8.841796964406967163e-02,3.391213715076446533e-02,-1.565535925328731537e-02,-9.052019449882209301e-04,-4.253023490309715271e-02,-1.617877744138240814e-02,-4.921546205878257751e-03,-2.281997911632061005e-02,1.772687584161758423e-02,-2.820384316146373749e-02,-2.399230562150478363e-02,1.517908461391925812e-02,6.009167991578578949e-03,-1.670165732502937317e-02,-1.975942030549049377e-02,4.306682199239730835e-02,8.452040492556989193e-04,-4.548121243715286255e-02,1.694121025502681732e-02,7.145030540414154530e-04,-3.427687799558043480e-03,4.234334826469421387e-02,2.904245071113109589e-02,2.260658890008926392e-02,1.746350899338722229e-02,-2.473731338977813721e-02,1.764768920838832855e-02,-6.535537540912628174e-03,-2.277362160384654999e-03,-4.182793200016021729e-03,1.266413368284702301e-02,2.048391476273536682e-02,-3.073536977171897888e-02,-1.756725087761878967e-02,-4.044681414961814880e-02,-1.186978165060281754e-02,-1.515920273959636688e-02,-3.207682818174362183e-02,-1.628270000219345093e-02,2.420830726623535156e-02,1.027485448867082596e-02,2.646742854267358780e-03,6.602194160223007202e-03,-6.801010109484195709e-03,8.305309456773102283e-04,2.200012467801570892e-02,-1.648198626935482025e-02,5.521188490092754364e-03,1.335759460926055908e-02,-1.648493297398090363e-02,-1.399827189743518829e-02,-1.957666315138339996e-02,-1.999478600919246674e-02,-1.991216465830802917e-02,-3.283415362238883972e-02,3.331261686980724335e-03,2.197184413671493530e-02,5.753186997026205063e-03,3.604602999985218048e-03,-6.133782863616943359e-02,-1.901143416762351990e-02,6.463536061346530914e-03,-2.935829386115074158e-02,2.618123404681682587e-02,3.969157859683036804e-02,-6.434778217226266861e-03,9.915502741932868958e-03,7.294096285477280617e-04
