-7.437934633344411850e-03,-9.809093549847602844e-03,2.797585446387529373e-03,-1.077969837933778763e-02,2.579373307526111603e-02,4.551706090569496155e-02,-2.724060975015163422e-02,5.320563912391662598e-03,1.317694783210754395e-02,3.543968126177787781e-02,2.510090731084346771e-02,7.820396684110164642e-03,4.031182732433080673e-03,1.989403739571571350e-02,2.744864299893379211e-02,3.532882034778594971e-02,3.545636683702468872e-02,1.331541966646909714e-02,1.926979236304759979e-02,-2.133325673639774323e-02,-3.619923815131187439e-02,-1.958999037742614746e-02,-1.887308619916439056e-02,-5.953755602240562439e-02,-2.183848246932029724e-02,-7.687479723244905472e-03,3.948686644434928894e-03,7.563483901321887970e-03,4.309431184083223343e-03,1.367898285388946533e-02,-1.799710094928741455e-02,8.267530240118503571e-03,5.904841702431440353e-03,-9.432674385607242584e-03,-3.130099922418594360e-02,-7.242897525429725647e-03,3.107560239732265472e-02,2.866513468325138092e-02,-8.858450688421726227e-03,3.507378324866294861e-02,4.064987599849700928e-02,-4.789121448993682861e-02,-1.019918452948331833e-02,-5.906776711344718933e-02,-2.633171097841113806e-04,1.991051621735095978e-02,4.898004978895187378e-02,-9.268022142350673676e-03,2.429049275815486908e-02,8.198633044958114624e-02,3.030665777623653412e-02,1.836748234927654266e-02,9.598351083695888519e-03,1.209381315857172012e-02,1.972280628979206085e-02,-9.471146622672677040e-04,-3.372881561517715454e-02,-2.307523274794220924e-03,-4.191583488136529922e-03,-2.805787138640880585e-02,3.652347251772880554e-03,-1.958657056093215942e-02,-1.549162715673446655e-02,-7.539230864495038986e-03,1.945141516625881195e-02,5.765336565673351288e-03,-1.551467925310134888e-02,-8.922276087105274200e-03,-1.165766920894384384e-02,-1.244617719203233719e-02,4.763252567499876022e-03,-2.167726866900920868e-02,1.227780058979988098e-02,-3.665450960397720337e-03,1.688491739332675934e-02,-1.712170778773725033e-03,-1.490868162363767624e-02,-7.957329042255878448e-03,4.599847830832004547e-03,-1.103968452662229538e-02,-3.293422982096672058e-03,-1.762368530035018921e-02,1.451798435300588608e-02,1.049384102225303650e-02,1.521012373268604279e-02,1.820644363760948181e-02,-6.430543027818202972e-03,7.467641029506921768e-03,1.008743047714233398e-02,8.031314238905906677e-03,-2.933046407997608185e-02,-2.175125293433666229e-02,-6.291603669524192810e-03,-2.526974305510520935e-02,-1.000767387449741364e-02,-1.720336265861988068e-02,-2.660816721618175507e-02,-5.260327598080039024e-04,-1.129945274442434311e-02,-9.735810011625289917e-02,-4.417024552822113037e-02,1.074848603457212448e-02,-6.787380576133728027e-02,-1.256172452121973038e-02,2.724945172667503357e-02,-4.531566798686981201e-02,3.162761218845844269e-03,1.149116083979606628e-02,-2.376846410334110260e-02,2.788218669593334198e-02,3.447425365447998047e-02,1.748916506767272949e-02,5.888406559824943542e-02,4.158191755414009094e-02,-2.240826003253459930e-02,3.515917807817459106e-03,2.028977498412132263e-02,-7.826096843928098679e-04,1.545961480587720871e-02,8.860130794346332550e-03,-4.492301866412162781e-02,4.382964223623275757e-03,2.359594404697418213e-02,-2.532022818922996521e-02,-3.120601549744606018e-02,1.225287932902574539e-02,4.582592286169528961e-03,8.521850220859050751e-03,-1.982163079082965851e-02,-2.533375099301338196e-02,1.696048490703105927e-02,-1.480735838413238525e-02,-2.706835232675075531e-02,-7.165063172578811646e-03,-7.373650558292865753e-03,-1.735547790303826332e-03,-8.460205048322677612e-03,9.362747892737388611e-03,1.106996438466012478e-03,-1.381689682602882385e-02,-2.555675106123089790e-03,-1.157516799867153168e-02,-3.977804444730281830e-03,9.588820859789848328e-03,-1.403734460473060608e-02,-1.187203670269809663e-04,-7.306293118745088577e-04,2.947990084066987038e-03,1.975004747509956360e-02,9.593694470822811127e-03,-6.802859716117382050e-03,-1.325989328324794769e-02,-5.010330118238925934e-03,-3.506498783826828003e-02,-4.112419486045837402e-02,-1.449106168001890182e-02,-4.700265452265739441e-02,-2.989753708243370056e-02,2.489495836198329926e-02,-3.531636670231819153e-02,-1.145123038440942764e-02,4.247721284627914429e-03,-3.482587635517120361e-02,2.840420929715037346e-04,-1.428064703941345215e-02,-2.138917800039052963e-03,3.518330678343772888e-02,4.841287620365619659e-03,-2.970888512209057808e-03,2.720491727814078331e-03,1.404758170247077942e-02,-1.940439268946647644e-02,1.507437508553266525e-02,-1.346108503639698029e-02,-5.246543325483798981e-03,4.459989815950393677e-02,-4.138456657528877258e-02,3.498503239825367928e-03,1.533418707549571991e-02,-4.814869537949562073e-02,-1.803715154528617859e-02,1.514709740877151489e-02,-7.628379855304956436e-03,2.350930310785770416e-02,-2.310234121978282928e-02,-2.589362440630793571e-03,1.221312396228313446e-02,1.309489738196134567e-02,1.373202976537868381e-04,-2.340336330235004425e-03,6.910354713909327984e-04,-1.202594209462404251e-02,-1.404596120119094849e-02,1.066876016557216644e-02,9.093886241316795349e-03,-2.398313581943511963e-02,7.497463840991258621e-03,1.171427499502897263e-02,2.810144564136862755e-03,-1.632689684629440308e-02,-8.626970462501049042e-03,1.487660221755504608e-02,-2.888023853302001953e-02,-1.521787699311971664e-02,-7.468868046998977661e-03,-2.523105964064598083e-02,-1.460504252463579178e-02,1.051168330013751984e-02,-1.002644933760166168e-02,-1.156657654792070389e-02,-4.189071187283843756e-04,-1.534118875861167908e-02,-1.004848163574934006e-03,-1.279099658131599426e-02,2.874970994889736176e-02,3.165386384353041649e-03,-3.223227802664041519e-03,2.967162756249308586e-03,5.984674207866191864e-03,-1.236830931156873703e-02,-6.596424616873264313e-03,-3.527756081894040108e-03,-4.818330635316669941e-04,-1.902150176465511322e-02,-2.271724864840507507e-02,3.637321293354034424e-03,3.494809567928314209e-02,-5.016001872718334198e-03,7.224575616419315338e-03,-8.450808003544807434e-03,-1.738360524177551270e-02,-5.237942561507225037e-03,-1.035171095281839371e-02,-6.458327174186706543e-03,-1.926602795720100403e-02,3.360257251188158989e-03,5.855963565409183502e-03,-6.632438860833644867e-03,-3.844070946797728539e-03,4.238972067832946777e-02,6.965660722926259041e-04,1.015926990658044815e-02,2.751346118748188019e-02,2.494826540350914001e-02,1.952328532934188843e-02,-4.184877872467041016e-02,2.620242722332477570e-02,8.467455208301544189e-02,4.751978814601898193e-02,1.103817112743854523e-02,2.640449255704879761e-02,-2.719190530478954315e-02,1.154744531959295273e-02,-5.975864361971616745e-03,1.187674142420291901e-02,-1.426237169653177261e-02,-5.141397472470998764e-03,-9.626439772546291351e-03,1.177288871258497238e-02,1.191338244825601578e-02,9.812330827116966248e-03,-2.249331213533878326e-02,-4.568288475275039673e-02,-1.657713670283555984e-03,-1.517776865512132645e-02,-5.380832403898239136e-02,-3.959481790661811829e-02,-1.114457193762063980e-02,-4.745429381728172302e-02,-2.882602997124195099e-02,-8.128864690661430359e-03,-1.918545924127101898e-02,-3.749473020434379578e-02,1.109755132347345352e-02,2.090851962566375732e-02,-1.880264282226562500e-02,-1.273852959275245667e-02,4.469088744372129440e-03,-2.768344059586524963e-02,-1.467351149767637253e-02,-9.778819978237152100e-03,1.780530437827110291e-03,-5.699967034161090851e-03,7.047204999253153801e-04,-2.055536583065986633e-02,4.609102848917245865e-03,-1.513568335212767124e-03,-1.493218168616294861e-02,-1.691237837076187134e-02,2.425380283966660500e-03,2.107067778706550598e-02,1.272980030626058578e-02,3.227191418409347534e-02,2.401765994727611542e-02,1.096440479159355164e-02,-1.109037641435861588e-02,7.115895394235849380e-03,-1.818692311644554138e-02,-2.067570947110652924e-02,-7.401458453387022018e-03,-5.779941100627183914e-03,1.347744930535554886e-02,-3.746845526620745659e-03,4.704738501459360123e-03,1.307163946330547333e-02,3.169830143451690674e-02,1.077404804527759552e-02,-5.614357534795999527e-03,-2.115573734045028687e-02,9.751511970534920692e-04,6.735714618116617203e-03,-6.791672669351100922e-03,4.840761888772249222e-03,-7.693991530686616898e-03,2.409640140831470490e-02,-1.409194339066743851e-02,6.592065561562776566e-03,-9.872525930404663086e-03,3.759964834898710251e-03,-1.792641729116439819e-02,1.397075317800045013e-02,-1.990980282425880432e-02,-2.521713450551033020e-02,-9.086647070944309235e-03,-1.160090975463390350e-02,6.467766128480434418e-03,9.552938863635063171e-03,-6.543609779328107834e-04,1.198220532387495041e-02,-2.413406735286116600e-03,-5.771079100668430328e-03,3.374657407402992249e-02,1.116178184747695923e-02,-1.816819235682487488e-02,1.534781418740749359e-02,-4.219773225486278534e-03,-1.399942208081483841e-02,-1.069809403270483017e-02,-9.149403311312198639e-03,-9.828338399529457092e-03,1.405401807278394699e-02,-1.165822427719831467e-02,5.869892891496419907e-03,1.782672828994691372e-03,1.564126228913664818e-03,-2.421060344204306602e-03,1.747535169124603271e-02,1.489654369652271271e-02,2.087769657373428345e-02,3.400088287889957428e-03,6.606781389564275742e-03,-5.268341396003961563e-03,-7.270852103829383850e-03,3.217058954760432243e-03,-6.180892232805490494e-03,1.492229523137211800e-03,1.376599539071321487e-03,5.927714984863996506e-03,-3.970769420266151428e-02,-1.558077149093151093e-02,-5.285626649856567383e-02,8.363427966833114624e-02,1.483947411179542542e-02,-6.428553909063339233e-02,2.432072069495916367e-03,2.257977426052093506e-02,-1.068987399339675903e-01,-6.593938916921615601e-02,-5.115580186247825623e-02,5.768507835455238819e-04,1.240999065339565277e-02,-1.075631473213434219e-02,5.601953715085983276e-02,9.180636703968048096e-02,8.799999952316284180e-03,7.548592239618301392e-02,1.138485148549079895e-01,4.527805000543594360e-02,-6.927374750375747681e-02,-1.501970589160919189e-01,-5.391734838485717773e-02,-1.074480637907981873e-01,-2.259042114019393921e-01,-6.963839381933212280e-02,2.463926374912261963e-02,5.696779489517211914e-02,-9.305881336331367493e-03,9.689471684396266937e-03,7.394091226160526276e-03,1.711332006379961967e-03,1.518628839403390884e-02,2.295143436640501022e-03,1.318714767694473267e-02,-3.306732047349214554e-03,7.881027995608747005e-04,2.388689201325178146e-03,4.203411191701889038e-02,8.018000982701778412e-03,-2.690256573259830475e-03,-4.232810810208320618e-03,-5.535225849598646164e-03,-2.447389997541904449e-03,-1.845085807144641876e-02,-3.391673788428306580e-02,-3.172047808766365051e-02,-3.315509855747222900e-02,-1.453968137502670288e-02,1.255507580935955048e-02,-2.691390737891197205e-02,-6.841181311756372452e-03,4.517151042819023132e-02,-2.243462577462196350e-02,-9.612038731575012207e-03,2.379123121500015259e-02,-1.385856419801712036e-02,-3.973876312375068665e-02,-3.931581974029541016e-02,-1.367496699094772339e-02,-3.237658739089965820e-02,-5.417407676577568054e-02,-1.711206510663032532e-02,-2.171336859464645386e-02,-5.792272090911865234e-02,-7.792208809405565262e-03,-9.106138721108436584e-03,-2.029230818152427673e-02,-6.601292639970779419e-03,-8.357618004083633423e-03,1.744278357364237309e-03,9.069892577826976776e-03,3.203464671969413757e-03,1.559796370565891266e-02,-2.122289314866065979e-02,1.168059417977929115e-03,-1.093489024788141251e-02,-2.118798904120922089e-02,-1.746652089059352875e-02,1.919776387512683868e-02,-1.042208820581436157e-02,-1.344515755772590637e-02,-2.283951640129089355e-02,-1.457824185490608215e-02,-2.712199836969375610e-02,-5.238526500761508942e-03,-2.849459275603294373e-02,-2.804784104228019714e-02,-1.255944650620222092e-02,-3.341408073902130127e-02,2.687649801373481750e-03,1.221569254994392395e-03,-6.525543052703142166e-03,1.162185240536928177e-02,-7.694752886891365051e-03,1.302829105406999588e-02,3.896605595946311951e-02,4.120216239243745804e-03,4.197476897388696671e-03,4.374298267066478729e-03,2.796572260558605194e-02,-1.714166998863220215e-02,-1.250398345291614532e-02,1.409991271793842316e-02,-3.667094977572560310e-03,-1.974181970581412315e-03,1.305300975218415260e-03,-7.017084863036870956e-03,-1.975011080503463745e-02,-1.678993180394172668e-02,3.352673084009438753e-04,2.403429010882973671e-03,1.225445535965263844e-03,-6.399507634341716766e-03,-1.169727742671966553e-02,-5.164500791579484940e-03,2.231132239103317261e-02,-3.305922076106071472e-02,-1.131616346538066864e-02,-8.683907799422740936e-03,2.246358990669250488e-02,1.082470547407865524e-02,-6.785510922782123089e-04,2.441714704036712646e-02,-1.566790230572223663e-02,-4.208842758089303970e-03,-5.083900876343250275e-03,-1.018941216170787811e-02,-6.810124032199382782e-04,-1.716386899352073669e-02,-2.543431520462036133e-02,7.766790804453194141e-04,2.891002781689167023e-02,-2.285165712237358093e-03,-1.507990527898073196e-02,-1.121911033987998962e-02,6.191875785589218140e-03,1.910907216370105743e-02,1.682029478251934052e-02,-5.913142580538988113e-03,-1.094919908791780472e-02,-1.615023612976074219e-02,1.158196292817592621e-02,-2.358249202370643616e-02,-2.080145664513111115e-02,-2.517316304147243500e-02,9.700413793325424194e-03,2.398437447845935822e-02,2.827630192041397095e-02,-4.494658485054969788e-02,-9.548296779394149780e-02,1.632440462708473206e-02,-2.412384841591119766e-03,-8.948151022195816040e-03,-9.913693647831678391e-04,-2.618598379194736481e-02,1.405631192028522491e-02,3.216839581727981567e-02,-6.254369765520095825e-02,5.465831980109214783e-02,-1.791409798897802830e-03,2.147448016330599785e-03,-1.718126051127910614e-02,-1.851216703653335571e-02,2.283982001245021820e-02,3.918963670730590820e-02,1.260782591998577118e-02,3.206513123586773872e-03,1.731993630528450012e-02,-3.551786066964268684e-03,-1.366509217768907547e-02,7.681031711399555206e-03,-2.016756683588027954e-02,-4.193822853267192841e-03,1.232258323580026627e-02,-1.503639761358499527e-02,-9.043596684932708740e-03,-1.535561773926019669e-02,7.879173383116722107e-03,4.281969740986824036e-03,4.661876242607831955e-03,-3.700623288750648499e-03,-1.397272478789091110e-02,2.620407007634639740e-02,3.140287846326828003e-02,7.778901606798171997e-03,-4.994032438844442368e-03,1.697021164000034332e-02,-1.990275643765926361e-02,3.635356947779655457e-02,2.835213206708431244e-02,1.007696427404880524e-02,3.382709342986345291e-03,1.173353940248489380e-02,-5.681040696799755096e-03,-4.060674831271171570e-02,-2.707705087959766388e-02,-3.249795362353324890e-02,-2.879741974174976349e-02,-2.993307076394557953e-02,-8.073340170085430145e-03,-3.165713697671890259e-02,-2.128361724317073822e-03,-1.179846003651618958e-02,-2.283164998516440392e-03,-2.375363744795322418e-02,-1.026078220456838608e-02,3.663667012006044388e-03,-9.726854972541332245e-03,1.642730273306369781e-02,-7.445937022566795349e-03,4.459938965737819672e-03,4.259904962964355946e-04,3.256781771779060364e-02,1.871577650308609009e-02,1.104749459773302078e-02,-1.129416250478243455e-05,-5.389091558754444122e-03,-2.507462166249752045e-02,-1.065468043088912964e-02,7.474131137132644653e-02,-4.287055134773254395e-02,7.933361455798149109e-03,3.145771101117134094e-02,-1.053301915526390076e-01,-8.251505345106124878e-02,4.829755984246730804e-03,-1.516477297991514206e-02,3.860390745103359222e-03,2.776796557009220123e-02,-2.320766821503639221e-02,3.085740469396114349e-02,-4.228759557008743286e-02,-4.671016335487365723e-02,1.694424077868461609e-02,-3.974515479058027267e-03,-5.603809840977191925e-03,7.600679993629455566e-03,-4.356301855295896530e-03,1.335160527378320694e-02,-2.511875936761498451e-04,2.931548806373029947e-04,-5.369680933654308319e-03,-1.914777606725692749e-02,-1.818081364035606384e-02,7.420497946441173553e-03,-2.516272664070129395e-02,-9.098291397094726562e-03,1.393122412264347076e-02,-1.905617886222898960e-03,2.322083339095115662e-03,5.143185146152973175e-03,-1.609881222248077393e-02,1.120444200932979584e-02,-4.489834606647491455e-02,-1.298729795962572098e-02,-2.098697796463966370e-02,-1.359722018241882324e-02,9.578019380569458008e-03,-2.137891203165054321e-02,-9.050550870597362518e-03,-2.459686435759067535e-02,-2.099117496982216835e-03,2.908689156174659729e-02,4.637624695897102356e-02,2.959010004997253418e-02,2.861526794731616974e-02,5.457037687301635742e-02,1.208344288170337677e-02,-1.629574410617351532e-02,3.417605906724929810e-02,1.812738552689552307e-02,1.796082220971584320e-02,-2.982599660754203796e-03,-9.108803234994411469e-03,2.221180871129035950e-02,-1.796639058738946915e-03,-6.196988280862569809e-03,-1.216084882616996765e-02,-1.989885978400707245e-02,1.490242872387170792e-02,8.923385292291641235e-03,1.064118836075067520e-02,7.177568040788173676e-03,1.144172530621290207e-02,2.865222841501235962e-02,-4.080556798726320267e-03,-5.044210236519575119e-03,2.813475951552391052e-02,-6.753795314580202103e-03,-5.468684434890747070e-02,-5.037419497966766357e-02,-2.825855277478694916e-02,-4.849406331777572632e-02,-4.816507548093795776e-02,-5.250942707061767578e-02,2.290069498121738434e-02,9.995989501476287842e-02,3.608457371592521667e-02,-8.370193652808666229e-03,8.088761940598487854e-03,-2.461099252104759216e-02,2.160917595028877258e-02,-2.633187547326087952e-02,6.941875908523797989e-04,-9.351653978228569031e-03,7.119175046682357788e-03,-1.150538306683301926e-02,-1.387262530624866486e-02,-1.369987335056066513e-02,-3.360470291227102280e-04,-1.224568393081426620e-02,1.873303763568401337e-02,2.906160242855548859e-02,-1.171862799674272537e-02,-2.614644123241305351e-03,5.753532517701387405e-03,-1.303799450397491455e-02,-1.704633608460426331e-02,1.287676766514778137e-02,-1.247724518179893494e-02,8.976320736110210419e-03,-1.029415894299745560e-02,-5.605869810096919537e-04,-5.901060649193823338e-04,-1.890256814658641815e-02,-1.423418708145618439e-02,-5.954068154096603394e-02,-5.757929012179374695e-02,5.458443425595760345e-03,-5.531857162714004517e-02,-4.777223989367485046e-02,2.019518427550792694e-02,-3.081769309937953949e-02,-3.044833615422248840e-02,1.062827371060848236e-02,-3.973873332142829895e-03,-1.090099941939115524e-02,-1.814677380025386810e-02,-1.543904468417167664e-02,2.189812948927283287e-03,4.975101444870233536e-03,-1.427138037979602814e-02,-6.304910872131586075e-03,-5.834990181028842926e-03,-2.718702144920825958e-02,-4.414082504808902740e-03,-1.180303003638982773e-02,-3.526056557893753052e-02,-2.190258726477622986e-02,-1.425413694232702255e-02,-1.561157219111919403e-02,-4.618941340595483780e-03,-9.269780479371547699e-03,-1.270913798362016678e-02,-4.566158633679151535e-03,7.920226082205772400e-03,1.201272197067737579e-02,7.197556085884571075e-03,1.678756554611027241e-03,1.526281796395778656e-02,6.978209130465984344e-03,1.029175426810979843e-02,-5.725950002670288086e-03,8.757183677516877651e-04,-2.192172594368457794e-02,-2.655832329764962196e-03,-3.241070732474327087e-02,1.046837400645017624e-02,3.664551302790641785e-02,6.466256454586982727e-03,-4.178686358500272036e-04,-6.410629954189062119e-03,-1.884117908775806427e-02,1.903893426060676575e-02,-1.194546278566122055e-02,2.121889032423496246e-02,-6.588569842278957367e-03,5.980989895761013031e-03,-1.829764060676097870e-02,1.448036823421716690e-02,3.053658001590520144e-04,-1.579076051712036133e-02,-4.038251470774412155e-03,-2.476369030773639679e-02,8.445904590189456940e-03,-3.451937111094594002e-03,1.046333089470863342e-02,9.608801454305648804e-03,5.163773894309997559e-02,2.230339311063289642e-02,-2.012437768280506134e-02,1.088400781154632568e-01,8.910033851861953735e-02,-3.560072975233197212e-03,3.069131448864936829e-02,2.470760978758335114e-02,-5.727603565901517868e-03,-1.277655269950628281e-02,-2.268952503800392151e-02,-1.012306846678256989e-02,3.251462941989302635e-03,-6.923235952854156494e-02,-5.884586647152900696e-02,5.270789377391338348e-03,-5.368100479245185852e-02,-3.597118705511093140e-02,1.581774652004241943e-02,-5.499607883393764496e-03,8.143038488924503326e-03,1.773750223219394684e-02,3.835852257907390594e-03,4.821786656975746155e-03,-2.287577465176582336e-02,-5.966489203274250031e-03,7.493703160434961319e-03,1.414141710847616196e-02,1.959827262908220291e-03,4.565513227134943008e-03,-4.589562769979238510e-03,5.673596635460853577e-03,3.651323541998863220e-02,-8.145473897457122803e-03,1.898683793842792511e-02,1.400266401469707489e-02,-1.103468146175146103e-02,-2.422537282109260559e-02,-1.486463844776153564e-02,1.932129077613353729e-02,1.174660585820674896e-02,1.779390731826424599e-03,-1.701191812753677368e-02,7.011810783296823502e-03,1.945092459209263325e-03,-7.262417580932378769e-03,-4.698281176388263702e-03,-3.599246591329574585e-02,1.798243820667266846e-02,-8.235349319875240326e-03,-5.175578594207763672e-02,-2.001154422760009766e-02,-3.762737289071083069e-02,-3.406180441379547119e-02,4.263659939169883728e-03,8.899198845028877258e-03,-2.581786829978227615e-03,-7.124020718038082123e-03,1.668268628418445587e-02,1.148456241935491562e-02,-3.235225332900881767e-03,-5.562424194067716599e-04,1.561138872057199478e-02,-1.826391369104385376e-02,9.921594522893428802e-03,6.822487805038690567e-03,-2.588639035820960999e-03,5.417312029749155045e-03,4.908171016722917557e-03,-1.039625494740903378e-03,-4.737196024507284164e-03,-2.527765184640884399e-02,1.079938281327486038e-02,-2.235995978116989136e-02,-2.104416675865650177e-02,-3.984860703349113464e-02,8.959492668509483337e-03,-2.235889900475740433e-03,3.058964572846889496e-02,7.947689853608608246e-03,-2.337764762341976166e-02,1.373767200857400894e-02,1.839156821370124817e-02,-1.843513548374176025e-02,-3.238642355427145958e-03,-5.048820748925209045e-03,-6.680165883153676987e-03,-1.712875557132065296e-03,1.550520583987236023e-02,1.024052780121564865e-02,-9.504847228527069092e-03,1.150572905316948891e-03,-9.738459251821041107e-03,2.109673805534839630e-02,-1.757039129734039307e-02,7.225284352898597717e-03,1.881398633122444153e-02,3.396521136164665222e-02,-2.550894580781459808e-02,3.177425265312194824e-02,-3.792996332049369812e-02,-2.710318425670266151e-03,7.011599093675613403e-02,-7.251977175474166870e-02,-9.576415270566940308e-02,5.200956389307975769e-02,2.014175616204738617e-02,-3.921711444854736328e-02,-4.817445296794176102e-03,-5.298938602209091187e-03,2.386819804087281227e-03,1.285247132182121277e-02,4.448967985808849335e-03,1.216113846749067307e-02,-1.873804815113544464e-02,3.449391573667526245e-03,-4.755351226776838303e-03,-2.085332572460174561e-02,-1.658572070300579071e-02,-2.379032410681247711e-02,-1.302723120898008347e-02,-2.863340079784393311e-03,1.522991433739662170e-02,-1.262370031327009201e-03,-6.821338320150971413e-04,7.692345418035984039e-03,-4.573930799961090088e-02,-5.189773812890052795e-02,7.917093113064765930e-03,2.276341989636421204e-02,4.165301844477653503e-02,1.789017580449581146e-02,-3.183642402291297913e-02,1.151381153613328934e-02,-1.009593717753887177e-02,5.451923236250877380e-03,-1.422130409628152847e-02,-1.732181757688522339e-02,-5.584675818681716919e-03,3.449033247306942940e-03,-1.033524051308631897e-03,-1.353608351200819016e-02,-6.607960443943738937e-03,-4.973856266587972641e-03,-1.496018748730421066e-02,2.496957592666149139e-02,3.406507661566138268e-03,4.443989600986242294e-03,2.153471671044826508e-02,1.401789922965690494e-04,-7.299311924725770950e-03,-9.701010771095752716e-03,9.071115404367446899e-03,1.614126376807689667e-02,5.715664941817522049e-03,-1.943656388903036714e-04,-2.752143889665603638e-03,3.697336418554186821e-03,1.303115207701921463e-02,-1.448362949304282665e-03,1.961466483771800995e-02,2.125596441328525543e-02,-1.317753922194242477e-02,-8.423355757258832455e-04,-2.120822854340076447e-02,-6.689677829854190350e-04,8.919281885027885437e-03,7.717155385762453079e-04,-5.952948704361915588e-03,-1.214433461427688599e-02,-1.267029787413775921e-03,-1.198481116443872452e-02,-1.478887535631656647e-02,-1.186970062553882599e-02,-8.667212910950183868e-03,7.397202309221029282e-03,-1.546359341591596603e-02,-1.671574078500270844e-02,1.748528331518173218e-02,1.506961602717638016e-02,-6.037704646587371826e-03,-2.900834009051322937e-02,-3.343332931399345398e-02,1.406215131282806396e-02,1.821657642722129822e-02,-7.642138749361038208e-02,2.220265381038188934e-02,6.604821979999542236e-02,-1.133541110903024673e-02,3.276114538311958313e-02,-1.675799861550331116e-02,-5.067439004778862000e-02,1.453729439526796341e-02,1.599561795592308044e-02,-6.671030819416046143e-02,2.766929008066654205e-02,-2.089441753923892975e-02,-3.377587348222732544e-02,-4.713486880064010620e-03,4.455771297216415405e-03,-1.229519117623567581e-02,-5.711527541279792786e-03,1.312751509249210358e-02,-2.650634851306676865e-03,1.151520386338233948e-02,7.020474877208471298e-03,2.767645195126533508e-02,9.211796335875988007e-03,1.742956042289733887e-02,4.084330983459949493e-03,2.951719984412193298e-02,3.686828166246414185e-02,-3.869919106364250183e-03,6.209648214280605316e-03,3.851770889014005661e-03,8.136773481965065002e-03,6.545557081699371338e-02,7.427298277616500854e-02,-1.644403114914894104e-02,5.367756634950637817e-02,2.735045365989208221e-02,-7.232246547937393188e-02,-1.162057928740978241e-02,-7.432769984006881714e-02,-1.390357464551925659e-01,1.093429792672395706e-02,-1.252125250175595284e-03,1.133585697971284389e-03,3.965271462220698595e-04,-2.043737098574638367e-02,1.449139509350061417e-02,-9.706603363156318665e-03,-1.684070937335491180e-02,5.549256689846515656e-03,7.244195323437452316e-03,1.807205006480216980e-02,9.480859152972698212e-03,1.276627369225025177e-02,1.102079264819622040e-02,6.600192282348871231e-03,-2.859744429588317871e-02,-3.091566823422908783e-02,-2.421301603317260742e-02,-5.039700772613286972e-03,1.636521518230438232e-02,1.750426925718784332e-02,-8.994508534669876099e-03,9.936907142400741577e-02,1.384738683700561523e-01,7.844107225537300110e-03,-4.088876594323664904e-04,2.276224456727504730e-02,-2.360945101827383041e-03,3.736102953553199768e-03,7.762744557112455368e-03,-8.522229269146919250e-03,1.144736539572477341e-02,-5.802430678158998489e-03,-1.024098973721265793e-02,-1.035052351653575897e-02,-1.560029014945030212e-02,2.174266427755355835e-02,8.771979808807373047e-02,2.432077936828136444e-02,9.259189665317535400e-02,1.815404742956161499e-01,6.528770178556442261e-02,-5.059015378355979919e-02,-4.376114904880523682e-02,-3.476718813180923462e-02,-1.378208864480257034e-02,-1.958137750625610352e-02,-2.284122444689273834e-02,-2.810389548540115356e-02,-2.834893949329853058e-02,-5.129168555140495300e-02,-2.972188591957092285e-02,-1.241767685860395432e-02,-2.223551832139492035e-02,-6.076751276850700378e-03,-7.953704334795475006e-03,-1.578602357767522335e-03,-1.695709303021430969e-02,2.493893168866634369e-02,1.443506311625242233e-02,1.211600657552480698e-02,5.797293502837419510e-03,8.821249008178710938e-03,-1.932729035615921021e-02,1.173011399805545807e-02,-3.912750631570816040e-02,6.184800527989864349e-03,5.196442361921072006e-03,1.047489233314990997e-02,-1.240763720124959946e-02,-5.426533985882997513e-03,9.379676543176174164e-03,-2.870641648769378662e-02,-8.787252940237522125e-03,7.066006306558847427e-03,-5.547451786696910858e-03,-3.327219188213348389e-02,2.301594428718090057e-02,5.450075492262840271e-03,-3.327253041788935661e-03,-8.214911445975303650e-03,2.907143207266926765e-03,9.265132248401641846e-03,1.242332626134157181e-02,3.880713367834687233e-03,8.018036372959613800e-03,6.760320160537958145e-03,-1.489898096770048141e-02,-2.229816466569900513e-02,1.253526099026203156e-02,-2.276181709021329880e-03,2.594917640089988708e-02,-1.303292345255613327e-02,1.933786273002624512e-02,8.971793577075004578e-03,3.143860027194023132e-02,-1.981517858803272247e-02,9.600839577615261078e-03,-9.991602040827274323e-03,4.743203520774841309e-03,2.426843531429767609e-02,4.117451608180999756e-02,4.664431326091289520e-03,2.652057446539402008e-02,5.730812996625900269e-02,6.866083014756441116e-03,-2.769559621810913086e-02,3.791736811399459839e-02,9.629902779124677181e-04,2.775693777948617935e-03,2.752655418589711189e-03,-6.153057795017957687e-03,-3.615707159042358398e-02,-3.127564443275332451e-03,-2.668180689215660095e-02,9.448307100683450699e-04,7.714868988841772079e-03,-5.197600927203893661e-03,1.061826385557651520e-02,-4.690519999712705612e-03,8.914889185689389706e-04,2.496580407023429871e-02,2.577866893261671066e-03,5.916599649935960770e-03,9.221898391842842102e-03,4.611873999238014221e-03,-1.179391331970691681e-02,1.615051738917827606e-02,-4.123302642256021500e-03,1.070988364517688751e-02,-1.225132029503583908e-02,1.134709827601909637e-02,7.115567568689584732e-04,5.842005368322134018e-03,8.192041888833045959e-03,9.911708533763885498e-03,-2.216643188148736954e-03,1.366581674665212631e-02,1.098794769495725632e-02,-1.098849158734083176e-02,-1.584645919501781464e-02,1.926629338413476944e-03,-2.872439660131931305e-02,2.447933889925479889e-02,-2.217671461403369904e-02,-4.356277361512184143e-02,-1.260287873446941376e-02,-1.797019504010677338e-03,-2.082465775310993195e-02,-2.044424787163734436e-02,-1.012922916561365128e-02,1.920923776924610138e-02,-9.439978748559951782e-03,-6.803750526160001755e-03,1.084073726087808609e-02,-3.704499453306198120e-03,1.347939390689134598e-02,1.136241108179092407e-02,-1.343086711131036282e-03,8.142170496284961700e-03,1.929162535816431046e-04,5.510930204764008522e-04,7.693851366639137268e-03,7.730642333626747131e-03,4.396007861942052841e-03,-1.020225789397954941e-02,-1.169844623655080795e-02,-9.634286165237426758e-03,-3.904914017766714096e-03,1.814651861786842346e-02,1.329708844423294067e-02,1.243388559669256210e-02,-2.688887342810630798e-02,-1.197374053299427032e-02,2.684582024812698364e-02,2.640894800424575806e-02,-2.147259563207626343e-02,1.289168372750282288e-02,2.763150492683053017e-03,-5.426665302366018295e-03
1.283994968980550766e-02,1.852874085307121277e-02,-2.678237156942486763e-03,-1.677669584751129150e-02,-1.228103786706924438e-02,3.547094762325286865e-02,-8.648575749248266220e-04,2.449776791036128998e-02,1.815200969576835632e-02,-6.687028333544731140e-03,-2.070971205830574036e-02,-1.442117523401975632e-02,-7.313514128327369690e-03,4.256765544414520264e-02,7.433854974806308746e-03,2.763994224369525909e-02,1.599733158946037292e-02,1.593867503106594086e-02,-2.290287986397743225e-02,-2.057651989161968231e-02,2.359308488667011261e-02,-2.752375043928623199e-02,-5.607252568006515503e-02,-6.989878416061401367e-02,2.050202526152133942e-02,5.130070075392723083e-02,2.198916859924793243e-02,-4.296946898102760315e-02,1.346937101334333420e-02,-4.660673066973686218e-02,1.611424051225185394e-02,3.665291890501976013e-02,-1.906242035329341888e-02,-6.140210852026939392e-02,-1.064945943653583527e-02,2.580481022596359253e-02,2.168669179081916809e-02,1.068497728556394577e-02,1.037141215056180954e-02,2.081663720309734344e-02,8.919470012187957764e-03,-1.206427253782749176e-02,-6.898874882608652115e-03,-1.721737720072269440e-02,-1.064630690962076187e-03,2.918915590271353722e-03,-1.875297538936138153e-02,-8.961427956819534302e-03,-1.169465947896242142e-02,1.350725721567869186e-02,2.812266349792480469e-02,3.385033225640654564e-03,5.464172735810279846e-02,4.671810194849967957e-02,-2.075237967073917389e-02,-3.612372651696205139e-02,-2.591529302299022675e-02,1.656933315098285675e-02,4.660333041101694107e-03,3.125764802098274231e-02,1.374405622482299805e-02,-2.292659133672714233e-02,1.746576093137264252e-02,-1.164031680673360825e-02,-2.758915163576602936e-02,-4.287114739418029785e-02,-3.543198853731155396e-02,-6.774015724658966064e-02,-8.086681365966796875e-02,-4.448531940579414368e-02,-5.066257715225219727e-02,-4.153369367122650146e-02,1.335119828581809998e-02,1.473292894661426544e-02,1.302400138229131699e-02,2.800972759723663330e-02,7.837642729282379150e-02,5.789072066545486450e-02,-5.223049782216548920e-03,3.387623652815818787e-02,1.330302562564611435e-02,2.179009094834327698e-02,1.067506615072488785e-03,1.665241643786430359e-02,2.103310637176036835e-02,4.250302165746688843e-02,1.215214468538761139e-02,1.040151691995561123e-03,1.650294475257396698e-02,2.378221601247787476e-02,-2.873241715133190155e-02,-5.659119039773941040e-02,-2.345841936767101288e-02,-4.176040366291999817e-02,-5.910442024469375610e-02,-4.814986884593963623e-02,-2.370930276811122894e-02,-4.595128819346427917e-02,-1.979106292128562927e-02,1.823403686285018921e-02,4.887228365987539291e-03,2.083332743495702744e-03,2.820472000166773796e-03,-2.423714846372604370e-02,-8.114666561596095562e-04,-3.412485867738723755e-02,-2.015312761068344116e-02,2.791361324489116669e-02,6.181849632412195206e-03,-8.500335738062858582e-03,2.743155136704444885e-02,1.631971076130867004e-02,1.381653267890214920e-02,2.307700924575328827e-02,1.939550042152404785e-02,6.883405614644289017e-03,-6.112248171120882034e-03,-6.742730620317161083e-04,1.066220086067914963e-02,3.774902084842324257e-03,2.327268477529287338e-03,2.245451323688030243e-02,4.933510441333055496e-03,2.115042843797709793e-05,-1.838740706443786621e-02,-1.307847816497087479e-02,1.155524980276823044e-02,-2.013546414673328400e-03,1.547266263514757156e-02,4.583521932363510132e-02,3.660269081592559814e-02,-6.305842194706201553e-03,-4.929572343826293945e-03,8.710965514183044434e-03,-1.533043850213289261e-02,-6.404611282050609589e-03,-1.210847962647676468e-02,9.723037481307983398e-03,1.007003989070653915e-02,3.245597332715988159e-02,1.518213283270597458e-02,1.109548844397068024e-02,2.670698240399360657e-02,3.122713044285774231e-02,-3.291462780907750130e-03,2.879427187144756317e-02,1.483820565044879913e-02,2.521096915006637573e-02,6.259757280349731445e-02,1.114140171557664871e-02,-4.211297782603651285e-04,3.018275462090969086e-02,2.867870777845382690e-02,2.027742564678192139e-02,5.650148913264274597e-02,-6.425831816159188747e-04,1.513344049453735352e-02,1.228006929159164429e-02,-5.312521010637283325e-03,-2.641808055341243744e-02,2.167676575481891632e-02,-2.434188500046730042e-02,-5.911295767873525620e-03,-1.295934151858091354e-02,-6.406658329069614410e-03,-2.334222942590713501e-02,-2.107835002243518829e-02,-7.297798525542020798e-03,-1.963787898421287537e-02,-2.700844034552574158e-02,-3.078559227287769318e-02,-2.707104384899139404e-02,1.044952776283025742e-03,-1.605088636279106140e-02,-2.702727168798446655e-02,5.049914866685867310e-02,4.331347346305847168e-02,-5.112236365675926208e-03,2.318255230784416199e-02,4.994910210371017456e-03,-3.659834712743759155e-02,-6.548392027616500854e-02,-6.412482261657714844e-02,-5.948308110237121582e-02,-1.378953158855438232e-01,-9.183840453624725342e-02,-4.329013079404830933e-02,-9.923708438873291016e-02,-1.318087577819824219e-01,2.047374099493026733e-02,2.258361876010894775e-02,4.213480651378631592e-02,2.366805681958794594e-03,3.919586166739463806e-02,1.959221437573432922e-02,-7.509736809879541397e-03,2.233892865478992462e-02,4.085540026426315308e-02,-4.017852712422609329e-03,-1.142142433673143387e-02,4.243650659918785095e-02,-2.974430471658706665e-02,-2.492905780673027039e-02,1.922831311821937561e-02,2.444364689290523529e-02,-3.840171499177813530e-03,1.514126546680927277e-02,-1.288964971899986267e-02,2.690407074987888336e-02,-2.521259011700749397e-04,-2.762229414656758308e-03,4.239858686923980713e-02,2.738568931818008423e-02,1.421640347689390182e-02,2.002879045903682709e-02,5.188403278589248657e-02,-8.570398204028606415e-03,2.541632391512393951e-02,5.468789953738451004e-03,-2.944801561534404755e-02,2.759548835456371307e-02,9.699485264718532562e-03,1.169585855677723885e-03,1.498935092240571976e-02,-6.116292905062437057e-03,1.340370252728462219e-02,4.063355550169944763e-02,3.944788500666618347e-02,5.322714895009994507e-02,1.072562336921691895e-01,8.812011033296585083e-02,4.628269001841545105e-03,3.853917866945266724e-02,2.071347460150718689e-02,1.021101698279380798e-02,-1.537269097752869129e-03,-1.390621881000697613e-03,2.473984146490693092e-03,-9.200295433402061462e-03,2.715059742331504822e-02,-1.841620169579982758e-02,-5.346767976880073547e-02,1.806690543889999390e-02,2.075639087706804276e-03,7.822403684258460999e-03,-6.676231510937213898e-03,8.383456151932477951e-04,1.344316918402910233e-02,-2.713755820877850056e-04,-2.216668613255023956e-02,-1.291303057223558426e-02,9.320658631622791290e-03,-1.783422485459595919e-04,3.556533157825469971e-02,2.651691436767578125e-03,1.990327611565589905e-02,6.259597092866897583e-02,4.392958432435989380e-02,4.255281016230583191e-02,6.583337485790252686e-02,7.187742739915847778e-03,-2.952259592711925507e-02,-7.554879877716302872e-03,1.542677078396081924e-02,-2.597420848906040192e-02,-3.552806004881858826e-02,3.180295974016189575e-02,-4.698738921433687210e-03,-5.329503118991851807e-02,3.041453287005424500e-02,2.292351238429546356e-02,-2.224524039775133133e-03,8.587270858697593212e-04,3.747709328308701515e-03,-1.713296584784984589e-02,1.907343044877052307e-02,-4.195361863821744919e-03,5.731930956244468689e-03,3.061349876224994659e-02,1.238294062204658985e-04,-1.627115346491336823e-02,-3.916113637387752533e-03,-5.810907855629920959e-02,-1.594876125454902649e-02,-9.542746469378471375e-03,-2.648778259754180908e-02,7.957910187542438507e-03,-1.449188496917486191e-02,2.047104947268962860e-02,9.360721334815025330e-03,7.556767668575048447e-04,1.057515945285558701e-02,5.669918283820152283e-02,4.566002637147903442e-02,-1.029578270390629768e-03,4.409835673868656158e-03,2.855562046170234680e-02,-1.648264937102794647e-02,-4.973936825990676880e-02,-4.583173617720603943e-02,-3.936878964304924011e-02,-5.767600983381271362e-02,-6.425277143716812134e-02,-4.936454445123672485e-02,-3.477950394153594971e-02,-2.983212843537330627e-02,8.403810672461986542e-03,7.418969180434942245e-04,1.018214132636785507e-02,-1.033820491284132004e-02,1.497798413038253784e-02,1.803304255008697510e-02,-5.612273700535297394e-03,5.654883757233619690e-02,-1.696528308093547821e-02,1.167514175176620483e-02,-3.234181494917720556e-04,-7.872949354350566864e-03,2.622032305225729942e-03,2.184337005019187927e-02,2.000501193106174469e-02,2.319064550101757050e-02,1.383716333657503128e-02,1.229938771575689316e-02,7.811466697603464127e-03,2.297934330999851227e-02,3.478553146123886108e-02,2.317517995834350586e-02,1.577629707753658295e-03,-3.169418126344680786e-02,1.601425744593143463e-02,1.489535439759492874e-02,5.991619825363159180e-02,-5.059161223471164703e-03,1.253753434866666794e-02,-1.686551957391202450e-03,-7.856733165681362152e-03,2.135770767927169800e-02,5.424669943749904633e-03,-4.895404912531375885e-03,3.055888786911964417e-02,1.050249300897121429e-02,1.757879368960857391e-02,9.264328517019748688e-03,1.860529370605945587e-02,6.034229416400194168e-03,3.563500940799713135e-02,1.308338530361652374e-02,-2.683947980403900146e-02,-1.282529905438423157e-02,-2.566650277003645897e-03,2.326005324721336365e-02,5.771391093730926514e-02,2.317949943244457245e-02,-5.540178157389163971e-03,8.898191899061203003e-02,8.550010621547698975e-02,6.400407850742340088e-02,3.227909654378890991e-02,6.807910650968551636e-02,1.011002925224602222e-03,-1.011961232870817184e-02,-1.994934678077697754e-02,6.612814031541347504e-03,-1.463041291572153568e-03,-4.188704863190650940e-02,-1.181392744183540344e-02,2.546087373048067093e-03,-2.804809808731079102e-02,-7.511687930673360825e-03,-6.757048424333333969e-03,3.285533562302589417e-02,-2.419962361454963684e-02,-4.556307569146156311e-02,-1.576399081386625767e-03,-9.209929034113883972e-03,-3.819507081061601639e-03,1.469612587243318558e-02,8.046668954193592072e-03,9.370503947138786316e-03,-2.848290093243122101e-02,-1.876002736389636993e-02,-3.799468651413917542e-02,-4.304768517613410950e-02,-6.805058568716049194e-03,-4.946384206414222717e-02,-1.321617886424064636e-02,-5.570428911596536636e-03,1.356563158333301544e-02,-2.367309061810374260e-03,-1.596587826497852802e-03,3.838161006569862366e-02,1.004454586654901505e-02,1.463944092392921448e-02,-1.534387096762657166e-02,-6.048070266842842102e-02,1.982264779508113861e-02,2.263124287128448486e-02,1.880402863025665283e-02,2.417689189314842224e-02,4.470897093415260315e-02,1.273780781775712967e-02,1.101954095065593719e-02,3.573737293481826782e-02,9.933033026754856110e-03,1.515160594135522842e-02,-3.879055008292198181e-02,-4.624846577644348145e-02,-2.927724458277225494e-02,-1.294654607772827148e-01,-1.057672500610351562e-01,-5.013030022382736206e-02,-1.064628213644027710e-01,-5.247629433870315552e-02,-2.673025242984294891e-03,1.301544159650802612e-02,1.817573606967926025e-02,1.962859556078910828e-02,3.771076211705803871e-03,-2.583134174346923828e-02,1.319084502756595612e-02,1.110777631402015686e-02,-4.865750297904014587e-02,5.631476175040006638e-03,-2.477728016674518585e-02,-1.913970708847045898e-02,-6.124037876725196838e-02,-6.323125958442687988e-02,-5.338706448674201965e-02,-1.413408294320106506e-02,-2.926529757678508759e-02,-5.010155215859413147e-02,3.474815934896469116e-02,4.815100505948066711e-02,1.476474665105342865e-02,3.299623727798461914e-02,7.956106960773468018e-02,8.352133631706237793e-02,4.421411827206611633e-02,7.215196639299392700e-02,4.135979712009429932e-02,9.106381796300411224e-03,-7.506038993597030640e-03,1.369804143905639648e-02,2.204924263060092926e-02,2.578767575323581696e-02,1.672001183032989502e-02,2.041143365204334259e-02,-3.029810264706611633e-02,5.067189689725637436e-03,-7.471761200577020645e-03,-2.223485847935080528e-03,-1.187504455447196960e-02,1.300456188619136810e-02,2.773687057197093964e-02,-1.385127380490303040e-02,-6.054757162928581238e-03,1.291911676526069641e-02,1.205954514443874359e-02,4.604452103376388550e-02,5.232824012637138367e-02,4.682741314172744751e-02,7.602646201848983765e-02,1.424642950296401978e-01,4.497525840997695923e-02,9.780304133892059326e-02,8.654327690601348877e-02,5.569887161254882812e-02,-1.646886114031076431e-03,-3.331525996327400208e-02,6.439342629164457321e-03,-2.602647058665752411e-02,-3.604571148753166199e-02,-1.155098527669906616e-02,-8.328755386173725128e-03,-2.685804292559623718e-02,-1.968180574476718903e-02,-1.055112387984991074e-02,-4.472517222166061401e-02,2.749438397586345673e-02,3.885861486196517944e-02,-8.150586858391761780e-03,2.588343247771263123e-02,7.410462945699691772e-03,1.771786948665976524e-03,-5.367996054701507092e-04,-1.867742091417312622e-02,-5.473549664020538330e-02,-2.219541184604167938e-02,-5.989900231361389160e-02,-1.233103945851325989e-01,-7.146511226892471313e-02,-4.687549918889999390e-02,-9.427260607481002808e-02,-3.206790983676910400e-02,3.449130803346633911e-02,3.646789491176605225e-02,3.156903386116027832e-02,1.462119072675704956e-02,3.733781352639198303e-02,9.125860035419464111e-02,2.836470305919647217e-02,3.362471610307693481e-02,3.413735702633857727e-02,1.244037970900535583e-02,5.119074136018753052e-03,1.791332103312015533e-02,2.481138333678245544e-02,-5.830299854278564453e-02,-3.160244598984718323e-02,3.383819013833999634e-03,3.042836673557758331e-03,5.457519739866256714e-02,1.352715026587247849e-02,-3.259049355983734131e-02,-3.674606978893280029e-02,-2.355446293950080872e-02,-2.004558034241199493e-02,1.060264371335506439e-02,-3.593351691961288452e-02,-1.216252613812685013e-02,3.334093093872070312e-02,-2.314138412475585938e-02,7.534915930591523647e-04,4.425439983606338501e-03,-4.106037691235542297e-02,-2.147882059216499329e-02,-3.206178545951843262e-02,-1.802796870470046997e-02,-1.779346726834774017e-02,-1.515900436788797379e-02,-8.502549678087234497e-02,-1.101556494832038879e-01,-3.252253308892250061e-02,-1.239994466304779053e-01,-1.402798146009445190e-01,-8.010835945606231689e-02,-7.519002258777618408e-02,-9.315250813961029053e-02,-3.417967632412910461e-02,-6.667735520750284195e-03,-2.096076309680938721e-02,-3.182598389685153961e-03,-4.631872847676277161e-02,-7.143068313598632812e-02,-4.091995209455490112e-02,1.131968019763007760e-04,-4.920548200607299805e-02,-4.318251833319664001e-02,1.055899914354085922e-02,-2.208401128882542253e-04,-8.262924849987030029e-03,4.449330735951662064e-03,6.069068238139152527e-02,4.485196620225906372e-02,1.051346655003726482e-03,-2.182526327669620514e-02,-1.312922779470682144e-02,-1.883179135620594025e-02,2.277938037877902389e-04,2.305029518902301788e-02,2.024422958493232727e-02,1.500049326568841934e-02,-2.902622893452644348e-02,-3.328357590362429619e-03,2.423188276588916779e-02,-2.953686937689781189e-02,9.350736625492572784e-03,3.992059454321861267e-02,-4.410007037222385406e-03,4.781116265803575516e-03,4.519476741552352905e-02,2.929784171283245087e-02,9.227833943441510201e-04,2.427608706057071686e-02,-7.149010151624679565e-02,6.661372724920511246e-03,3.603039681911468506e-02,3.081920184195041656e-02,3.582997305784374475e-04,6.131450086832046509e-02,5.900746583938598633e-02,5.899767857044935226e-03,2.301109768450260162e-02,2.011736296117305756e-02,1.190106011927127838e-02,-1.793761388398706913e-03,-2.840911969542503357e-02,2.018282003700733185e-02,1.270607393234968185e-02,-7.063908874988555908e-02,1.028876565396785736e-02,3.250028192996978760e-02,-7.011557370424270630e-02,-9.874448878690600395e-04,-6.190778221935033798e-03,3.488101437687873840e-02,2.717395778745412827e-03,1.840744726359844208e-02,3.362411633133888245e-02,-9.951018000720068812e-05,2.833149163052439690e-03,6.242879666388034821e-03,-2.553735487163066864e-02,-2.175051905214786530e-02,-2.807904779911041260e-02,-3.058050200343132019e-02,-1.046824548393487930e-02,1.952810212969779968e-03,-1.949330046772956848e-02,-1.899721100926399231e-02,3.714619902893900871e-03,-2.966030873358249664e-02,-6.479094177484512329e-02,-8.149785548448562622e-02,-7.435769587755203247e-02,-1.226517185568809509e-01,-1.263462305068969727e-01,-8.429489284753799438e-02,-1.131143718957901001e-01,-1.167232468724250793e-01,5.881069693714380264e-03,-2.563524805009365082e-02,-9.118151850998401642e-03,-1.248191017657518387e-02,-5.762401968240737915e-03,-3.138434886932373047e-02,-1.256957743316888809e-02,-5.146275740116834641e-03,2.140984870493412018e-03,1.007555890828371048e-02,1.301775686442852020e-02,-2.558971755206584930e-03,-4.952241200953722000e-03,3.951901197433471680e-02,-2.386805042624473572e-02,-1.965858601033687592e-02,-3.623619303107261658e-02,4.092906042933464050e-02,-1.734056323766708374e-02,-2.841240726411342621e-02,-6.866815965622663498e-03,-1.120442431420087814e-02,-1.892524771392345428e-02,-2.346887253224849701e-02,3.022246062755584717e-03,-1.599005609750747681e-02,1.495120464824140072e-03,1.163743808865547180e-02,2.067776210606098175e-02,-5.231946241110563278e-03,1.846873015165328979e-02,1.674455963075160980e-02,3.676784783601760864e-02,1.753145456314086914e-02,6.163748353719711304e-02,1.022445503622293472e-02,-8.128949557431042194e-04,5.691097676753997803e-02,5.359787610359489918e-04,4.262927547097206116e-02,6.288272142410278320e-02,5.678729712963104248e-02,3.502195328474044800e-02,3.585982695221900940e-02,2.555083297193050385e-02,1.887681335210800171e-02,1.596354693174362183e-02,3.517554327845573425e-02,2.005613036453723907e-02,3.554511815309524536e-02,4.805070906877517700e-02,1.965914107859134674e-02,3.693944588303565979e-02,3.862205520272254944e-02,-1.482832012698054314e-04,-1.485686004161834717e-02,-3.146053478121757507e-02,-1.515419315546751022e-02,-4.365216568112373352e-02,-6.737062335014343262e-02,-2.465831860899925232e-02,-4.630285128951072693e-02,-6.348508596420288086e-02,-4.392177239060401917e-02,-3.187870234251022339e-02,-1.647080108523368835e-02,-5.469975993037223816e-02,-6.354102492332458496e-02,-4.724473506212234497e-02,1.269328594207763672e-02,-1.933162682689726353e-03,-2.251847274601459503e-02,-2.271129004657268524e-02,1.405928097665309906e-02,-1.771255955100059509e-02,-3.127548471093177795e-02,-4.085268825292587280e-02,-9.833716601133346558e-02,-9.530815295875072479e-03,-2.103791199624538422e-02,-6.531554460525512695e-02,-3.139969194307923317e-03,1.788412779569625854e-02,-2.371074259281158447e-02,1.519579347223043442e-02,3.597737103700637817e-02,1.272271946072578430e-02,1.352166943252086639e-02,3.103049471974372864e-03,2.278846688568592072e-03,5.683009978383779526e-03,1.656354963779449463e-02,9.677142836153507233e-03,-1.254866831004619598e-03,3.115232661366462708e-02,-3.678785637021064758e-02,2.987113781273365021e-03,1.027845498174428940e-02,-2.602705731987953186e-02,-1.936985179781913757e-02,-1.193537842482328415e-02,-5.224010092206299305e-04,-4.124292731285095215e-02,-6.857514381408691406e-02,-4.747508838772773743e-02,-6.818999350070953369e-02,-1.130184680223464966e-01,-9.406785666942596436e-02,8.552732877433300018e-03,2.654123678803443909e-02,2.555392496287822723e-02,-2.952846698462963104e-02,3.574465215206146240e-02,9.439710527658462524e-03,2.900452353060245514e-03,4.557146690785884857e-03,2.826368145179003477e-04,-4.165487736463546753e-02,-6.169457454234361649e-03,-8.225814439356327057e-03,-5.066665634512901306e-02,-4.262621328234672546e-02,-4.480002075433731079e-02,-1.517312321811914444e-02,-2.623353339731693268e-02,-1.735531538724899292e-02,3.033853508532047272e-02,-5.672021768987178802e-03,1.604784466326236725e-02,1.093524880707263947e-02,1.032411679625511169e-02,2.511736191809177399e-02,-2.947031985968351364e-03,1.324934605509042740e-02,1.221840176731348038e-02,-1.363651547580957413e-02,-2.400619909167289734e-02,-3.403623402118682861e-02,1.229671202600002289e-02,7.119286060333251953e-02,2.745230868458747864e-02,-7.022890727967023849e-03,5.968056246638298035e-02,3.865696489810943604e-02,-2.317863702774047852e-02,-4.430948756635189056e-03,9.641833603382110596e-03,2.072408562526106834e-03,3.127501159906387329e-02,2.939027361571788788e-02,4.598745144903659821e-03,2.596150897443294525e-02,-7.786476984620094299e-03,-2.242241427302360535e-02,-1.895372383296489716e-02,-1.972350850701332092e-02,-3.790448978543281555e-02,-6.812618672847747803e-02,-3.845592960715293884e-02,-3.995210677385330200e-02,-1.358524989336729050e-02,-4.393641650676727295e-02,-2.854477241635322571e-02,-3.865658864378929138e-02,-5.834593623876571655e-02,-3.784782811999320984e-02,-9.974204003810882568e-02,-8.869880437850952148e-02,-1.631889678537845612e-02,-1.881765387952327728e-02,-1.283207628875970840e-02,1.230719964951276779e-02,2.694634534418582916e-02,7.621446158736944199e-03,-6.706827552989125252e-04,6.559245288372039795e-03,-6.526912562549114227e-03,3.106694109737873077e-02,1.683502085506916046e-02,-8.473392575979232788e-03,2.453480288386344910e-02,2.203359501436352730e-03,1.568325911648571491e-03,2.182060386985540390e-03,3.724575415253639221e-02,4.180455114692449570e-03,6.447520572692155838e-03,1.315693743526935577e-02,8.511369116604328156e-03,-1.296311337500810623e-02,-8.300516009330749512e-02,-6.916419416666030884e-02,-6.868582963943481445e-02,-1.477576643228530884e-01,-1.389129012823104858e-01,-8.842180669307708740e-02,-1.419019103050231934e-01,-1.155745908617973328e-01,-1.095760054886341095e-02,1.183287313324399292e-04,-1.609268411993980408e-02,-1.645577698945999146e-02,4.069872666150331497e-03,2.421322651207447052e-02,-3.434696793556213379e-02,1.940700039267539978e-02,7.123491913080215454e-02,-1.476517878472805023e-03,2.738285111263394356e-03,-3.712263703346252441e-02,-1.980792917311191559e-02,-2.997758425772190094e-02,-2.238543890416622162e-02,3.081554605159908533e-04,-8.684688247740268707e-03,-1.058865431696176529e-02,-6.254700943827629089e-03,-3.818049654364585876e-02,-3.215568140149116516e-02,-1.954011060297489166e-02,-6.913065910339355469e-02,-5.918204411864280701e-02,-6.107719149440526962e-03,-7.336293160915374756e-02,-7.549940049648284912e-02,-3.280123462900519371e-03,-4.386533051729202271e-03,4.459859803318977356e-02,7.401309907436370850e-03,-1.394104398787021637e-02,-2.241997979581356049e-02,3.798503056168556213e-02,5.593856796622276306e-02,2.398960292339324951e-03,6.086034327745437622e-02,3.323113173246383667e-02,6.186994165182113647e-02,4.832307249307632446e-02,8.452947437763214111e-02,6.503715366125106812e-02,4.276001825928688049e-02,4.509879648685455322e-02,4.319208487868309021e-02,-9.133947081863880157e-03,1.098818238824605942e-02,3.090742602944374084e-02,2.936677820980548859e-02,7.705405354499816895e-02,7.621831446886062622e-02,4.698095470666885376e-02,1.029588580131530762e-01,2.962107397615909576e-02,1.280150189995765686e-02,-2.375569194555282593e-02,-4.684078041464090347e-03,-1.488944143056869507e-02,-2.947508823126554489e-03,1.316025666892528534e-02,-2.001272328197956085e-02,1.325025921687483788e-03,8.983240462839603424e-03,1.522399205714464188e-02,2.470945194363594055e-02,4.299522191286087036e-02,3.581899404525756836e-02,8.510625362396240234e-02,8.283995091915130615e-02,3.723769634962081909e-02,1.001555696129798889e-01,8.961812406778335571e-02,2.454961463809013367e-02,-6.510579958558082581e-03,-2.637312514707446098e-03,-1.458719000220298767e-02,-4.894355661235749722e-04,-1.018702518194913864e-02,-1.811015978455543518e-02,-4.020015895366668701e-02,-3.066784888505935669e-02,-1.409302931278944016e-02,-1.602401956915855408e-02,-1.604578085243701935e-02,-2.540948055684566498e-02,-4.981992021203041077e-02,-5.671553313732147217e-03,-2.197903394699096680e-02,-2.262953482568264008e-02,5.125816911458969116e-03,-3.682173043489456177e-02,-7.646445930004119873e-02,-4.700618237257003784e-02,-1.054609194397926331e-01,-1.379190832376480103e-01,-1.320779919624328613e-01,-5.604358762502670288e-02,-9.592425823211669922e-02,-1.246382594108581543e-01,-3.133871033787727356e-02,-6.807505339384078979e-02,-2.404453977942466736e-02,-4.865173622965812683e-02,-1.047551631927490234e-01,-9.968429803848266602e-02,-1.352209784090518951e-02,-5.697849392890930176e-02,-5.191513523459434509e-02,-5.875984206795692444e-03,2.135697053745388985e-03,-7.700679358094930649e-03,2.386655658483505249e-03,-3.024700470268726349e-02,-9.348086314275860786e-04,4.305441305041313171e-02,1.535178255289793015e-02,-3.536532167345285416e-03,-1.213658973574638367e-02,-2.099629305303096771e-02,2.555395290255546570e-02,-4.312214255332946777e-02,-4.448579996824264526e-02,-1.181224081665277481e-02,3.002325072884559631e-03,-2.661088295280933380e-02,-2.306180074810981750e-02,1.360691059380769730e-02,3.452662751078605652e-02,3.077992796897888184e-02,-7.176093291491270065e-03,2.676103264093399048e-02,5.617058370262384415e-03,1.042598485946655273e-02,4.182890057563781738e-02,1.311100367456674576e-02,-9.695748798549175262e-03,-3.069255873560905457e-02,-7.420023437589406967e-03,-1.522151473909616470e-02,-3.186889365315437317e-02,-1.590317115187644958e-02,-6.221067160367965698e-03,-3.102249465882778168e-02,-4.021242633461952209e-02,-1.752245239913463593e-03,-1.132495887577533722e-02,-1.015169173479080200e-02,-3.572428598999977112e-02,3.994322847574949265e-03,-3.721053944900631905e-03,2.896285615861415863e-03,1.713866554200649261e-02,2.863654121756553650e-02,-1.224475353956222534e-02,-8.895498700439929962e-03,-1.056758128106594086e-02,-3.046472370624542236e-02,-4.253010079264640808e-02,-1.625732332468032837e-02,-4.642658866941928864e-03,-2.746787667274475098e-02,-3.164989873766899109e-02,4.151016473770141602e-02,1.879085041582584381e-02,-8.077092468738555908e-03,2.742904610931873322e-02,7.153942435979843140e-02,5.658665671944618225e-02,2.108028158545494080e-03,1.875788345932960510e-02,1.569179631769657135e-02,2.100378274917602539e-02,7.644320279359817505e-02,5.646542832255363464e-02,2.509362064301967621e-02,5.937013402581214905e-02,4.402937367558479309e-02,2.472991682589054108e-02,7.408442348241806030e-02,2.768597193062305450e-02,1.681764237582683563e-02,4.535513743758201599e-02,5.660971254110336304e-02,5.147041007876396179e-02,1.183190196752548218e-01,5.909981206059455872e-02,1.486838236451148987e-02,7.813276350498199463e-02,5.927873402833938599e-02,1.608666032552719116e-02,2.476539090275764465e-02,2.176775969564914703e-02,4.776705801486968994e-02,6.654121726751327515e-02,3.127803653478622437e-02,6.711573153734207153e-02,3.641600906848907471e-02,3.171298652887344360e-02,3.510823007673025131e-03,1.282642595469951630e-03,-9.958966635167598724e-03,-2.490362338721752167e-02,6.466803606599569321e-03,1.724323257803916931e-02,-2.923239395022392273e-02,-3.156195208430290222e-02,-4.610858857631683350e-03,-6.269201170653104782e-03,-3.242696821689605713e-02,-3.809125721454620361e-02,-8.202365599572658539e-03,-5.087453499436378479e-02,-1.771710067987442017e-02,-3.831092640757560730e-02,-2.598848938941955566e-02,-2.795012667775154114e-02,8.720661513507366180e-03,4.018457978963851929e-02,1.299051381647586823e-02,1.757851615548133850e-02,6.991544365882873535e-02,4.724256321787834167e-02,3.070101514458656311e-02,3.217285126447677612e-02,1.812109351158142090e-02,-1.603275164961814880e-02,4.062687512487173080e-03,1.573565974831581116e-02,-7.011964917182922363e-04,2.518026530742645264e-02,-2.672773785889148712e-03,-2.072561532258987427e-02,-1.409755926579236984e-02,-1.402589376084506512e-03,1.912306062877178192e-02,-1.769824326038360596e-02,-4.784977994859218597e-03,-3.247025609016418457e-02,-2.662980370223522186e-02,-1.453201938420534134e-02,-6.992433220148086548e-02,-4.100184142589569092e-02,-5.544465035200119019e-02,4.151243716478347778e-02,2.537421649321913719e-03,2.531557343900203705e-02,6.450578570365905762e-03,-7.153279148042201996e-03,3.420350607484579086e-03,5.642434582114219666e-03,-3.819410689175128937e-03,-9.274601936340332031e-03,1.922507397830486298e-02,1.073271268978714943e-03,1.031084079295396805e-02,9.340333752334117889e-03,-3.275593370199203491e-02,-8.097353391349315643e-03,2.790331654250621796e-02,-3.081602975726127625e-03,-6.417289376258850098e-03,6.871638353914022446e-03,3.215550258755683899e-02,2.615117095410823822e-02,2.402763068675994873e-02,2.428110875189304352e-02,4.105479642748832703e-02,2.097845077514648438e-02,2.643725648522377014e-02,4.001845419406890869e-02,9.923362173140048981e-03,1.124507654458284378e-02,1.253149099647998810e-02,1.474691927433013916e-02,2.034380286931991577e-02,1.867537759244441986e-02,1.118159107863903046e-02,3.161504492163658142e-02,2.320630475878715515e-02,1.486166473478078842e-02,1.663843914866447449e-02,-2.990450710058212280e-03,-8.700037375092506409e-03,3.180195391178131104e-02,1.143781561404466629e-02,-4.557053558528423309e-03,5.699183046817779541e-02,5.810536444187164307e-02,9.052250534296035767e-03,1.217521075159311295e-02,4.903248045593500137e-03,2.754027396440505981e-02,3.416616097092628479e-02,-1.758904196321964264e-02,1.225130446255207062e-02,2.949147112667560577e-02,-1.803160062991082668e-03,8.955447003245353699e-03,1.554065197706222534e-02,-2.486343123018741608e-02,1.391517836600542068e-02,2.897390164434909821e-02,-2.031767927110195160e-02,-2.609470160678029060e-03,1.303078886121511459e-02,1.397069636732339859e-02,-2.718771435320377350e-02,-3.896891325712203979e-02,-3.950310125946998596e-02,-6.211694702506065369e-02,-7.492257654666900635e-02,-9.564971923828125000e-02,-6.046658381819725037e-02,-7.769696414470672607e-02,-7.461956888437271118e-02,2.866298519074916840e-02,2.934141270816326141e-02,2.868840470910072327e-02,7.943799719214439392e-03,4.710795357823371887e-02,1.458565238863229752e-02,-1.819956349208950996e-03,2.203498780727386475e-02,7.367008365690708160e-03,1.562538673169910908e-03,-1.681461185216903687e-02,-4.610357806086540222e-03,-8.134661242365837097e-03,-2.547960169613361359e-02,-5.240764468908309937e-02,-9.282317012548446655e-03,-9.645241079851984978e-04,-3.780435770750045776e-02
4.743886180222034454e-03,6.054065655916929245e-03,-7.107390090823173523e-03,2.358300611376762390e-02,-9.309413284063339233e-02,-7.931739091873168945e-02,-7.897038944065570831e-03,-5.052602291107177734e-02,-1.046942546963691711e-02,1.481032185256481171e-02,1.619912497699260712e-02,-5.145684257149696350e-02,8.593699894845485687e-03,8.135403506457805634e-03,-4.286518692970275879e-02,9.077966213226318359e-02,6.538188457489013672e-02,4.352976381778717041e-02,-1.382661331444978714e-02,-6.397143937647342682e-03,8.496477268636226654e-03,1.383201405405998230e-02,-1.241293177008628845e-02,5.387987941503524780e-03,2.018901333212852478e-02,-3.525457344949245453e-03,7.990451529622077942e-03,-3.066153451800346375e-02,-8.981353044509887695e-02,-1.754709631204605103e-01,1.180624589323997498e-01,8.614730834960937500e-02,-7.746882736682891846e-02,9.041924029588699341e-02,-2.789903804659843445e-02,-3.491313755512237549e-02,-4.592409729957580566e-02,-4.972233623266220093e-02,-3.115946985781192780e-02,1.552456431090831757e-02,7.271664589643478394e-02,-3.144662082195281982e-02,1.563129946589469910e-02,2.656022831797599792e-02,-4.081124812364578247e-02,7.029193919152021408e-03,8.450169116258621216e-04,-1.314998231828212738e-02,2.874795347452163696e-02,1.576437061885371804e-04,-6.111986003816127777e-03,-6.239537615329027176e-04,-2.831482328474521637e-03,-4.373268689960241318e-03,1.045771315693855286e-02,4.247575998306274414e-03,-2.586855553090572357e-02,4.961074795573949814e-03,2.359129302203655243e-02,1.041097380220890045e-02,-2.719509066082537174e-04,2.159297093749046326e-02,-2.421898767352104187e-02,-8.146234788000583649e-03,-4.701176285743713379e-02,-1.179370936006307602e-02,2.574769593775272369e-02,3.177182003855705261e-02,-4.115160927176475525e-02,4.530575498938560486e-02,-2.053088042885065079e-03,-6.945370882749557495e-02,1.652148365974426270e-02,7.417057175189256668e-03,1.557521708309650421e-02,-6.484379991888999939e-03,-5.713382363319396973e-02,1.599944755434989929e-02,-4.711699113249778748e-02,-5.214747786521911621e-02,9.013475850224494934e-03,1.570976153016090393e-02,1.885402575135231018e-02,2.921803109347820282e-02,-2.900863625109195709e-02,1.226500719785690308e-01,7.991371303796768188e-02,-2.797014266252517700e-02,8.051242679357528687e-02,3.560741199180483818e-03,2.306239730387460440e-05,3.380830958485603333e-02,9.673423133790493011e-03,-8.482784964144229889e-03,9.618076495826244354e-03,-4.255671054124832153e-03,-4.891341668553650379e-04,3.582299221307039261e-03,2.340077050030231476e-02,4.274071659892797470e-03,-1.477121934294700623e-02,-2.685402147471904755e-02,4.127661138772964478e-02,-1.890333741903305054e-02,-2.307575196027755737e-02,3.466478362679481506e-02,6.220787297934293747e-03,-8.179523982107639313e-03,-2.474706619977951050e-03,1.431329175829887390e-02,2.909513190388679504e-03,4.396309610456228256e-03,9.962771087884902954e-03,2.601955644786357880e-02,-1.760255894623696804e-03,-6.772160995751619339e-03,1.180591341108083725e-02,6.193228531628847122e-03,-3.725760849192738533e-03,1.869635842740535736e-02,-2.629744075238704681e-02,9.101537615060806274e-02,4.261327907443046570e-02,7.219235412776470184e-03,-4.967469722032546997e-03,-2.489975839853286743e-02,-2.980950847268104553e-02,-3.453694656491279602e-02,-2.819330245256423950e-02,-9.482063353061676025e-03,-6.597854080609977245e-04,5.727982148528099060e-02,-8.911709301173686981e-04,3.367486875504255295e-03,2.107816934585571289e-02,1.343145687133073807e-02,2.443665638566017151e-02,1.881560869514942169e-02,4.492823779582977295e-02,2.421111054718494415e-02,-3.855561092495918274e-02,-1.068901270627975464e-02,-6.422960758209228516e-02,-2.917476184666156769e-02,-5.451994948089122772e-04,-8.435660973191261292e-03,-1.419896818697452545e-02,6.020555645227432251e-02,5.697597935795783997e-02,-4.277615249156951904e-02,5.883646383881568909e-02,1.068703271448612213e-02,-2.301776222884654999e-02,-2.146103419363498688e-02,-4.375771433115005493e-02,-3.868002444505691528e-02,-1.130797620862722397e-02,-2.832842245697975159e-02,1.490013767033815384e-02,1.453181728720664978e-02,-6.374984979629516602e-02,1.254187989979982376e-02,-1.876472495496273041e-02,-3.117792494595050812e-02,-2.081774920225143433e-02,1.280856039375066757e-02,-1.330430433154106140e-02,-2.904257737100124359e-03,2.636001259088516235e-02,-2.738839387893676758e-02,-4.034161567687988281e-02,1.457760110497474670e-02,2.513625193387269974e-03,3.429819270968437195e-02,4.829929769039154053e-02,-9.012321382761001587e-02,-6.061824783682823181e-02,1.287051662802696228e-02,-5.439850687980651855e-02,-3.488367050886154175e-02,-6.203508004546165466e-03,-8.491848595440387726e-03,-1.966045424342155457e-02,-1.540667843073606491e-02,-3.472393751144409180e-02,-2.950668567791581154e-04,-2.933319658041000366e-03,-9.863925166428089142e-03,3.121558018028736115e-02,1.569894840940833092e-03,-2.401204779744148254e-02,-2.203906327486038208e-02,7.204196881502866745e-04,1.758090034127235413e-02,3.349728137254714966e-02,-4.582395404577255249e-02,4.949295893311500549e-03,-5.666549503803253174e-02,9.975277818739414215e-03,-5.416091904044151306e-02,4.769468307495117188e-02,-2.139635197818279266e-02,-1.108343992382287979e-02,2.214213088154792786e-02,-5.668933317065238953e-02,1.693153753876686096e-03,-2.083801850676536560e-02,-9.950242005288600922e-03,-4.362422972917556763e-02,-1.092945039272308350e-02,-1.360000204294919968e-02,-1.203978899866342545e-03,1.049604453146457672e-02,-1.231385953724384308e-02,-3.601921722292900085e-02,2.221431396901607513e-02,-1.654642634093761444e-02,-1.031912490725517273e-02,2.229465404525399208e-03,-2.519187703728675842e-02,1.357045471668243408e-01,3.992574289441108704e-02,1.819606497883796692e-02,9.931402653455734253e-02,-1.652949862182140350e-02,5.440709367394447327e-02,4.843204747885465622e-03,1.270466484129428864e-02,-2.155272755771875381e-03,-1.026363223791122437e-01,-2.476600743830204010e-02,-1.873429864645004272e-02,7.190696895122528076e-03,-3.244922310113906860e-02,-1.301661506295204163e-02,-5.378692294470965862e-04,-4.035213217139244080e-02,-3.561419667676091194e-03,5.889332294464111328e-02,-2.891964511945843697e-03,-1.403175760060548782e-02,-3.502766368910670280e-03,-2.071723900735378265e-02,-6.520143710076808929e-03,-1.602401956915855408e-02,-7.762192282825708389e-03,6.870678067207336426e-02,5.114432796835899353e-02,-3.507144749164581299e-02,4.503582790493965149e-02,1.554872188717126846e-02,-1.446815300732851028e-02,-2.030365541577339172e-02,-2.807473577558994293e-02,-1.069256216287612915e-01,-2.782488614320755005e-02,1.640009507536888123e-02,-7.436078786849975586e-02,3.915572911500930786e-02,2.038000151515007019e-02,-4.931038618087768555e-02,8.198795840144157410e-03,-2.275415509939193726e-02,2.645530737936496735e-02,-3.170216828584671021e-02,-1.948649995028972626e-02,2.585729397833347321e-02,-3.609237901400774717e-04,4.358391836285591125e-02,2.490055747330188751e-03,-3.182290820404887199e-03,-1.798355020582675934e-02,-2.960967086255550385e-02,-2.326610870659351349e-02,-8.498300611972808838e-02,-4.950882866978645325e-02,-3.121276758611202240e-02,-3.382877260446548462e-02,-1.816780865192413330e-02,2.093977062031626701e-03,-1.082306914031505585e-02,-3.008366189897060394e-02,-9.446312673389911652e-03,-4.865651018917560577e-03,2.874982729554176331e-02,-3.701915964484214783e-02,8.740542456507682800e-03,-2.551428973674774170e-02,2.154273353517055511e-02,1.439630892127752304e-02,4.037002101540565491e-02,-4.635413363575935364e-02,-3.688730672001838684e-02,5.147572979331016541e-02,-1.186819653958082199e-02,-9.390729479491710663e-03,6.474004476331174374e-04,4.104423336684703827e-03,1.267514750361442566e-02,2.305601350963115692e-02,1.251445151865482330e-02,6.705386191606521606e-02,2.659635804593563080e-02,-1.806254312396049500e-02,-3.686977177858352661e-02,2.752817980945110321e-02,-5.050385952927172184e-04,-4.306274000555276871e-03,-3.305540606379508972e-02,-2.099202945828437805e-02,-1.293297298252582550e-02,2.337565831840038300e-02,-5.349409207701683044e-02,5.284299328923225403e-02,3.616775944828987122e-02,-5.910276435315608978e-03,2.301273681223392487e-02,1.938610523939132690e-02,-6.589110475033521652e-03,4.203149303793907166e-02,2.499166643247008324e-03,-1.055940333753824234e-02,-1.866811141371726990e-02,-2.627284452319145203e-02,-2.038870006799697876e-02,-4.094212502241134644e-02,-6.538953632116317749e-02,-1.175417844206094742e-02,-4.759861528873443604e-02,8.150438079610466957e-04,-1.825881563127040863e-02,-2.689694985747337341e-02,-2.801080420613288879e-02,-1.290776301175355911e-02,1.876788027584552765e-02,-3.904950991272926331e-02,7.098739594221115112e-02,1.921850815415382385e-02,-3.462940827012062073e-02,7.173155318014323711e-04,-3.476971294730901718e-03,1.109668891876935959e-02,-2.233747951686382294e-02,3.075816109776496887e-02,-1.951242052018642426e-02,-4.444998875260353088e-02,1.003394089639186859e-02,6.535547226667404175e-02,-3.750350326299667358e-02,1.158007420599460602e-02,6.434068828821182251e-02,-7.983661256730556488e-03,2.029391564428806305e-02,-1.724396646022796631e-02,-2.808007784187793732e-02,-1.064343098551034927e-02,3.978649154305458069e-02,1.364153809845447540e-02,-4.169596731662750244e-02,6.320832669734954834e-02,1.086799520999193192e-02,1.215384714305400848e-02,6.036346778273582458e-03,-6.989311426877975464e-03,1.461409684270620346e-02,3.585825487971305847e-02,-4.982891492545604706e-03,8.920779800973832607e-04,1.803160458803176880e-02,3.299966081976890564e-02,1.107761822640895844e-02,1.866997219622135162e-02,1.158471498638391495e-02,-2.636059932410717010e-02,-1.618103589862585068e-03,-6.240646820515394211e-03,3.263565897941589355e-02,3.436747565865516663e-02,-1.022466737776994705e-02,3.911464009433984756e-03,-1.840286888182163239e-02,1.580068282783031464e-02,-8.775679394602775574e-03,3.751541589736007154e-05,8.499963441863656044e-04,-1.870438642799854279e-02,-1.668666303157806396e-02,-2.273838408291339874e-02,-4.618225246667861938e-02,6.221102550625801086e-03,-6.376350671052932739e-02,-5.950842425227165222e-02,-6.714060157537460327e-02,-3.287732973694801331e-02,-6.872300058603286743e-02,-6.367353349924087524e-02,-3.479908406734466553e-02,-4.285745695233345032e-02,-9.335856884717941284e-03,3.117543458938598633e-02,5.210785195231437683e-02,-5.976160243153572083e-02,1.875089108943939209e-02,1.826809905469417572e-02,-4.039186611771583557e-02,-2.312878705561161041e-02,-3.194170817732810974e-02,-2.808810397982597351e-02,-8.641326799988746643e-03,6.629408895969390869e-02,-1.880747266113758087e-02,1.828531548380851746e-02,6.575002521276473999e-02,-4.818241577595472336e-03,-7.264086604118347168e-02,-1.525488495826721191e-02,-2.330563031136989594e-02,-4.065108671784400940e-02,-9.917777031660079956e-02,7.293716073036193848e-02,-3.152918815612792969e-02,-1.958625763654708862e-02,3.725009411573410034e-02,-5.816407036036252975e-03,3.767730202525854111e-03,3.951870650053024292e-02,6.834650877863168716e-03,1.819590665400028229e-02,1.992352679371833801e-02,3.403178229928016663e-02,2.021009474992752075e-02,3.484141081571578979e-02,4.005804192274808884e-03,1.906473934650421143e-02,1.935289124958217144e-03,-3.478369489312171936e-02,-4.511510953307151794e-02,5.498930066823959351e-02,5.806898232549428940e-03,-1.274629961699247360e-02,1.012912113219499588e-02,-8.709936402738094330e-03,2.997425943613052368e-02,1.577202789485454559e-02,-2.892121486365795135e-02,2.996367588639259338e-02,-5.441113933920860291e-02,1.736954203806817532e-03,-1.092467829585075378e-02,-5.266467342153191566e-04,1.542672421783208847e-02,1.142092514783143997e-02,-7.316982373595237732e-03,3.222455084323883057e-02,1.134038642048835754e-01,9.821113944053649902e-02,5.332911387085914612e-02,1.122239977121353149e-01,8.136729151010513306e-02,2.136552473530173302e-03,-3.435882925987243652e-02,-4.082459211349487305e-02,-1.390873268246650696e-02,1.511186268180608749e-02,1.414937153458595276e-02,-2.020416222512722015e-02,1.643735356628894806e-02,-3.054167330265045166e-02,1.786842010915279388e-03,-5.410159938037395477e-04,-7.505082758143544197e-04,-2.592615783214569092e-02,6.431548856198787689e-03,-5.937667936086654663e-02,-3.937191516160964966e-02,-1.501404866576194763e-02,-3.660017624497413635e-02,-2.525483258068561554e-03,-1.399959325790405273e-01,2.189463190734386444e-02,-1.288945600390434265e-02,-4.456428438425064087e-02,-3.303923085331916809e-02,-3.176174312829971313e-02,2.347985841333866119e-02,-1.524352580308914185e-01,7.514066994190216064e-03,-2.053050510585308075e-02,-2.512202784419059753e-02,-1.134620700031518936e-02,5.129268392920494080e-02,1.932992599904537201e-02,-4.195015504956245422e-02,1.399175729602575302e-02,-2.443256974220275879e-02,-2.706063911318778992e-02,1.671765744686126709e-02,2.996110543608665466e-02,-1.941690966486930847e-02,-2.789488062262535095e-02,2.048775553703308105e-02,1.467598602175712585e-02,-2.763874456286430359e-02,4.223532974720001221e-02,-7.001578342169523239e-03,-1.967194490134716034e-02,-3.367162123322486877e-02,4.597112536430358887e-02,4.446566477417945862e-02,-6.923718005418777466e-02,3.825204819440841675e-02,-5.949269980192184448e-03,-2.144450321793556213e-02,-1.891607418656349182e-02,-3.294624760746955872e-02,-5.657409504055976868e-02,6.788279861211776733e-02,-2.205933630466461182e-02,-7.248263061046600342e-02,1.334162149578332901e-02,2.165440656244754791e-02,-3.349749604240059853e-03,1.851816289126873016e-02,-8.569081313908100128e-03,9.932089596986770630e-03,1.611358299851417542e-02,-6.658306717872619629e-02,-4.543934017419815063e-02,7.254600990563631058e-03,-3.450440615415573120e-02,-1.089558284729719162e-02,-1.852732151746749878e-02,6.716090138070285320e-04,5.315869580954313278e-03,-1.757526304572820663e-03,2.578015811741352081e-02,-1.360982377082109451e-02,1.702335430309176445e-04,-3.713277168571949005e-03,-1.680824556387960911e-03,4.199880640953779221e-03,8.735458366572856903e-03,-7.306789979338645935e-03,-1.522677205502986908e-02,-1.367748045595362782e-04,1.967704482376575470e-02,-6.135929841548204422e-03,2.040797472000122070e-02,5.027569131925702095e-04,1.206441223621368408e-02,1.780847087502479553e-02,3.714167699217796326e-02,-3.861953318119049072e-02,1.582853682339191437e-02,3.129755705595016479e-02,-4.185392335057258606e-02,-4.351602401584386826e-03,2.673875167965888977e-02,1.546752173453569412e-02,-1.567044854164123535e-02,3.067838028073310852e-02,-2.210104372352361679e-03,3.109284117817878723e-02,5.593654885888099670e-02,1.037262193858623505e-02,2.691681683063507080e-02,2.501025050878524780e-02,-3.069175593554973602e-02,-2.108182088704779744e-04,7.312821224331855774e-03,-8.461207151412963867e-03,-1.358345150947570801e-02,1.002681925892829895e-01,-5.882467143237590790e-03,-2.355394884943962097e-03,8.813359588384628296e-02,-2.816173993051052094e-02,-1.902126707136631012e-02,7.798678707331418991e-03,-2.732707560062408447e-02,1.232588663697242737e-02,2.093868330121040344e-02,-9.320148266851902008e-03,-1.425608992576599121e-02,-4.099847748875617981e-03,-1.094958861358463764e-03,5.258624255657196045e-02,-2.282578498125076294e-02,3.393382579088211060e-02,3.396276757121086121e-02,-4.663078859448432922e-02,-2.268941141664981842e-02,-5.414117127656936646e-02,-5.036257207393646240e-02,-1.649772375822067261e-02,1.638045534491539001e-02,6.026896834373474121e-02,9.004734456539154053e-03,2.487071752548217773e-01,5.630320310592651367e-02,3.510051593184471130e-02,7.338707894086837769e-02,4.493585973978042603e-02,-3.547231853008270264e-02,-6.524623185396194458e-02,-6.132569909095764160e-02,-1.493666507303714752e-02,-2.078788168728351593e-02,-3.872215747833251953e-02,-2.090140432119369507e-02,-1.986066810786724091e-02,-5.662486702203750610e-02,9.214784950017929077e-03,6.774222012609243393e-03,-1.459515932947397232e-02,2.816932648420333862e-02,3.663384914398193359e-02,-1.685215160250663757e-02,2.449257299304008484e-02,-3.045057319104671478e-02,-1.429108530282974243e-02,2.404114417731761932e-02,4.376043565571308136e-03,-1.770379953086376190e-02,7.283905148506164551e-02,1.821018569171428680e-02,-2.838988788425922394e-02,3.908281028270721436e-02,1.931036822497844696e-02,-1.247618347406387329e-02,1.875522313639521599e-03,7.907370105385780334e-03,1.307406742125749588e-02,1.477291714400053024e-02,4.383844137191772461e-02,-1.234501972794532776e-02,4.937644675374031067e-02,6.480058282613754272e-02,-1.500522717833518982e-02,-5.134653765708208084e-04,-2.964325994253158569e-02,-2.068588510155677795e-02,1.944429799914360046e-02,1.672051288187503815e-02,-1.492539513856172562e-02,2.126638963818550110e-02,4.621649160981178284e-02,1.288542710244655609e-02,-4.446008708328008652e-03,4.210964310914278030e-03,-2.532533742487430573e-02,4.355819895863533020e-02,3.337784856557846069e-02,5.479473620653152466e-04,2.901745261624455452e-03,-2.822721004486083984e-02,-8.403474465012550354e-03,-3.905704617500305176e-02,-3.851984813809394836e-02,-4.207786545157432556e-02,-2.599992230534553528e-02,5.111780390143394470e-02,7.103877142071723938e-03,2.765203639864921570e-02,4.000668972730636597e-02,-3.746963292360305786e-02,-6.450442131608724594e-03,3.682635352015495300e-02,-2.442996017634868622e-02,-2.849730476737022400e-02,-1.101654861122369766e-02,3.002586029469966888e-02,-5.258885025978088379e-02,-4.563430696725845337e-02,2.233404666185379028e-02,-3.918088041245937347e-03,3.398579778149724007e-03,-1.748285628855228424e-02,1.182009931653738022e-02,2.053223364055156708e-02,5.272692814469337463e-02,1.157822832465171814e-02,-1.605900563299655914e-02,-5.726831499487161636e-03,-2.280651777982711792e-02,-9.673390537500381470e-03,2.004698291420936584e-02,-2.889556623995304108e-02,-8.208503015339374542e-03,2.486300282180309296e-02,-2.135585807263851166e-02,-6.350857019424438477e-02,1.603586226701736450e-02,2.275993116199970245e-02,2.529285289347171783e-02,6.528094410896301270e-03,-1.290457439608871937e-03,-4.751800000667572021e-02,1.046399935148656368e-03,1.620867662131786346e-02,1.549131120555102825e-03,-8.685762993991374969e-03,9.642234072089195251e-04,-8.267309516668319702e-03,-2.059313282370567322e-02,2.524582901969552040e-03,-1.193726062774658203e-02,-6.594038754701614380e-02,2.502945717424154282e-04,1.445772242732346058e-03,-6.468643993139266968e-02,2.893425337970256805e-02,1.555212400853633881e-02,2.450781129300594330e-02,-5.427314899861812592e-03,-5.166867002844810486e-02,1.233242731541395187e-02,-2.760922722518444061e-02,8.029239252209663391e-03,-2.562847733497619629e-02,-3.743246896192431450e-03,-2.352016791701316833e-02,-1.030171755701303482e-02,8.833906613290309906e-03,-6.472773104906082153e-02,-3.157828003168106079e-02,9.188217110931873322e-03,-4.844587296247482300e-02,1.936199702322483063e-02,6.567123346030712128e-03,6.195922195911407471e-02,7.980127818882465363e-03,8.863069862127304077e-02,1.425286531448364258e-01,1.376516520977020264e-01,8.579771220684051514e-02,8.451049774885177612e-02,7.873865962028503418e-02,-4.799349699169397354e-03,8.235921151936054230e-03,1.714494824409484863e-02,-1.511124311946332455e-03,9.278686484321951866e-04,5.877990275621414185e-02,7.787836948409676552e-04,-1.221060752868652344e-03,-4.858457483351230621e-03,-6.565240211784839630e-03,-1.991287805140018463e-02,-1.520601380616426468e-02,1.813659444451332092e-02,4.698485881090164185e-02,-8.346997201442718506e-04,2.591044083237648010e-02,5.113279074430465698e-02,-1.282474678009748459e-02,1.721421815454959869e-02,-4.590193741023540497e-03,1.446652691811323166e-02,1.565346866846084595e-02,-1.672838069498538971e-02,1.311042462475597858e-03,5.560729769058525562e-04,-1.988290995359420776e-02,-2.944678254425525665e-02,-8.206705562770366669e-03,-1.875482127070426941e-02,-1.054588519036769867e-02,2.505475282669067383e-02,5.200413987040519714e-02,-2.300734817981719971e-02,4.839916247874498367e-03,-2.958241617307066917e-03,-2.136212028563022614e-02,-1.108154933899641037e-02,1.461409218609333038e-02,-7.671291939914226532e-03,-2.825536206364631653e-02,-2.027999609708786011e-02,-1.891147578135132790e-03,2.503458596765995026e-02,2.800369868054986000e-03,4.297943413257598877e-02,-1.528639841126278043e-04,5.961228627711534500e-03,-1.155946776270866394e-02,4.235371947288513184e-02,5.545056238770484924e-02,-5.815122649073600769e-02,-2.776745706796646118e-03,-3.708013519644737244e-02,3.124309005215764046e-03,2.544176392257213593e-02,2.107271738350391388e-02,3.108703764155507088e-03,-1.067559141665697098e-02,-7.306319475173950195e-02,-3.333561494946479797e-02,-2.927122823894023895e-02,1.301015634089708328e-02,2.472502365708351135e-02,-1.531485375016927719e-02,-2.445290796458721161e-02,-5.134885385632514954e-02,-2.635942772030830383e-02,-7.003318518400192261e-02,-4.574621096253395081e-02,-2.402778342366218567e-02,-4.283545166254043579e-02,-4.754453431814908981e-03,-3.124794922769069672e-02,-2.529189176857471466e-02,-1.472251396626234055e-02,-2.183613739907741547e-02,2.034385222941637039e-03,5.652683787047863007e-03,1.212846394628286362e-02,-1.767926290631294250e-02,-1.378837390802800655e-03,3.375759720802307129e-02,8.288172073662281036e-03,-1.497555430978536606e-02,-2.792908996343612671e-02,-4.151846840977668762e-02,3.379508852958679199e-02,2.292128512635827065e-03,3.234748914837837219e-02,3.973866626620292664e-02,-5.734766367822885513e-03,-1.204175781458616257e-02,1.173100247979164124e-02,-3.050692752003669739e-02,-1.088164281100034714e-02,2.813190920278429985e-03,-2.210121415555477142e-02,-3.462480753660202026e-02,1.327875815331935883e-02,-8.161639794707298279e-03,1.111051347106695175e-02,2.724719606339931488e-02,2.462567761540412903e-02,1.577790454030036926e-02,1.999995112419128418e-02,-1.579940691590309143e-02,1.744917244650423527e-03,-4.202017188072204590e-02,-3.254711627960205078e-02,-3.570421040058135986e-02,2.449697069823741913e-02,-1.410763803869485855e-02,-2.879180014133453369e-02,5.002399533987045288e-02,-1.586889475584030151e-02,-1.771401055157184601e-02,1.884716190397739410e-02,-9.050594642758369446e-03,-3.576490283012390137e-02,5.757459439337253571e-03,2.469943091273307800e-02,-3.392714262008666992e-02,1.899963803589344025e-02,-1.379404962062835693e-02,-1.104852650314569473e-02,1.668031886219978333e-02,-6.446932442486286163e-03,-2.566446177661418915e-02,-2.737515605986118317e-02,3.533533960580825806e-02,6.452714651823043823e-02,-7.547586411237716675e-02,7.105921953916549683e-02,2.444254420697689056e-02,-9.287887811660766602e-02,-8.753520436584949493e-03,-9.239036007784307003e-04,4.803080484271049500e-02,-4.248793702572584152e-03,-3.130352124571800232e-02,-6.120700389146804810e-03,-1.540031842887401581e-02,-2.332435734570026398e-02,-2.502736635506153107e-02,-1.978009939193725586e-03,-1.751336385495960712e-03,-3.601537272334098816e-02,1.528695970773696899e-02,1.125642191618680954e-02,-2.140956185758113861e-02,-3.453024104237556458e-02,-2.976265363395214081e-02,-1.681015267968177795e-02,2.262580581009387970e-02,2.502758987247943878e-02,2.388212643563747406e-02,1.850860193371772766e-03,8.205614052712917328e-03,1.007122918963432312e-02,1.633063075132668018e-03,-1.857424899935722351e-02,1.430276315659284592e-02,-2.138225361704826355e-02,1.711998879909515381e-02,-2.428915118798613548e-03,-1.520267501473426819e-02,1.672329753637313843e-02,1.170887053012847900e-02,-1.404521707445383072e-02,3.866516426205635071e-02,-5.704911891371011734e-03,2.258754335343837738e-02,-3.012403845787048340e-02,-1.200260315090417862e-02,-1.235204096883535385e-02,-7.801789045333862305e-02,-2.025267295539379120e-02,-4.241808503866195679e-02,-9.639163501560688019e-03,-9.241323918104171753e-03,-4.191920626908540726e-03,-6.165765225887298584e-02,6.104896776378154755e-03,-2.931194007396697998e-02,-2.208710275590419769e-02,-1.699550636112689972e-02,-1.128249615430831909e-02,2.761857351288199425e-03,2.541476301848888397e-02,-3.993933554738759995e-03,-2.338154986500740051e-02,-6.096842233091592789e-03,-1.021492294967174530e-02,-1.560511067509651184e-02,6.138772517442703247e-02,-3.198335692286491394e-02,2.613329328596591949e-03,2.596020884811878204e-02,2.990048937499523163e-02,-2.395480312407016754e-02,9.522093023406341672e-05,-2.277523092925548553e-02,-8.615573495626449585e-02,3.044692240655422211e-02,-3.168493881821632385e-02,-4.513348266482353210e-02,1.031334232538938522e-02,3.814243897795677185e-02,-7.399401161819696426e-03,5.235939472913742065e-02,-4.510385915637016296e-02,5.785707756876945496e-02,2.624004706740379333e-02,-1.040789671242237091e-02,-4.136875644326210022e-02,-5.260611325502395630e-02,-1.166079845279455185e-02,1.477099768817424774e-02,-4.910356947220861912e-04,-6.430521607398986816e-03,-1.238236203789710999e-02,8.924925699830055237e-03,6.105813663452863693e-03,4.432538989931344986e-03,5.883441120386123657e-02,1.897501875646412373e-03,-7.930056191980838776e-03,-5.763204768300056458e-02,4.001007229089736938e-02,2.645174786448478699e-02,-5.916842073202133179e-02,3.180195763707160950e-02,1.789310388267040253e-02,-7.204159162938594818e-03,-2.681906335055828094e-03,-1.956520415842533112e-02,1.639330387115478516e-02,-1.739316247403621674e-02,2.134133502840995789e-02,1.661664061248302460e-02,1.312483946094289422e-04,-2.531069517135620117e-02,3.419200703501701355e-02,-3.077349159866571426e-03,1.054880023002624512e-02,-1.583290658891201019e-02,-1.637212559580802917e-02,-2.359665185213088989e-02,5.488527193665504456e-02,-1.987744495272636414e-02,-3.772074729204177856e-02,1.653770916163921356e-02,-1.248914655297994614e-02,-2.364459447562694550e-02,-2.096026763319969177e-02,-8.197380229830741882e-03,-2.700230851769447327e-02,-1.141341496258974075e-02,-1.268710382282733917e-02,-8.393567055463790894e-03,-3.324917331337928772e-02,-6.024631205946207047e-03,5.962528754025697708e-03,8.368039503693580627e-03,4.803169891238212585e-02,-2.656245604157447815e-03,-7.832521200180053711e-02,7.790957577526569366e-03,-8.807079493999481201e-02,-4.295199736952781677e-02,-7.198756211437284946e-04,3.165607340633869171e-03,7.889040745794773102e-03,-2.149109542369842529e-02,8.234171546064317226e-04,-2.349873539060354233e-03,-1.780061423778533936e-02,-1.452837698161602020e-02,7.240959443151950836e-03,2.184714004397392273e-02,4.770016670227050781e-02,-7.221733685582876205e-03,4.409852623939514160e-02,-5.715925991535186768e-02,-9.300021082162857056e-02,-1.410107687115669250e-02,-6.083557382225990295e-02,-3.572329506278038025e-02,-1.347786467522382736e-02,-1.168064028024673462e-02,-1.692999154329299927e-02,-8.987599983811378479e-03,-3.107354044914245605e-02,-3.423986956477165222e-03,5.562870297580957413e-03,-6.247196812182664871e-03,7.179024163633584976e-03,-3.185773640871047974e-02,-5.215416103601455688e-02,1.264818478375673294e-02,-2.348924614489078522e-02,-5.166922509670257568e-02,2.469153329730033875e-02,1.654172502458095551e-02,-2.803155966103076935e-02,-1.232741959393024445e-02,-2.186074154451489449e-03,-2.554755099117755890e-02,-2.515574544668197632e-02,5.550024285912513733e-02,4.508185386657714844e-02,-5.186598375439643860e-02,4.545136168599128723e-02,1.471562590450048447e-02,-2.178795821964740753e-02,-1.543024182319641113e-02,-2.301588654518127441e-02,-1.561098545789718628e-02,2.641154453158378601e-02,2.712468802928924561e-02,-4.789525642991065979e-02,1.750219613313674927e-02,-5.467989295721054077e-02,-4.362929612398147583e-02,1.321251504123210907e-02,-3.149012103676795959e-02,-2.157346159219741821e-02,-7.646562997251749039e-03,3.815728425979614258e-02,2.783042378723621368e-02,-1.638563908636569977e-02,2.883549779653549194e-02,5.928836297243833542e-03,-5.123434960842132568e-02,-3.749149851500988007e-03,-1.483196509070694447e-03,-4.503313079476356506e-02,3.084025532007217407e-02,1.920829713344573975e-02,1.663404330611228943e-02,3.688001632690429688e-02,2.682722546160221100e-02,1.296770665794610977e-02,-1.240635756403207779e-03,1.354330312460660934e-02,-1.039118040353059769e-03,1.055733417160809040e-03,-4.821864143013954163e-02,1.545688137412071228e-02,-3.469797968864440918e-02,-1.202692091464996338e-02,-2.228925563395023346e-02,-3.202420845627784729e-02,-7.885607331991195679e-02,2.522412687540054321e-02,-9.405781514942646027e-03,-2.562585473060607910e-02,4.167903959751129150e-02,-4.924163594841957092e-02,-1.991603756323456764e-03,9.529388044029474258e-04,3.540780022740364075e-02,-1.934718899428844452e-02,7.059253007173538208e-02,-1.955780945718288422e-02,-5.982228368520736694e-02,-4.739487916231155396e-02,-4.945718869566917419e-02,5.673826206475496292e-03,4.048366099596023560e-03,-1.721753180027008057e-02,-9.274065494537353516e-03,2.497339062392711639e-02,1.910608075559139252e-02,-2.717804722487926483e-02,2.789243310689926147e-02,4.895985499024391174e-02,9.458337910473346710e-03,-8.172871544957160950e-03,-5.005051381886005402e-03,2.932202816009521484e-02,1.127579715102910995e-02,1.437395461834967136e-03,-4.454357549548149109e-02,3.942626062780618668e-03,1.397785078734159470e-02,-5.951448902487754822e-02,-9.235139586962759495e-04,1.847819425165653229e-02,-3.060310892760753632e-02,-1.703436858952045441e-02,5.675616674125194550e-03,-4.906091466546058655e-02,-3.277102485299110413e-02,-3.742207214236259460e-02,-4.593066871166229248e-02,-4.635471850633621216e-03,6.923056207597255707e-03,-1.062754308804869652e-03,-7.929154671728610992e-03,-4.990932717919349670e-02,4.210446774959564209e-02,-7.515756785869598389e-02,-4.782587755471467972e-03,-5.803077481687068939e-03,1.150252297520637512e-02,-1.463434379547834396e-02,3.788422048091888428e-02,1.405623555183410645e-02,4.855322837829589844e-02,2.315745875239372253e-02,2.149414271116256714e-02,-1.008986495435237885e-02,3.378236293792724609e-02
