5.697287619113922119e-03,2.035931218415498734e-03,1.669589057564735413e-02,4.594394937157630920e-03,9.699683636426925659e-03,-9.880134835839271545e-03,9.845237946137785912e-04,-4.885140433907508850e-02,-1.179311331361532211e-02,-4.943621158599853516e-02,8.446166291832923889e-03,-2.412251010537147522e-02,1.753598265349864960e-02,-6.409760098904371262e-03,5.090411286801099777e-04,-4.868739098310470581e-02,5.802045390009880066e-02,1.246881019324064255e-02,-1.495506428182125092e-02,2.846026048064231873e-02,2.738604508340358734e-02,-8.140148711390793324e-04,-2.883374691009521484e-02,3.408657759428024292e-02,1.605654321610927582e-02,2.098336070775985718e-02,2.177489455789327621e-03,-3.085584752261638641e-02,6.486098468303680420e-02,-6.212154868990182877e-03,-1.397727709263563156e-02,-1.302430219948291779e-02,1.382807083427906036e-02,7.321015000343322754e-03,2.581206150352954865e-02,-7.510173134505748749e-03,7.456712424755096436e-02,-6.951393093913793564e-03,4.767697304487228394e-02,-3.424788266420364380e-02,-1.363627519458532333e-02,9.126516059041023254e-03,-6.863010581582784653e-03,-1.691940426826477051e-02,4.613536596298217773e-02,-2.979302220046520233e-02,-8.592148311436176300e-03,-7.804747438058257103e-04,-1.739134453237056732e-02,-1.327376160770654678e-02,-2.733907196670770645e-03,1.358579285442829132e-02,3.442657738924026489e-02,-2.512831613421440125e-02,-2.541854418814182281e-02,4.050844907760620117e-02,-2.190235443413257599e-02,1.289764977991580963e-02,2.615398494526743889e-03,-4.356512427330017090e-02,-6.044918671250343323e-02,3.017024323344230652e-02,-3.033747198060154915e-03,-4.874512180685997009e-02,-4.167185630649328232e-03,-5.461312364786863327e-03,-6.110278423875570297e-03,-1.537696574814617634e-03,2.919656410813331604e-02,2.518770284950733185e-02,-4.082326963543891907e-02,-3.921163734048604965e-03,4.751828685402870178e-02,2.471554279327392578e-02,-2.144605852663516998e-02,-1.478082314133644104e-02,5.461461469531059265e-02,6.321800872683525085e-03,7.097522611729800701e-04,-5.655548884533345699e-04,5.488841794431209564e-03,-4.280655831098556519e-02,9.688014164566993713e-03,4.390854015946388245e-02,1.362422131933271885e-03,-2.422238327562808990e-02,5.951275303959846497e-02,-7.722345762886106968e-04,-9.740795008838176727e-03,-3.246312588453292847e-02,-1.858751103281974792e-02,4.013150185346603394e-02,1.897313259541988373e-02,-3.517306596040725708e-02,7.756450679153203964e-03,-8.999034017324447632e-02,-3.219230845570564270e-02,-8.602110669016838074e-03,2.661608159542083740e-02,-5.513596348464488983e-03,-3.182842582464218140e-02,-8.624115027487277985e-03,-3.342125564813613892e-02,-5.592509172856807709e-03,-1.114418543875217438e-02,-1.327600330114364624e-02,-3.123694472014904022e-02,9.355264715850353241e-03,-1.992283575236797333e-02,3.283651312813162804e-03,3.306976705789566040e-02,2.356781478738412261e-04,-1.092268433421850204e-02,-5.027439445257186890e-03,-2.048869431018829346e-02,-3.616155683994293213e-02,-1.257342007011175156e-02,-5.842399224638938904e-02,3.209238499402999878e-02,9.644825942814350128e-03,-4.863214492797851562e-02,2.650261856615543365e-02,1.473377924412488937e-03,2.034495957195758820e-02,2.122087590396404266e-02,8.784500509500503540e-02,-3.356002271175384521e-02,2.596293017268180847e-02,1.035368721932172775e-02,1.453447900712490082e-02,9.355069696903228760e-02,-4.279392585158348083e-02,-1.986203715205192566e-02,-1.103337109088897705e-02,7.590134441852569580e-02,1.338027790188789368e-02,-1.802792772650718689e-02,-6.729975342750549316e-02,-3.086460195481777191e-02,1.259334478527307510e-02,-1.031262706965208054e-02,-5.206393077969551086e-02,1.581926271319389343e-02,-4.082969855517148972e-03,3.068332560360431671e-02,-1.540861744433641434e-02,4.277571290731430054e-02,-1.778958737850189209e-02,-4.916939884424209595e-03,3.195682913064956665e-02,-1.223573368042707443e-02,-2.616257593035697937e-02,-1.072070095688104630e-02,-1.828821934759616852e-02,1.647158898413181305e-02,2.345173247158527374e-02,8.908871561288833618e-03,1.310699991881847382e-02,-4.055523872375488281e-02,-1.489272993057966232e-02,1.620898395776748657e-02,-2.374409325420856476e-02,2.133337780833244324e-02,-4.666436288971453905e-04,-2.060086280107498169e-02,1.193158980458974838e-02,-2.392117120325565338e-02,5.040282383561134338e-03,5.717083346098661423e-03,8.920116233639419079e-04,-2.102936245501041412e-02,-2.158262580633163452e-02,5.586315412074327469e-03,-1.162339560687541962e-02,4.219491034746170044e-03,-3.054212220013141632e-02,-2.327407337725162506e-02,3.600913286209106445e-02,-2.233225293457508087e-02,-1.074046455323696136e-02,3.023288678377866745e-03,1.527040451765060425e-02,2.762608043849468231e-02,3.840116411447525024e-02,2.271337248384952545e-02,-5.123551189899444580e-02,-4.728934727609157562e-03,5.798062775284051895e-03,1.906812563538551331e-02,-1.223893649876117706e-02,1.059713494032621384e-02,-1.189409568905830383e-02,-2.593952976167201996e-02,-1.008391845971345901e-03,1.536532491445541382e-02,5.085415672510862350e-03,3.857173398137092590e-02,-5.154826864600181580e-02,1.639518328011035919e-02,-1.522573456168174744e-02,2.165036974474787712e-03,2.040913328528404236e-02,-3.783730417490005493e-02,6.235510855913162231e-02,-4.517436493188142776e-03,5.486245080828666687e-02,-1.136102806776762009e-02,2.654828829690814018e-03,1.252345275133848190e-02,-3.254455514252185822e-03,-2.434040233492851257e-02,1.615442149341106415e-02,-3.412342397496104240e-03,-2.944360114634037018e-02,1.243282458744943142e-03,1.038561854511499405e-02,-1.595083624124526978e-03,8.974001556634902954e-02,-1.861826330423355103e-02,3.308254759758710861e-03,-1.941694132983684540e-02,2.493189834058284760e-02,6.706465501338243484e-03,1.274550450034439564e-03,9.220566600561141968e-03,4.632977303117513657e-03,1.005349773913621902e-02,-1.750889606773853302e-02,3.749978030100464821e-03,-2.450302988290786743e-02,-5.890952423214912415e-02,-1.435067132115364075e-02,-1.280520576983690262e-02,4.732485394924879074e-03,-3.794935718178749084e-02,7.220540940761566162e-02,1.285301055759191513e-02,-1.429007947444915771e-02,5.456863902509212494e-03,1.406803075224161148e-02,6.470752996392548084e-04,4.303593654185533524e-03,-2.156601287424564362e-02,-7.621526718139648438e-02,-4.634296521544456482e-03,-2.306039445102214813e-02,-2.501804567873477936e-02,-1.348310243338346481e-02,-1.974195009097456932e-03,-3.532170318067073822e-03,-3.056199476122856140e-02,-1.001175493001937866e-02,-1.024329289793968201e-02,8.466171100735664368e-03,-2.744985371828079224e-02,9.670977480709552765e-03
-2.712282352149486542e-02,-1.571313478052616119e-02,5.429064109921455383e-02,-7.233225274831056595e-03,4.510236531496047974e-02,6.573572754859924316e-02,-1.183868385851383209e-02,-3.578867996111512184e-03,1.802784949541091919e-02,1.196568645536899567e-02,-2.902285568416118622e-02,9.272963553667068481e-02,2.124618552625179291e-02,3.614249080419540405e-02,1.102779433131217957e-02,-1.939254626631736755e-02,-1.622265018522739410e-02,1.317152986302971840e-03,-3.311411663889884949e-02,-1.976472511887550354e-02,7.185918278992176056e-03,-4.969607107341289520e-03,1.362085528671741486e-02,5.739037413150072098e-03,3.911550156772136688e-03,2.997823245823383331e-02,-1.838667504489421844e-02,-1.063776388764381409e-02,4.108831286430358887e-02,1.570072397589683533e-02,-5.645242705941200256e-02,3.053594939410686493e-02,-3.583435714244842529e-02,-2.199251018464565277e-02,1.230580639094114304e-02,-1.405343320220708847e-02,4.324097651988267899e-03,-8.826453983783721924e-02,6.538690067827701569e-03,9.531056508421897888e-03,1.717829331755638123e-02,3.161702305078506470e-02,-5.784717202186584473e-02,-2.045835554599761963e-02,-3.740572184324264526e-02,-9.424099326133728027e-02,1.672358368523418903e-03,-2.446365915238857269e-02,5.381128937005996704e-02,5.165721289813518524e-03,1.414689421653747559e-02,-1.049406453967094421e-02,-5.591358244419097900e-02,-2.120766788721084595e-02,7.266510277986526489e-02,2.345301024615764618e-02,5.752150900661945343e-03,2.576126903295516968e-02,1.246090233325958252e-02,2.604375965893268585e-02,-5.318131297826766968e-02,-2.582096122205257416e-02,-4.334906488656997681e-02,5.217041447758674622e-02,4.970761388540267944e-02,-2.243031561374664307e-02,-8.203343488276004791e-03,7.424275972880423069e-04,-1.119600143283605576e-02,-3.646602854132652283e-02,4.107131808996200562e-02,-8.539387956261634827e-03,5.838028341531753540e-02,-1.834426075220108032e-02,3.830295288935303688e-03,-5.178881436586380005e-02,-5.532985553145408630e-03,3.801649436354637146e-02,4.961580410599708557e-02,8.553382940590381622e-03,8.053173311054706573e-03,3.855310380458831787e-02,-2.131161978468298912e-03,2.616159804165363312e-02,-3.743601846508681774e-04,-1.959640532732009888e-02,-2.701231278479099274e-02,4.079257603734731674e-03,4.224870353937149048e-03,-6.591425742954015732e-03,-2.127904444932937622e-02,-2.504593878984451294e-02,-1.661596074700355530e-02,-6.333380937576293945e-03,-2.169532142579555511e-02,-1.399031933397054672e-02,2.101974375545978546e-02,-1.028005778789520264e-01,5.457133427262306213e-02,-7.384733762592077255e-03,4.394710529595613480e-03,-3.097867779433727264e-02,7.329105585813522339e-02,-1.609488949179649353e-02,1.073297578841447830e-02,2.065039612352848053e-02,-6.175843998789787292e-02,1.637819781899452209e-02,9.239602368324995041e-04,-6.931013613939285278e-02,5.204151384532451630e-03,5.858308076858520508e-02,-3.242285177111625671e-02,-1.105340942740440369e-02,1.078482600860297680e-03,-1.431751437485218048e-02,-4.607636854052543640e-02,-2.530634030699729919e-02,2.566575445234775543e-02,2.150769531726837158e-02,-5.069378763437271118e-02,-4.558051377534866333e-02,-4.090145602822303772e-02,2.678357763215899467e-03,-6.925326585769653320e-02,-4.909719899296760559e-02,1.242500264197587967e-02,3.592747962102293968e-03,-7.969374768435955048e-03,-5.923672020435333252e-02,-7.012628950178623199e-03,1.564413309097290039e-03,1.738812960684299469e-02,1.809976249933242798e-02,5.328587256371974945e-03,2.613214217126369476e-02,-5.263669043779373169e-02,-6.783564109355211258e-03,-2.962637506425380707e-02,1.274571660906076431e-02,-4.369870573282241821e-02,-2.327648736536502838e-02,5.506709218025207520e-02,-7.216691505163908005e-03,-1.700040884315967560e-02,2.960287593305110931e-02,2.150550857186317444e-02,4.179465584456920624e-03,2.201223932206630707e-02,-5.294845905154943466e-03,-2.112465910613536835e-03,7.797129452228546143e-02,-3.134698793292045593e-02,3.623494179919362068e-03,-5.055697262287139893e-02,2.360377460718154907e-02,-2.789304219186306000e-02,-2.799092605710029602e-02,1.156153995543718338e-02,-8.629485219717025757e-02,-8.544421754777431488e-03,7.738566957414150238e-03,6.066750735044479370e-02,-2.807036601006984711e-02,2.245740219950675964e-02,-2.850157953798770905e-02,-2.030119486153125763e-02,-1.504013687372207642e-02,-6.413619033992290497e-03,-1.242011692374944687e-02,-1.909225061535835266e-02,1.326221376657485962e-01,-1.970811933279037476e-02,-2.287817001342773438e-02,-3.402287140488624573e-02,-1.569605991244316101e-02,-5.731394141912460327e-02,1.606032811105251312e-02,5.100127775222063065e-03,-1.910932175815105438e-02,1.778564881533384323e-03,-3.986625000834465027e-03,-1.042433176189661026e-02,-7.818230427801609039e-03,1.289405301213264465e-02,-9.563697129487991333e-02,-1.991865038871765137e-02,-9.764344245195388794e-02,-2.509736642241477966e-02,4.621638357639312744e-02,7.271423190832138062e-02,-3.067487664520740509e-02,2.200256660580635071e-02,2.504061348736286163e-02,1.680353470146656036e-02,-7.019905373454093933e-03,-1.368749514222145081e-02,-1.779018715023994446e-02,1.662682183086872101e-02,6.710576359182596207e-03,3.442205488681793213e-02,1.753154397010803223e-02,8.118216879665851593e-03,1.978750154376029968e-02,5.415925290435552597e-03,-2.438447251915931702e-02,6.371201574802398682e-02,-2.078793570399284363e-02,2.342494763433933258e-02,7.644205819815397263e-03,3.514014557003974915e-02,-2.300066128373146057e-02,-6.533577293157577515e-02,2.915978245437145233e-02,-8.270232006907463074e-03,1.005657762289047241e-02,-2.655800804495811462e-02,8.348628878593444824e-02,-2.100134082138538361e-02,4.307278431951999664e-03,-1.107267513871192932e-01,-6.509210169315338135e-02,2.254166826605796814e-02,3.518234938383102417e-02,1.750268600881099701e-02,1.860058307647705078e-02,3.251591324806213379e-02,2.149606496095657349e-02,2.273002639412879944e-02,4.422222846187651157e-04,-6.241521798074245453e-03,-1.013415306806564331e-02,6.344950525090098381e-04,4.269928112626075745e-02,3.177867969498038292e-03,-5.147369205951690674e-02,3.520552814006805420e-02,-4.031223058700561523e-02,1.195840071886777878e-02,1.123369392007589340e-02,2.554239146411418915e-02,-5.287205334752798080e-03,1.739704050123691559e-02,2.703403681516647339e-02,1.107279583811759949e-02,2.476664632558822632e-02,-5.166347604244947433e-03,2.825330011546611786e-03,-2.921504667028784752e-03,3.020917298272252083e-03,-1.432731631211936474e-03,1.674194820225238800e-02,3.596855560317635536e-03,-2.063065581023693085e-02,-3.079309500753879547e-02,1.322831143625080585e-03
-5.231544375419616699e-02,-3.529375791549682617e-02,3.942345455288887024e-02,-2.022294560447335243e-03,9.635409340262413025e-03,7.362606376409530640e-02,2.888955734670162201e-02,-1.055619772523641586e-02,-3.470277413725852966e-02,-5.925557389855384827e-02,2.510563097894191742e-02,3.624572604894638062e-02,3.409952670335769653e-02,1.157234329730272293e-02,3.712431062012910843e-03,-2.760764956474304199e-02,5.613631568849086761e-03,5.966152995824813843e-02,4.627572745084762573e-02,2.368634380400180817e-02,-3.441285714507102966e-02,3.531922772526741028e-02,1.180918235331773758e-02,-1.009440980851650238e-02,-5.861828103661537170e-03,-1.799957454204559326e-02,-3.456249833106994629e-02,-1.362193841487169266e-03,5.476889759302139282e-02,2.032428048551082611e-02,-3.598667681217193604e-02,1.351942121982574463e-02,3.164838254451751709e-02,2.004718780517578125e-02,-6.965601444244384766e-02,-3.621403127908706665e-02,-1.564724557101726532e-02,-2.969099953770637512e-02,-3.394883498549461365e-02,2.227497287094593048e-02,-4.430088400840759277e-02,1.177303213626146317e-02,-6.258919090032577515e-02,5.737482011318206787e-02,-1.327434529230231419e-05,2.354992926120758057e-02,-3.852208377793431282e-03,1.107739843428134918e-02,1.456854399293661118e-02,7.706400472670793533e-03,1.018009707331657410e-02,-1.274332776665687561e-02,-1.208467292599380016e-03,-1.734464243054389954e-02,3.242636099457740784e-02,4.337625950574874878e-02,6.405016034841537476e-02,-5.570068955421447754e-02,7.825580984354019165e-02,-6.097022071480751038e-02,-6.286848336458206177e-02,-4.326380789279937744e-02,1.641640625894069672e-02,3.083272837102413177e-02,-2.493548672646284103e-04,-7.865914702415466309e-02,-1.780889183282852173e-02,-2.260675095021724701e-02,3.611474111676216125e-02,-5.887017771601676941e-02,5.176009144634008408e-04,3.759251534938812256e-02,-2.636850997805595398e-02,1.320179551839828491e-02,1.411380432546138763e-02,-3.420927375555038452e-02,2.264425903558731079e-02,2.999928593635559082e-02,-2.236623503267765045e-02,-4.343901202082633972e-02,6.566692888736724854e-02,4.130735993385314941e-03,-1.882903277873992920e-02,1.845834590494632721e-02,-1.047376636415719986e-02,1.277744071558117867e-03,2.427292242646217346e-02,-8.150150999426841736e-03,-6.422533770091831684e-04,9.974362701177597046e-02,-7.257861550897359848e-03,7.117978762835264206e-03,-4.023764282464981079e-02,8.044607192277908325e-02,-3.440096601843833923e-02,-3.069642931222915649e-02,3.800985636189579964e-03,9.045620448887348175e-03,-1.180453691631555557e-02,-2.991532348096370697e-02,1.698691956698894501e-02,6.528598070144653320e-02,2.732739411294460297e-02,1.553406752645969391e-02,6.111929938197135925e-02,-2.625425346195697784e-02,-7.215640973299741745e-03,-2.005609124898910522e-02,-1.458550803363323212e-02,-5.138569511473178864e-03,-4.398585483431816101e-02,-8.424302213825285435e-04,-2.643786557018756866e-02,-1.978517509996891022e-03,2.371729817241430283e-03,1.185264554806053638e-03,-5.724313482642173767e-02,1.231213007122278214e-02,-3.851962834596633911e-02,3.788586705923080444e-02,7.046198006719350815e-03,4.415486380457878113e-02,7.501590996980667114e-02,6.332825124263763428e-02,5.811068415641784668e-02,-5.053007230162620544e-02,7.513626012951135635e-03,8.892363868653774261e-03,-4.603839293122291565e-02,-2.280086092650890350e-02,4.150201752781867981e-02,-4.481492564082145691e-03,-4.800016060471534729e-02,2.653297968208789825e-02,-1.622508838772773743e-02,6.627211347222328186e-03,-3.965388517826795578e-03,-3.022765368223190308e-02,-4.597811773419380188e-02,4.877513647079467773e-02,-8.168226107954978943e-03,-2.932741306722164154e-03,1.659639552235603333e-02,-2.506310120224952698e-02,-2.330396138131618500e-02,-1.637710817158222198e-02,-1.124216150492429733e-02,1.957348734140396118e-02,-5.199331417679786682e-02,-3.924851492047309875e-02,-3.264884278178215027e-02,-8.430126309394836426e-02,2.807581052184104919e-02,-5.304086208343505859e-02,4.581407457590103149e-02,-3.736577555537223816e-02,3.498869761824607849e-02,6.499769538640975952e-02,-1.357442699372768402e-02,-3.203910216689109802e-02,2.040180750191211700e-02,-1.596162468194961548e-02,1.655646972358226776e-02,6.738816737197339535e-04,3.279507532715797424e-02,-3.369633853435516357e-02,-6.685205735266208649e-03,1.374816056340932846e-03,4.528385028243064880e-02,8.116820827126502991e-03,-1.650397665798664093e-02,-1.520569715648889542e-02,2.443293668329715729e-02,-3.812046954408288002e-03,-2.586132101714611053e-02,-1.184453140012919903e-03,-1.208705641329288483e-02,1.748108118772506714e-02,-2.752877026796340942e-02,-5.018028616905212402e-02,4.828144237399101257e-02,5.525284446775913239e-03,-4.382751137018203735e-02,1.451916620135307312e-02,-5.332398042082786560e-02,-1.875410415232181549e-02,6.001739203929901123e-02,6.973414868116378784e-02,-1.600945554673671722e-02,6.147831678390502930e-03,-3.279383853077888489e-02,6.983094383031129837e-03,1.655793190002441406e-02,-5.319237709045410156e-02,-2.984156459569931030e-02,4.871492739766836166e-03,2.862301096320152283e-02,1.309112273156642914e-02,3.911383077502250671e-02,1.096263807266950607e-02,1.739536039531230927e-02,4.622573615051805973e-04,2.938941121101379395e-02,-1.445791311562061310e-02,1.477524917572736740e-02,5.988898687064647675e-03,3.973998501896858215e-02,-4.134921357035636902e-02,5.934490356594324112e-03,-2.351526170969009399e-02,4.286625608801841736e-02,-5.330536141991615295e-02,-7.874208502471446991e-03,1.369341462850570679e-02,-6.616263650357723236e-03,-1.973935961723327637e-02,4.801654070615768433e-02,-4.075992852449417114e-02,-4.761710017919540405e-02,4.539530724287033081e-02,1.908149011433124542e-02,9.145625866949558258e-03,-3.798477584496140480e-03,-4.203934967517852783e-02,-4.934998974204063416e-02,4.536022245883941650e-02,3.925239294767379761e-02,-2.971030585467815399e-02,2.950773341581225395e-03,-1.300982944667339325e-02,-4.252256825566291809e-03,-1.864333637058734894e-02,-1.200475916266441345e-02,4.406656697392463684e-02,5.465374141931533813e-02,3.866429254412651062e-02,9.188978001475334167e-03,-7.378294598311185837e-03,-4.589727148413658142e-02,1.194049976766109467e-02,-5.189236719161272049e-03,1.539187226444482803e-02,-4.095199704170227051e-02,-8.087103255093097687e-03,-3.142281249165534973e-02,-1.671226881444454193e-02,-2.521015517413616180e-02,3.533080965280532837e-02,2.730371244251728058e-02,2.623077295720577240e-02,-3.143898397684097290e-02,-3.756335377693176270e-02,-2.523838542401790619e-02,-3.816051036119461060e-02,-2.638505026698112488e-02,-4.427228122949600220e-02
-8.187361061573028564e-03,-7.174908369779586792e-02,-1.251990906894207001e-02,5.882501229643821716e-02,-1.568077714182436466e-03,2.798793613910675049e-01,2.644509449601173401e-02,2.044458128511905670e-02,7.692985702306032181e-03,1.597288995981216431e-02,-2.275602892041206360e-02,-6.555967964231967926e-03,-1.176433917135000229e-02,-1.021743845194578171e-02,2.049565315246582031e-02,-1.923619024455547333e-02,-1.307822670787572861e-02,1.051914878189563751e-02,-1.138564571738243103e-02,-3.454592544585466385e-03,-1.265741791576147079e-02,-1.165937259793281555e-02,7.143602706491947174e-03,-2.641212940216064453e-02,-2.172078564763069153e-02,2.348758280277252197e-03,2.052916586399078369e-02,1.166256377473473549e-03,-2.606735564768314362e-02,-3.466348350048065186e-02,3.983393311500549316e-02,-2.698658220469951630e-02,7.463537901639938354e-02,7.980985194444656372e-02,1.374320243485271931e-03,-7.726424373686313629e-03,-6.334538105875253677e-03,3.539256379008293152e-02,-2.464394830167293549e-02,6.610491126775741577e-02,2.327439375221729279e-02,-2.749467268586158752e-02,3.981324285268783569e-02,-8.109526336193084717e-02,-6.337022036314010620e-02,2.751993306446820498e-04,-7.076703477650880814e-03,7.149686105549335480e-03,-1.466198731213808060e-02,-1.805949839763343334e-03,-3.375076130032539368e-02,1.057035103440284729e-02,3.371506556868553162e-02,5.291281640529632568e-02,-2.381259016692638397e-02,-4.155709873884916306e-03,-1.688542310148477554e-03,-1.512944512069225311e-02,-1.551468158140778542e-03,-6.170953065156936646e-02,1.525709219276905060e-02,-7.890054583549499512e-02,-1.455847360193729401e-02,-8.405678905546665192e-03,4.440718796104192734e-03,2.512318640947341919e-02,3.609055653214454651e-02,-1.762873679399490356e-02,-1.580244861543178558e-02,-4.844177979975938797e-03,7.180567830801010132e-02,-6.242113932967185974e-02,3.307450562715530396e-02,1.666375622153282166e-02,-1.771573908627033234e-02,2.127215638756752014e-02,-7.417956367135047913e-03,1.980085857212543488e-02,-2.564177103340625763e-02,-1.589957624673843384e-02,4.700430482625961304e-02,-8.832174539566040039e-02,-2.921565063297748566e-02,-1.379108428955078125e-02,1.009079255163669586e-02,-6.373870652168989182e-03,-1.352842431515455246e-03,3.075295826420187950e-03,-6.630644667893648148e-03,1.760616782121360302e-03,5.719844624400138855e-02,-1.247860025614500046e-03,6.251594051718711853e-03,4.303386900573968887e-03,5.839369818568229675e-02,-8.052822947502136230e-02,-5.290402099490165710e-03,2.020517550408840179e-02,3.777806460857391357e-02,1.227582804858684540e-02,1.830984465777873993e-02,4.395365342497825623e-02,-3.203894710168242455e-03,3.176245838403701782e-02,2.068199403584003448e-02,-3.074774751439690590e-03,7.888446003198623657e-02,3.897547721862792969e-03,-1.008285675197839737e-02,7.858388125896453857e-03,-3.698428045026957989e-04,-7.419092208147048950e-02,4.113595001399517059e-03,-1.729186438024044037e-02,9.414995089173316956e-03,5.636685527861118317e-03,-5.522353574633598328e-03,5.709021352231502533e-03,-1.616865582764148712e-02,8.360613137483596802e-03,1.140010263770818710e-02,-9.818657999858260155e-04,-8.820446208119392395e-03,-4.188781976699829102e-02,8.884989656507968903e-03,1.597822085022926331e-02,-2.725481754168868065e-03,2.540426515042781830e-02,9.382928721606731415e-03,-1.692646928131580353e-02,-2.550349570810794830e-03,-2.969732508063316345e-02,1.890224777162075043e-02,2.619295939803123474e-02,2.343687042593955994e-02,6.890182849019765854e-03,-4.921625554561614990e-02,-3.376448899507522583e-02,-1.731500774621963501e-02,-1.229979470372200012e-02,-8.144489675760269165e-02,1.652694679796695709e-02,2.077318727970123291e-02,2.869821526110172272e-02,-4.437080398201942444e-02,3.479215083643794060e-03,2.846225630491971970e-03,-3.506784886121749878e-02,-1.846963725984096527e-02,-9.866181062534451485e-04,-6.256679072976112366e-03,-5.936696380376815796e-02,1.260746568441390991e-01,-1.714722439646720886e-02,1.641125301830470562e-03,1.342170592397451401e-02,-1.209522131830453873e-02,6.651873886585235596e-02,-2.684156410396099091e-02,-6.454033777117729187e-03,1.073870342224836349e-02,-9.513921104371547699e-03,1.973734050989151001e-02,2.269162051379680634e-02,4.269443918019533157e-03,1.465852744877338409e-02,-1.068566925823688507e-02,3.008121438324451447e-02,1.288742478936910629e-02,-4.622390493750572205e-02,-4.570496268570423126e-03,-5.758874583989381790e-03,1.678680628538131714e-02,-2.265232615172863007e-02,-7.980199530720710754e-03,-1.296665612608194351e-02,-5.046873353421688080e-03,2.107064612209796906e-02,-3.514697775244712830e-03,2.234359830617904663e-02,-2.470550872385501862e-02,2.931962907314300537e-02,1.971859857439994812e-02,-2.393645420670509338e-02,-2.874757908284664154e-02,4.545156285166740417e-02,3.606234863400459290e-02,1.702467165887355804e-02,-1.347893103957176208e-02,-1.360820978879928589e-02,4.047412658110260963e-04,-4.708105325698852539e-02,-1.422870997339487076e-02,1.310555487871170044e-01,-4.771100357174873352e-02,3.677764907479286194e-02,1.650596410036087036e-02,-1.616383902728557587e-02,-1.014219503849744797e-02,-7.514708559028804302e-04,-1.864821300841867924e-03,3.028183476999402046e-03,9.760438650846481323e-02,-4.173486027866601944e-03,1.008342485874891281e-02,2.503306604921817780e-02,5.716162733733654022e-03,6.654121913015842438e-03,-7.434161752462387085e-02,-2.202770672738552094e-02,-7.157192565500736237e-03,-3.122537955641746521e-02,9.262290783226490021e-03,3.131100907921791077e-03,1.168993581086397171e-02,-8.557974360883235931e-03,5.849835928529500961e-03,-1.011199131608009338e-01,-3.865354135632514954e-02,-6.542441900819540024e-03,2.639613114297389984e-02,5.027436092495918274e-02,-4.418182373046875000e-02,-8.718137629330158234e-03,5.187137052416801453e-03,-1.379602309316396713e-02,1.078907120972871780e-02,-2.138769999146461487e-02,1.933747343719005585e-02,1.566219434607774019e-04,-3.188580507412552834e-03,5.374957248568534851e-02,-3.597344085574150085e-02,-3.797980723902583122e-03,-1.700512692332267761e-02,-5.271267518401145935e-02,9.681958705186843872e-03,3.631786257028579712e-02,-7.479445636272430420e-02,-6.013368442654609680e-02,7.568898051977157593e-02,1.133904512971639633e-02,1.019764319062232971e-02,-2.327522821724414825e-02,1.260741427540779114e-02,4.734014626592397690e-03,-2.375024370849132538e-03,2.421821840107440948e-02,-1.110294368118047714e-02,3.190496191382408142e-02,4.571342375129461288e-03,-4.933216050267219543e-02,-7.278669159859418869e-03,1.910291053354740143e-02,-7.963406853377819061e-03,2.759259194135665894e-02
3.347996249794960022e-02,2.448235824704170227e-02,-4.015138000249862671e-02,-1.696092542260885239e-03,-3.090699017047882080e-02,-3.512781113386154175e-02,2.206071093678474426e-02,1.012676302343606949e-02,-1.931097917258739471e-02,-1.650351285934448242e-02,-2.578285895287990570e-02,1.195651199668645859e-02,-1.164468284696340561e-02,-3.043006733059883118e-02,4.417736083269119263e-02,-3.565510734915733337e-02,-8.469802327454090118e-03,-9.823161177337169647e-03,3.535797819495201111e-02,3.173767775297164917e-02,-4.790122155100107193e-03,-2.257742919027805328e-02,-5.643454380333423615e-03,-1.184789184480905533e-02,-3.079442307353019714e-02,2.818230725824832916e-02,-1.087727956473827362e-02,-1.448405999690294266e-02,1.611886359751224518e-02,1.096792798489332199e-02,-1.099744066596031189e-02,6.144207436591386795e-03,-3.693420067429542542e-02,-1.019228063523769379e-02,1.737793534994125366e-02,-3.513291943818330765e-03,-3.023769892752170563e-02,1.378164160996675491e-02,-3.425607085227966309e-02,-3.133889287710189819e-02,1.438059192150831223e-02,2.318078419193625450e-03,-1.668248791247606277e-03,1.938225701451301575e-02,1.995041035115718842e-02,-1.102082896977663040e-02,1.786619052290916443e-02,-6.716431677341461182e-02,-2.157715149223804474e-02,-1.831563748419284821e-02,-4.046319797635078430e-02,3.766867518424987793e-02,-3.232150571420788765e-03,-1.448849868029356003e-02,-6.107327993959188461e-03,-1.706291735172271729e-02,2.154374727979302406e-03,3.050087392330169678e-02,2.215441782027482986e-03,-1.439582370221614838e-02,-5.350952595472335815e-02,-1.357669010758399963e-03,1.209300942718982697e-02,-1.259522326290607452e-02,-2.211857587099075317e-02,-4.432800225913524628e-03,1.184592396020889282e-02,-1.389089692384004593e-02,4.268015269190073013e-03,-2.570548560470342636e-03,7.431847974658012390e-03,-1.776915788650512695e-02,-4.864152055233716965e-03,-3.118550870567560196e-03,-3.541353857144713402e-03,-6.612884812057018280e-03,3.363690804690122604e-03,1.662302762269973755e-02,7.246079295873641968e-02,4.085439722985029221e-03,7.168588694185018539e-03,1.015613693743944168e-02,4.124498367309570312e-02,1.979945786297321320e-02,-4.538036417216062546e-03,5.135656520724296570e-02,2.646929025650024414e-02,9.758688509464263916e-03,-1.538877002894878387e-02,1.929585635662078857e-02,-1.102183666080236435e-02,1.974142901599407196e-02,-2.888560108840465546e-02,-1.851885952055454254e-02,3.072400949895381927e-02,3.117303736507892609e-02,4.962290078401565552e-02,-1.434426754713058472e-02,-1.391030382364988327e-02,-3.458002209663391113e-02,-1.133420970290899277e-02,-4.368229303508996964e-03,4.877735674381256104e-02,6.112018134444952011e-03,-7.225629407912492752e-03,1.287541165947914124e-02,-4.755702987313270569e-02,-2.445779368281364441e-02,-3.000594303011894226e-02,1.563016697764396667e-02,3.126525506377220154e-02,6.534174084663391113e-02,-2.040007151663303375e-02,-2.920992113649845123e-02,7.121885661035776138e-03,5.375243350863456726e-02,-1.916338689625263214e-02,-2.348616905510425568e-02,-4.906015470623970032e-03,3.896344080567359924e-02,-4.883938003331422806e-03,-2.505776472389698029e-03,-1.905057951807975769e-02,2.169175259768962860e-02,1.624781638383865356e-02,9.005652740597724915e-03,7.697451655985787511e-05,3.321591019630432129e-02,-2.984178625047206879e-02,2.406800165772438049e-02,-8.572929655201733112e-04,1.052383519709110260e-02,-1.206760853528976440e-02,-1.267028693109750748e-02,5.692267417907714844e-02,3.103378415107727051e-02,7.030034437775611877e-03,-1.996269077062606812e-02,4.443646222352981567e-02,1.592375570908188820e-03,-3.631597757339477539e-02,-3.063819371163845062e-03,5.508276633918285370e-03,1.085625868290662766e-02,-2.653476316481828690e-03,2.964472165331244469e-03,1.399218803271651268e-03,3.332002088427543640e-02,5.093667656183242798e-03,2.949329093098640442e-02,-9.428014047443866730e-03,-2.383174933493137360e-02,3.644961491227149963e-02,3.646247088909149170e-03,7.938151247799396515e-03,4.092744737863540649e-02,4.159838333725929260e-02,3.466026112437248230e-02,-1.011191494762897491e-02,7.388819940388202667e-03,-8.887564763426780701e-03,-5.703265313059091568e-03,-8.537914603948593140e-03,8.264026604592800140e-03,3.527361666783690453e-03,2.566661313176155090e-02,-1.268135663121938705e-02,3.417735174298286438e-02,3.807975677773356438e-03,-1.027169823646545410e-02,-1.124504301697015762e-02,3.315177559852600098e-02,-3.791797207668423653e-03,5.871501751244068146e-03,-1.939723879331722856e-04,4.068326577544212341e-02,1.623292337171733379e-03,5.380516499280929565e-02,-7.604798767715692520e-03,7.844537496566772461e-03,-1.637839525938034058e-02,4.779832437634468079e-03,2.778251655399799347e-02,3.002567775547504425e-02,3.060045465826988220e-02,1.154570095241069794e-02,4.866998351644724607e-04,-3.129003942012786865e-02,4.814223945140838623e-02,-2.862947294488549232e-03,7.550082355737686157e-02,9.122950956225395203e-03,-1.892515644431114197e-02,-3.657597303390502930e-02,3.771749138832092285e-02,1.808337494730949402e-02,-2.585808187723159790e-02,2.934635803103446960e-02,4.242271557450294495e-02,8.059012703597545624e-03,1.353582134470343590e-03,2.086515538394451141e-03,-4.289481730666011572e-04,1.260679797269403934e-03,-1.114264130592346191e-02,-2.361582964658737183e-02,2.072682604193687439e-03,4.415459930896759033e-03,6.708608567714691162e-02,-1.011776458472013474e-02,2.429691667202860117e-04,4.056968167424201965e-02,-4.384413734078407288e-02,-3.016700036823749542e-03,-8.581370115280151367e-03,3.966090828180313110e-02,-4.027665592730045319e-03,3.065960016101598740e-03,4.231550917029380798e-02,1.917376182973384857e-02,-4.298979789018630981e-02,-1.516966056078672409e-02,-3.871367871761322021e-02,-2.084217593073844910e-02,3.286256454885005951e-03,1.656839996576309204e-02,2.059544250369071960e-02,-9.404798038303852081e-04,9.595677256584167480e-03,-2.435916475951671600e-02,3.272424638271331787e-02,-3.633281961083412170e-02,3.612851351499557495e-02,5.384948570281267166e-03,8.147026598453521729e-02,-1.910802721977233887e-02,1.322700642049312592e-02,-4.105398058891296387e-02,-2.546908520162105560e-02,3.940944001078605652e-02,-6.534378975629806519e-02,1.848165690898895264e-02,-1.820652000606060028e-02,2.487735264003276825e-02,-6.480705924332141876e-03,1.355352625250816345e-02,1.464926451444625854e-02,-5.736405402421951294e-02,-9.761227294802665710e-03,5.216603167355060577e-03,-9.861248545348644257e-04,1.795678213238716125e-02,-3.502294048666954041e-02,-8.802902884781360626e-03,-9.711834602057933807e-03,2.044929563999176025e-02
-1.529113017022609711e-02,-1.887659309431910515e-03,2.975955046713352203e-02,2.626793645322322845e-02,6.333832629024982452e-03,-1.115734875202178955e-02,9.052060544490814209e-03,-2.635262534022331238e-02,-1.222018338739871979e-02,6.957910954952239990e-02,3.682499006390571594e-02,-3.258515615016222000e-03,-2.305967546999454498e-02,4.911581799387931824e-02,-1.146076340228319168e-02,-2.568850480020046234e-02,4.275728762149810791e-02,-6.758905015885829926e-03,1.816840656101703644e-02,2.092761173844337463e-02,8.755507878959178925e-04,-2.250695414841175079e-02,-1.473517809063196182e-02,3.716504201292991638e-02,1.318222749978303909e-02,-4.323568660765886307e-03,-7.789162918925285339e-03,-4.646015167236328125e-02,-9.181109815835952759e-02,1.639019884169101715e-02,-2.563668414950370789e-02,2.467316575348377228e-02,1.734711602330207825e-02,-3.717924654483795166e-02,2.933524083346128464e-03,-1.341751124709844589e-02,-2.441849745810031891e-02,3.692830912768840790e-03,5.537736695259809494e-03,-1.853675814345479012e-03,1.557997986674308777e-02,1.098347734659910202e-02,-2.191355824470520020e-02,-2.638031356036663055e-02,-4.839396104216575623e-03,3.499131277203559875e-02,7.949083112180233002e-03,-4.492692649364471436e-02,-6.057210266590118408e-02,-2.585688419640064240e-02,1.969282515347003937e-02,2.112877741456031799e-02,3.818432986736297607e-02,3.598086535930633545e-02,-2.107929252088069916e-02,-5.062956735491752625e-02,2.079425845295190811e-03,1.389947347342967987e-02,3.186146914958953857e-02,-2.531735785305500031e-02,-9.024902246892452240e-03,5.820034816861152649e-02,2.597108250483870506e-03,-1.548403594642877579e-02,3.778471052646636963e-02,2.786920778453350067e-02,1.338013913482427597e-02,7.231130264699459076e-03,3.836009278893470764e-02,1.577611453831195831e-02,5.570473149418830872e-02,1.284791529178619385e-02,1.106654852628707886e-02,2.235106192529201508e-02,1.078916341066360474e-02,-1.496529858559370041e-02,-8.156440220773220062e-03,-1.244981685886159539e-04,-7.836718112230300903e-03,-3.990333154797554016e-02,1.951661519706249237e-02,3.199353441596031189e-02,-3.000494325533509254e-03,-1.030592154711484909e-02,1.590119674801826477e-02,-1.897686719894409180e-02,1.373854931443929672e-02,-1.291041029617190361e-03,1.912216655910015106e-02,-1.085153669118881226e-01,-1.191001012921333313e-02,-2.046207338571548462e-02,3.401339799165725708e-02,-4.798777867108583450e-03,-8.684364706277847290e-02,3.234717622399330139e-02,-1.520610600709915161e-02,-1.322576124221086502e-02,-5.072054453194141388e-03,-3.474286757409572601e-03,-2.065109554678201675e-03,1.320741232484579086e-02,2.787068858742713928e-02,7.241851650178432465e-03,8.543013595044612885e-03,2.644165761012118310e-06,-4.331400990486145020e-02,1.358490623533725739e-02,1.310592424124479294e-02,-5.655406787991523743e-02,2.689328789710998535e-02,2.431256696581840515e-02,-3.756476566195487976e-02,-2.370643056929111481e-02,-1.732669770717620850e-02,4.199398308992385864e-02,-6.797109264880418777e-03,-2.181024290621280670e-02,6.356707960367202759e-02,1.670264638960361481e-02,-3.903688117861747742e-02,4.717792326118797064e-04,2.278963103890419006e-02,3.301984816789627075e-02,3.637260571122169495e-02,-4.372068494558334351e-02,5.095353699289262295e-04,-2.639489434659481049e-02,1.129554957151412964e-02,2.629472687840461731e-02,-4.613484069705009460e-02,-1.809816248714923859e-02,-9.240864776074886322e-03,-1.083557400852441788e-02,-2.352529950439929962e-02,2.174958772957324982e-02,3.414808213710784912e-02,-4.957535862922668457e-02,1.453456841409206390e-02,-1.518738456070423126e-02,3.489597886800765991e-02,3.901410615071654320e-03,-4.920245148241519928e-03,-2.979088202118873596e-02,4.047438502311706543e-02,-2.586550638079643250e-02,-3.068415261805057526e-02,1.931957527995109558e-02,-3.984923660755157471e-02,-5.236933007836341858e-03,2.383805252611637115e-02,9.667725302278995514e-03,2.555459178984165192e-02,-2.781005576252937317e-02,-5.592350289225578308e-02,-9.784409776329994202e-03,-6.427229940891265869e-02,-4.688498005270957947e-02,7.212924305349588394e-03,-3.924527764320373535e-02,-2.021546009927988052e-03,-3.095781989395618439e-02,-8.528915047645568848e-02,3.205535002052783966e-03,-5.104934098199009895e-04,-3.992158174514770508e-02,5.321866367012262344e-03,-2.292971359565854073e-03,2.797995880246162415e-02,1.963659189641475677e-02,-2.781609632074832916e-02,-3.789159283041954041e-02,-1.684951409697532654e-02,-2.908141911029815674e-02,-5.348059814423322678e-03,7.201042491942644119e-03,-4.445009864866733551e-03,5.204052850604057312e-02,-3.509037196636199951e-02,2.073192596435546875e-02,-1.351956836879253387e-02,-4.406001046299934387e-02,-5.742296949028968811e-02,-5.969368852674961090e-03,-6.054027006030082703e-03,3.072514571249485016e-02,5.561908707022666931e-02,2.609466202557086945e-02,2.353478409349918365e-02,4.110997915267944336e-02,-2.527127787470817566e-02,-5.403889343142509460e-03,-2.175582759082317352e-02,-5.977842211723327637e-02,-2.683743089437484741e-02,1.565065979957580566e-02,-1.991852372884750366e-02,8.092928677797317505e-02,-9.562785737216472626e-03,-4.748335573822259903e-03,1.118133869022130966e-02,-1.381185930222272873e-02,8.451986126601696014e-03,-4.487785324454307556e-02,1.962307654321193695e-02,-3.251442685723304749e-02,3.583061695098876953e-02,-6.403975933790206909e-02,1.788434386253356934e-02,-1.121810078620910645e-02,-2.489299699664115906e-02,-2.721033059060573578e-02,2.088422141969203949e-02,-2.987550944089889526e-02,-2.996433340013027191e-02,7.213976699858903885e-03,1.150097791105508804e-02,6.175163201987743378e-03,1.821270585060119629e-02,-2.302155084908008575e-02,1.237898599356412888e-03,-2.397457510232925415e-02,-3.511301055550575256e-02,4.752858728170394897e-02,-2.946229185909032822e-03,-4.626042209565639496e-03,2.708475105464458466e-02,-2.128184586763381958e-02,3.023203834891319275e-02,5.795586481690406799e-02,3.598293522372841835e-03,2.772936783730983734e-02,3.512249514460563660e-02,-1.004266366362571716e-02,6.140210479497909546e-02,-2.587785199284553528e-02,4.818322882056236267e-02,-3.147072345018386841e-02,-1.725480519235134125e-02,-5.364727228879928589e-03,9.633434005081653595e-03,-8.871968835592269897e-03,2.032527141273021698e-02,4.919212311506271362e-02,7.695808075368404388e-03,-1.165385916829109192e-02,5.813429504632949829e-02,-3.291950747370719910e-02,-2.215928025543689728e-02,-2.025781571865081787e-02,-3.533497080206871033e-02,-1.093110162764787674e-02,-2.324072085320949554e-02,4.354202654212713242e-03,-6.222794763743877411e-03,-1.339289173483848572e-02
6.619486026465892792e-03,8.599134534597396851e-02,4.202874377369880676e-03,-5.482265353202819824e-02,-1.544835511595010757e-02,-1.369802802801132202e-01,3.888453170657157898e-02,1.187664456665515900e-02,-2.031953446567058563e-02,5.611263588070869446e-02,2.189987525343894958e-02,4.478181526064872742e-02,-1.501721329987049103e-02,2.363173104822635651e-02,-7.654986809939146042e-03,2.596031501889228821e-02,-2.228087745606899261e-02,-3.671584650874137878e-02,-5.750223528593778610e-03,8.190947584807872772e-03,-1.050105411559343338e-02,-3.365064039826393127e-02,3.376909298822283745e-03,-9.324617567472159863e-04,3.595483303070068359e-02,2.655458264052867889e-02,6.101155653595924377e-03,-1.276549883186817169e-02,-5.549003835767507553e-04,-1.713484898209571838e-02,1.938674226403236389e-02,-1.993845961987972260e-02,4.352303966879844666e-02,-8.895448595285415649e-02,8.508580923080444336e-02,3.300350531935691833e-02,1.452302373945713043e-02,-8.784234523773193359e-02,5.736730527132749557e-03,-4.916971549391746521e-02,1.902603730559349060e-02,-3.090054914355278015e-02,-1.249462738633155823e-01,4.942178726196289062e-02,1.399341598153114319e-02,-2.253263071179389954e-02,1.203777454793453217e-02,1.306771393865346909e-02,4.090911522507667542e-02,8.209663443267345428e-03,1.629677228629589081e-02,-1.077697705477476120e-02,-4.995265603065490723e-02,1.900035538710653782e-03,1.188195683062076569e-02,-2.425363101065158844e-02,1.612664200365543365e-02,4.195580258965492249e-02,2.512064296752214432e-03,4.199547227472066879e-03,6.197666004300117493e-02,-1.144582256674766541e-01,-3.620468080043792725e-02,8.732442744076251984e-03,1.845777779817581177e-02,5.845193192362785339e-02,-2.064048685133457184e-02,-2.262118645012378693e-02,1.289044767618179321e-01,7.831698656082153320e-02,-7.073760777711868286e-02,8.640251308679580688e-02,-2.052638307213783264e-02,-2.607621066272258759e-02,-7.732201367616653442e-03,-7.422798313200473785e-03,-2.171221422031521797e-03,-4.195302259176969528e-03,7.252643257379531860e-02,2.869632095098495483e-03,-5.968611687421798706e-03,-8.471492677927017212e-03,-2.737854979932308197e-02,5.720635876059532166e-02,-8.965361863374710083e-03,6.607157737016677856e-02,-1.847262959927320480e-03,-3.387951850891113281e-02,-4.482036083936691284e-02,-1.063648052513599396e-02,-1.294116377830505371e-01,2.335752546787261963e-02,5.644161254167556763e-02,-8.164096623659133911e-02,-1.619262248277664185e-02,-4.917114973068237305e-02,1.047776732593774796e-02,-1.510167308151721954e-02,5.591817945241928101e-02,-2.125938236713409424e-02,1.299370545893907547e-02,1.686864532530307770e-03,1.545457448810338974e-02,-4.431868717074394226e-02,1.730452291667461395e-02,-2.459059096872806549e-02,-2.124638669192790985e-02,2.382482588291168213e-02,-1.908316835761070251e-02,-1.154731959104537964e-02,-1.270586624741554260e-02,-1.027076914906501770e-01,4.458555951714515686e-02,1.789177302271127701e-03,-2.064316533505916595e-03,-1.089659612625837326e-02,-2.491516992449760437e-02,-1.172820944339036942e-02,-7.036989089101552963e-03,1.844723150134086609e-02,2.520728297531604767e-02,3.072828240692615509e-02,1.630652695894241333e-02,-6.756902672350406647e-03,-2.634677570313215256e-03,3.965567797422409058e-02,-3.529671207070350647e-02,-3.611625730991363525e-02,5.046321451663970947e-02,-3.408992663025856018e-02,-2.564251422882080078e-02,2.030516974627971649e-03,-1.242579966783523560e-01,2.136971987783908844e-02,-1.905116811394691467e-02,8.274623192846775055e-03,-3.849859535694122314e-02,-2.564093843102455139e-02,-1.783739030361175537e-02,2.812545746564865112e-02,-5.590415373444557190e-02,5.162467062473297119e-02,2.197378315031528473e-03,1.058550328016281128e-01,-2.408612519502639771e-02,3.667029668577015400e-04,3.735518548637628555e-03,-3.851442039012908936e-02,9.359279647469520569e-03,-1.151784043759107590e-02,-4.116653464734554291e-03,-4.749434068799018860e-03,-2.876337245106697083e-02,7.305453065782785416e-03,4.707313701510429382e-02,2.861230634152889252e-03,-5.412921682000160217e-02,-3.613917529582977295e-02,-2.072446048259735107e-03,5.143809691071510315e-02,1.602602307684719563e-03,3.949274495244026184e-02,-3.887243196368217468e-02,-3.551989793777465820e-02,-2.430334454402327538e-03,-1.348092779517173767e-02,-2.201442420482635498e-02,-6.705265026539564133e-03,-7.824690081179141998e-03,-3.839936852455139160e-02,8.213688619434833527e-03,6.710079312324523926e-02,-8.279069326817989349e-03,-3.015380725264549255e-02,3.918451815843582153e-02,-3.111331723630428314e-02,1.682917773723602295e-02,-2.151377126574516296e-02,1.013276446610689163e-02,-1.148611400276422501e-02,2.267062105238437653e-02,4.394101724028587341e-02,3.242206526920199394e-03,-1.692194864153862000e-02,-1.626123301684856415e-02,-6.237762048840522766e-02,-3.035865724086761475e-02,1.767001114785671234e-02,-4.349229484796524048e-02,-4.918057098984718323e-02,7.749626040458679199e-02,3.842808678746223450e-02,3.514199331402778625e-02,-2.162304706871509552e-02,8.204016834497451782e-03,3.504534810781478882e-02,-4.891290143132209778e-02,-9.378329850733280182e-03,-8.353813551366329193e-03,-3.380696754902601242e-03,3.918724507093429565e-02,6.572530418634414673e-02,-1.159915402531623840e-01,1.008090097457170486e-02,2.559950388967990875e-02,-6.512768100947141647e-03,7.855120301246643066e-02,-6.866524927318096161e-03,3.814590349793434143e-02,-1.713012903928756714e-02,-8.350376784801483154e-02,-1.682054810225963593e-02,6.270116195082664490e-03,5.883251782506704330e-03,-2.724446170032024384e-02,2.144979313015937805e-02,-6.245599593967199326e-03,5.345886200666427612e-02,-4.870650917291641235e-02,4.467175900936126709e-02,-2.169345133006572723e-02,-4.208977892994880676e-02,-6.225350312888622284e-03,2.042702771723270416e-02,-3.419753164052963257e-02,2.257382264360785484e-03,1.759954728186130524e-02,-4.028289986308664083e-04,6.626639049500226974e-03,-7.893087342381477356e-03,-1.655181753449141979e-03,-5.628889799118041992e-02,2.803914807736873627e-02,9.782613255083560944e-03,2.813082188367843628e-02,-1.321737617254257202e-01,-3.629859909415245056e-02,1.030430081300437450e-03,-8.108827471733093262e-02,3.069958416745066643e-03,-2.958802040666341782e-03,3.716011345386505127e-02,-2.446984872221946716e-04,-4.312176629900932312e-02,1.403581947088241577e-01,-3.380585834383964539e-02,1.756511814892292023e-02,7.431932259351015091e-03,2.191082388162612915e-02,-2.603640221059322357e-02,3.015362657606601715e-02,1.949334889650344849e-02,-3.811483085155487061e-02,1.470901351422071457e-02,1.034585759043693542e-02,-5.265206564217805862e-03
3.137688711285591125e-02,6.969284266233444214e-02,-2.295420132577419281e-02,1.829831115901470184e-02,-5.412981659173965454e-02,-1.126947230659425259e-03,1.063283067196607590e-02,7.740920875221490860e-03,2.846200251951813698e-03,-3.175612539052963257e-02,2.873201854526996613e-02,6.259878724813461304e-02,-4.163155797868967056e-03,-1.796664483845233917e-02,-5.014121066778898239e-03,3.633555024862289429e-02,7.302456535398960114e-03,1.703081768937408924e-03,1.862348802387714386e-02,2.643744088709354401e-02,-2.542433328926563263e-03,-3.613406419754028320e-02,-7.744553964585065842e-03,-1.295911148190498352e-03,4.931399226188659668e-02,1.602549105882644653e-02,5.250649526715278625e-02,2.849991060793399811e-02,6.100000068545341492e-02,1.700011454522609711e-02,-7.038637995719909668e-04,2.468284964561462402e-02,9.955217689275741577e-02,-9.147234261035919189e-02,-7.232092320919036865e-02,2.725148573517799377e-02,-7.191404234617948532e-03,-6.262459605932235718e-02,-1.370345428586006165e-02,-6.264797598123550415e-02,-3.101008245721459389e-03,-2.190083451569080353e-02,4.063593968749046326e-02,-4.040599986910820007e-02,-1.468402333557605743e-02,-8.659655600786209106e-02,-6.009021028876304626e-02,-2.534515410661697388e-02,2.614533063024282455e-03,8.229784434661269188e-04,2.026400528848171234e-02,5.261278897523880005e-02,5.249084206297993660e-04,-4.703771322965621948e-03,-2.485356479883193970e-02,2.905559167265892029e-02,-2.645214088261127472e-02,1.316595971584320068e-01,-5.019021034240722656e-02,-2.968195825815200806e-02,-3.764933720231056213e-02,2.039573155343532562e-02,3.593379259109497070e-02,-2.143861725926399231e-02,-1.408852543681859970e-02,4.428662359714508057e-02,1.905342563986778259e-02,3.112596832215785980e-02,1.620434969663619995e-01,3.795933444052934647e-03,5.776244774460792542e-02,-7.774294912815093994e-02,-9.664965420961380005e-02,2.233911305665969849e-02,-3.162798658013343811e-02,3.080017119646072388e-02,-3.380530513823032379e-03,-3.931637853384017944e-02,4.491395782679319382e-03,-5.502461269497871399e-02,-7.109844591468572617e-03,-2.118034660816192627e-02,-6.891759578138589859e-03,-1.002609962597489357e-03,8.628417737782001495e-03,-3.657736256718635559e-02,4.893114417791366577e-02,2.515790425240993500e-02,-1.740727759897708893e-02,-4.148656129837036133e-02,-6.590743362903594971e-02,2.720689028501510620e-02,-1.788039505481719971e-02,-1.790907792747020721e-02,-2.699697762727737427e-02,1.991633698344230652e-02,2.462712861597537994e-02,4.620696231722831726e-02,4.280433803796768188e-02,2.560708299279212952e-02,-2.111157588660717010e-02,-2.004510955885052681e-03,-4.840699583292007446e-02,2.700484544038772583e-02,1.375208646059036255e-01,-2.149509079754352570e-02,-1.128075048327445984e-01,2.045490592718124390e-02,-2.195851691067218781e-02,-1.850353367626667023e-02,-6.370889395475387573e-02,-4.006736725568771362e-02,-2.059717476367950439e-02,-4.722726531326770782e-03,-2.435274794697761536e-02,-7.815696299076080322e-02,8.408781141042709351e-03,-9.824435226619243622e-03,-3.892486682161688805e-03,2.415175922214984894e-02,1.984563283622264862e-02,-2.983076870441436768e-02,-4.139867052435874939e-02,1.730554737150669098e-02,1.132516004145145416e-02,9.765153750777244568e-03,-1.203812938183546066e-02,6.736240466125309467e-04,-1.475992891937494278e-02,-3.473336249589920044e-02,2.050987780094146729e-01,4.394200816750526428e-02,7.737179100513458252e-02,-2.176407724618911743e-02,-5.252339318394660950e-02,-1.082257274538278580e-02,1.192197483032941818e-02,-8.450545370578765869e-03,2.806665562093257904e-02,-1.347836758941411972e-02,9.758285246789455414e-03,2.882597502321004868e-03,1.186551805585622787e-02,1.503387838602066040e-02,8.201202726922929287e-04,-6.701688747853040695e-03,3.325200825929641724e-02,-3.542614728212356567e-02,-5.484560504555702209e-03,4.831710364669561386e-03,3.478692960925400257e-04,-4.715367034077644348e-02,-8.781145513057708740e-02,-2.317730337381362915e-02,-3.690043091773986816e-02,8.655988494865596294e-06,5.174077581614255905e-03,4.718742892146110535e-02,-5.781924724578857422e-02,-9.596326947212219238e-02,-1.626661419868469238e-02,7.136159390211105347e-02,-4.884969070553779602e-02,-1.218870934098958969e-02,-3.601418575271964073e-03,2.239318192005157471e-02,2.037465572357177734e-02,-1.608306891284883022e-03,-1.954495161771774292e-02,-3.183917701244354248e-02,-1.202730089426040649e-02,6.334310770034790039e-02,2.689282177016139030e-03,-1.741685904562473297e-02,-1.318873465061187744e-02,-9.140927577391266823e-04,3.211608529090881348e-02,-1.576950959861278534e-02,-2.319497801363468170e-02,9.477594867348670959e-03,-2.676560916006565094e-02,2.526367828249931335e-02,1.607215031981468201e-02,1.994683034718036652e-02,-1.566071063280105591e-02,-4.859944060444831848e-02,1.945881056599318981e-03,2.152392826974391937e-02,5.292563885450363159e-02,-8.269270882010459900e-03,-1.021706126630306244e-02,-1.083137318491935730e-01,1.496145594865083694e-02,6.785946339368820190e-02,7.029298692941665649e-02,3.049825690686702728e-02,-7.953373715281486511e-03,-4.720655456185340881e-02,-9.071771055459976196e-03,-1.751394197344779968e-02,-3.406607080250978470e-03,-3.821206837892532349e-02,-6.961572915315628052e-02,2.387921791523694992e-03,-2.563144080340862274e-02,-1.458464097231626511e-02,1.127473823726177216e-02,-2.663783496245741844e-03,2.268089726567268372e-02,-3.655876731500029564e-03,-5.354244261980056763e-02,-8.106589317321777344e-03,-1.489519234746694565e-02,-8.245037868618965149e-03,2.674665488302707672e-02,-3.367359191179275513e-02,1.013754284940660000e-03,-1.730374805629253387e-02,1.302585471421480179e-02,-4.425221413839608431e-04,-1.886149053461849689e-03,3.209456056356430054e-02,1.716300100088119507e-02,2.056197822093963623e-02,6.889720913022756577e-03,-2.027909271419048309e-02,-2.811631886288523674e-03,-8.109581656754016876e-03,-5.873490124940872192e-03,6.223109085112810135e-03,-5.119444802403450012e-02,-1.351156388409435749e-03,6.244376301765441895e-03,1.607026159763336182e-02,-6.143635138869285583e-03,5.708085000514984131e-02,-1.933588832616806030e-02,-2.352257631719112396e-02,-7.004982326179742813e-03,2.384698949754238129e-02,7.563102245330810547e-02,-8.402233012020587921e-03,-8.260035887360572815e-03,-1.079805344343185425e-01,5.654881522059440613e-02,1.560739427804946899e-02,5.338363349437713623e-02,-1.117968466132879257e-02,3.084093332290649414e-03,7.027648389339447021e-02,-1.054535992443561554e-02,-3.142658993601799011e-02,-3.070487268269062042e-02,-3.423434495925903320e-02,-1.571053452789783478e-02,-1.032191980630159378e-02
-1.018655207008123398e-02,-7.651662919670343399e-03,-2.820038981735706329e-02,-1.380441710352897644e-02,1.732450723648071289e-02,-8.657274767756462097e-03,-4.615956172347068787e-02,-2.704338170588016510e-02,-4.542301222681999207e-02,-3.953003138303756714e-02,-4.030529782176017761e-02,3.278608247637748718e-02,-6.866772891953587532e-04,1.822071149945259094e-02,7.184689398854970932e-03,-7.639149576425552368e-02,-2.364862337708473206e-02,-1.204941235482692719e-02,-1.319345459342002869e-02,2.879264205694198608e-02,-3.670338541269302368e-02,5.199657008051872253e-02,-4.631754010915756226e-02,-2.139997109770774841e-02,-7.181465625762939453e-04,4.128647036850452423e-03,1.535851694643497467e-02,-3.887046128511428833e-02,6.624438799917697906e-03,-7.960551418364048004e-03,-1.084230095148086548e-02,-1.301704905927181244e-02,2.009169198572635651e-02,3.734842687845230103e-02,-1.145991310477256775e-02,-2.531502768397331238e-02,-1.843366958200931549e-02,2.093742974102497101e-02,-2.709929831326007843e-02,-2.511141938157379627e-04,1.091313268989324570e-02,-1.247169449925422668e-02,-2.000988647341728210e-02,-1.831429637968540192e-02,-1.309890206903219223e-02,2.524476870894432068e-02,-3.008752502501010895e-02,1.868931017816066742e-02,-1.768818497657775879e-02,1.951530016958713531e-02,-1.688908319920301437e-03,-1.714520342648029327e-02,6.203932315111160278e-02,4.483613744378089905e-02,-3.883712738752365112e-02,2.875067479908466339e-02,1.155142090283334255e-03,-5.088997422717511654e-04,-3.210229054093360901e-02,-1.324240863323211670e-02,1.323932781815528870e-02,-6.508064270019531250e-02,6.670786999166011810e-03,1.705225184559822083e-02,-1.182616408914327621e-02,1.449930667877197266e-02,1.430608564987778664e-03,1.476788241416215897e-02,-2.534388191998004913e-02,3.499402478337287903e-02,4.647185280919075012e-02,1.159291496151126921e-04,1.673126406967639923e-02,-4.891309421509504318e-03,-2.300888113677501678e-02,5.063963122665882111e-03,3.215948864817619324e-02,1.837022975087165833e-02,8.441692218184471130e-03,-2.476195106282830238e-03,-1.040885969996452332e-02,-4.265804216265678406e-02,1.260710880160331726e-02,6.452904082834720612e-03,-7.867838139645755291e-04,-4.607062321156263351e-03,-1.093315333127975464e-02,-8.305152878165245056e-03,-8.784127421677112579e-03,5.065670982003211975e-02,-3.626093268394470215e-02,1.677539665251970291e-03,-1.860243827104568481e-02,3.329803468659520149e-03,1.015327125787734985e-02,8.895603008568286896e-03,-8.182097226381301880e-03,4.893115162849426270e-02,2.905250526964664459e-02,-3.950942307710647583e-02,-1.481230277568101883e-02,2.952595427632331848e-02,-4.571501165628433228e-03,2.699743770062923431e-02,1.224699895828962326e-02,5.773892160505056381e-03,-3.144529461860656738e-02,-2.984036132693290710e-02,-4.117478430271148682e-02,7.172926794737577438e-03,5.149142816662788391e-02,1.100082509219646454e-02,-5.327949300408363342e-02,1.649894192814826965e-02,3.327790647745132446e-03,1.907701790332794189e-02,4.560178145766258240e-03,7.908613421022891998e-03,1.738793775439262390e-02,4.660653695464134216e-02,1.635193079710006714e-02,-1.839660108089447021e-02,1.906433887779712677e-02,-4.472516942769289017e-03,2.751939930021762848e-02,1.268717460334300995e-02,3.228661790490150452e-02,1.058725360780954361e-02,-2.724647521972656250e-02,2.167129889130592346e-02,2.856024913489818573e-02,6.404528766870498657e-02,1.437477208673954010e-02,9.769115597009658813e-03,-9.954139823094010353e-04,2.106673642992973328e-02,-7.005377858877182007e-02,-3.461729362607002258e-02,-2.433536387979984283e-02,7.992903701961040497e-04,1.962020061910152435e-02,1.345623563975095749e-02,-1.345802750438451767e-02,-2.049678005278110504e-02,4.865524545311927795e-02,1.167495269328355789e-02,4.646513983607292175e-02,-1.919554360210895538e-02,-2.660900121554732323e-03,-1.317777112126350403e-02,-2.397565840510651469e-04,-2.467215247452259064e-02,1.839121803641319275e-02,2.583811059594154358e-02,3.617014735937118530e-02,-1.608209125697612762e-02,1.613527722656726837e-02,-3.763992572203278542e-03,-9.955255314707756042e-03,2.293641492724418640e-02,-1.908636838197708130e-02,2.898826031014323235e-03,-2.805161988362669945e-03,6.359482556581497192e-02,9.767974726855754852e-03,1.100482326000928879e-02,1.019653864204883575e-02,1.726003177464008331e-02,1.282330602407455444e-03,-5.612777918577194214e-02,-3.860877081751823425e-02,-1.411436405032873154e-02,9.851350449025630951e-03,1.277950871735811234e-02,9.735560044646263123e-03,1.837646402418613434e-02,1.817123219370841980e-02,-2.978540025651454926e-02,1.778620108962059021e-02,-6.248326040804386139e-03,3.117002081125974655e-03,-7.729724049568176270e-02,1.146280765533447266e-02,-6.342063657939434052e-03,-4.997522337362170219e-04,1.088624238036572933e-03,-1.846522837877273560e-02,6.225616484880447388e-02,4.866259917616844177e-02,1.595740579068660736e-02,-2.362372167408466339e-02,1.541749946773052216e-02,-2.661073207855224609e-02,-1.960770785808563232e-02,1.311088632792234421e-02,2.015274204313755035e-02,1.848265342414379120e-02,6.222916301339864731e-03,-4.596650227904319763e-02,-5.728064104914665222e-03,-5.713259335607290268e-03,-3.826559334993362427e-02,5.471131298691034317e-03,1.199595630168914795e-02,4.138552118092775345e-03,2.102499641478061676e-02,-5.378298833966255188e-02,2.856795862317085266e-02,3.133871359750628471e-03,-2.184600010514259338e-02,-2.831281162798404694e-02,6.562951020896434784e-03,4.805729910731315613e-02,3.719355911016464233e-02,-2.059652470052242279e-02,-3.333807364106178284e-02,1.681705936789512634e-02,-2.458885870873928070e-02,-1.528580673038959503e-03,-4.164854064583778381e-03,6.631745398044586182e-02,-9.842797182500362396e-03,-4.137494042515754700e-02,-1.517113391309976578e-02,-7.136555388569831848e-03,3.660844173282384872e-03,1.706017740070819855e-02,-6.828866433352231979e-03,6.818258203566074371e-03,-8.134567760862410069e-04,-4.861920140683650970e-03,6.605337560176849365e-02,5.825072992593050003e-03,3.750706836581230164e-02,-5.373461171984672546e-03,-3.377791121602058411e-02,1.226161513477563858e-02,-7.219844032078981400e-03,1.645597280003130436e-03,-4.747842252254486084e-02,2.548287063837051392e-02,1.178170926868915558e-02,1.907769963145256042e-02,-1.765220426023006439e-02,4.196075256913900375e-03,2.404769323766231537e-02,-9.791207499802112579e-03,-5.263973027467727661e-03,-1.520846597850322723e-02,4.442729987204074860e-03,1.351673994213342667e-02,-3.434508666396141052e-02,3.195949271321296692e-02,-9.341820143163204193e-03,-4.238542169332504272e-03,-3.166063874959945679e-02
2.089660242199897766e-02,2.878714911639690399e-02,-1.305388566106557846e-02,-2.167611755430698395e-02,-3.980013728141784668e-02,6.342769600450992584e-03,2.057504467666149139e-02,-1.062421407550573349e-02,4.139585793018341064e-02,-9.397603571414947510e-03,6.671567261219024658e-02,3.050965070724487305e-02,-1.681135408580303192e-02,2.283947728574275970e-02,-2.848867326974868774e-02,-1.830378361046314240e-02,-2.108074724674224854e-02,-1.295617967844009399e-02,3.926470875740051270e-02,-7.400248665362596512e-03,-2.698976919054985046e-02,-2.819981612265110016e-02,-3.528825193643569946e-02,-6.164067890495061874e-03,6.060432177037000656e-03,-1.825034059584140778e-02,-2.968936599791049957e-02,-3.209006413817405701e-02,-4.961219802498817444e-02,-1.433668378740549088e-02,-1.344107743352651596e-02,-1.014716224744915962e-03,2.622480876743793488e-02,9.805916808545589447e-03,1.584486017236486077e-05,-2.999817952513694763e-04,-4.059629887342453003e-02,4.113593604415655136e-03,-3.435971587896347046e-02,1.831694133579730988e-02,-8.321803063154220581e-03,-9.651447646319866180e-03,-4.125073179602622986e-02,-4.475637339055538177e-03,-3.951324149966239929e-03,1.383811049163341522e-02,-2.784597454592585564e-03,-1.085302885621786118e-02,-3.022010903805494308e-03,3.055638633668422699e-02,1.666552945971488953e-02,3.616339992731809616e-03,-5.239149928092956543e-02,2.799990121275186539e-03,-3.387588262557983398e-02,4.389805719256401062e-02,1.729999482631683350e-02,-1.021503377705812454e-02,-1.612517982721328735e-02,-2.029702998697757721e-02,-1.403279509395360947e-02,3.496801853179931641e-02,1.741778478026390076e-02,3.651042003184556961e-03,-3.848196566104888916e-02,-3.823608858510851860e-04,-6.832497660070657730e-03,1.890192925930023193e-02,5.542834755033254623e-03,-2.169641852378845215e-02,-2.625083364546298981e-02,1.756923459470272064e-02,-3.821358084678649902e-02,-6.851905956864356995e-03,2.078966051340103149e-02,-1.831173524260520935e-02,3.341555967926979065e-02,1.247876975685358047e-02,-3.213809803128242493e-02,2.911269478499889374e-02,2.467651851475238800e-02,-2.609588205814361572e-02,-1.033917721360921860e-02,5.173612758517265320e-02,-5.359944421797990799e-03,-4.399617016315460205e-02,-1.448149606585502625e-02,9.649615734815597534e-03,-2.428293786942958832e-02,-6.731417775154113770e-02,2.611388452351093292e-02,-8.251603692770004272e-03,-1.235476112924516201e-03,-9.675777517259120941e-03,-2.152554132044315338e-02,2.477127872407436371e-02,-1.435821410268545151e-02,-3.095710091292858124e-02,1.223871018737554550e-02,-3.515700250864028931e-02,9.749454446136951447e-03,-1.175022407551296055e-04,1.367186568677425385e-02,3.996691852807998657e-02,-4.259433597326278687e-02,-1.343379821628332138e-02,3.979017585515975952e-02,1.838662102818489075e-02,4.962151404470205307e-03,1.966123282909393311e-02,5.274670198559761047e-03,-9.931046515703201294e-03,-2.873812429606914520e-02,1.551849022507667542e-02,6.404698826372623444e-03,3.666448965668678284e-02,2.929691970348358154e-02,-1.041899714618921280e-02,-1.405772194266319275e-02,6.924505345523357391e-03,5.533277615904808044e-02,-9.689363650977611542e-03,8.079104125499725342e-02,-1.195010449737310410e-02,2.826900966465473175e-02,1.688911207020282745e-02,-2.653648843988776207e-03,-8.259037509560585022e-03,6.932371854782104492e-02,-3.934215754270553589e-02,1.156569924205541611e-03,5.571750458329916000e-03,-3.778631985187530518e-02,-1.620700210332870483e-02,-3.530996851623058319e-03,-1.468493510037660599e-02,-3.538076579570770264e-02,-1.679706573486328125e-02,-1.358649320900440216e-02,-1.186706591397523880e-02,1.263154670596122742e-02,1.381897367537021637e-03,1.680940762162208557e-02,-5.830577574670314789e-03,3.601718693971633911e-02,-1.068366691470146179e-02,2.369352057576179504e-02,1.702130399644374847e-02,-4.033840727061033249e-03,-7.575334748253226280e-04,-3.383822366595268250e-02,-3.349764645099639893e-02,-2.932867035269737244e-02,1.157829072326421738e-02,-2.153912186622619629e-02,-3.023169003427028656e-02,-2.879124693572521210e-02,2.397822774946689606e-02,-3.767224773764610291e-02,-3.496718034148216248e-02,-4.203498829156160355e-03,-3.044893592596054077e-02,1.850161515176296234e-02,8.439419791102409363e-03,3.320015501230955124e-03,8.821879513561725616e-03,-7.011909969151020050e-03,4.173376783728599548e-02,-8.526926860213279724e-03,-6.290119886398315430e-02,-4.744308535009622574e-04,-1.341032329946756363e-02,-5.631867796182632446e-03,-3.158109635114669800e-02,-1.199811417609453201e-02,-1.732341758906841278e-02,1.819219556637108326e-03,-2.596012316644191742e-02,-1.288964413106441498e-02,5.851597990840673447e-03,4.127600416541099548e-02,-3.387381136417388916e-02,-1.197995617985725403e-02,-2.943831309676170349e-02,-1.646543294191360474e-02,-5.003007501363754272e-02,6.854789704084396362e-02,2.107753418385982513e-02,-3.880867967382073402e-03,2.117491327226161957e-02,-2.860816940665245056e-02,-2.132599428296089172e-02,9.958289563655853271e-03,-1.528305187821388245e-02,1.803458295762538910e-02,9.419689886271953583e-03,1.840278133749961853e-02,-2.092512324452400208e-02,-1.651358045637607574e-02,2.057236060500144958e-02,2.607104182243347168e-02,7.341567426919937134e-03,-8.423139341175556183e-03,-1.012354623526334763e-02,1.284634135663509369e-02,8.590231649577617645e-03,2.527024038136005402e-02,4.602793138474225998e-03,2.338872523978352547e-03,-3.777915379032492638e-03,2.598200179636478424e-02,-6.584463175386190414e-03,1.353190280497074127e-02,4.058120027184486389e-02,2.918982645496726036e-03,3.761965781450271606e-03,5.413785576820373535e-03,-1.118986983783543110e-03,-2.648441866040229797e-02,5.115434993058443069e-03,2.477450761944055557e-03,8.229422383010387421e-03,-1.251895632594823837e-02,-3.481862600892782211e-03,-1.700113713741302490e-02,-1.745083555579185486e-02,3.675855323672294617e-02,1.197786652483046055e-03,-2.282705903053283691e-02,5.106624960899353027e-02,1.010062079876661301e-02,-2.576639689505100250e-02,5.902234837412834167e-02,-8.773045614361763000e-03,-9.111354127526283264e-03,5.409475788474082947e-02,3.972810879349708557e-02,4.610304255038499832e-03,-3.076864406466484070e-02,-2.032844349741935730e-02,-8.480789139866828918e-03,-1.411076448857784271e-02,-1.093711983412504196e-02,9.892258048057556152e-02,-1.947868056595325470e-02,1.995566301047801971e-02,-1.726619713008403778e-02,-2.745849639177322388e-02,-2.003558166325092316e-02,-1.656373217701911926e-02,2.892556786537170410e-02,-1.363592967391014099e-02,-6.674624979496002197e-02,-7.171310135163366795e-04,8.637974970042705536e-03,7.147472351789474487e-03
4.242052324116230011e-03,-4.764562007039785385e-03,2.496455609798431396e-02,-9.341011755168437958e-03,-1.530961133539676666e-02,8.824616670608520508e-03,3.149707801640033722e-03,1.033201906830072403e-02,6.137553229928016663e-02,9.608431719243526459e-03,8.090580813586711884e-03,2.458155155181884766e-02,-1.907305233180522919e-02,-1.243945118039846420e-02,-3.011408261954784393e-03,-9.779442101716995239e-03,1.304044947028160095e-02,-3.740420099347829819e-03,-2.918131835758686066e-02,-1.562205702066421509e-02,1.864711754024028778e-03,2.214021235704421997e-02,1.186753995716571808e-02,-6.320690270513296127e-03,6.223774049431085587e-03,1.845100894570350647e-02,-4.836000502109527588e-03,-4.325999319553375244e-02,-3.211620263755321503e-03,3.255718201398849487e-02,-1.361706666648387909e-02,2.853677049279212952e-02,5.251126829534769058e-03,3.386264294385910034e-02,2.514083869755268097e-03,7.104146759957075119e-03,-1.152377761900424957e-02,-1.465432252734899521e-02,1.728834235109388828e-03,-7.096616551280021667e-03,6.670259870588779449e-03,-1.897113164886832237e-03,-1.617326866835355759e-03,1.596809364855289459e-02,8.980233222246170044e-03,-5.521221086382865906e-02,3.255205228924751282e-02,-2.790001453831791878e-03,-2.515149675309658051e-02,-2.150624757632613182e-03,-1.143670547753572464e-02,-6.908684037625789642e-03,-1.039590570144355297e-03,-2.074362337589263916e-02,-4.157047718763351440e-03,3.679717704653739929e-02,2.343103522434830666e-03,-1.083665806800127029e-02,1.023815758526325226e-02,-1.917819492518901825e-02,-2.846171380952000618e-03,2.050724998116493225e-02,-1.605806872248649597e-02,-1.642762683331966400e-02,1.629698649048805237e-02,2.593193668872117996e-03,1.220227405428886414e-02,-4.886568337678909302e-02,1.426046621054410934e-02,-5.207599606364965439e-03,-9.890459477901458740e-03,5.616318900138139725e-03,-1.257698889821767807e-02,-4.846615716814994812e-03,3.811416914686560631e-03,3.126030089333653450e-03,-9.831785224378108978e-03,-5.511539056897163391e-02,-1.633364893496036530e-02,2.691837726160883904e-03,-5.781043320894241333e-03,-2.238198183476924896e-02,-4.622087813913822174e-03,1.172943413257598877e-02,-1.345179509371519089e-03,-4.520658403635025024e-03,9.505278430879116058e-04,-2.774183824658393860e-02,1.940167322754859924e-02,-2.560548484325408936e-02,-2.228524535894393921e-02,-1.015219930559396744e-02,-6.783034768886864185e-04,-5.292295478284358978e-03,-1.478974893689155579e-02,-9.639606811106204987e-03,-6.420957855880260468e-03,5.927614402025938034e-03,1.124541857279837132e-03,1.024289231281727552e-04,6.064651533961296082e-02,3.792399540543556213e-02,2.873159945011138916e-02,1.764697767794132233e-02,2.781854756176471710e-02,-1.138339657336473465e-02,1.456375140696763992e-02,6.531159393489360809e-03,-5.608175322413444519e-02,-2.101042680442333221e-02,2.790976502001285553e-02,9.477532468736171722e-03,2.785473503172397614e-02,-2.099741622805595398e-02,3.483458887785673141e-03,-1.578143052756786346e-02,4.181772004812955856e-03,2.046289108693599701e-02,6.853122729808092117e-03,-1.590662077069282532e-02,-3.386995941400527954e-02,7.041767705231904984e-03,-4.087069537490606308e-03,3.373192157596349716e-04,-6.354754418134689331e-02,-2.942699007689952850e-03,-1.285862084478139877e-02,-1.080245897173881531e-02,-1.072707213461399078e-02,-3.503965958952903748e-02,3.964721783995628357e-02,-9.574688039720058441e-03,-2.029312076047062874e-03,-4.599924199283123016e-03,2.189224585890769958e-02,9.502641856670379639e-03,9.760789107531309128e-04,2.095024287700653076e-02,1.366234477609395981e-02,1.253871060907840729e-02,-1.281663682311773300e-02,1.260017603635787964e-02,1.969104446470737457e-02,9.457320906221866608e-03,-2.215373516082763672e-02,1.200545020401477814e-02,2.225559204816818237e-03,1.227551605552434921e-02,-2.026206068694591522e-02,2.866193652153015137e-02,-7.759714033454656601e-03,-1.932022161781787872e-02,-1.187187992036342621e-02,2.234865166246891022e-02,-5.349422991275787354e-02,-7.510408293455839157e-03,-5.909852683544158936e-03,-2.964330138638615608e-03,1.597637869417667389e-02,-2.660797350108623505e-02,-1.753357611596584320e-02,-1.276092883199453354e-02,-1.881908811628818512e-02,-2.783848159015178680e-02,1.618995331227779388e-02,1.025822572410106659e-02,-1.858136430382728577e-02,1.259997673332691193e-02,-7.673623971641063690e-03,1.005731523036956787e-02,-7.377457339316606522e-03,-2.807363308966159821e-02,6.305125541985034943e-03,-1.752595230937004089e-02,1.404371857643127441e-02,7.889786735177040100e-03,4.518850706517696381e-03,-1.243240386247634888e-02,1.076687779277563095e-02,5.133198574185371399e-04,-3.075439482927322388e-02,-8.664282038807868958e-03,-1.020025648176670074e-02,-1.644525490701198578e-02,7.857755757868289948e-03,8.045175112783908844e-03,5.188467912375926971e-03,-2.503849007189273834e-02,-1.505054719746112823e-02,-1.145692635327577591e-02,-2.557976543903350830e-02,-4.402179736644029617e-03,-1.788111776113510132e-02,-2.314087003469467163e-02,9.267440997064113617e-03,8.107835426926612854e-03,-2.837924519553780556e-03,-1.095797307789325714e-02,-7.475746795535087585e-03,-2.186738885939121246e-02,-2.689713612198829651e-02,7.618581410497426987e-03,1.351219415664672852e-02,6.011170335114002228e-03,1.826101727783679962e-02,-3.426123410463333130e-02,2.608318068087100983e-02,3.601940721273422241e-02,-1.511705294251441956e-02,-1.078167557716369629e-02,1.484712120145559311e-03,-5.532746668905019760e-03,3.119749389588832855e-02,-1.835622638463973999e-02,-6.073454394936561584e-03,3.220854699611663818e-02,-1.676720194518566132e-02,1.015378162264823914e-02,7.103495765477418900e-03,-3.316328860819339752e-03,2.052124775946140289e-02,-2.153024822473526001e-02,-3.792827716097235680e-03,-9.057830902747809887e-04,-2.909691631793975830e-02,2.051434107124805450e-02,5.718466825783252716e-03,-1.124431146308779716e-03,3.012340283021330833e-03,-4.526006523519754410e-03,-5.419326480478048325e-03,-1.446784753352403641e-02,-1.401519775390625000e-02,-1.234407350420951843e-02,6.388653069734573364e-03,1.349355932325124741e-02,3.000142052769660950e-02,-1.847243285737931728e-03,-3.092172183096408844e-02,-1.385443843901157379e-02,-1.923136180266737938e-03,-9.317955002188682556e-03,1.167557388544082642e-02,-8.455429226160049438e-03,-5.211824085563421249e-03,-9.373806416988372803e-03,1.970303058624267578e-02,-6.408733781427145004e-03,9.467072784900665283e-03,4.052054136991500854e-03,1.008911896497011185e-02,7.709366735070943832e-03,-2.030647732317447662e-02,-2.446554414927959442e-02,1.164777111262083054e-02,1.709802821278572083e-02
1.480760052800178528e-02,4.152451083064079285e-02,-2.104058116674423218e-02,-4.038386419415473938e-02,1.189384516328573227e-02,1.405866350978612900e-02,1.636193483136594296e-03,1.573251001536846161e-02,1.740621961653232574e-02,3.141891956329345703e-02,-4.525943100452423096e-02,3.600820899009704590e-03,1.314007677137851715e-02,3.053620830178260803e-02,-3.610877320170402527e-02,-1.385836768895387650e-02,-1.174989715218544006e-02,-1.149803400039672852e-02,6.619621813297271729e-02,5.514933727681636810e-03,-1.429308671504259109e-02,4.818126186728477478e-02,1.073360163718461990e-02,-1.768058724701404572e-02,-1.785703189671039581e-02,-2.110713394358754158e-03,-7.297749398276209831e-04,-3.149712830781936646e-02,2.755795232951641083e-02,1.173437759280204773e-02,1.136605977080762386e-03,-1.151740271598100662e-02,-2.202247641980648041e-02,-4.878872632980346680e-02,5.190910771489143372e-02,3.561914712190628052e-02,-1.752939820289611816e-02,-2.619103714823722839e-02,-1.320442464202642441e-02,-1.225986611098051071e-02,-1.657561585307121277e-02,-1.656689494848251343e-02,2.534317038953304291e-02,2.684877440333366394e-02,-3.645153949037194252e-03,-3.579925745725631714e-02,-5.433687195181846619e-02,-4.998170770704746246e-03,5.055118352174758911e-02,1.788167282938957214e-02,2.204569615423679352e-02,2.308193966746330261e-02,-7.187224179506301880e-02,-5.903847143054008484e-02,1.305227167904376984e-02,-1.158311846666038036e-03,-3.939256072044372559e-02,1.486146007664501667e-03,1.398746669292449951e-02,7.798309624195098877e-02,4.822522401809692383e-03,3.108478523790836334e-02,-2.881898777559399605e-03,4.500231519341468811e-02,2.443627826869487762e-02,8.846439421176910400e-03,-2.550750970840454102e-02,2.949452213943004608e-02,3.283685073256492615e-02,-9.297028183937072754e-03,3.702452778816223145e-02,1.723503693938255310e-02,-3.044255450367927551e-02,-2.446963824331760406e-02,-1.991881616413593292e-02,2.944891527295112610e-02,-1.382774580270051956e-02,1.080321986228227615e-02,2.406106330454349518e-02,-1.596991717815399170e-02,-3.646560944616794586e-03,1.212386135011911392e-02,7.298189681023359299e-03,1.543252542614936829e-02,-2.140687545761466026e-03,-4.668127745389938354e-02,-2.159034460783004761e-02,8.072288706898689270e-03,-4.277545213699340820e-02,8.156026899814605713e-02,2.194306626915931702e-02,2.040522173047065735e-02,2.077538147568702698e-02,-1.355488691478967667e-02,1.963808387517929077e-02,-2.650482766330242157e-02,-2.279077470302581787e-02,4.704881086945533752e-02,-1.157536171376705170e-02,6.409624218940734863e-02,6.048017181456089020e-03,4.364466294646263123e-02,9.557070443406701088e-04,4.054455552250146866e-03,5.572943948209285736e-03,-1.401966065168380737e-02,-2.381580322980880737e-02,7.338436786085367203e-03,-2.149243839085102081e-02,5.084875971078872681e-03,-1.539928745478391647e-02,-8.939648978412151337e-03,-7.624826580286026001e-02,-1.901911944150924683e-02,-1.272486988455057144e-02,2.616352960467338562e-02,1.596833951771259308e-02,-1.009646710008382797e-02,9.618335403501987457e-03,3.744956571608781815e-03,2.714554965496063232e-02,5.883941892534494400e-03,1.311950758099555969e-02,-2.880508452653884888e-02,-2.054127398878335953e-04,-1.773379556834697723e-02,2.675596438348293304e-02,1.176907308399677277e-02,-3.102981019765138626e-03,1.596246846020221710e-02,-3.045662678778171539e-02,-2.132489532232284546e-02,-2.237001806497573853e-02,-1.180847734212875366e-02,3.862539306282997131e-02,-1.871461421251296997e-02,-2.352844178676605225e-02,1.622221991419792175e-02,-3.813406080007553101e-02,-1.865247264504432678e-02,-3.679186850786209106e-02,4.702334478497505188e-02,-3.985439985990524292e-02,-5.519239231944084167e-03,-2.965485304594039917e-02,-2.947328146547079086e-03,5.124862119555473328e-02,-4.567366093397140503e-02,3.706811368465423584e-02,-4.861128516495227814e-03,-3.050965443253517151e-02,1.796985417604446411e-02,-1.710974844172596931e-03,9.327827021479606628e-03,-6.817291490733623505e-03,-3.062703087925910950e-02,-3.990400955080986023e-02,-9.429758414626121521e-03,-1.249899156391620636e-02,2.057183347642421722e-02,8.613596670329570770e-03,4.999628290534019470e-04,1.415410824120044708e-02,2.325769700109958649e-02,5.362534429877996445e-03,-3.587061539292335510e-02,-2.925680950284004211e-02,-4.493517056107521057e-02,3.754044324159622192e-02,-9.932587854564189911e-03,-3.847825154662132263e-02,-2.125482819974422455e-02,1.781591027975082397e-02,1.640695333480834961e-02,-1.290134387090802193e-03,-5.760019179433584213e-03,-1.658613979816436768e-02,-2.855852246284484863e-02,-2.579540573060512543e-02,3.987857140600681305e-03,-1.094686705619096756e-02,-9.382224641740322113e-03,-5.298484116792678833e-02,2.642673067748546600e-02,-1.225986611098051071e-02,2.647988870739936829e-02,1.979074813425540924e-02,1.380686555057764053e-02,1.550598442554473877e-02,-1.877090893685817719e-03,5.752660334110260010e-02,-7.051991298794746399e-03,-5.426070466637611389e-02,-1.386402081698179245e-02,4.487415403127670288e-02,-3.302743285894393921e-02,-1.239602733403444290e-02,-8.960762619972229004e-02,-8.154820650815963745e-03,1.778650656342506409e-02,-2.505435422062873840e-02,8.358048275113105774e-03,-1.446560770273208618e-02,-7.509189192205667496e-03,1.291588786989450455e-02,6.275847554206848145e-02,6.796471308916807175e-03,9.705089963972568512e-03,6.533191353082656860e-02,-2.986697852611541748e-02,2.071564644575119019e-02,-2.455951273441314697e-02,2.533873729407787323e-02,-1.369642280042171478e-02,-1.560861431062221527e-02,-1.104752067476511002e-02,1.418419834226369858e-02,-8.630147203803062439e-03,-1.792364940047264099e-02,5.343038588762283325e-03,2.289294824004173279e-02,-2.965325489640235901e-02,-1.146252546459436417e-02,4.097754508256912231e-02,3.375530615448951721e-02,2.969754487276077271e-02,-1.584800705313682556e-02,1.382655277848243713e-02,-3.377055376768112183e-02,-4.203537851572036743e-02,-3.126272559165954590e-02,-3.219462931156158447e-02,-3.061407012864947319e-03,3.885683789849281311e-02,6.814242340624332428e-03,-1.086281612515449524e-03,-1.926019554957747459e-03,-1.878083311021327972e-02,-2.430204302072525024e-02,-1.892350614070892334e-02,-1.024233363568782806e-02,-1.307167857885360718e-02,1.576907932758331299e-02,-1.186337508261203766e-02,3.175894916057586670e-02,9.565208107233047485e-03,-2.503014169633388519e-02,3.069256246089935303e-02,-1.427756063640117645e-02,-7.761032320559024811e-03,-1.362395472824573517e-02,-2.322547137737274170e-02,2.284810505807399750e-02,-1.886156760156154633e-02,3.710697218775749207e-02,-1.351262070238590240e-02
6.560325622558593750e-02,-2.777991630136966705e-02,-2.559598907828330994e-02,-2.200987935066223145e-02,-2.199021354317665100e-02,-7.090995460748672485e-02,-3.792114928364753723e-02,2.145739458501338959e-02,6.564441323280334473e-02,-3.421953693032264709e-02,5.782087892293930054e-02,2.091665286570787430e-03,-7.235304918140172958e-03,-3.615786088630557060e-03,-1.214873790740966797e-02,2.752610947936773300e-03,-2.468290552496910095e-02,-8.515366353094577789e-03,8.365307003259658813e-03,2.455366589128971100e-02,-3.227777779102325439e-02,-3.958472236990928650e-02,-1.530238892883062363e-03,-5.686549842357635498e-02,2.866565715521574020e-03,-5.592968687415122986e-02,-3.321738541126251221e-02,1.494567841291427612e-02,-3.196481615304946899e-02,-3.199170110747218132e-03,1.362848840653896332e-02,7.735110819339752197e-02,2.486442402005195618e-02,-3.253779932856559753e-02,3.789010271430015564e-02,-2.714110910892486572e-02,-3.623341768980026245e-02,-3.757005557417869568e-02,4.692866280674934387e-02,-2.518212795257568359e-02,-3.283523023128509521e-02,1.239305082708597183e-02,1.767201535403728485e-02,1.057886853814125061e-01,1.367213670164346695e-02,9.631689754314720631e-04,-4.952955618500709534e-02,1.857618428766727448e-02,2.375716716051101685e-02,8.265238255262374878e-03,1.152610778808593750e-02,2.391466312110424042e-02,-4.317187890410423279e-02,-2.020786283537745476e-03,-2.419700101017951965e-02,-3.740447759628295898e-02,-2.029311470687389374e-02,-6.174332462251186371e-03,-3.663164749741554260e-02,-4.215021617710590363e-04,2.059372887015342712e-02,6.613555550575256348e-02,5.374702811241149902e-02,5.429689958691596985e-02,-2.589124953374266624e-03,3.531532362103462219e-02,1.459472440183162689e-02,-1.323180180042982101e-02,-4.361982271075248718e-02,-2.530699828639626503e-03,-1.211777329444885254e-01,1.572086289525032043e-02,4.145848378539085388e-02,-1.106627061963081360e-01,-2.549409307539463043e-02,2.155838906764984131e-02,2.629962749779224396e-03,2.029397152364253998e-02,8.079875260591506958e-03,1.120295599102973938e-01,1.337612234055995941e-02,-1.516890991479158401e-02,-5.605351552367210388e-02,-2.991926111280918121e-02,-3.078082948923110962e-02,-2.741390094161033630e-02,1.765783317387104034e-02,4.147885367274284363e-02,5.028828978538513184e-03,-2.944995416328310966e-03,6.138063222169876099e-02,9.900867007672786713e-03,8.882026188075542450e-03,-6.657242029905319214e-02,2.564408630132675171e-02,9.534588456153869629e-02,2.962618879973888397e-02,-7.921048440039157867e-03,-2.503305673599243164e-03,-1.649735867977142334e-02,3.530899435281753540e-02,8.137719705700874329e-03,-9.427368640899658203e-03,3.944945987313985825e-03,-4.240744933485984802e-02,-2.263388223946094513e-02,9.558019042015075684e-02,-2.352437563240528107e-02,-9.192725643515586853e-03,1.352098211646080017e-02,-2.963585965335369110e-02,2.944107726216316223e-02,-2.254992164671421051e-02,1.925504580140113831e-02,-4.237174242734909058e-02,-3.715547546744346619e-02,5.966076627373695374e-02,-1.103878114372491837e-02,2.703823614865541458e-03,-2.098557353019714355e-02,-1.799543388187885284e-02,2.363129518926143646e-02,6.803355645388364792e-03,2.205154486000537872e-02,1.672348938882350922e-02,1.053455937653779984e-02,1.025203731842339039e-03,3.184193978086113930e-03,2.398423850536346436e-02,4.380557686090469360e-02,1.733733341097831726e-02,2.549833152443170547e-03,-1.384408399462699890e-02,7.513543241657316685e-04,1.597444340586662292e-02,-2.421179413795471191e-02,-6.420912593603134155e-02,2.491547539830207825e-02,-1.109332125633955002e-02,-2.701445296406745911e-02,8.540245145559310913e-02,1.239360682666301727e-02,4.122778400778770447e-02,-4.659829661250114441e-02,-8.558174595236778259e-03,2.063303813338279724e-02,-3.934464976191520691e-02,-3.156182914972305298e-02,4.898146260529756546e-03,-1.712158322334289551e-02,1.797741092741489410e-02,-4.771692678332328796e-02,1.428789738565683365e-02,1.849994622170925140e-02,-3.653263673186302185e-02,1.735374704003334045e-02,2.086441405117511749e-02,4.521802067756652832e-02,-3.938965499401092529e-02,-6.404297426342964172e-03,-1.777364313602447510e-02,-1.567876338958740234e-02,3.987709991633892059e-03,-2.596227079629898071e-02,4.950640723109245300e-03,4.719505831599235535e-02,-2.361474325880408287e-03,-2.513242326676845551e-02,-1.804531901143491268e-03,8.660490624606609344e-03,4.270780086517333984e-02,-1.405778434127569199e-02,-1.596053875982761383e-02,-5.986149888485670090e-03,1.344831660389900208e-02,1.866081729531288147e-02,-1.283698994666337967e-02,1.079106796532869339e-02,2.073193527758121490e-02,-5.130785051733255386e-03,1.870716549456119537e-02,2.833356615155935287e-03,-9.278369136154651642e-03,-2.596760168671607971e-03,-3.902720659971237183e-02,-5.123487673699855804e-03,4.418920353055000305e-02,3.176051750779151917e-02,3.934914991259574890e-02,9.185335598886013031e-03,-5.593767273239791393e-04,7.604778558015823364e-02,3.500281274318695068e-02,-3.664893656969070435e-02,-3.843551967293024063e-03,1.171525474637746811e-02,-1.542060356587171555e-02,3.568795323371887207e-02,-2.498821914196014404e-02,-3.421538276597857475e-03,-3.481286019086837769e-02,-1.568621583282947540e-02,-2.195726893842220306e-02,-3.149889037013053894e-02,-2.986976644024252892e-03,2.048950269818305969e-02,7.354579120874404907e-02,-1.442740578204393387e-02,-7.456397265195846558e-02,9.685049764811992645e-03,5.145350471138954163e-02,-3.600728884339332581e-02,1.032915804535150528e-02,1.349637168459594250e-03,-6.235513370484113693e-03,2.875127643346786499e-02,1.369403116405010223e-02,-1.337376087903976440e-01,1.087636966258287430e-02,2.749277278780937195e-03,-4.715768247842788696e-02,-1.598988287150859833e-02,3.183598071336746216e-02,-1.924525760114192963e-02,1.080860011279582977e-02,3.475658595561981201e-02,1.491547189652919769e-02,2.192498929798603058e-02,2.054000645875930786e-02,3.784979879856109619e-02,9.432455524802207947e-03,-1.274292822927236557e-02,7.721882313489913940e-02,1.730179041624069214e-02,-4.929428920149803162e-03,-3.987817838788032532e-02,8.327450603246688843e-03,1.080186106264591217e-02,-9.140789508819580078e-03,-3.091754624620079994e-04,-7.521028164774179459e-03,7.630164735019207001e-03,-3.041112609207630157e-02,1.814306974411010742e-01,-6.676936149597167969e-02,2.601649239659309387e-02,1.195195317268371582e-02,-1.377469208091497421e-02,-9.553414769470691681e-03,-1.052945479750633240e-02,-1.243146602064371109e-02,1.664252206683158875e-02,1.581865362823009491e-02,-9.000485762953758240e-03,-1.289237663149833679e-02,8.385694772005081177e-02
-1.439786329865455627e-02,-3.849361836910247803e-02,6.173412781208753586e-03,-2.617486752569675446e-02,5.915041081607341766e-03,-1.264167204499244690e-02,1.610488072037696838e-02,-3.151604160666465759e-02,1.059084758162498474e-02,-1.345228031277656555e-02,5.480417516082525253e-03,-6.004736945033073425e-02,-1.444798544980585575e-04,1.985539495944976807e-02,-5.366237834095954895e-03,-2.970437519252300262e-03,-3.997379168868064880e-02,-2.933239378035068512e-02,3.122708573937416077e-02,2.925355359911918640e-02,6.502470001578330994e-03,-1.042057387530803680e-02,3.314730152487754822e-02,1.665746793150901794e-02,1.433156896382570267e-03,8.346318267285823822e-03,3.008164092898368835e-02,-2.024590037763118744e-02,-7.898143492639064789e-03,-2.769691497087478638e-02,-1.139066065661609173e-03,-6.264211609959602356e-03,-1.391095668077468872e-02,-2.971129957586526871e-03,1.456213369965553284e-02,-1.244496461004018784e-02,2.226897515356540680e-03,1.205235999077558517e-02,-3.756091743707656860e-02,-2.456481754779815674e-02,-1.162418816238641739e-02,3.391007706522941589e-02,-1.021076645702123642e-02,-1.755603216588497162e-02,3.255713358521461487e-02,1.297547481954097748e-02,-9.081485681235790253e-03,-9.479571599513292313e-04,7.228187168948352337e-04,-3.589923726394772530e-03,5.811519920825958252e-03,9.160935878753662109e-04,-5.172074306756258011e-03,-8.096830919384956360e-03,-3.451257944107055664e-02,-4.642331972718238831e-02,6.027254741638898849e-03,-1.512190420180559158e-02,-1.090741716325283051e-02,-4.476830363273620605e-03,2.514856401830911636e-03,-4.536315798759460449e-02,-1.937108673155307770e-02,-2.650228329002857208e-02,4.985891748219728470e-03,-1.242820452898740768e-02,-1.070180255919694901e-02,1.657082699239253998e-02,-1.590807735919952393e-02,1.429890561848878860e-02,-4.948621499352157116e-04,5.409569945186376572e-03,-1.347867585718631744e-02,-9.513900615274906158e-03,-1.423965301364660263e-02,-3.111347090452909470e-03,2.290660515427589417e-02,7.163729052990674973e-03,-6.873586215078830719e-03,-9.694282896816730499e-03,1.738663204014301300e-02,1.644822768867015839e-02,2.157505229115486145e-02,-1.218346599489450455e-02,6.466176710091531277e-04,9.127856232225894928e-03,-1.797325722873210907e-02,1.393220503814518452e-03,2.122615277767181396e-02,3.123494051396846771e-02,-3.097441792488098145e-02,4.227947443723678589e-03,-4.401811864227056503e-03,1.188130676746368408e-02,1.776585169136524200e-02,1.203689724206924438e-02,3.658898873254656792e-03,-1.853137463331222534e-02,5.291312467306852341e-03,-1.130390726029872894e-02,-4.494189750403165817e-03,-2.612859196960926056e-02,1.326287444680929184e-02,1.022431883029639721e-03,1.072484347969293594e-02,-8.717386052012443542e-03,-2.184717159252613783e-04,-1.362227462232112885e-02,-5.559195578098297119e-02,2.985023660585284233e-03,-1.232750341296195984e-02,-1.750874333083629608e-02,1.441592071205377579e-02,-5.798765458166599274e-03,2.988803572952747345e-02,-1.870444044470787048e-02,2.571078017354011536e-02,9.985727258026599884e-03,-2.921354584395885468e-02,-4.812077432870864868e-02,-1.130391936749219894e-02,-1.262547355145215988e-02,-8.703987114131450653e-03,3.533174283802509308e-03,-4.156647715717554092e-03,-3.137502819299697876e-02,-2.564106509089469910e-02,9.888058528304100037e-03,-1.162702683359384537e-03,-5.856966972351074219e-02,-2.179923281073570251e-02,1.089726015925407410e-02,-1.191114727407693863e-02,1.556425634771585464e-02,1.964190043509006500e-03,1.494902465492486954e-02,2.995833940804004669e-02,-7.835696451365947723e-03,3.009551763534545898e-02,-3.779810620471835136e-03,-8.042545989155769348e-03,-2.367403358221054077e-04,-1.929775811731815338e-02,-2.015560306608676910e-02,5.464480724185705185e-03,1.509975921362638474e-02,2.073352783918380737e-02,-5.382606759667396545e-03,-6.873237900435924530e-03,-3.148946678265929222e-03,-1.425360329449176788e-02,-3.188949823379516602e-02,2.423893287777900696e-02,2.668634522706270218e-03,-1.559389848262071609e-02,-1.889037527143955231e-02,-3.245417773723602295e-02,1.975091174244880676e-02,5.588992312550544739e-02,5.173339974135160446e-03,2.670943364500999451e-02,-2.257227431982755661e-03,2.530203945934772491e-02,5.440471321344375610e-02,-1.220319885760545731e-02,-2.754322066903114319e-02,1.069244742393493652e-02,-1.296662911772727966e-02,-1.980589702725410461e-03,-1.211895793676376343e-02,-6.775702815502882004e-03,-2.715787850320339203e-02,-2.426469512283802032e-02,-1.520447339862585068e-02,8.549847640097141266e-03,1.971160992980003357e-02,1.175013836473226547e-02,-2.215105295181274414e-02,1.024419441819190979e-02,1.236104406416416168e-02,-5.603165831416845322e-03,-4.563942179083824158e-02,-2.168565429747104645e-02,-1.505484897643327713e-02,-1.791217946447432041e-03,1.149223838001489639e-02,-7.422666531056165695e-04,1.141071319580078125e-03,-1.736070401966571808e-02,-3.107111342251300812e-02,9.262213134206831455e-04,1.067234843503683805e-04,2.055899472907185555e-03,5.657817702740430832e-03,1.399748679250478745e-02,-9.705577977001667023e-03,-4.220265895128250122e-02,6.353303324431180954e-03,-2.460812963545322418e-02,3.790759295225143433e-02,-6.436613202095031738e-02,1.805827394127845764e-02,5.274593713693320751e-04,-2.708464302122592926e-02,9.646311402320861816e-03,3.752320539206266403e-03,-2.328053675591945648e-02,-4.038636106997728348e-03,1.518770586699247360e-02,-1.208917889744043350e-02,1.212255191057920456e-02,2.144540660083293915e-03,-2.304549515247344971e-02,-3.193667158484458923e-03,2.345416927710175514e-03,-1.352286059409379959e-02,4.439363628625869751e-02,-3.145937807857990265e-03,-4.209855105727910995e-03,4.702253136201761663e-05,-4.617402702569961548e-02,8.180988021194934845e-03,1.394883450120687485e-02,-1.003262959420681000e-02,-7.364546880125999451e-03,2.706869505345821381e-02,-1.869865134358406067e-02,7.372250780463218689e-03,-1.301183737814426422e-02,3.258900716900825500e-02,3.517206013202667236e-02,-1.077257003635168076e-02,-1.498938724398612976e-02,-6.066089030355215073e-03,-1.064346823841333389e-02,-2.077545784413814545e-02,1.997776795178651810e-03,3.326996415853500366e-02,-2.172616869211196899e-02,1.457898598164319992e-02,-9.786844253540039062e-03,-8.274691179394721985e-03,-6.615894380956888199e-03,-2.694513276219367981e-02,-1.017085276544094086e-02,1.917429454624652863e-02,-7.182762492448091507e-04,-1.293389778584241867e-02,8.431851863861083984e-03,9.508141316473484039e-03,2.252597361803054810e-02,-1.801086775958538055e-02,2.752979472279548645e-02,-4.056966397911310196e-03,4.454176500439643860e-02,1.583880931138992310e-02
-1.648176461458206177e-02,-5.005393549799919128e-02,-9.034394286572933197e-03,-3.258965909481048584e-02,4.369919374585151672e-02,-5.502597987651824951e-02,4.499217960983514786e-03,-1.727289147675037384e-02,-2.128442190587520599e-02,2.594693936407566071e-02,1.931799459271132946e-03,1.539229601621627808e-02,-1.228494686074554920e-03,-6.316434592008590698e-02,-4.850703291594982147e-03,-7.450352609157562256e-02,1.770574972033500671e-02,1.842778176069259644e-02,3.652076004073023796e-03,4.640977457165718079e-02,-2.126326225697994232e-02,-4.808137600775808096e-04,1.853934116661548615e-02,1.391779538244009018e-02,-2.735026925802230835e-02,-5.620259791612625122e-03,-9.731667116284370422e-03,-2.911463845521211624e-03,-7.392146158963441849e-03,-1.011300086975097656e-02,-9.554947726428508759e-03,2.214079163968563080e-02,4.742880910634994507e-02,-6.040967628359794617e-02,5.763740837574005127e-02,1.079430431127548218e-02,-4.608484357595443726e-02,-9.964122436940670013e-03,-2.209602668881416321e-02,5.770471412688493729e-03,2.020374312996864319e-02,1.993665657937526703e-02,1.690940372645854950e-02,-6.464659422636032104e-02,-3.037852048873901367e-02,4.132546484470367432e-02,1.268054172396659851e-02,5.324814468622207642e-03,1.106808520853519440e-02,-1.597932167351245880e-02,-2.791239880025386810e-02,2.058335521724075079e-04,5.598749266937375069e-04,-6.601962260901927948e-03,1.310768537223339081e-02,-2.034607529640197754e-02,-4.452837631106376648e-02,4.809127002954483032e-02,4.155061207711696625e-03,-1.647120225243270397e-03,-2.220074413344264030e-03,3.000138700008392334e-02,-2.851583994925022125e-02,-1.679064705967903137e-02,-3.448902815580368042e-02,-2.823332324624061584e-03,1.518093608319759369e-02,-5.425069853663444519e-02,-2.323028445243835449e-02,-2.161199599504470825e-02,-7.765222340822219849e-03,7.566616684198379517e-02,1.191964074969291687e-01,4.324260726571083069e-02,1.972463913261890411e-03,9.950363310053944588e-04,-4.737017676234245300e-03,9.992177598178386688e-03,-2.442329190671443939e-02,3.252518922090530396e-02,2.711229771375656128e-02,9.561081230640411377e-02,-2.829928509891033173e-02,3.821361064910888672e-02,-1.186151523143053055e-02,1.667631231248378754e-02,1.572067849338054657e-02,-2.594037353992462158e-02,1.467068213969469070e-02,-6.965811550617218018e-02,1.458466518670320511e-02,-2.465603686869144440e-02,2.670053578913211823e-02,-3.018667176365852356e-02,-3.086901642382144928e-02,1.826089248061180115e-02,-5.520584993064403534e-03,-3.572090296074748039e-03,-1.955545321106910706e-02,2.839471213519573212e-02,-2.588540315628051758e-02,-4.781508445739746094e-02,-9.083257988095283508e-03,-5.477066338062286377e-02,-1.208202540874481201e-01,-5.229348782449960709e-03,5.989970266819000244e-02,-8.472925983369350433e-03,-6.854966748505830765e-03,1.501486729830503464e-02,3.591758385300636292e-02,1.005594506859779358e-01,7.263933774083852768e-03,2.001343108713626862e-02,-8.652085438370704651e-03,-2.070728660328313708e-04,-3.526857122778892517e-02,7.066753692924976349e-03,3.343615448102355003e-03,-1.206172443926334381e-02,-1.586789265275001526e-02,-1.769395545125007629e-02,1.746497862040996552e-02,4.498901218175888062e-02,-3.388803452253341675e-02,3.467585891485214233e-02,-1.178651303052902222e-02,-5.039843264967203140e-03,-6.045443005859851837e-03,3.650469705462455750e-03,-3.349462058395147324e-03,1.646233606152236462e-03,-7.935927808284759521e-02,-4.039188101887702942e-02,1.954235322773456573e-02,-2.320631034672260284e-02,-6.719230115413665771e-02,1.513744797557592392e-02,3.065601177513599396e-02,-4.885290283709764481e-03,4.694646224379539490e-02,-2.677948027849197388e-02,-4.055393487215042114e-02,-5.153157189488410950e-02,6.083765067160129547e-03,3.233117237687110901e-02,-1.393651962280273438e-02,-2.864484861493110657e-02,-5.129487719386816025e-03,-9.700139635242521763e-04,3.313773497939109802e-02,9.887740015983581543e-03,-1.795402541756629944e-02,1.280129794031381607e-02,-5.686237476766109467e-03,-6.187215913087129593e-03,3.702412173151969910e-02,-6.815082579851150513e-02,-3.644680231809616089e-02,8.460820466279983521e-02,2.905491041019558907e-03,1.531547028571367264e-02,-1.021170057356357574e-02,3.282300382852554321e-02,-7.718812208622694016e-03,2.106184139847755432e-02,-2.774244733154773712e-02,-1.477731205523014069e-02,5.027016997337341309e-02,-4.668044857680797577e-03,-2.124846912920475006e-02,-1.491848472505807877e-02,4.272310808300971985e-02,1.416299026459455490e-02,-4.049513489007949829e-02,-4.047392867505550385e-03,-1.058426313102245331e-02,4.010567441582679749e-02,2.822802402079105377e-03,2.663300838321447372e-03,-7.637227885425090790e-03,1.375290565192699432e-02,-2.625923231244087219e-02,2.276829443871974945e-02,1.131462212651968002e-02,-3.185142576694488525e-02,2.674840763211250305e-02,-3.525573387742042542e-02,-2.682363847270607948e-03,3.364780545234680176e-02,-4.878906067460775375e-03,8.981011807918548584e-02,3.535610437393188477e-02,-1.867729425430297852e-02,-8.122276514768600464e-02,-3.431409224867820740e-02,-1.686057634651660919e-02,-1.758236251771450043e-02,1.770200580358505249e-02,5.632110871374607086e-03,-2.317029982805252075e-02,3.304807469248771667e-03,-1.440684869885444641e-02,-6.418755743652582169e-03,1.294995017815381289e-04,-6.806924473494291306e-03,-2.352404035627841949e-02,1.844652555882930756e-02,7.382727228105068207e-03,1.510424911975860596e-02,2.422451227903366089e-02,2.672451920807361603e-02,1.586822979152202606e-02,-4.514081776142120361e-02,-3.958305809646844864e-03,5.408769939094781876e-03,2.787557803094387054e-02,3.049685619771480560e-02,-5.729473382234573364e-02,-1.910742558538913727e-02,-2.040979079902172089e-02,3.636855259537696838e-02,-5.460639297962188721e-02,-2.371820993721485138e-02,-2.319921925663948059e-02,-1.280833967030048370e-02,1.603037118911743164e-02,-5.336628295481204987e-03,2.625955082476139069e-02,3.276767209172248840e-02,1.184702944010496140e-02,-2.359335869550704956e-02,2.063008584082126617e-02,-3.762364387512207031e-02,-1.893958449363708496e-02,-5.224308371543884277e-02,1.078026071190834045e-01,4.073553159832954407e-02,3.865725174546241760e-02,1.535657793283462524e-02,-9.958132170140743256e-03,-5.475278198719024658e-02,-4.788514599204063416e-02,-2.573113329708576202e-02,4.890037700533866882e-02,-5.540781840682029724e-02,-2.030239207670092583e-03,-7.118531968444585800e-03,1.837301440536975861e-02,2.970006875693798065e-02,2.396283671259880066e-02,-2.929581142961978912e-02,-1.591959223151206970e-02,-1.989505998790264130e-02,2.071187458932399750e-02,2.454696595668792725e-02
