1.971198059618473053e-02,-5.256227683275938034e-03,-3.761886386200785637e-03,-1.963480748236179352e-02,-1.233632210642099380e-02,-3.519601374864578247e-02,5.076132342219352722e-02,7.566807419061660767e-02,4.334411770105361938e-02,1.416025962680578232e-02,-8.609386160969734192e-03,-1.054120156913995743e-02,-4.258572310209274292e-02,-2.381435781717300415e-02,-5.469362437725067139e-02,-1.401759102009236813e-03,4.672031104564666748e-02,5.089799687266349792e-02,2.155862934887409210e-02,4.163254983723163605e-03,-9.711788035929203033e-03,-9.320097044110298157e-03,-2.543231286108493805e-02,-2.827364951372146606e-02,-3.010684251785278320e-02,-4.822980985045433044e-02,-2.600124850869178772e-02,-5.909075029194355011e-03,-4.611132293939590454e-02,6.910662353038787842e-02,3.315887600183486938e-02,-1.484621036797761917e-02,5.694650486111640930e-02,3.212383389472961426e-02,3.368435055017471313e-02,-5.969807505607604980e-02,6.398904323577880859e-02,7.857578992843627930e-02,6.829232722520828247e-02,9.594716131687164307e-03,1.568049564957618713e-02,-3.352370811626315117e-03,1.252046693116426468e-02,2.570431120693683624e-02,-8.500072173774242401e-03,4.369120299816131592e-02,4.631508886814117432e-02,7.033447176218032837e-02,2.305172197520732880e-02,-3.445372357964515686e-02,2.033730561379343271e-04,1.891841180622577667e-02,-1.140165887773036957e-02,-6.970406509935855865e-03,2.082511410117149353e-02,5.081021226942539215e-03,-3.096224926412105560e-02,3.543809056282043457e-03,-2.539457380771636963e-02,-4.114012792706489563e-02,1.845401339232921600e-02,1.597945019602775574e-02,1.431987434625625610e-02,2.759075537323951721e-02,4.801947157829999924e-03,-2.232983708381652832e-02,-1.736678555607795715e-02,-2.306532859802246094e-02,-7.405822724103927612e-02,1.907430961728096008e-02,7.722914963960647583e-02,4.286660254001617432e-02,-7.555731106549501419e-03,1.168591342866420746e-02,-2.314376458525657654e-02,-5.219419673085212708e-02,-3.389365598559379578e-02,-7.576596923172473907e-03,1.356269698590040207e-02,1.004858911037445068e-01,3.890692442655563354e-02,3.940418362617492676e-02,4.503125324845314026e-02,4.153372719883918762e-02,2.470496483147144318e-02,1.632746867835521698e-02,2.574565261602401733e-02,-1.680804044008255005e-02,-9.530480019748210907e-03,-4.856366664171218872e-03,-3.911317512392997742e-02,-8.362156897783279419e-02,-6.106942147016525269e-02,-2.608557231724262238e-02,3.240446001291275024e-02,1.766120083630084991e-02,-5.012415349483489990e-02,-1.179371699690818787e-01,-8.569991588592529297e-02,-1.374776568263769150e-02,-3.973906487226486206e-02,-9.052970260381698608e-02,-1.363670360296964645e-02,1.246676072478294373e-01,8.050714433193206787e-02,2.648166380822658539e-02,-1.302388459444046021e-01,1.461425125598907471e-01,-1.638994552195072174e-02,-6.786051392555236816e-02,-5.190346390008926392e-02,1.648232899606227875e-02,5.295997485518455505e-03,-6.412995606660842896e-02,-2.236701175570487976e-02,1.044519022107124329e-01,-6.215761974453926086e-02,-1.277378853410482407e-02,-2.934046834707260132e-02,-3.281216323375701904e-02,-5.451211240142583847e-03,-6.962320767343044281e-03,-1.635242812335491180e-02,4.439108539372682571e-03,3.614993020892143250e-02,1.131836231797933578e-02,1.144495140761137009e-02,3.316911309957504272e-02,-1.757903955876827240e-02,2.999636717140674591e-02,1.015033107250928879e-02,-8.629241026937961578e-03,-2.815916389226913452e-02,-1.552564743906259537e-02,5.531110614538192749e-02,-7.015531510114669800e-02,-4.115884378552436829e-02,1.035503344610333443e-03,-4.791790246963500977e-02,-3.018794953823089600e-02,-3.229924244806170464e-03,1.966311223804950714e-02,1.597516797482967377e-02,2.439253404736518860e-02,-1.964378915727138519e-02,1.872746832668781281e-02,-1.214489992707967758e-02,-2.181098982691764832e-02,1.493455749005079269e-02,-1.421982888132333755e-02,-3.267623484134674072e-02,-8.113366551697254181e-03,-1.721972785890102386e-02,-6.241848692297935486e-02,-2.205596491694450378e-02,-7.580062747001647949e-02,1.706951484084129333e-02,1.064622029662132263e-01,4.951221868395805359e-02,2.194754593074321747e-02,-2.958465553820133209e-02,7.473094388842582703e-03,1.758958585560321808e-02,3.022928535938262939e-02,-3.239776939153671265e-02,3.423772007226943970e-02,9.564132243394851685e-02,1.399573753587901592e-03,6.189242005348205566e-03,7.565142586827278137e-03,2.382084354758262634e-02,-5.927294492721557617e-02,-1.037592664361000061e-01,-3.368583321571350098e-02,-1.583704724907875061e-02,4.414039850234985352e-02,4.209945444017648697e-03,2.733954787254333496e-02,1.568231880664825439e-01,-2.251173555850982666e-02,2.712399326264858246e-02,1.801799796521663666e-02,-2.644257619976997375e-03,7.355108857154846191e-02,3.144289553165435791e-02,2.646640501916408539e-02,-4.843603074550628662e-02,1.105862390249967575e-02,4.709240421652793884e-02,-3.279437869787216187e-02,-7.556825410574674606e-03,-5.614405125379562378e-02,6.463797297328710556e-03,4.911634325981140137e-02,-1.708068512380123138e-02,-1.864188723266124725e-02,-3.844244033098220825e-02,-2.833422832190990448e-02,2.368494309484958649e-02,2.953997813165187836e-03,2.086610620608553290e-04,1.828087144531309605e-03,-9.600263088941574097e-02,-3.856220468878746033e-02,3.704766929149627686e-02,5.068546161055564880e-02,-5.804133042693138123e-02,4.751754552125930786e-02,4.908013716340065002e-02,2.926647663116455078e-02,2.112385071814060211e-02,-1.775187626481056213e-02,-2.552106790244579315e-02,-3.356452658772468567e-02,-3.363143652677536011e-02,-2.255608327686786652e-02,1.472573354840278625e-02,-1.997378468513488770e-02,-1.421684678643941879e-02,-2.824304066598415375e-02,-7.813474163413047791e-03,-2.302525006234645844e-02,-2.411455148831009865e-03,2.897174283862113953e-02,4.924266249872744083e-04,-1.536189951002597809e-02,-2.663528546690940857e-02,1.217177882790565491e-02,-3.628784790635108948e-02,-2.607004158198833466e-02,5.673329159617424011e-02,2.867698494810611010e-04,9.725417010486125946e-03,-2.304645068943500519e-02,-1.047598384320735931e-02,-9.347934974357485771e-04,-2.530773356556892395e-02,-3.906337171792984009e-02,-3.173339366912841797e-02,3.622390702366828918e-02,-8.002766221761703491e-02,-2.223112881183624268e-01,-6.031638011336326599e-02,7.631350308656692505e-04,3.931009769439697266e-02,1.652287691831588745e-02,5.818551871925592422e-03,1.919910497963428497e-02,-1.283924188464879990e-02,-4.581306129693984985e-03,-1.715184561908245087e-02,-1.737790927290916443e-02,7.730555254966020584e-03,4.406975582242012024e-02,9.535313583910465240e-03,8.305784431286156178e-04,5.413345992565155029e-03,-3.882146906107664108e-03,-1.256878953427076340e-02,-4.687900096178054810e-02,-2.356561645865440369e-02,-2.679964154958724976e-02,-5.203910171985626221e-02,1.679106801748275757e-02,-9.683178365230560303e-02,-1.932037919759750366e-01,-9.426562488079071045e-02,-2.857010997831821442e-02,-9.970860928297042847e-02,-4.482597112655639648e-02,4.131690785288810730e-02,-5.831079557538032532e-02,-5.852203071117401123e-02,-1.977025158703327179e-02,4.242860898375511169e-02,5.259628966450691223e-02,4.267435148358345032e-02,9.963996708393096924e-03,-6.125133484601974487e-02,-4.360748454928398132e-02,-4.011530801653862000e-02,-1.581854373216629028e-02,-9.164825081825256348e-03,1.803402410587295890e-04,1.390373613685369492e-02,3.002398443641141057e-05,-9.866128675639629364e-03,5.516752135008573532e-03,-6.825350224971771240e-03,-8.442620310233905911e-05,-1.945860497653484344e-02,-2.340807765722274780e-02,-3.759389044716954231e-03,-1.358618959784507751e-02,2.982729300856590271e-02,6.713860668241977692e-03,-9.870518930256366730e-03,-2.446190686896443367e-03,1.587336510419845581e-02,1.190695632249116898e-02,1.221320778131484985e-02,1.910765282809734344e-02,1.575257815420627594e-02,-6.831433624029159546e-03,-4.069890454411506653e-02,4.137901123613119125e-03,2.812237245962023735e-03,1.898102089762687683e-02,-3.132960200309753418e-02,4.538078978657722473e-02,8.622606843709945679e-02,3.496894985437393188e-02,-4.987667873501777649e-02,-5.365040525794029236e-02,-8.422119542956352234e-03,1.415040995925664902e-02,-8.350824937224388123e-03,-3.344628494232892990e-04,-4.395958501845598221e-03,-3.583385795354843140e-02,-2.069491520524024963e-02,2.360550500452518463e-02,4.178755730390548706e-02,2.785601466894149780e-02,2.276090905070304871e-02,1.715277880430221558e-02,-1.134799607098102570e-02,4.960880801081657410e-02,3.444922715425491333e-02,4.428465850651264191e-03,2.272704616189002991e-02,1.411683578044176102e-02,-1.148854754865169525e-02,-3.263607621192932129e-02,-3.062663972377777100e-02,-7.213286589831113815e-03,-1.072601415216922760e-02,1.239843200892210007e-02,1.346446759998798370e-02,-1.015395671129226685e-02,2.481731213629245758e-02,6.488095037639141083e-03,1.016175933182239532e-02,-9.386314079165458679e-03,4.658870398998260498e-02,-1.709861867129802704e-02,1.054537389427423477e-02,3.464299661573022604e-04,-9.962048381567001343e-03,7.992705702781677246e-02,-1.715934649109840393e-02,-7.451939862221479416e-03,-6.213959772139787674e-03,-1.037031691521406174e-02,-5.309311673045158386e-03,2.021012082695960999e-02,-3.548673167824745178e-02,-1.795213902369141579e-03,6.022331118583679199e-02,6.598675251007080078e-02,7.125810720026493073e-03,-2.073674649000167847e-02,8.322491310536861420e-03,2.084448235109448433e-03,1.238628290593624115e-02,-6.076986435800790787e-03,4.419144615530967712e-02,2.002870664000511169e-02,-4.916231334209442139e-02,-5.180324986577033997e-02,2.022297680377960205e-02,-4.826432093977928162e-02,-2.021454460918903351e-02,3.414691612124443054e-02,-2.647908031940460205e-02,1.869821920990943909e-02,2.221420221030712128e-02,5.438723042607307434e-02,-2.666484192013740540e-02,9.327977895736694336e-03,8.052144199609756470e-03,-5.023349076509475708e-02,-4.906173050403594971e-02,-5.579067021608352661e-02,1.856890134513378143e-02,3.925975039601325989e-02,1.709778979420661926e-02,4.782309383153915405e-02,2.252682670950889587e-02,-1.533625065349042416e-03,-2.360868453979492188e-02,1.677076891064643860e-02,-1.398304197937250137e-02,4.105948284268379211e-02,7.412678748369216919e-02,-1.928233541548252106e-02,-1.898918859660625458e-02,5.852751061320304871e-02,-6.402130704373121262e-03,-1.787086948752403259e-02,6.344712525606155396e-02,-3.157748607918620110e-03,5.292000249028205872e-02,8.011274971067905426e-03,5.870777368545532227e-02,-1.394381863065063953e-03,1.125344354659318924e-02,-1.439269725233316422e-02,-3.834041766822338104e-03,1.054545212537050247e-02,-1.517328154295682907e-02,1.742250472307205200e-02,2.749268896877765656e-02,1.528690010309219360e-02,-5.387495085597038269e-02,3.863690048456192017e-02,-1.429900992661714554e-02,-6.831634789705276489e-02,-1.103435270488262177e-02,3.005005978047847748e-02,6.079718098044395447e-02,-9.461771696805953979e-02,-3.897642344236373901e-02,-1.271046884357929230e-02,-3.914377838373184204e-02,-1.805907115340232849e-02,1.564100012183189392e-02,7.275348901748657227e-02,6.408483255654573441e-03,2.939581312239170074e-02,1.006895583122968674e-02,-3.539697965607047081e-03,-9.323419630527496338e-02,3.329852595925331116e-02,4.602792486548423767e-02,-1.014166250824928284e-01,-9.904683381319046021e-02,6.526574026793241501e-03,-1.437910646200180054e-01,-2.256240397691726685e-01,-8.779933303594589233e-02,4.029424861073493958e-02,1.456816960126161575e-02,2.488910779356956482e-02,6.314986944198608398e-02,-1.585481613874435425e-01,-4.327337443828582764e-02,-7.776533253490924835e-03,1.748649030923843384e-01,3.554471954703330994e-02,3.089459799230098724e-02,8.958542719483375549e-03,-4.794454202055931091e-02,4.058699682354927063e-02,3.295708447694778442e-02,-5.899235978722572327e-02,8.409212343394756317e-03,5.764755979180335999e-02,3.149094060063362122e-02,-4.230525344610214233e-02,-5.574765801429748535e-02,-1.468284334987401962e-02,-3.857906535267829895e-02,-1.229569502174854279e-02,-6.501287966966629028e-02,-4.373914096504449844e-03,7.884762436151504517e-02,2.693178318440914154e-02,-2.331661060452461243e-02,8.493960835039615631e-03,1.567616313695907593e-02,-4.680174402892589569e-03,6.990279536694288254e-03,7.631464861333370209e-03,-6.904761772602796555e-03,-9.622731246054172516e-03,-2.538545755669474602e-03,-3.468817844986915588e-02,-7.125448435544967651e-02,-6.983511894941329956e-02,-1.610490307211875916e-02,5.188572220504283905e-03,4.202686995267868042e-02,3.122521564364433289e-03,3.378728404641151428e-02,1.016150787472724915e-01,6.745298206806182861e-02,4.482337087392807007e-02,7.399218529462814331e-02,-5.662148445844650269e-02,-1.348024010658264160e-01,1.595874316990375519e-02,-1.425963342189788818e-01,-1.736872941255569458e-01,-4.046125337481498718e-02,-2.761374600231647491e-02,3.097804822027683258e-02,-1.926520839333534241e-02,-2.746750786900520325e-02,-1.588215120136737823e-02,-1.815222017467021942e-02,-6.337632425129413605e-03,5.181934684514999390e-02,3.113241307437419891e-02,-5.329447612166404724e-02,2.162992395460605621e-02,5.224541202187538147e-02,-6.428856402635574341e-02,-8.207633346319198608e-02,1.162621099501848221e-02,8.850230276584625244e-02,-4.963702335953712463e-02,7.538157701492309570e-02,-1.676430404186248779e-01,-1.393603682518005371e-01,-2.242413163185119629e-01,-9.293517470359802246e-02,6.039442867040634155e-02,-8.319448679685592651e-02,-3.881187736988067627e-02,1.401625573635101318e-01,-2.535974234342575073e-02,-1.752055063843727112e-02,-9.047533385455608368e-03,1.502676960080862045e-02,-5.136197432875633240e-02,-1.068022660911083221e-02,-2.019582130014896393e-02,1.881157048046588898e-02,1.341388672590255737e-01,6.630951166152954102e-02,3.921922761946916580e-03,1.800861954689025879e-02,7.853399962186813354e-03,-2.539562433958053589e-02,-3.144924342632293701e-02,-1.501978840678930283e-03,3.858848474919795990e-03,4.854286834597587585e-02,-1.436757575720548630e-02,1.118815317749977112e-02,4.380514379590749741e-03,-2.455822005867958069e-02,1.816188544034957886e-02,-2.692320384085178375e-02,-7.223058491945266724e-02,2.803277224302291870e-02,4.407800734043121338e-02,1.400524284690618515e-02,5.430034361779689789e-03,9.187495708465576172e-02,3.193814773112535477e-03,-1.794452220201492310e-02,5.726610869169235229e-02,-8.409757167100906372e-03,-3.496074303984642029e-02,-2.329630032181739807e-02,-3.508884832262992859e-02,2.560278587043285370e-02,-3.168857842683792114e-02,-5.416003987193107605e-02,6.973563134670257568e-02,-1.071622967720031738e-02,-6.803429126739501953e-02,3.557791560888290405e-02,3.474882990121841431e-02,-1.933383941650390625e-02,-6.542047113180160522e-02,-4.642719402909278870e-03,-2.336200140416622162e-02,7.583291083574295044e-02,9.117364883422851562e-03,-4.970065131783485413e-02,6.294440478086471558e-02,-9.873475134372711182e-02,3.315750136971473694e-02
-9.055689908564090729e-03,-3.075320832431316376e-02,1.195313688367605209e-02,-3.253934904932975769e-02,-6.284554488956928253e-03,-2.023521810770034790e-02,4.799643531441688538e-03,-2.146175317466259003e-02,-4.155739210546016693e-03,1.716344058513641357e-02,-2.330269431695342064e-03,7.397156208753585815e-02,-3.210483863949775696e-02,-7.753603160381317139e-02,-1.264778431504964828e-02,3.898518905043601990e-02,-4.317005351185798645e-02,1.090434938669204712e-02,-2.964263968169689178e-02,-5.853353068232536316e-02,-5.973569676280021667e-02,-2.943720668554306030e-02,-3.644143044948577881e-02,-1.237996947020292282e-02,-2.277543023228645325e-02,-2.448461949825286865e-03,-1.612370717339217663e-03,4.881256818771362305e-02,-5.967490002512931824e-02,-8.786990307271480560e-03,-6.862829439342021942e-03,7.021898031234741211e-02,2.374769933521747589e-02,-2.442924305796623230e-02,1.365949865430593491e-04,-5.532015860080718994e-02,7.404091954231262207e-02,4.040528461337089539e-02,5.817972496151924133e-02,2.297601476311683655e-02,-4.186809994280338287e-03,4.440251737833023071e-02,3.768061101436614990e-02,4.683470726013183594e-02,8.456186950206756592e-02,-1.713112741708755493e-02,-2.802089555189013481e-03,3.512524440884590149e-02,-7.574785035103559494e-03,2.181135490536689758e-02,3.476689383387565613e-02,1.305516064167022705e-02,-1.615386828780174255e-02,-4.361002705991268158e-03,7.381479442119598389e-02,1.827314496040344238e-02,4.165270365774631500e-03,8.811035659164190292e-04,-2.033325470983982086e-02,-4.489290993660688400e-03,-1.378446538001298904e-02,-2.880053594708442688e-02,2.830701135098934174e-02,-7.343512028455734253e-03,3.541901707649230957e-02,5.528652295470237732e-02,6.227489560842514038e-02,-1.922942139208316803e-02,2.812919951975345612e-02,2.173462510108947754e-02,-2.091122977435588837e-02,-2.128190128132700920e-03,1.985966414213180542e-02,-5.198141932487487793e-02,4.414898157119750977e-02,-4.996884986758232117e-02,3.834434598684310913e-02,4.582341387867927551e-02,5.857233703136444092e-02,4.243163391947746277e-02,1.722711697220802307e-02,-2.744381502270698547e-02,9.703487739898264408e-04,5.553857423365116119e-03,1.163632329553365707e-02,3.268136456608772278e-02,-2.319362014532089233e-03,6.528085563331842422e-03,-1.471916330046951771e-03,-1.722184941172599792e-03,1.396835502237081528e-02,-2.060653641819953918e-02,-2.766231261193752289e-02,1.903939433395862579e-02,5.508985836058855057e-03,-4.822063446044921875e-02,-3.209470771253108978e-03,-3.595964238047599792e-02,-3.726036846637725830e-02,1.328176259994506836e-02,1.073160860687494278e-02,1.911360584199428558e-02,-1.149329822510480881e-02,-7.000884413719177246e-02,-3.112366423010826111e-02,3.334257006645202637e-02,-1.336977444589138031e-02,3.598276525735855103e-02,-1.070887967944145203e-02,-3.979974985122680664e-02,7.217900454998016357e-02,3.433971107006072998e-02,1.327443569898605347e-01,2.396951802074909210e-02,4.259628802537918091e-02,6.785375624895095825e-02,-3.056338429450988770e-02,1.889897324144840240e-02,-1.440276578068733215e-02,-2.624728530645370483e-02,-8.250206708908081055e-03,-2.462916448712348938e-02,-1.237385813146829605e-02,-3.920461609959602356e-02,-2.198218740522861481e-02,6.925570312887430191e-03,-5.969332065433263779e-03,-1.656102947890758514e-02,-5.747447535395622253e-02,6.845176964998245239e-02,-1.814210414886474609e-02,-4.325608164072036743e-02,2.938449382781982422e-02,-3.689454868435859680e-03,1.142599713057279587e-02,3.028910048305988312e-02,-4.214903805404901505e-03,3.812633454799652100e-02,-6.103998981416225433e-03,-7.916850969195365906e-03,7.218288257718086243e-03,1.902840100228786469e-02,5.406873766332864761e-03,1.188364694826304913e-03,1.241990737617015839e-02,-6.001805886626243591e-03,3.441733308136463165e-03,-1.402836851775646210e-02,-9.762139059603214264e-03,-7.301216246560215950e-04,6.915498990565538406e-03,-5.757276085205376148e-04,3.884489834308624268e-02,2.955693937838077545e-02,4.254183545708656311e-02,-2.802022732794284821e-02,2.659676223993301392e-02,4.233555123209953308e-02,-1.503720507025718689e-02,-3.290651366114616394e-02,2.882598526775836945e-02,6.845301389694213867e-02,3.224928677082061768e-02,-7.443464826792478561e-03,-1.210575271397829056e-02,-2.704866975545883179e-02,-5.676168203353881836e-02,4.095059819519519806e-03,-5.231468752026557922e-02,-2.167910523712635040e-02,3.800176084041595459e-02,3.522735461592674255e-02,3.604655340313911438e-02,-3.171217441558837891e-02,9.631101973354816437e-03,2.338617667555809021e-02,1.801628060638904572e-02,-3.792344406247138977e-02,-5.034065246582031250e-02,-4.830441251397132874e-02,-4.713499918580055237e-02,6.210726685822010040e-03,-3.027511015534400940e-02,-4.055225104093551636e-02,3.893257305026054382e-02,2.478693984448909760e-02,1.408044341951608658e-02,-1.545680500566959381e-02,-2.749051526188850403e-02,3.455937281250953674e-02,-5.407813563942909241e-02,1.772404462099075317e-02,2.670234814286231995e-02,-4.368359595537185669e-02,-9.226800757460296154e-04,9.881420433521270752e-02,3.218742832541465759e-02,1.595425978302955627e-02,-1.287580002099275589e-02,-4.566857963800430298e-02,-3.353069350123405457e-02,-1.200927048921585083e-02,-3.829827532172203064e-02,-3.343078866600990295e-02,1.320988964289426804e-02,2.926410175859928131e-02,7.128477841615676880e-02,1.386391464620828629e-02,1.241423748433589935e-02,-1.741033233702182770e-02,1.579222828149795532e-02,9.625667333602905273e-02,3.298242017626762390e-02,-4.288582876324653625e-02,6.548340752488002181e-05,-3.904720069840550423e-03,5.653831642121076584e-03,-1.415694132447242737e-02,2.241500653326511383e-02,-1.717647165060043335e-02,2.610837854444980621e-02,-1.249095611274242401e-02,-5.499964952468872070e-02,2.650502137839794159e-02,-3.638416528701782227e-02,3.478758782148361206e-02,2.536467218305915594e-04,2.269271947443485260e-02,-1.362508395686745644e-03,-5.878776684403419495e-02,9.519441053271293640e-03,-5.944101605564355850e-03,-3.421479091048240662e-02,2.577583305537700653e-02,-2.812638320028781891e-02,3.968633711338043213e-02,2.171902172267436981e-02,2.549097500741481781e-02,-8.559592999517917633e-03,6.527035031467676163e-03,-1.573678851127624512e-02,-5.550764128565788269e-02,-1.158635597676038742e-02,1.921111717820167542e-02,-1.551508158445358276e-02,-1.787916570901870728e-02,-2.056904602795839310e-03,-4.985743202269077301e-03,1.249310933053493500e-02,-5.786115769296884537e-03,-1.252268441021442413e-03,1.708189956843852997e-02,1.191683951765298843e-02,1.586751546710729599e-03,6.475450005382299423e-03,-3.281040489673614502e-02,-2.489600703120231628e-02,-5.464769899845123291e-03,-2.072574198246002197e-02,-2.188355661928653717e-02,3.452557697892189026e-02,7.253989577293395996e-03,-1.413726713508367538e-02,2.005059458315372467e-02,2.833012491464614868e-02,5.956884846091270447e-02,3.309178724884986877e-02,9.912526234984397888e-03,4.799142852425575256e-02,-2.803726121783256531e-03,2.308036759495735168e-02,-5.138063058257102966e-02,1.633816771209239960e-02,-6.717823445796966553e-02,4.551808163523674011e-02,1.598055213689804077e-01,-3.220863640308380127e-02,9.447535127401351929e-02,5.336339771747589111e-02,1.545818150043487549e-02,7.573297712951898575e-03,1.668614335358142853e-02,-1.908650249242782593e-02,-4.717564210295677185e-02,5.398874636739492416e-03,-2.315921476110816002e-03,-2.606151625514030457e-02,2.853064099326729774e-03,2.758065052330493927e-02,-4.540917463600635529e-03,-2.364041469991207123e-02,-7.795199751853942871e-03,-4.453347250819206238e-02,-3.032021410763263702e-02,-2.284102514386177063e-02,-3.189493715763092041e-02,3.591616824269294739e-02,5.561319179832935333e-03,-2.117555961012840271e-02,-2.450925530865788460e-04,-4.037909675389528275e-03,-1.712117716670036316e-02,-1.260042004287242889e-02,2.761688642203807831e-02,1.360658369958400726e-02,1.177749410271644592e-02,4.338243603706359863e-02,-1.905412040650844574e-02,-3.519239649176597595e-02,-1.666790246963500977e-02,-3.392179310321807861e-02,9.545941837131977081e-03,-1.218454819172620773e-02,5.650139879435300827e-03,5.163929238915443420e-02,1.668152282945811749e-03,-3.761955304071307182e-03,-2.149692038074135780e-03,-2.877692505717277527e-02,-1.847767503932118416e-03,1.780092529952526093e-02,-1.768107898533344269e-02,9.285510517656803131e-03,3.502569347620010376e-02,3.628367558121681213e-02,1.171268988400697708e-02,1.742492429912090302e-02,1.647809706628322601e-02,8.845192380249500275e-03,2.823531627655029297e-03,7.323598489165306091e-03,9.451511316001415253e-03,5.545008927583694458e-02,2.720109932124614716e-02,-4.001606721431016922e-03,3.121459670364856720e-02,-4.343144223093986511e-02,-8.671611547470092773e-02,1.099520549178123474e-02,-1.234992872923612595e-02,-2.710539847612380981e-02,8.899464458227157593e-02,5.053581297397613525e-02,-5.945286899805068970e-02,4.219722747802734375e-02,2.263038232922554016e-02,-4.067509993910789490e-02,2.729698084294795990e-02,6.952167302370071411e-02,4.110529646277427673e-02,1.845048507675528526e-03,2.804613858461380005e-02,-5.024465173482894897e-02,1.791688986122608185e-02,7.341886311769485474e-02,-5.573385208845138550e-02,3.289951477199792862e-03,6.838466227054595947e-02,-2.504605613648891449e-02,2.868412435054779053e-02,5.856441333889961243e-02,-1.951864175498485565e-02,-1.052241846919059753e-01,2.604771964251995087e-02,7.807642966508865356e-02,3.728864714503288269e-02,-5.435132235288619995e-02,4.640101268887519836e-02,2.770759351551532745e-02,-1.634327322244644165e-02,-5.997034162282943726e-02,-5.237690731883049011e-02,-3.327060118317604065e-02,-4.241498187184333801e-02,-2.948933467268943787e-02,1.697362214326858521e-02,1.408480387181043625e-02,1.781981624662876129e-02,-2.397849224507808685e-03,-3.372478112578392029e-02,-3.063877485692501068e-02,-5.378437042236328125e-02,-8.111849427223205566e-02,-6.874650716781616211e-02,2.973404480144381523e-03,-6.815327703952789307e-02,-7.577623426914215088e-02,4.391542822122573853e-02,-1.810578443109989166e-02,-7.101054489612579346e-02,1.146598719060420990e-02,1.810736656188964844e-01,8.194737136363983154e-02,2.131513133645057678e-02,1.069159656763076782e-01,1.904656551778316498e-02,-5.056250374764204025e-03,-4.868493974208831787e-02,-1.204905286431312561e-02,-5.373753979802131653e-02,7.338478229939937592e-03,-3.414507955312728882e-04,-1.458788104355335236e-02,5.599737167358398438e-02,3.381057083606719971e-02,4.181960597634315491e-02,1.256221556104719639e-03,3.143445029854774475e-02,-2.536909189075231552e-03,-2.287609688937664032e-02,1.728348992764949799e-02,1.249623484909534454e-02,-8.662174455821514130e-03,7.777056191116571426e-03,1.710779070854187012e-01,9.916929900646209717e-02,8.424868434667587280e-02,-1.815980114042758942e-02,-3.133919239044189453e-01,-7.707976549863815308e-02,-9.783149696886539459e-03,-1.108527481555938721e-01,1.376962065696716309e-01,4.614502936601638794e-02,2.557595446705818176e-02,2.027020603418350220e-02,5.388730671256780624e-03,1.983905732631683350e-01,7.165140658617019653e-02,-3.811098262667655945e-02,3.947887569665908813e-02,-1.496012695133686066e-02,-6.721179932355880737e-02,-4.255926236510276794e-02,-4.496246576309204102e-02,-4.698996990919113159e-02,-4.508532956242561340e-02,-2.946356683969497681e-02,-2.840504795312881470e-02,-4.940513055771589279e-03,-4.505734890699386597e-02,1.006794720888137817e-01,-4.967189952731132507e-02,-1.805462129414081573e-02,2.284319140017032623e-02,-4.647655412554740906e-02,-9.796329541131854057e-04,5.432441830635070801e-04,-2.705130167305469513e-02,1.501515693962574005e-02,8.365763723850250244e-02,-2.040263637900352478e-02,-6.204202771186828613e-03,1.850957423448562622e-02,-1.402509808540344238e-01,2.427222393453121185e-02,5.736665427684783936e-02,2.209354937076568604e-02,7.420836389064788818e-02,-2.389469183981418610e-02,-9.352767467498779297e-02,2.547505497932434082e-02,-4.962650686502456665e-02,-1.813468039035797119e-01,-3.866490721702575684e-02,8.055418729782104492e-02,-6.300644576549530029e-02,1.897651702165603638e-03,1.509719714522361755e-02,-1.990075968205928802e-02,-1.619409024715423584e-02,1.718841120600700378e-02,-1.387843675911426544e-02,-2.709826827049255371e-02,4.586020112037658691e-02,4.358554724603891373e-03,2.576296962797641754e-02,2.169764600694179535e-02,-6.799713708460330963e-03,5.149115622043609619e-02,-1.713838241994380951e-02,-7.750044763088226318e-02,1.670011901296675205e-03,3.395979851484298706e-02,-2.874847128987312317e-02,2.514349110424518585e-02,3.753895312547683716e-02,5.956407263875007629e-02,3.081519156694412231e-02,6.157521158456802368e-02,7.827683538198471069e-02,9.762304835021495819e-03,8.819350041449069977e-03,8.620993234217166901e-03,2.456899359822273254e-02,-1.885302551090717316e-02,-8.951974101364612579e-03,1.391609478741884232e-02,2.227680990472435951e-03,1.227920651435852051e-01,-2.063010632991790771e-02,3.668303042650222778e-02,7.388035953044891357e-02,-3.225275874137878418e-02,-9.795912541449069977e-03,-5.700625851750373840e-02,-8.125428110361099243e-03,2.627511508762836456e-02,-5.004315450787544250e-02,-5.319158732891082764e-02,4.159355908632278442e-02,2.694912068545818329e-02,3.123584436252713203e-03,-7.457317411899566650e-02,-6.078293174505233765e-02,-3.153985366225242615e-02,3.431278839707374573e-02,1.986992545425891876e-02,-1.847385242581367493e-02,2.980779111385345459e-02,-4.692852962762117386e-03,-4.158034548163414001e-02,-3.055205941200256348e-02,-1.747384481132030487e-02,4.252078756690025330e-02,-6.990197300910949707e-02,-7.785721868276596069e-02,-1.202469412237405777e-02,2.577801235020160675e-02,-3.678850084543228149e-02,8.642396889626979828e-03,-1.665472984313964844e-02,-2.577554434537887573e-03,1.872890628874301910e-02,-6.994581967592239380e-02,1.043384056538343430e-02,1.223733089864253998e-02,-4.678885638713836670e-02,9.059065021574497223e-03,1.590211503207683563e-02,1.615154184401035309e-02,1.262067724019289017e-02,4.049329832196235657e-02,4.927135258913040161e-02,2.166034132242202759e-01,1.502564251422882080e-01,1.484358403831720352e-02,7.844687253236770630e-02,-2.762392163276672363e-02,2.683018147945404053e-02,1.426670886576175690e-02,6.265751272439956665e-02,3.058522415813058615e-04,-5.324121098965406418e-03,3.278560703620314598e-03,2.109695784747600555e-02,-2.318945713341236115e-02,1.210207957774400711e-02,-6.118246912956237793e-02,-2.922672033309936523e-02,2.003580518066883087e-02,-7.608854025602340698e-02,-7.705670595169067383e-02,8.654354512691497803e-02,-3.922822698950767517e-02,-3.236059471964836121e-02,-8.897038549184799194e-02,-1.337213963270187378e-01,8.836232125759124756e-02,8.383645117282867432e-02,-1.168826874345541000e-02,4.315567314624786377e-01,-3.362914081662893295e-03,-2.392477914690971375e-02,-1.009157821536064148e-01,-1.018353924155235291e-01
8.016525208950042725e-02,4.304237663745880127e-02,2.732492983341217041e-03,3.526894748210906982e-02,-1.550392340868711472e-02,-3.501080721616744995e-02,-1.716421544551849365e-02,-2.682714350521564484e-02,-3.394595533609390259e-02,4.543907195329666138e-02,5.158514529466629028e-02,1.832138188183307648e-02,-3.964732959866523743e-02,2.395640127360820770e-02,-2.660927176475524902e-02,-3.035780042409896851e-02,-6.472931802272796631e-02,2.583408169448375702e-02,3.810471668839454651e-02,4.098634421825408936e-02,4.100536927580833435e-02,1.758417673408985138e-02,-1.649402640759944916e-02,-3.271648287773132324e-02,5.588606465607881546e-03,-1.706753484904766083e-02,-3.060462139546871185e-02,-1.156417652964591980e-01,-9.271965920925140381e-02,-2.100449055433273315e-01,-7.950649410486221313e-02,-1.158131062984466553e-01,-2.376701682806015015e-01,-3.669088333845138550e-02,-1.161329261958599091e-02,-6.984679400920867920e-02,-7.645614445209503174e-02,-2.474788203835487366e-02,1.690053194761276245e-02,-3.772990033030509949e-02,6.845801603049039841e-03,3.819294273853302002e-02,3.736926009878516197e-03,3.029001690447330475e-02,4.386039450764656067e-02,4.096821416169404984e-03,-3.070175461471080780e-02,-6.505125761032104492e-02,-8.476340211927890778e-03,-4.420910030603408813e-02,-4.711569845676422119e-02,-5.970040801912546158e-03,-5.123043432831764221e-02,-4.011918604373931885e-02,4.624636843800544739e-03,-1.865548780187964439e-03,-1.575993373990058899e-02,2.545942738652229309e-02,1.624138094484806061e-02,3.626335645094513893e-03,4.543219693005084991e-03,4.699852783232927322e-03,2.466286346316337585e-02,-2.779542095959186554e-02,-8.110641501843929291e-03,-3.835679497569799423e-03,-3.297963738441467285e-02,-2.822198905050754547e-03,1.468786690384149551e-02,5.972253531217575073e-02,6.589599698781967163e-02,1.704517751932144165e-02,-3.110527992248535156e-02,6.488205492496490479e-02,-2.424646401777863503e-03,-9.509986266493797302e-03,3.692572936415672302e-02,-2.701730281114578247e-02,-4.494937136769294739e-02,3.106347750872373581e-03,-2.236940339207649231e-02,3.857770189642906189e-02,3.176692873239517212e-03,-5.483307316899299622e-02,2.600881969556212425e-03,-5.813410505652427673e-03,-3.165268152952194214e-02,-1.821223460137844086e-02,-9.022823534905910492e-03,-2.359767258167266846e-02,5.151149258017539978e-02,1.790252700448036194e-02,-6.942100822925567627e-03,1.921802014112472534e-02,-4.951909556984901428e-02,9.632790461182594299e-03,3.001906722784042358e-02,2.425464987754821777e-02,6.495282868854701519e-04,-5.583942309021949768e-02,8.186517655849456787e-02,4.203462600708007812e-02,1.191822905093431473e-02,-1.263442039489746094e-01,2.562313340604305267e-02,-3.190220147371292114e-02,9.291268885135650635e-02,2.565460454206913710e-05,-6.646928843110799789e-03,8.899671956896781921e-03,-3.154270723462104797e-02,-4.098439961671829224e-02,-7.374616712331771851e-02,-8.381245657801628113e-03,5.387810245156288147e-02,8.906205766834318638e-04,4.807598143815994263e-02,5.433337390422821045e-02,9.891123324632644653e-02,3.813277557492256165e-02,5.486757680773735046e-02,6.849935650825500488e-02,-1.346097420901060104e-02,4.818488657474517822e-02,8.691512048244476318e-03,-4.570154473185539246e-02,-6.864962726831436157e-02,4.403321444988250732e-02,7.123432122170925140e-03,-6.839448213577270508e-02,4.783377423882484436e-02,7.415688037872314453e-02,-3.819749876856803894e-02,-3.931366652250289917e-02,-3.624889627099037170e-02,5.176510661840438843e-03,-1.141336001455783844e-02,1.684633665718138218e-03,1.168700493872165680e-02,-2.482353337109088898e-02,-3.510466485749930143e-04,2.026215195655822754e-02,3.351762145757675171e-02,1.063664164394140244e-02,-8.268157951533794403e-03,-1.780830882489681244e-02,3.550525382161140442e-02,-3.502016142010688782e-02,-8.530148863792419434e-02,1.083027385175228119e-02,6.189746782183647156e-03,-1.268844865262508392e-02,1.516679208725690842e-02,-4.753289371728897095e-02,-1.535312384366989136e-01,2.217835374176502228e-02,-7.937377691268920898e-02,-1.823472678661346436e-01,1.849130168557167053e-02,9.919032454490661621e-02,2.569814911112189293e-03,2.233901061117649078e-02,-4.137599468231201172e-02,-4.360196739435195923e-02,8.372704032808542252e-04,-2.595110982656478882e-02,-6.422040611505508423e-02,-1.357226166874170303e-02,4.373888671398162842e-02,-4.606689326465129852e-03,-1.940310001373291016e-02,-5.141808837652206421e-02,-1.550414226949214935e-02,-7.705823332071304321e-02,-4.896759986877441406e-02,-2.000381425023078918e-02,-9.493102878332138062e-02,-9.756170958280563354e-02,-1.501685678958892822e-01,-1.345633268356323242e-01,-4.653760418295860291e-02,1.796375587582588196e-02,1.918504200875759125e-02,-7.841578125953674316e-02,5.135949328541755676e-02,2.844123868271708488e-03,-9.740205854177474976e-02,-1.472226530313491821e-01,-1.075646951794624329e-01,-7.069409359246492386e-03,-4.375306516885757446e-02,2.787088789045810699e-02,-2.074298262596130371e-02,-8.230137079954147339e-02,1.425076462328433990e-02,7.944976910948753357e-03,-2.813166647683829069e-04,-1.010452024638652802e-02,-2.533612586557865143e-02,-2.558275870978832245e-02,-1.241895928978919983e-01,-1.123997289687395096e-02,1.527868909761309624e-03,-2.273476570844650269e-01,7.507546246051788330e-02,6.034175306558609009e-02,-2.625928074121475220e-02,1.123880222439765930e-02,3.195770317688584328e-03,-6.471523549407720566e-03,-3.347564861178398132e-02,-2.558485604822635651e-02,-1.082246378064155579e-02,-3.350654616951942444e-02,2.724634716287255287e-03,2.188062481582164764e-02,-3.031948581337928772e-02,-4.463042132556438446e-03,-2.715191431343555450e-02,-1.620587147772312164e-02,-1.387969497591257095e-02,-3.320258483290672302e-02,-2.940970659255981445e-02,2.043594047427177429e-02,1.135536935180425644e-02,2.438727021217346191e-02,-2.682446315884590149e-02,-6.954479217529296875e-02,2.515784278512001038e-02,-3.798887133598327637e-02,-1.028387397527694702e-01,-3.736748173832893372e-02,-2.088352106511592865e-02,-1.080615352839231491e-02,-2.979762479662895203e-02,-6.292591243982315063e-02,-2.800572291016578674e-02,3.421266376972198486e-02,5.926020070910453796e-02,-5.784822255373001099e-02,2.299642376601696014e-02,8.295579254627227783e-02,2.355276374146342278e-03,-2.549680694937705994e-02,1.075256802141666412e-02,4.780545830726623535e-02,-4.040736332535743713e-02,-3.831707313656806946e-02,1.509343367069959641e-02,8.535040542483329773e-03,8.370224386453628540e-03,1.111865695565938950e-02,2.947973459959030151e-02,7.314259186387062073e-03,-1.632888684980571270e-03,2.968479506671428680e-02,-2.955922856926918030e-02,-2.078464254736900330e-02,1.454717107117176056e-02,1.880284585058689117e-02,2.826476097106933594e-02,5.654386244714260101e-03,4.484722763299942017e-02,-4.378239437937736511e-02,-2.292137965559959412e-02,1.011608839035034180e-01,-8.546076714992523193e-02,-5.883212387561798096e-02,9.344130009412765503e-02,-3.957955911755561829e-02,-3.050103224813938141e-02,1.848058127507101744e-05,8.968605659902095795e-03,1.512321829795837402e-02,-7.744963467121124268e-02,-2.677698247134685516e-02,4.124500602483749390e-02,7.325733453035354614e-02,7.993320375680923462e-02,3.480806201696395874e-02,-2.075013704597949982e-02,3.125555068254470825e-02,9.914621477946639061e-04,-5.134304240345954895e-02,1.456813479308038950e-04,-2.790264785289764404e-02,1.570173189975321293e-03,4.255233332514762878e-03,-2.070732228457927704e-02,-1.013579592108726501e-02,4.309087246656417847e-02,-2.243048883974552155e-02,-1.818911544978618622e-02,6.636770069599151611e-02,1.714587025344371796e-02,2.796634845435619354e-02,6.968107819557189941e-02,-2.408957853913307190e-02,-2.246129326522350311e-02,2.670154161751270294e-02,-1.247638743370771408e-02,-3.082716651260852814e-02,4.570344090461730957e-02,2.091235853731632233e-02,1.257443148642778397e-02,1.652712002396583557e-02,-1.590771414339542389e-02,2.227322384715080261e-02,2.446482889354228973e-02,1.161028631031513214e-02,-1.252371910959482193e-02,-7.939114002510905266e-04,4.824309796094894409e-02,2.223488874733448029e-02,-1.094517949968576431e-02,2.179313823580741882e-02,4.569002985954284668e-02,-2.702201157808303833e-02,2.029951848089694977e-02,5.064513906836509705e-02,-4.367310553789138794e-02,-3.296697139739990234e-02,-1.731627620756626129e-02,-6.163756176829338074e-02,1.631914637982845306e-02,5.046461895108222961e-02,-3.823168948292732239e-02,4.936587437987327576e-02,1.631172299385070801e-01,4.991064593195915222e-02,1.462214742787182331e-03,5.313779413700103760e-02,-1.359647698700428009e-02,1.933330856263637543e-02,-2.448547817766666412e-02,-3.648706898093223572e-02,2.504266984760761261e-02,-2.115561813116073608e-02,-4.817426670342683792e-03,-1.911522261798381805e-02,-1.059378124773502350e-02,-1.001897081732749939e-02,1.643853611312806606e-03,-3.473409637808799744e-02,-1.320397667586803436e-02,-1.458654087036848068e-02,-4.136984422802925110e-02,-5.671501904726028442e-02,-1.187713723629713058e-02,-3.285598382353782654e-02,-9.629721753299236298e-03,-3.866877779364585876e-02,-3.646315773949027061e-03,2.537377411499619484e-03,1.115281041711568832e-02,-4.723120946437120438e-03,3.790563438087701797e-03,-4.565308243036270142e-02,-8.124100975692272186e-03,2.140720002353191376e-02,-1.993183232843875885e-02,-1.697736326605081558e-03,6.670020986348390579e-03,2.164668031036853790e-02,5.671352148056030273e-03,3.601006418466567993e-02,-3.988124954048544168e-04,-2.209421433508396149e-02,2.018519304692745209e-02,-4.325954243540763855e-03,4.351462796330451965e-02,-7.449969649314880371e-03,1.052317116409540176e-02,4.714000225067138672e-02,-1.321441680192947388e-02,-3.213750943541526794e-02,-9.462186135351657867e-03,-4.992496967315673828e-02,-5.810242611914873123e-03,1.028208248317241669e-02,2.722995541989803314e-02,5.147322639822959900e-02,5.183776840567588806e-02,5.100958421826362610e-02,-4.970727115869522095e-02,-3.346373513340950012e-02,-6.338582374155521393e-03,4.623410850763320923e-02,3.583559021353721619e-02,1.893852651119232178e-02,3.972664847970008850e-02,-6.970719248056411743e-02,-5.233210325241088867e-02,1.402385439723730087e-02,-2.563002891838550568e-02,1.831136643886566162e-02,1.630821451544761658e-02,4.257381893694400787e-03,4.461374506354331970e-02,4.467266425490379333e-02,-7.320500910282135010e-02,7.814122363924980164e-03,2.646465227007865906e-02,-3.751659393310546875e-02,-2.495872601866722107e-02,-2.393710054457187653e-02,-7.326652761548757553e-03,2.136171609163284302e-02,-1.208722591400146484e-02,4.499148577451705933e-03,3.295158222317695618e-02,-1.150140073150396347e-02,8.555210195481777191e-03,1.860426180064678192e-02,-2.213431522250175476e-02,-7.340951263904571533e-02,3.141345828771591187e-02,5.085939541459083557e-03,2.142181806266307831e-02,1.525283008813858032e-01,-5.058497190475463867e-02,-3.292398527264595032e-03,-4.947813227772712708e-02,4.300754517316818237e-02,2.637358568608760834e-02,-1.453048922121524811e-02,1.642230153083801270e-02,2.569465152919292450e-02,7.195606827735900879e-02,-3.777620568871498108e-02,9.466107934713363647e-03,-1.579602621495723724e-02,9.904257953166961670e-03,-1.037295013666152954e-01,-8.304793387651443481e-02,4.340011999011039734e-02,-1.388558149337768555e-01,-1.396349668502807617e-01,8.003626763820648193e-02,7.785511203110218048e-03,6.974035408347845078e-03,1.737475022673606873e-02,-7.198839634656906128e-02,-4.673279449343681335e-02,5.193905532360076904e-02,8.890759199857711792e-02,-3.400088474154472351e-02,-4.534331336617469788e-02,-1.253222376108169556e-01,4.700556769967079163e-02,-3.610286489129066467e-02,-2.323384582996368408e-02,-2.161340601742267609e-02,1.052437350153923035e-03,2.386928908526897430e-02,-2.976991934701800346e-03,1.728897355496883392e-02,4.535914212465286255e-02,3.851183224469423294e-03,-2.658827602863311768e-02,1.900524273514747620e-02,1.500443927943706512e-02,1.004147715866565704e-02,4.375894367694854736e-02,2.828225493431091309e-02,3.856728225946426392e-02,3.686837852001190186e-02,4.234926775097846985e-02,2.227531932294368744e-02,2.740802429616451263e-02,-1.848736777901649475e-02,2.075993269681930542e-02,1.806776970624923706e-02,-2.258798293769359589e-02,-1.627458631992340088e-02,-6.642664782702922821e-03,-2.846597507596015930e-02,-1.689402945339679718e-02,-9.790085256099700928e-03,-4.873996600508689880e-03,2.106232568621635437e-02,-1.766583323478698730e-02,-1.398537587374448776e-02,1.619223854504525661e-03,-7.604890502989292145e-03,-1.718640886247158051e-02,-9.183142334222793579e-03,-7.402968592941761017e-03,-5.369008332490921021e-02,-6.015676073729991913e-03,6.619468331336975098e-02,-8.801926672458648682e-02,-5.214869603514671326e-02,-1.603582873940467834e-02,-7.779084146022796631e-02,-4.466771334409713745e-02,-1.730967126786708832e-02,-1.655916683375835419e-02,-1.392734330147504807e-02,2.163000032305717468e-02,2.383919991552829742e-02,-3.454611822962760925e-02,-1.547056250274181366e-02,1.145629957318305969e-02,-3.356862068176269531e-02,-1.075991839170455933e-01,-8.132322132587432861e-02,3.253144770860671997e-02,-1.296432167291641235e-01,-1.776362210512161255e-01,-9.096425026655197144e-03,-9.046806395053863525e-02,-8.496344834566116333e-02,3.430325910449028015e-02,1.715082908049225807e-03,6.248423457145690918e-02,-1.078545823693275452e-01,-1.202137768268585205e-01,6.313678622245788574e-02,-2.225835062563419342e-02,1.872192509472370148e-02,8.882302790880203247e-02,-3.371912986040115356e-02,2.131113549694418907e-03,-8.430141955614089966e-02,7.157597574405372143e-04,6.997681409120559692e-02,-1.434212550520896912e-02,-1.079905480146408081e-01,-1.192234605550765991e-01,-7.961873710155487061e-02,1.252830773591995239e-02,9.123494848608970642e-03,5.703846737742424011e-02,4.904974717646837234e-03,-6.287210155278444290e-03,1.872845925390720367e-02,-8.639776147902011871e-03,-1.321305427700281143e-02,5.021591484546661377e-02,-4.402496665716171265e-02,-8.379882201552391052e-03,3.681013360619544983e-02,-2.311831712722778320e-02,4.523994401097297668e-02,7.828753441572189331e-03,1.399787724949419498e-03,1.353542320430278778e-02,3.650363162159919739e-02,-1.369383037090301514e-01,-1.407417505979537964e-01,5.142285302281379700e-02,-1.252125352621078491e-01,-1.312830597162246704e-01,7.573301345109939575e-02,-4.503204300999641418e-02,-1.708149164915084839e-02,7.125151902437210083e-02,6.338058412075042725e-02,1.587405055761337280e-02,-2.732193842530250549e-02,8.035604655742645264e-02,3.610372543334960938e-02,-2.850610390305519104e-02,2.663834393024444580e-02,2.202109061181545258e-02,3.234482556581497192e-02,-1.206781249493360519e-03,-4.617866128683090210e-02,-1.535077299922704697e-02,-1.127570308744907379e-02,1.919975131750106812e-02,3.433620557188987732e-02,1.654045470058917999e-02,-7.859208621084690094e-03,-2.539249323308467865e-02
-5.045275390148162842e-02,-6.366280466318130493e-02,-4.241432994604110718e-02,-4.227716475725173950e-02,-6.079725176095962524e-02,-2.890112064778804779e-02,-1.608899608254432678e-02,-4.414186626672744751e-02,-1.163060590624809265e-02,9.398384951055049896e-03,-1.788572757504880428e-03,3.477606456726789474e-03,1.136991567909717560e-02,1.377436798065900803e-02,2.222147025167942047e-02,4.362213984131813049e-02,9.808629751205444336e-03,4.801847040653228760e-03,9.283344261348247528e-03,1.692682690918445587e-02,1.202755700796842575e-02,3.724671527743339539e-02,4.758782312273979187e-02,3.256078436970710754e-02,3.498462215065956116e-02,3.327022865414619446e-02,1.086271461099386215e-02,2.858226932585239410e-02,8.749288506805896759e-03,2.274492383003234863e-02,4.789310693740844727e-02,-1.897342503070831299e-02,-2.082635276019573212e-02,7.247144728899002075e-02,-7.916959933936595917e-03,4.684523213654756546e-03,7.967199385166168213e-02,8.391445875167846680e-02,4.422092437744140625e-02,8.197609335184097290e-02,8.430068939924240112e-02,3.297597542405128479e-02,8.353792876005172729e-02,7.556080818176269531e-02,4.177539423108100891e-02,7.214650977402925491e-03,3.344305604696273804e-02,1.506344415247440338e-03,-8.793736808001995087e-03,3.267709538340568542e-02,-4.901745170354843140e-02,-3.527787700295448303e-02,3.550043702125549316e-02,4.482136573642492294e-03,1.308887079358100891e-02,1.766141504049301147e-02,-1.253650709986686707e-02,8.539218455553054810e-03,2.080659195780754089e-02,-8.407116867601871490e-03,-2.979338541626930237e-02,-3.045287169516086578e-02,-4.923572391271591187e-02,-6.049682572484016418e-02,-9.251227229833602905e-02,-1.049160398542881012e-02,2.353060990571975708e-02,7.590153068304061890e-02,6.642474234104156494e-02,-3.371637314558029175e-03,1.104266941547393799e-01,8.003982156515121460e-02,-1.239201240241527557e-02,1.478036679327487946e-02,-2.842093817889690399e-02,-5.624856334179639816e-03,-4.582097753882408142e-03,-2.536082454025745392e-02,3.111348720267415047e-03,1.582050882279872894e-02,2.285939455032348633e-02,2.246531844139099121e-02,2.037033624947071075e-02,2.393169701099395752e-02,2.459038514643907547e-03,7.312984205782413483e-03,9.341403841972351074e-03,6.746577098965644836e-03,6.216870970092713833e-04,2.336299233138561249e-02,-4.355755075812339783e-02,-6.925479322671890259e-02,-2.982159890234470367e-02,-1.138822920620441437e-02,-4.446645826101303101e-02,-2.883391268551349640e-02,3.653905913233757019e-02,-8.306084200739860535e-03,1.804454252123832703e-02,-1.539391279220581055e-02,-4.674813710153102875e-03,1.591021381318569183e-02,-1.014394462108612061e-01,-8.553940802812576294e-02,4.433862492442131042e-02,1.003112047910690308e-01,-2.302504517138004303e-02,-1.109537854790687561e-01,-3.278075018897652626e-03,9.617818146944046021e-02,1.516819279640913010e-02,-1.111304759979248047e-02,-6.263041496276855469e-02,-1.306743640452623367e-02,6.371524650603532791e-03,-5.089684203267097473e-02,4.802362620830535889e-02,2.695653529372066259e-04,2.237505093216896057e-02,2.465322986245155334e-02,-1.348400954157114029e-02,-1.889777556061744690e-02,-3.884409787133336067e-03,-1.997297257184982300e-02,-2.046635188162326813e-02,-2.499966323375701904e-02,5.404604598879814148e-02,1.261054724454879761e-02,3.009557956829667091e-03,1.390469539910554886e-02,2.009262144565582275e-02,9.392321109771728516e-03,2.090499270707368851e-03,-1.145244017243385315e-02,-1.062378473579883575e-02,-9.946745820343494415e-03,3.678746987134218216e-03,-3.031940199434757233e-02,-1.417213026434183121e-02,1.661641181271988899e-05,6.646027788519859314e-03,-2.817628160119056702e-02,-2.467026375234127045e-02,1.453896053135395050e-02,-1.482135988771915436e-02,-2.189109800383448601e-03,-1.794987707398831844e-03,-7.439514156430959702e-03,-3.189676441252231598e-03,4.418320953845977783e-03,-5.725960247218608856e-03,-1.701567880809307098e-02,-1.033435668796300888e-02,6.898125633597373962e-03,-3.890933841466903687e-02,-4.663764312863349915e-02,4.126361384987831116e-02,6.635241955518722534e-02,5.809445306658744812e-02,2.480744197964668274e-02,3.086016699671745300e-02,1.420116890221834183e-02,1.948976702988147736e-02,1.990240067243576050e-02,-2.375149400904774666e-03,6.155026331543922424e-02,6.755340844392776489e-02,2.806432358920574188e-02,1.462470833212137222e-02,1.181777939200401306e-02,-1.405602507293224335e-02,2.581193484365940094e-02,2.400217764079570770e-02,2.596732974052429199e-02,2.009332366287708282e-02,-9.756330400705337524e-03,-2.184208668768405914e-02,-4.621779546141624451e-03,-3.249705955386161804e-02,-3.693042322993278503e-02,3.956402093172073364e-02,1.527168788015842438e-02,3.240994736552238464e-02,2.306674420833587646e-02,-4.931437317281961441e-03,2.742272056639194489e-02,2.569589950144290924e-02,1.068978104740381241e-02,5.793550983071327209e-03,4.855541884899139404e-02,3.429228812456130981e-02,4.464541748166084290e-02,1.104819923639297485e-01,9.205272048711776733e-02,7.331664115190505981e-02,6.523402035236358643e-02,3.823029249906539917e-02,4.521851241588592529e-02,1.849442021921277046e-03,1.796367578208446503e-02,3.717463836073875427e-02,1.173454150557518005e-02,4.095192998647689819e-02,4.145135357975959778e-02,1.333278603851795197e-03,-1.238575857132673264e-02,-2.638388192281126976e-03,-1.464161090552806854e-02,-1.392868580296635628e-03,1.740884594619274139e-02,-3.104935586452484131e-02,-1.258950401097536087e-02,-1.837447471916675568e-02,-7.281578611582517624e-03,1.125768944621086121e-02,-1.873015053570270538e-02,-5.748863518238067627e-02,-3.768314421176910400e-02,-2.984143421053886414e-02,3.146742703393101692e-03,2.911102026700973511e-03,-8.325697854161262512e-03,1.361211203038692474e-02,1.636988483369350433e-02,1.870768517255783081e-02,-2.260940149426460266e-02,2.190229110419750214e-02,1.232361653819680214e-03,-1.221588812768459320e-02,2.685628458857536316e-02,-1.141384337097406387e-02,-1.509259222075343132e-03,1.743581332266330719e-02,-2.175595052540302277e-02,3.860078006982803345e-02,-2.324351575225591660e-03,2.162413438782095909e-03,6.168665277073159814e-05,1.048750593326985836e-03,2.137874718755483627e-03,-1.880954578518867493e-02,-2.724624797701835632e-02,-1.816974580287933350e-02,1.837057620286941528e-02,2.533782646059989929e-02,-3.262146189808845520e-02,3.679136931896209717e-02,4.182414337992668152e-02,-1.587364077568054199e-02,8.066068403422832489e-03,1.142992265522480011e-02,-4.333563148975372314e-02,-3.178215026855468750e-02,-2.542898058891296387e-02,-2.821514755487442017e-02,2.213560789823532104e-02,2.311038039624691010e-02,-1.079103350639343262e-02,2.483086474239826202e-02,4.673580825328826904e-02,-2.175609814003109932e-03,-4.045271500945091248e-02,-4.979451373219490051e-02,-3.284442424774169922e-02,1.338012749329209328e-03,1.007609628140926361e-02,-1.362747233361005783e-02,3.261325508356094360e-02,6.593466550111770630e-02,4.472361877560615540e-02,4.089739918708801270e-02,4.155696928501129150e-02,9.377734735608100891e-03,6.395132094621658325e-02,-1.302690245211124420e-03,-5.134695023298263550e-02,3.962474316358566284e-02,-1.841343753039836884e-02,8.921426720917224884e-03,9.661858901381492615e-03,-9.956046938896179199e-03,2.906544320285320282e-02,-1.080822013318538666e-02,-4.821022972464561462e-03,2.090679481625556946e-02,7.473733741790056229e-03,5.067807156592607498e-03,3.586695343255996704e-02,1.490657124668359756e-02,2.619982138276100159e-02,-6.964888889342546463e-03,2.600908093154430389e-02,4.292934387922286987e-02,1.455384492874145508e-02,-3.221539035439491272e-02,-3.003916703164577484e-02,-4.265879839658737183e-02,-4.361282661557197571e-02,-1.820029132068157196e-02,1.309738587588071823e-02,-1.735323667526245117e-02,-2.003327477723360062e-03,2.167579531669616699e-02,5.366356112062931061e-03,8.015041239559650421e-03,2.683945745229721069e-02,3.076398745179176331e-03,9.608015418052673340e-03,-6.329973228275775909e-03,1.871595904231071472e-02,3.772745374590158463e-03,-2.135090716183185577e-02,-2.491921768523752689e-04,-1.891247928142547607e-02,-1.681140810251235962e-02,2.172096073627471924e-02,1.051935926079750061e-02,-2.418216317892074585e-03,2.573278732597827911e-02,2.633436396718025208e-02,7.525618188083171844e-03,1.765060424804687500e-02,3.238403704017400742e-03,-7.581501849927008152e-04,-5.748343188315629959e-03,1.824372913688421249e-03,-1.440892182290554047e-02,4.065949097275733948e-02,1.171491518616676331e-01,3.059291979297995567e-03,4.844899848103523254e-02,1.111022680997848511e-01,-3.806719789281487465e-03,-1.113414145947899669e-05,3.875026013702154160e-04,2.593706920742988586e-02,-1.279820874333381653e-02,2.895095385611057281e-03,8.608027128502726555e-04,-2.898824773728847504e-02,-3.356093540787696838e-02,-2.737760543823242188e-02,-6.058671046048402786e-03,-3.348875418305397034e-02,-1.079051643610000610e-01,6.219325214624404907e-02,7.893956499174237251e-04,-1.686431914567947388e-01,3.177255019545555115e-02,4.025930166244506836e-02,-3.612970188260078430e-02,3.205208107829093933e-02,-2.283772453665733337e-02,-2.427413314580917358e-02,3.204383328557014465e-02,3.008336573839187622e-02,3.799358010292053223e-02,3.058365546166896820e-02,3.973656520247459412e-02,2.852742932736873627e-02,-1.452410127967596054e-02,9.910563938319683075e-03,2.746847691014409065e-03,1.283641252666711807e-02,5.927712470293045044e-02,2.842931821942329407e-02,-2.478831447660923004e-02,-1.410288270562887192e-02,8.361709862947463989e-02,1.778962090611457825e-02,7.736122934147715569e-04,1.506027765572071075e-02,-8.543826639652252197e-03,-2.214953862130641937e-02,-3.323969896882772446e-03,-7.919305004179477692e-03,-2.410885877907276154e-02,6.388551555573940277e-03,-5.645260214805603027e-03,-4.249526932835578918e-02,-1.730386051349341869e-03,-5.771999061107635498e-02,-1.160292252898216248e-01,-3.697716072201728821e-02,-1.923610223457217216e-03,-6.492283195257186890e-02,-1.629946194589138031e-02,4.297699034214019775e-02,1.864452660083770752e-02,-6.648177653551101685e-02,6.305187195539474487e-02,8.156832307577133179e-02,-3.615467995405197144e-02,-7.048027217388153076e-02,-1.389508321881294250e-02,1.745907030999660492e-02,2.252597548067569733e-02,6.141964718699455261e-02,5.199201032519340515e-02,3.336455300450325012e-02,5.151069536805152893e-02,4.060607869178056717e-03,8.389833383262157440e-03,2.732120826840400696e-02,1.034177187830209732e-02,1.897945627570152283e-02,-1.157368533313274384e-03,1.540428679436445236e-02,4.960782825946807861e-03,-1.517388503998517990e-02,-4.927208181470632553e-03,7.003083359450101852e-03,-2.905862778425216675e-02,-1.171834394335746765e-02,2.797512151300907135e-02,-6.652993708848953247e-02,-7.470171432942152023e-03,-4.640381783246994019e-02,-3.538662334904074669e-03,-1.306153833866119385e-02,3.744392096996307373e-02,5.283431150019168854e-03,2.547698095440864563e-02,-6.708832830190658569e-02,-4.329680651426315308e-02,-5.494156107306480408e-02,-5.865872278809547424e-02,-7.759638875722885132e-02,-6.364268809556961060e-02,-1.009527519345283508e-01,-7.686565071344375610e-02,-2.250183746218681335e-02,1.236189436167478561e-02,2.941499464213848114e-02,6.172923743724822998e-02,1.169935613870620728e-02,-4.365487489849328995e-03,1.636959612369537354e-02,3.922216221690177917e-02,-8.580540306866168976e-04,3.722479939460754395e-02,-1.759316772222518921e-02,-4.151947051286697388e-02,1.523406989872455597e-02,-3.520401939749717712e-02,-1.906636357307434082e-02,3.249407559633255005e-02,-2.343384735286235809e-02,3.800315782427787781e-02,-8.641214109957218170e-03,-5.172046646475791931e-02,-6.125541031360626221e-02,6.577587872743606567e-02,4.169260710477828979e-02,6.075540930032730103e-02,-3.892782330513000488e-02,-3.683640062808990479e-02,9.069051593542098999e-02,-5.141105502843856812e-02,-8.941161446273326874e-03,-2.084399573504924774e-02,1.143555250018835068e-02,-2.918710373342037201e-02,-5.810657143592834473e-02,-2.064200118184089661e-02,1.673814025707542896e-03,-2.503616362810134888e-02,-2.976694330573081970e-02,-3.901572152972221375e-02,-3.073083050549030304e-02,-1.085739675909280777e-02,-3.005379810929298401e-02,-2.612605132162570953e-02,-2.381114289164543152e-02,9.279730729758739471e-03,1.576986163854598999e-02,2.289968729019165039e-02,-7.338494062423706055e-02,-8.091886341571807861e-02,-3.492443636059761047e-02,-6.070158258080482483e-02,-7.918740063905715942e-02,-2.042512409389019012e-02,-5.897817015647888184e-02,-4.638222604990005493e-02,-4.183496534824371338e-02,8.504015207290649414e-02,5.731879174709320068e-02,5.248581245541572571e-02,4.147992469370365143e-03,1.676765456795692444e-02,1.541526615619659424e-02,5.349774658679962158e-02,6.166018173098564148e-02,2.751126512885093689e-02,-2.120270580053329468e-02,-4.352015629410743713e-02,-1.662974432110786438e-02,-2.903307415544986725e-02,-6.009024381637573242e-02,-2.387161552906036377e-02,-6.189177930355072021e-02,-5.978997424244880676e-02,-2.363738976418972015e-02,-6.132232397794723511e-02,-3.305352479219436646e-02,1.688319630920886993e-02,-4.092050250619649887e-03,2.226836048066616058e-03,2.141462638974189758e-02,2.908087894320487976e-02,-1.472587790340185165e-02,-1.618047617375850677e-02,8.356490172445774078e-03,-3.783781081438064575e-02,-6.078657228499650955e-03,3.743224218487739563e-02,2.574974112212657928e-02,3.703049570322036743e-02,1.031563337892293930e-02,-1.344083156436681747e-02,1.630750671029090881e-02,1.130068558268249035e-03,-3.384444490075111389e-02,-2.674796432256698608e-02,1.814594492316246033e-02,1.075349841266870499e-02,-1.429264550097286701e-03,-3.932925313711166382e-02,-3.503991290926933289e-02,-2.271313779056072235e-02,7.237772643566131592e-02,4.098564386367797852e-02,2.048220485448837280e-02,5.320285260677337646e-02,4.038678482174873352e-03,4.620791878551244736e-04,6.807436048984527588e-02,-7.682421710342168808e-03,-2.731052413582801819e-02,3.211039677262306213e-02,2.298252284526824951e-02,1.843350380659103394e-02,-4.532825667411088943e-03,-1.356724742799997330e-02,2.407406573183834553e-04,-1.608667150139808655e-02,-3.167443349957466125e-02,1.270859502255916595e-02,1.020829658955335617e-03,-2.365260943770408630e-02,-2.069173380732536316e-03,-1.486949995160102844e-02,-4.973513260483741760e-02,-3.043799288570880890e-02,6.402424070984125137e-03,-3.597312793135643005e-02,-1.187290158122777939e-02,-3.109140694141387939e-02,5.000669625587761402e-04,-1.902323774993419647e-02,-7.092337310314178467e-02,4.519486054778099060e-02,2.416652999818325043e-02,-7.812517136335372925e-02,3.062009811401367188e-02,-8.251371793448925018e-03,6.109808757901191711e-02,7.449533790349960327e-03,-1.292992383241653442e-01,-4.851695895195007324e-02,-2.440059743821620941e-02,2.201995067298412323e-02,-8.051245659589767456e-02,5.059751495718955994e-02,5.137421935796737671e-02
-1.293721143156290054e-02,4.859956353902816772e-02,1.711393520236015320e-02,-2.091811411082744598e-02,1.815030165016651154e-02,2.623058157041668892e-03,1.202775631099939346e-03,-3.382185939699411392e-03,1.813002489507198334e-02,1.206760946661233902e-02,9.313065558671951294e-02,-8.841059170663356781e-03,1.371854566968977451e-03,3.386635333299636841e-02,-5.961829423904418945e-02,2.409854158759117126e-02,-1.958585157990455627e-02,2.252271957695484161e-02,-3.860102966427803040e-02,-3.492248058319091797e-02,-4.594709351658821106e-02,-2.603316865861415863e-02,-1.503438036888837814e-02,-2.338146604597568512e-02,-4.384848102927207947e-02,-4.495906829833984375e-02,-2.112113498151302338e-02,5.499227438122034073e-03,-5.470962449908256531e-02,-2.011777460575103760e-02,-1.742933318018913269e-02,3.794738277792930603e-02,-1.669108867645263672e-02,-2.389533072710037231e-02,3.748308122158050537e-02,-1.120131462812423706e-02,5.756254121661186218e-02,8.192149549722671509e-02,5.051811411976814270e-02,5.439441185444593430e-03,6.790678948163986206e-03,3.208996728062629700e-02,-1.925471425056457520e-02,-4.628717899322509766e-02,1.767770759761333466e-02,4.286389052867889404e-02,-2.187917754054069519e-02,1.865771785378456116e-02,-2.073433063924312592e-02,2.469341084361076355e-02,-2.572601661086082458e-04,-2.436138130724430084e-02,1.457360479980707169e-02,-7.490303367376327515e-03,3.247729316353797913e-02,1.288392301648855209e-02,-1.048429217189550400e-02,1.227978500537574291e-03,2.208107616752386093e-03,-1.460380479693412781e-02,-8.887845091521739960e-03,-1.928586699068546295e-02,-1.300477795302867889e-02,-3.252659365534782410e-02,5.254780873656272888e-02,8.788560517132282257e-03,-3.803402185440063477e-02,4.147948697209358215e-03,4.068518057465553284e-02,-2.467393130064010620e-02,1.430711057037115097e-02,-3.916041553020477295e-02,1.250458974391222000e-02,-2.970749139785766602e-01,-7.878845185041427612e-02,-2.509018033742904663e-02,1.096561774611473083e-01,-3.294521197676658630e-02,-1.589504070580005646e-02,2.140763849020004272e-01,5.914244800806045532e-02,-1.754580624401569366e-02,-9.534401819109916687e-03,2.222761511802673340e-02,-3.879671916365623474e-02,1.170320622622966766e-02,2.119729481637477875e-02,-3.641132637858390808e-02,-2.386654232395812869e-04,3.569848835468292236e-03,1.135503221303224564e-02,9.023397415876388550e-02,2.816876396536827087e-03,7.550667971372604370e-03,5.040156189352273941e-03,-1.065670419484376907e-02,2.770369639620184898e-03,-3.768240287899971008e-02,-9.818847291171550751e-03,4.595968872308731079e-02,-6.136417388916015625e-02,6.317073106765747070e-02,-4.724819213151931763e-02,6.514612585306167603e-02,-3.791717067360877991e-02,-3.664033114910125732e-02,5.537595972418785095e-02,-1.133852917701005936e-02,2.024494297802448273e-02,6.731784436851739883e-03,-4.464779049158096313e-02,-5.042437091469764709e-02,2.533389441668987274e-02,-1.539811864495277405e-02,-9.480833075940608978e-03,1.865093037486076355e-02,1.675495691597461700e-02,5.647730431519448757e-04,3.051113104447722435e-03,6.990596186369657516e-03,-5.014391615986824036e-03,3.232698142528533936e-02,2.085490338504314423e-02,-1.513331755995750427e-02,-9.525866247713565826e-03,-1.210453268140554428e-02,-1.477587688714265823e-02,-5.307826399803161621e-02,2.020796760916709900e-02,-1.136079430580139160e-02,9.943525306880474091e-03,8.207882056012749672e-04,1.183752994984388351e-02,1.195058692246675491e-02,-2.691143378615379333e-02,5.207729991525411606e-03,5.148133262991905212e-02,3.661141917109489441e-02,-1.841189153492450714e-02,8.180286735296249390e-03,1.913991197943687439e-02,-2.387086115777492523e-02,-1.449729129672050476e-02,1.779145095497369766e-03,3.146395459771156311e-02,2.532352507114410400e-02,-3.547695931047201157e-03,-1.752292737364768982e-02,4.577008076012134552e-03,-1.525269355624914169e-02,-9.370912797749042511e-03,4.659631755203008652e-03,1.500329840928316116e-02,-3.089243546128273010e-02,4.686143621802330017e-02,7.856563664972782135e-03,-1.578116416931152344e-02,7.188446819782257080e-03,-2.573494240641593933e-02,-1.812825165688991547e-02,5.200344324111938477e-02,2.750319428741931915e-02,1.430576317943632603e-03,-1.772880367934703827e-02,-9.685345925390720367e-03,-1.112986262887716293e-02,-1.854040846228599548e-02,-4.014242812991142273e-02,1.551221939735114574e-03,3.387868776917457581e-02,-1.831362582743167877e-02,-1.991026662290096283e-02,4.353106021881103516e-02,-4.097026959061622620e-02,1.576975174248218536e-02,6.029373779892921448e-02,-1.452769339084625244e-02,-1.018474064767360687e-02,-3.125032037496566772e-02,-2.724938839673995972e-02,-9.817220270633697510e-04,-1.189607828855514526e-01,4.034464433789253235e-02,9.721769019961357117e-03,6.059237197041511536e-02,-2.748879045248031616e-02,3.261422365903854370e-02,6.714997440576553345e-02,-5.410624295473098755e-02,4.901853576302528381e-02,8.381147682666778564e-02,1.546843443065881729e-02,-5.513952299952507019e-02,-7.588729262351989746e-02,2.794367633759975433e-02,-1.326172053813934326e-01,-1.767695248126983643e-01,-3.617444634437561035e-02,-6.066300556994974613e-04,-6.302472949028015137e-02,-5.027349293231964111e-02,1.484929770231246948e-02,-5.215965211391448975e-02,-3.209229186177253723e-02,9.777470491826534271e-03,1.872316561639308929e-02,4.825888946652412415e-02,1.526590157300233841e-02,-1.372136920690536499e-02,1.290444843471050262e-02,-1.904897508211433887e-03,-1.987750269472599030e-02,-3.100755065679550171e-02,1.171336229890584946e-02,1.963853836059570312e-03,-2.032626420259475708e-02,2.963595278561115265e-02,3.536259382963180542e-02,6.600879877805709839e-02,-2.145231515169143677e-02,-4.737846925854682922e-02,5.459782481193542480e-02,-8.545945398509502411e-03,-4.651882871985435486e-02,1.964501105248928070e-02,1.068988814949989319e-02,-3.165248036384582520e-02,-4.184206575155258179e-02,9.971562772989273071e-03,7.699254900217056274e-02,-3.241848200559616089e-02,2.557547949254512787e-02,5.250065028667449951e-02,-4.069489240646362305e-02,3.369176061823964119e-03,5.324292182922363281e-02,-4.639157652854919434e-02,-2.210787869989871979e-02,4.116075485944747925e-02,1.301774289458990097e-02,-2.527602203190326691e-02,-1.444424595683813095e-02,-3.757018968462944031e-02,2.767716348171234131e-02,3.702204674482345581e-02,4.288231488317251205e-03,3.287540981546044350e-03,-7.862112484872341156e-03,-1.739378832280635834e-02,4.193621221929788589e-03,-1.663811132311820984e-02,-3.271308913826942444e-02,-2.068227902054786682e-02,-2.369050122797489166e-02,5.297618452459573746e-03,7.990290410816669464e-03,-4.443272016942501068e-03,2.286359958816319704e-04,2.146311290562152863e-02,-1.005603466182947159e-02,-2.053850563243031502e-03,1.549687329679727554e-02,-3.711467236280441284e-02,1.462358050048351288e-02,-3.772297874093055725e-02,-2.330455370247364044e-02,6.297014770098030567e-04,-3.674998134374618530e-02,1.340088620781898499e-02,-5.412465892732143402e-03,-5.142137408256530762e-02,-2.831622213125228882e-02,-6.973141804337501526e-03,7.071652263402938843e-02,-7.478273659944534302e-02,-1.218691584654152393e-03,5.237319692969322205e-02,4.264654964208602905e-02,5.850053951144218445e-02,-3.013762645423412323e-03,3.769581392407417297e-02,-2.714561671018600464e-02,-2.922079525887966156e-02,9.489969350397586823e-03,-2.621714770793914795e-02,-2.120693027973175049e-02,-2.066493034362792969e-02,-6.932875257916748524e-04,4.384981002658605576e-03,2.461165655404329300e-03,-1.413711998611688614e-02,-2.682575723156332970e-03,-6.525313365273177624e-04,-5.453615915030241013e-03,1.362241711467504501e-02,5.074679385870695114e-03,2.176261972635984421e-03,5.541674909181892872e-04,-5.962307914160192013e-04,-2.029681578278541565e-02,-1.034999918192625046e-02,-3.220399143174290657e-03,-6.286841817200183868e-03,2.072873897850513458e-02,1.953871920704841614e-02,3.463189303874969482e-02,2.065456844866275787e-02,-1.948794582858681679e-03,1.113213226199150085e-02,7.677196990698575974e-03,1.488725841045379639e-02,-3.093021688982844353e-03,3.439013287425041199e-02,1.939968951046466827e-02,-1.146898791193962097e-02,-1.134481281042098999e-02,-3.154957294464111328e-02,-2.609687484800815582e-02,3.697320644278079271e-04,1.253643818199634552e-02,8.735847077332437038e-04,1.432491187006235123e-02,3.285517171025276184e-02,3.185128793120384216e-02,3.894829750061035156e-02,1.161438077688217163e-01,5.441148206591606140e-02,3.874480724334716797e-02,7.985745370388031006e-02,7.303494215011596680e-02,2.913856646046042442e-03,-2.209635265171527863e-02,5.526151508092880249e-02,1.804088614881038666e-02,4.093686118721961975e-02,1.589056476950645447e-02,-1.858137175440788269e-02,3.441257635131478310e-03,-4.130383022129535675e-03,-2.725438773632049561e-02,-6.059609819203615189e-03,2.533145248889923096e-02,8.361503481864929199e-02,9.717091917991638184e-02,3.759096725843846798e-04,2.471353858709335327e-02,1.343534048646688461e-02,-1.926990784704685211e-02,-4.564002901315689087e-02,-7.247222587466239929e-03,4.478760436177253723e-02,-1.669501140713691711e-02,2.181453630328178406e-02,1.769593334756791592e-03,-5.147347226738929749e-03,-1.131288427859544754e-02,-6.216747313737869263e-02,-2.554386667907238007e-02,-1.033040657639503479e-01,-4.748745262622833252e-02,9.785947948694229126e-02,-3.802669793367385864e-02,7.301218807697296143e-02,1.823515631258487701e-02,-2.863939665257930756e-02,-3.367818892002105713e-03,-1.674802415072917938e-02,9.330315887928009033e-02,2.604272216558456421e-02,-6.694898009300231934e-02,-2.470549643039703369e-01,-5.954812467098236084e-02,-5.136984959244728088e-02,-1.208088472485542297e-01,-7.220157980918884277e-02,1.014935821294784546e-01,2.467850595712661743e-01,1.095499694347381592e-01,6.921823602169752121e-03,6.838319450616836548e-02,-1.245742384344339371e-02,6.266582291573286057e-03,3.968354314565658569e-02,-1.192882191389799118e-02,1.102780550718307495e-02,-1.504013873636722565e-02,3.008595295250415802e-02,-7.562572509050369263e-02,-5.597598850727081299e-03,6.087144091725349426e-02,-2.971945516765117645e-02,-4.188276082277297974e-02,6.783590186387300491e-03,3.118209354579448700e-02,5.119470413774251938e-03,4.114782810211181641e-02,-7.772707939147949219e-02,-1.852936446666717529e-01,-4.178637638688087463e-02,-5.711543560028076172e-02,-6.460247188806533813e-02,-7.995708286762237549e-02,9.884902089834213257e-02,2.833923697471618652e-01,7.931377738714218140e-02,7.460317108780145645e-03,-6.334945559501647949e-03,-7.274445146322250366e-03,-1.624691649340093136e-03,5.260279867798089981e-03,-3.549059620127081871e-03,9.460732340812683105e-03,9.063976816833019257e-03,1.209607627242803574e-02,-7.631578948348760605e-03,2.343675494194030762e-01,-2.696011960506439209e-02,4.484649747610092163e-02,-2.440884709358215332e-02,-4.840165004134178162e-02,3.388395905494689941e-02,-8.707493543624877930e-02,1.010202057659626007e-02,1.324949413537979126e-02,-8.384250849485397339e-02,1.196918357163667679e-02,-1.076373364776372910e-02,-4.115860909223556519e-02,-3.784447908401489258e-02,-3.791700676083564758e-02,-5.604221671819686890e-02,-5.949610471725463867e-02,-2.087887376546859741e-02,3.731963038444519043e-02,8.658459410071372986e-03,5.496417172253131866e-03,7.907764986157417297e-03,3.003776073455810547e-02,2.798430062830448151e-02,-5.137084983289241791e-03,-3.029396943747997284e-02,-4.081431776285171509e-02,6.687708944082260132e-02,1.185512449592351913e-02,-5.514399334788322449e-02,2.849024906754493713e-02,-1.203136704862117767e-02,3.353309631347656250e-02,-5.134832486510276794e-02,2.246441319584846497e-02,1.225627306848764420e-02,-5.186605453491210938e-02,-6.771393120288848877e-02,-2.641482464969158173e-02,1.468868274241685867e-02,-3.684401884675025940e-02,-4.853933677077293396e-02,2.018889598548412323e-02,1.351429056376218796e-02,6.112376973032951355e-02,9.891720116138458252e-02,-1.347375102341175079e-02,-5.230493843555450439e-02,3.814633190631866455e-02,-3.101096861064434052e-02,-6.397100538015365601e-02,-6.155145168304443359e-02,-4.805170744657516479e-02,1.911310292780399323e-02,-1.401527505367994308e-02,1.198234967887401581e-02,-9.662392549216747284e-03,-5.064880475401878357e-03,-1.319538149982690811e-02,8.965207962319254875e-04,3.604570869356393814e-03,2.221891656517982483e-02,6.949438899755477905e-02,6.346219778060913086e-02,6.172187626361846924e-03,-2.459982596337795258e-02,4.698749165982007980e-03,-5.088695883750915527e-02,-5.898019298911094666e-02,-2.076249383389949799e-02,-9.069251827895641327e-03,-2.047107322141528130e-03,-1.598078571259975433e-02,-1.915962621569633484e-02,4.901419952511787415e-02,3.002754226326942444e-02,3.080305457115173340e-02,-2.838878892362117767e-02,2.214365638792514801e-02,1.215877756476402283e-02,-5.607787892222404480e-02,-1.452075242996215820e-01,-9.987811557948589325e-03,-4.584412649273872375e-02,-4.373324289917945862e-02,-5.855724960565567017e-02,2.213971503078937531e-02,1.063152328133583069e-01,-2.291109040379524231e-02,9.179544635117053986e-03,-1.760761067271232605e-02,8.106061071157455444e-02,1.916330307722091675e-02,3.751075360924005508e-03,-1.960220746695995331e-02,2.112090587615966797e-02,7.906659506261348724e-03,-7.273183017969131470e-02,1.342038530856370926e-02,5.567894876003265381e-02,3.355987370014190674e-02,-2.881168387830257416e-02,-3.990763798356056213e-02,6.143944803625345230e-03,-2.658528462052345276e-02,-1.780517213046550751e-02,-2.292586117982864380e-02,1.619800110347568989e-03,3.376717492938041687e-02,-1.532747410237789154e-02,-1.375352777540683746e-02,2.649441547691822052e-02,-4.499560222029685974e-03,-3.608394414186477661e-02,-7.107903063297271729e-02,-1.180814858525991440e-02,-2.821467258036136627e-02,-2.629699707031250000e-01,3.803272172808647156e-02,4.778771102428436279e-02,7.962272316217422485e-02,1.534334616735577583e-03,2.482902072370052338e-02,1.498312652111053467e-01,-4.150950908660888672e-02,-1.139011979103088379e-02,-2.629924938082695007e-02,3.507882729172706604e-02,-1.301024109125137329e-02,-3.540080785751342773e-02,-5.528371781110763550e-03,7.648351136595010757e-03,-4.040440917015075684e-02,-1.101105660200119019e-02,-3.415846440475434065e-04,1.004121359437704086e-02,7.768098730593919754e-03,-2.272754907608032227e-02,-5.626624333672225475e-04,-2.020897716283798218e-02,-2.471363358199596405e-02,1.977789215743541718e-03,-1.102453377097845078e-02,3.326571732759475708e-02,-1.054475903511047363e-01,4.505317658185958862e-02,1.262486353516578674e-02,-3.188281133770942688e-02,6.125420704483985901e-02,-8.226358890533447266e-02,-2.018123492598533630e-02,-4.745958745479583740e-02,-1.102120801806449890e-02,-5.468117073178291321e-02,4.956752061843872070e-02,1.269483659416437149e-02,1.505588591098785400e-01,-4.723944514989852905e-02,-7.335335761308670044e-02,-2.413568831980228424e-02,2.979518845677375793e-03
-1.184528972953557968e-02,1.230356097221374512e-02,5.096118524670600891e-02,-6.083297356963157654e-02,-1.216638609766960144e-01,7.932119816541671753e-02,2.741117589175701141e-02,-1.960889622569084167e-02,4.245293885469436646e-02,4.474600777029991150e-03,-5.419120565056800842e-02,1.256771036423742771e-03,9.618733078241348267e-03,2.551963180303573608e-02,6.897678226232528687e-02,-5.028188228607177734e-02,2.890432253479957581e-03,-2.319524623453617096e-02,3.665426373481750488e-02,5.798867344856262207e-02,-1.475766417570412159e-03,-3.333076834678649902e-02,-3.529497608542442322e-02,-3.874588757753372192e-02,-2.422518283128738403e-02,-2.347697690129280090e-02,2.278360305353999138e-03,-5.188381299376487732e-02,3.302033245563507080e-02,3.962923586368560791e-02,1.054503396153450012e-02,6.772004812955856323e-02,1.706672459840774536e-02,-2.865404821932315826e-02,1.501004025340080261e-02,6.932158488780260086e-03,1.674688048660755157e-02,4.416740313172340393e-02,-1.225764118134975433e-02,-1.614818163216114044e-02,1.558207068592309952e-02,-4.279445856809616089e-02,-7.959219068288803101e-02,-4.748921096324920654e-02,-5.990588292479515076e-02,1.424161065369844437e-02,1.931727863848209381e-02,3.332711011171340942e-02,2.150879614055156708e-02,1.954994350671768188e-02,4.706593975424766541e-02,1.741206040605902672e-03,4.436350427567958832e-03,9.792036376893520355e-03,-3.554712515324354172e-03,1.502542383968830109e-02,-1.578428596258163452e-02,9.956953115761280060e-03,2.766551263630390167e-02,5.978734698146581650e-03,5.654488690197467804e-03,-3.543050028383731842e-03,-7.123154122382402420e-03,1.206491328775882721e-02,3.163651376962661743e-02,1.254402450285851955e-03,-3.418276831507682800e-02,2.455079928040504456e-02,-3.066774830222129822e-02,-2.420270349830389023e-03,5.052431672811508179e-02,1.846689032390713692e-03,6.073683500289916992e-02,6.556385755538940430e-02,-6.195448338985443115e-03,1.143074361607432365e-03,9.653880447149276733e-02,-4.081410821527242661e-03,-6.525876373052597046e-02,-2.439489215612411499e-02,-2.087366022169589996e-02,2.079389989376068115e-02,1.187803130596876144e-02,-6.613081786781549454e-03,3.857669420540332794e-03,7.974093779921531677e-03,-1.767141930758953094e-02,2.137307450175285339e-02,3.194510936737060547e-02,-9.365761652588844299e-03,-4.179567098617553711e-02,-2.645756676793098450e-02,-3.597963973879814148e-02,-9.427701681852340698e-02,-3.104123771190643311e-01,-1.129228547215461731e-01,2.460700832307338715e-02,4.954908043146133423e-03,2.598897786810994148e-03,-5.283523350954055786e-02,9.790167212486267090e-02,-1.133962050080299377e-01,-2.915354631841182709e-02,-1.144042536616325378e-01,3.606895357370376587e-02,1.352616101503372192e-01,-2.130172774195671082e-02,5.109259486198425293e-02,2.098701521754264832e-02,6.438359851017594337e-04,6.043781712651252747e-02,-4.851891845464706421e-02,2.482858300209045410e-02,2.416204661130905151e-02,6.812145560979843140e-02,1.067147683352231979e-02,2.398690767586231232e-02,-2.731426060199737549e-02,-3.298551589250564575e-02,1.102170906960964203e-02,-3.069734573364257812e-02,-2.375939674675464630e-02,6.149368826299905777e-03,-4.353426024317741394e-02,-6.735938601195812225e-03,-1.503998879343271255e-03,-3.419823572039604187e-02,2.901098458096385002e-03,3.532830253243446350e-02,-7.669607549905776978e-02,3.887598961591720581e-02,5.628439411520957947e-02,-5.764827132225036621e-02,-6.543055176734924316e-02,-2.684420533478260040e-02,6.497130729258060455e-03,2.381837740540504456e-02,-1.844802498817443848e-02,-9.866298176348209381e-03,-7.574264425784349442e-03,-2.096619829535484314e-02,2.111084526404738426e-03,-6.075724493712186813e-03,-2.811279147863388062e-02,8.979784324765205383e-03,3.115358762443065643e-02,3.737860592082142830e-03,-2.397723309695720673e-02,-3.801777213811874390e-02,-3.318794071674346924e-02,3.960049245506525040e-03,-4.314751178026199341e-02,-8.499609306454658508e-03,-6.029722094535827637e-02,7.520207669585943222e-03,-1.477263420820236206e-01,1.346858683973550797e-03,-3.908894956111907959e-02,-7.033467292785644531e-02,-1.756625436246395111e-02,-2.349321693181991577e-01,-1.367517262697219849e-01,2.411098591983318329e-02,2.564391307532787323e-02,-1.562600582838058472e-02,-3.900533169507980347e-02,-6.402059644460678101e-02,-1.638890057802200317e-02,3.419049317017197609e-03,-1.943226158618927002e-02,-6.061803549528121948e-03,-5.051134899258613586e-02,-2.634316124022006989e-02,-6.970062851905822754e-03,7.062808424234390259e-02,1.142843440175056458e-01,1.116509921848773956e-02,1.533455122262239456e-02,-1.946272328495979309e-02,-8.251691609621047974e-02,6.344389170408248901e-02,1.112784352153539658e-02,1.015226617455482483e-01,-3.794182324782013893e-03,8.232507109642028809e-02,2.843005955219268799e-02,-2.655972167849540710e-02,1.748002134263515472e-02,-6.767971813678741455e-02,-3.845566138625144958e-02,-3.403010079637169838e-03,-2.910997532308101654e-02,-6.190162897109985352e-02,-6.416030228137969971e-02,-5.102800205349922180e-02,5.020667240023612976e-02,4.713246226310729980e-02,5.290389060974121094e-02,-3.311429545283317566e-02,1.639710925519466400e-02,-4.702226817607879639e-02,4.757366608828306198e-03,1.191650331020355225e-01,9.248510003089904785e-03,-2.927546575665473938e-02,3.380915895104408264e-02,-1.098598726093769073e-02,9.680913761258125305e-03,2.803319878876209259e-02,9.755583480000495911e-03,-1.252484694123268127e-02,-1.548151765018701553e-02,3.094930434599518776e-03,-5.040566995739936829e-02,-1.745642721652984619e-02,-3.889992833137512207e-03,5.162249878048896790e-02,4.387919604778289795e-02,2.763509377837181091e-02,-5.992390215396881104e-02,-1.888908743858337402e-01,-4.468818753957748413e-02,-1.125075109302997589e-02,2.238521538674831390e-02,1.353112794458866119e-02,-7.935368269681930542e-02,1.694971695542335510e-02,-3.681876137852668762e-02,3.067181445658206940e-02,8.877226710319519043e-02,-9.721256792545318604e-03,5.347087513655424118e-03,-5.060364305973052979e-02,1.125230919569730759e-03,-4.527715221047401428e-02,-7.446801662445068359e-02,2.720833383500576019e-02,-1.202742233872413635e-01,-2.107744365930557251e-01,2.854919806122779846e-02,-3.244816884398460388e-02,-6.102900806581601501e-05,-9.637902490794658661e-03,6.086266413331031799e-02,3.892111033201217651e-02,7.002962287515401840e-03,2.561139129102230072e-02,-5.851760506629943848e-03,8.805453777313232422e-03,-1.480327546596527100e-02,-2.544452808797359467e-02,2.489660680294036865e-02,-7.684418931603431702e-03,-6.929638329893350601e-03,-1.295246277004480362e-02,2.770962193608283997e-02,-5.834095645695924759e-03,-1.883758604526519775e-02,2.647217363119125366e-02,-4.918006714433431625e-03,2.287723822519183159e-03,-3.784525906667113304e-03,6.792282685637474060e-03,1.063826158642768860e-01,-7.451828569173812866e-02,-1.255538463592529297e-01,4.467023909091949463e-02,-2.525654807686805725e-02,7.227507978677749634e-02,-1.926803216338157654e-02,-5.069361999630928040e-02,-5.610881745815277100e-02,1.762900687754154205e-02,7.465562224388122559e-02,-9.344148635864257812e-02,-5.066815298050642014e-03,2.083727903664112091e-02,-5.289870128035545349e-02,2.420598268508911133e-02,9.655778296291828156e-03,4.811748862266540527e-03,-2.790927886962890625e-02,7.034210022538900375e-03,-4.541971907019615173e-02,1.654143212363123894e-03,1.622066274285316467e-02,-2.973741665482521057e-02,-1.330504100769758224e-02,3.367617726325988770e-03,2.805696055293083191e-02,-3.805659711360931396e-03,8.139899931848049164e-03,3.174948506057262421e-03,-1.038706488907337189e-02,-2.535139396786689758e-02,-3.921468183398246765e-02,2.860498847439885139e-03,-1.026605349034070969e-02,1.748992875218391418e-02,2.781825140118598938e-02,-3.135665878653526306e-02,-5.196679383516311646e-02,-1.447244081646203995e-02,-2.967335097491741180e-02,-2.936482802033424377e-02,5.600614473223686218e-03,4.799877107143402100e-02,5.209941416978836060e-02,2.625736035406589508e-02,-2.775251865386962891e-02,-1.025683619081974030e-02,3.582976385951042175e-02,-4.049012437462806702e-03,1.536002475768327713e-02,4.153772443532943726e-02,-2.942920289933681488e-02,-2.026380971074104309e-02,-2.067045122385025024e-02,4.257095977663993835e-03,2.979506924748420715e-02,-2.397373318672180176e-03,-3.297345712780952454e-02,-1.865043863654136658e-02,-3.895216435194015503e-02,-1.109029259532690048e-02,-2.180354669690132141e-02,-1.014430075883865356e-02,2.821620553731918335e-02,6.117106601595878601e-02,1.628993451595306396e-02,9.889768436551094055e-03,5.964230000972747803e-02,1.444853842258453369e-02,-1.408974174410104752e-02,5.943196360021829605e-03,2.464991621673107147e-02,4.562843125313520432e-03,-8.221117779612541199e-03,-7.772957906126976013e-03,2.909218892455101013e-02,-2.155813947319984436e-02,-5.830114241689443588e-03,3.005919978022575378e-02,-2.476141974329948425e-02,-5.255807936191558838e-02,3.632624074816703796e-02,1.406783051788806915e-02,-2.265800349414348602e-02,1.778898760676383972e-02,9.865189902484416962e-03,-4.251217097043991089e-02,-1.666226424276828766e-02,7.290957868099212646e-02,-3.677821904420852661e-02,-7.176642864942550659e-02,-1.021917834877967834e-01,-4.110952839255332947e-02,4.370135813951492310e-02,5.476534739136695862e-02,-9.983373805880546570e-03,-1.729250140488147736e-02,-4.577125422656536102e-03,3.687921538949012756e-02,4.423830658197402954e-02,-1.193811148405075073e-01,1.750297658145427704e-02,3.521868214011192322e-02,-5.125722847878932953e-03,3.733827918767929077e-02,9.154262021183967590e-03,-6.722104270011186600e-03,3.364565223455429077e-02,-1.820769160985946655e-02,2.591345924884080887e-03,4.524809774011373520e-04,-6.241164356470108032e-02,-1.639522239565849304e-02,-1.540896669030189514e-02,-3.346221987158060074e-03,-2.999702701345086098e-03,4.884562641382217407e-02,-1.749053001403808594e-01,-3.050611317157745361e-01,-5.302416533231735229e-02,3.319766372442245483e-02,2.009155973792076111e-02,1.600602827966213226e-02,-4.051367938518524170e-02,-3.721521422266960144e-02,1.765857450664043427e-02,-4.129254817962646484e-02,-4.544838517904281616e-02,1.678621768951416016e-02,-4.870283976197242737e-02,-5.258940160274505615e-02,6.556113809347152710e-02,-1.040171273052692413e-02,-2.354899607598781586e-02,-1.460856292396783829e-02,1.489998027682304382e-02,1.581982709467411041e-02,-1.059131138026714325e-02,-5.737697333097457886e-02,-9.523043036460876465e-02,2.841743174940347672e-03,-1.033898349851369858e-02,-1.117610186338424683e-02,-7.051260676234960556e-03,1.281170360743999481e-02,4.927551373839378357e-03,1.553438231348991394e-02,-4.192651249468326569e-03,-1.616078801453113556e-02,-5.272633861750364304e-03,-1.667871139943599701e-02,9.295877814292907715e-02,9.923392906785011292e-03,1.269990503787994385e-01,-1.473170425742864609e-02,-3.733904659748077393e-02,-4.779993370175361633e-02,-5.037001520395278931e-02,2.612398564815521240e-02,-6.183579564094543457e-03,-5.526321381330490112e-02,-2.340319938957691193e-02,-1.347308512777090073e-02,-2.466328144073486328e-01,6.812710314989089966e-03,1.798546873033046722e-03,2.549317432567477226e-03,8.951358497142791748e-02,-5.517233908176422119e-02,5.806409753859043121e-03,1.414135005325078964e-02,-1.074879392981529236e-01,-1.019535511732101440e-01,4.728253558278083801e-02,7.184796035289764404e-03,-2.292383275926113129e-02,8.338154107332229614e-02,3.122471272945404053e-02,-3.872767835855484009e-02,3.169121593236923218e-02,-2.504194714128971100e-02,3.509295731782913208e-02,-3.542420268058776855e-02,-1.064389199018478394e-01,5.407960340380668640e-02,-5.676181241869926453e-02,2.081491984426975250e-02,-1.016540229320526123e-01,9.217736124992370605e-02,1.353229731321334839e-01,5.811909586191177368e-02,-4.009272158145904541e-02,-1.630559265613555908e-01,-1.634456776082515717e-02,3.741770610213279724e-02,-9.887350024655461311e-04,4.694808274507522583e-03,-5.637388210743665695e-03,1.952437683939933777e-02,3.078317269682884216e-02,-4.762536380439996719e-03,-1.950712129473686218e-02,-1.177734136581420898e-02,-1.419364195317029953e-02,3.030077181756496429e-02,3.190410137176513672e-02,3.020695410668849945e-02,-3.931426443159580231e-03,-7.167726289480924606e-03,3.811130532994866371e-03,-2.963824570178985596e-02,-9.350823820568621159e-04,-3.397692739963531494e-02,3.033441863954067230e-02,4.807142913341522217e-02,-3.697000071406364441e-02,3.366488590836524963e-02,-3.769669914618134499e-03,-2.274130657315254211e-02,2.884068153798580170e-02,3.559041395783424377e-02,3.771884948946535587e-04,-1.272065937519073486e-01,-1.034785881638526917e-01,8.490148931741714478e-02,-7.435152679681777954e-02,-3.002800978720188141e-02,7.361754029989242554e-02,3.839660808444023132e-02,1.437969505786895752e-01,1.791835017502307892e-02,2.219989523291587830e-02,-4.643188044428825378e-02,1.601334661245346069e-02,-4.556726291775703430e-02,-3.589116409420967102e-02,-1.075872220098972321e-03,-3.583313897252082825e-03,-5.548250861465930939e-03,2.563609741628170013e-03,-2.307628095149993896e-02,2.364452928304672241e-02,-8.046185597777366638e-03,3.709455579519271851e-02,3.499921411275863647e-02,8.179422467947006226e-03,1.344776526093482971e-02,4.358648136258125305e-02,5.948202684521675110e-02,-2.940192818641662598e-02,-4.541492834687232971e-02,-7.231590896844863892e-02,5.634189769625663757e-02,3.883639350533485413e-02,-3.365289047360420227e-02,6.836642324924468994e-02,-2.899407222867012024e-02,-7.618784159421920776e-02,6.011953204870223999e-02,-1.245993562042713165e-02,1.117957755923271179e-02,3.383718803524971008e-02,4.857566207647323608e-02,-3.504244610667228699e-02,-4.170487076044082642e-02,-1.629661954939365387e-02,-1.068238094449043274e-01,-1.470438390970230103e-02,3.659602999687194824e-02,-2.839662134647369385e-02,7.221503555774688721e-02,6.460609287023544312e-02,-2.213938720524311066e-02,-1.036512386053800583e-02,-2.862913534045219421e-02,5.545513704419136047e-03,-2.039621397852897644e-02,-1.311850547790527344e-01,-5.035931617021560669e-02,-4.513880610466003418e-02,-1.082547847181558609e-02,2.992715314030647278e-02,-3.078130818903446198e-02,-1.759195700287818909e-02,-7.238165289163589478e-02,8.731748163700103760e-02,7.126625627279281616e-02,3.236744180321693420e-02,3.623421490192413330e-02,-5.952897481620311737e-03,-1.959279738366603851e-02,-1.731090247631072998e-02,-7.672178745269775391e-02,-6.469182670116424561e-02,6.361126154661178589e-02,2.582890447229146957e-03,1.531771291047334671e-02,4.003542661666870117e-02,8.466880768537521362e-03,1.714966259896755219e-02,-2.233681501820683479e-03,1.541959587484598160e-02,9.253131225705146790e-03,8.088057488203048706e-02,-9.688962250947952271e-02,6.257243920117616653e-03,-2.878629602491855621e-02,-9.498623013496398926e-02,9.675788879394531250e-02,2.658953703939914703e-02,1.165080443024635315e-01,-1.382634341716766357e-01
