-7.155498862266540527e-02,-1.103137433528900146e-01,-1.371113955974578857e-01,7.059263437986373901e-02,-1.478186808526515961e-02,-1.005305871367454529e-01,1.193831786513328552e-01,8.732987195253372192e-02,-8.220594376325607300e-03,-2.399949170649051666e-02,-6.368243135511875153e-03,2.430271357297897339e-03,6.183104123920202255e-03,1.878086291253566742e-02,2.532437629997730255e-02,2.365641528740525246e-03,-4.003695677965879440e-03,-1.194861624389886856e-02,6.034355144947767258e-03,6.378429941833019257e-03,-1.224731840193271637e-02,7.885408587753772736e-03,-1.346429623663425446e-02,-4.270181432366371155e-02,1.737953536212444305e-02,-1.386203337460756302e-02,-4.714497551321983337e-02,-3.798082098364830017e-02,-3.703364357352256775e-02,1.031946204602718353e-02,-1.677896454930305481e-02,-4.867774248123168945e-02,-9.363659657537937164e-03,3.086541034281253815e-02,7.275789510458707809e-03,6.131150876171886921e-04,5.315029993653297424e-02,5.415348336100578308e-02,2.825872600078582764e-02,2.860718593001365662e-02,1.258056610822677612e-02,-2.195361535996198654e-03,3.345813974738121033e-02,-1.236305339261889458e-03,-1.151975616812705994e-02,-2.159211784601211548e-02,-2.322596125304698944e-02,-1.151167787611484528e-02,-1.441614050418138504e-02,6.256799679249525070e-03,-4.285946954041719437e-03,-6.919003091752529144e-03,3.886533528566360474e-02,5.177618004381656647e-03,-1.144768763333559036e-02,-7.184575777500867844e-03,1.112958509474992752e-02,4.273000638931989670e-03,-1.225621812045574188e-02,-9.311054833233356476e-03,-4.054791759699583054e-03,-1.810584962368011475e-02,-5.141116213053464890e-03,-1.114893518388271332e-02,-3.161858767271041870e-02,1.980527676641941071e-02,1.696334220468997955e-02,-3.586688637733459473e-02,-4.382904991507530212e-02,5.017621442675590515e-02,3.536391630768775940e-02,-3.268555505201220512e-03,2.592819929122924805e-02,6.783867627382278442e-02,3.146666288375854492e-02,-6.357347965240478516e-02,-4.288558848202228546e-03,8.013136684894561768e-02,-8.662193268537521362e-02,-1.119669452309608459e-01,-3.360262513160705566e-02,-2.785831131041049957e-02,-2.458786778151988983e-02,-6.982921622693538666e-03,-2.793770516291260719e-03,1.084645465016365051e-02,1.288596075028181076e-02,-5.045462748967111111e-04,2.409841492772102356e-02,8.852094411849975586e-03,-3.865535929799079895e-02,-4.415492340922355652e-02,-2.735510654747486115e-02,3.216314315795898438e-02,5.735006183385848999e-03,-2.089078910648822784e-02,7.862988859415054321e-02,5.702549219131469727e-02,-5.204993300139904022e-03,5.565215833485126495e-03,-9.946918115019798279e-03,-3.780882060527801514e-02,8.547582663595676422e-03,3.013216331601142883e-02,-1.550493109971284866e-02,3.739558160305023193e-02,2.468264661729335785e-02,2.038983255624771118e-02,2.435340732336044312e-02,-6.553215789608657360e-04,2.392099238932132721e-02,-4.170820862054824829e-02,-8.918669074773788452e-02,-8.863090723752975464e-02,2.811200544238090515e-02,-2.045611105859279633e-02,-5.371776968240737915e-02,-7.889387011528015137e-02,-8.457239717245101929e-02,-6.374214589595794678e-02,-1.293483655899763107e-02,-2.815278619527816772e-02,-3.251000493764877319e-02,4.021663591265678406e-02,3.155130147933959961e-02,1.489305309951305389e-02,8.397916099056601524e-04,-1.010327134281396866e-02,-6.466458551585674286e-03,-1.140661071985960007e-02,-6.532011087983846664e-03,-1.747230067849159241e-02,2.544767409563064575e-02,3.179784119129180908e-02,1.182605698704719543e-02,-1.684500835835933685e-02,-2.074115164577960968e-02,-4.653611686080694199e-03,-5.510551854968070984e-03,-7.912655360996723175e-03,2.092715166509151459e-02,-7.102045696228742599e-03,1.357537787407636642e-02,1.358486898243427277e-02,1.153479237109422684e-02,2.016465738415718079e-02,4.538698121905326843e-03,6.150884088128805161e-03,1.550897024571895599e-02,1.414221525192260742e-02,-2.971679158508777618e-02,-3.719653189182281494e-02,-1.600205712020397186e-02,-2.397736720740795135e-02,3.618792444467544556e-02,5.093195009976625443e-03,-3.418654575943946838e-02,-1.601360179483890533e-02,-2.546964446082711220e-03,-7.062223553657531738e-02,-6.806791573762893677e-02,-2.086910605430603027e-02,5.339817143976688385e-04,6.824545096606016159e-03,-2.256641723215579987e-02,-5.593594629317522049e-03,2.126759663224220276e-02,1.195611059665679932e-02,-2.166354656219482422e-02,-3.983119968324899673e-04,2.023418201133608818e-03,9.798700921237468719e-03,2.128580957651138306e-02,2.403319254517555237e-02,-4.855390638113021851e-03,2.831830829381942749e-02,3.506680950522422791e-02,-2.707928046584129333e-02,1.927740499377250671e-02,2.470803447067737579e-02,-1.194074004888534546e-02,1.464928314089775085e-02,-5.145487375557422638e-03,-2.272426709532737732e-02,2.723902277648448944e-02,1.502876169979572296e-02,-2.122958749532699585e-02,-3.077145665884017944e-02,2.549566794186830521e-03,3.623235225677490234e-02,-2.756427973508834839e-02,-6.755060702562332153e-02,1.175538003444671631e-01,4.590584710240364075e-02,-4.187422245740890503e-02,1.788034886121749878e-01,1.367912292480468750e-01,2.770512178540229797e-02,-2.492422983050346375e-02,-4.951188713312149048e-02,-3.915984556078910828e-02,2.715980075299739838e-02,1.097064465284347534e-02,-3.739314153790473938e-02,3.012698702514171600e-02,5.804271623492240906e-02,7.261897437274456024e-03,-1.301926840096712112e-02,-2.126392535865306854e-02,1.301189913647249341e-04,-1.752365380525588989e-02,-2.445090003311634064e-02,-5.820885766297578812e-03,1.894954033195972443e-02,-4.299027845263481140e-03,-1.825898513197898865e-02,1.507854438386857510e-03,-6.879037246108055115e-03,-1.670391112565994263e-02,-1.338212459813803434e-04,-2.391068264842033386e-02,-3.721401840448379517e-02,6.042666733264923096e-02,4.643968492746353149e-02,-1.390977855771780014e-02,9.370267507620155811e-04,6.253592204302549362e-03,-2.680687792599201202e-02,-2.312581241130828857e-02,3.627727041020989418e-03,-3.118192218244075775e-02,-1.526506897062063217e-02,-1.525566726922988892e-02,-5.167967081069946289e-02,-6.189377512782812119e-03,2.518274588510394096e-03,2.034116163849830627e-02,-1.646096445620059967e-02,-1.452500466257333755e-02,-2.007414586842060089e-03,4.308257717639207840e-03,2.523937635123729706e-02,2.111956663429737091e-02,-1.051074173301458359e-02,-8.091863244771957397e-03,-7.995462976396083832e-03,-3.906820900738239288e-03,1.026406791061162949e-02,5.934156943112611771e-03,-2.333270385861396790e-02,3.605685895308852196e-03,7.923048920929431915e-03,6.373422220349311829e-03,6.306436844170093536e-03,1.952758431434631348e-02,7.146087009459733963e-04,7.509385701268911362e-03,1.307035610079765320e-02,1.384427677839994431e-02,-5.087298341095447540e-03,2.038664370775222778e-02,-1.418087352067232132e-02,-1.082307472825050354e-02,2.318490296602249146e-02,-1.117088738828897476e-02,-1.741975359618663788e-02,-3.379712253808975220e-02,-4.171077162027359009e-02,-3.048101812601089478e-02,-1.223373878747224808e-02,-1.223955419845879078e-03,9.527830407023429871e-03,-1.059095934033393860e-02,2.688528038561344147e-02,2.798102051019668579e-02,-2.837098017334938049e-02,9.469408541917800903e-03,3.964792191982269287e-02,-2.589041134342551231e-03,4.209996201097965240e-03,2.420466765761375427e-02,2.819696813821792603e-02,-2.897604135796427727e-03,1.215528789907693863e-02,1.504869945347309113e-02,-3.965912386775016785e-02,-2.530575916171073914e-02,-4.054933041334152222e-02,-1.570278033614158630e-02,3.528344910591840744e-03,4.972029477357864380e-03,1.476381719112396240e-02,1.840580813586711884e-02,-8.816215209662914276e-03,1.485569588840007782e-02,1.139366254210472107e-02,4.716274794191122055e-03,1.011455804109573364e-02,6.008819676935672760e-03,-2.364587737247347832e-03,-1.765246503055095673e-02,-2.204157412052154541e-03,-6.349937524646520615e-03,-1.331295631825923920e-02,-1.097548566758632660e-02,-1.023106556385755539e-02,-7.568639703094959259e-04,5.723058711737394333e-03,-3.091297671198844910e-02,-5.683657247573137283e-03,8.972507901489734650e-03,-2.665185928344726562e-02,5.458427127450704575e-03,1.014719717204570770e-02,-1.846684142947196960e-02,-6.702771410346031189e-03,1.432771887630224228e-02,-1.004724879749119282e-03,-1.320892665535211563e-02,1.451476197689771652e-02,4.967874847352504730e-03,-1.994606852531433105e-02,7.758531253784894943e-03,6.755890324711799622e-03,1.327429246157407761e-02,2.216710709035396576e-02,-1.622411608695983887e-02,5.896166898310184479e-03,2.022570930421352386e-02,1.644457504153251648e-02,-2.415644191205501556e-02,1.673756487434729934e-04,-9.052441455423831940e-03,-2.036600559949874878e-02,-8.707186207175254822e-03,-9.695922024548053741e-03,-4.231862351298332214e-02,-1.907185651361942291e-02,-1.599103771150112152e-02,-3.056269511580467224e-02,-1.816291362047195435e-02,5.251120310276746750e-03,1.628583483397960663e-02,-4.926908295601606369e-03,-1.083731744438409805e-02,-3.180378349497914314e-03,-1.071245875209569931e-03,2.966609597206115723e-02,3.311690315604209900e-02,5.198362283408641815e-03,4.131886735558509827e-02,3.343616798520088196e-02,-2.262972295284271240e-02,-1.799658685922622681e-02,7.146795839071273804e-02,4.310538619756698608e-02,2.699070051312446594e-02,2.129451185464859009e-02,7.361316680908203125e-02,9.353856742382049561e-02,-4.201812297105789185e-02,-5.154211819171905518e-02,-1.562057342380285263e-02,-1.821429468691349030e-02,-1.296510919928550720e-02,1.785316970199346542e-03,-1.863576285541057587e-02,-4.340177029371261597e-02,-5.040171742439270020e-02,1.134332921355962753e-02,7.872949540615081787e-02,6.123832613229751587e-02,-9.465523064136505127e-03,5.895853415131568909e-02,8.589100837707519531e-02,-9.279053658246994019e-02,-7.410495728254318237e-02,5.720445420593023300e-03,-7.381758093833923340e-02,-7.399736344814300537e-02,-5.008389055728912354e-02,5.322944000363349915e-02,-2.191445790231227875e-02,-8.261368423700332642e-02,1.279541999101638794e-01,7.826061546802520752e-02,-4.652426019310951233e-02,-2.570448257029056549e-02,-5.965912714600563049e-02,2.008182741701602936e-02,-8.135259151458740234e-02,-1.186025291681289673e-01,-4.945274069905281067e-02,1.304564066231250763e-02,-1.081312820315361023e-01,-6.223091483116149902e-02,-8.688071742653846741e-03,5.304247513413429260e-02,3.761184588074684143e-02,-6.500148773193359375e-02,3.874832764267921448e-02,5.981696024537086487e-02,-1.279953271150588989e-01,-9.470402449369430542e-02,-2.543300949037075043e-02,-5.930562037974596024e-03,1.889338716864585876e-02,2.592519624158740044e-03,3.232547780498862267e-03,3.586177155375480652e-02,5.140678491443395615e-03,-1.355810277163982391e-02,9.577666409313678741e-03,-3.958820365369319916e-03,9.213079698383808136e-03,-2.390545979142189026e-02,-2.481393702328205109e-02,2.417086251080036163e-02,2.764252014458179474e-03,-1.926250639371573925e-03,6.642512232065200806e-02,6.937631964683532715e-02,5.420801788568496704e-02,3.845634683966636658e-02,-1.846708357334136963e-02,1.820356957614421844e-02,-1.488761510699987411e-02,-1.003938466310501099e-01,-2.877097204327583313e-02,4.545718058943748474e-02,-2.293754182755947113e-02,-5.908452440053224564e-03,-2.203681878745555878e-02,-2.467475133016705513e-04,3.039909340441226959e-02,-5.201201140880584717e-02,-7.707709446549415588e-03,2.275244146585464478e-02,-2.668899111449718475e-02,-2.003762312233448029e-02,-6.737172603607177734e-03,1.223927177488803864e-02,-2.366848289966583252e-02,-5.374024156481027603e-03,3.584831254556775093e-03,7.092234212905168533e-03,-2.649315819144248962e-02,9.123262017965316772e-03,5.215839669108390808e-02,3.222778439521789551e-02,2.882445603609085083e-02,5.973927676677703857e-02,2.165671903640031815e-03,-6.469781044870615005e-03,7.292940467596054077e-02,3.647407889366149902e-02,-3.993094339966773987e-02,-1.017675269395112991e-03,2.144016511738300323e-02,4.423218220472335815e-02,5.612185969948768616e-02,8.857628330588340759e-03,3.791387751698493958e-02,5.219139903783798218e-02,4.399907216429710388e-02,-2.510977350175380707e-02,1.317581906914710999e-02,3.279171511530876160e-02,1.157805905677378178e-03,1.808681525290012360e-02,-6.042484194040298462e-03,-1.894077286124229431e-02,1.985758170485496521e-02,1.524254400283098221e-02,-1.745685935020446777e-02,-2.949898829683661461e-03,1.629224047064781189e-02,5.333615466952323914e-02,5.865740031003952026e-02,3.845034167170524597e-02,-1.052704080939292908e-02,2.705880813300609589e-02,4.975477978587150574e-02,-9.643554687500000000e-02,-3.870012611150741577e-02,-8.761950768530368805e-03,-2.147474139928817749e-02,3.143497928977012634e-02,4.017183557152748108e-03,7.731202524155378342e-03,1.654531620442867279e-02,-1.408439502120018005e-02,3.958459943532943726e-02,3.067749924957752228e-02,-3.087976947426795959e-02,5.292220786213874817e-02,6.320571899414062500e-02,9.978981316089630127e-02,-4.628629237413406372e-02,1.828534342348575592e-02,8.355835825204849243e-02,-1.370480656623840332e-01,-7.109424471855163574e-02,2.886891737580299377e-02,3.078356198966503143e-02,1.900728978216648102e-02,-1.002312637865543365e-02,-1.364228199236094952e-03,5.380881577730178833e-02,-9.743380360305309296e-03,1.428977586328983307e-02,6.389918178319931030e-02,1.200037635862827301e-02,-2.852848172187805176e-02,-1.720991451293230057e-03,1.643781177699565887e-02,2.109714969992637634e-02,1.972757838666439056e-02,-4.038853105157613754e-03,-2.861753106117248535e-02,-4.572244733572006226e-02,-4.580496996641159058e-02,1.457281759940087795e-03,-2.637438103556632996e-02,-1.830936409533023834e-02,3.972405567765235901e-03,-3.443658724427223206e-02,-5.066571384668350220e-02,-1.279183896258473396e-03,-3.771990537643432617e-02,-3.706653416156768799e-02,6.828137673437595367e-03,3.079812973737716675e-02,-2.236336842179298401e-02,-1.266384124755859375e-02,4.343228042125701904e-02,8.436331525444984436e-03,-4.211191460490226746e-02,1.790972799062728882e-02,1.806158572435379028e-03,-3.991683200001716614e-02,-6.991077214479446411e-02,-2.592387795448303223e-02,-4.117992892861366272e-02,-9.970322251319885254e-02,-6.800965219736099243e-02,5.752193555235862732e-02,1.521204132586717606e-03,-1.820237003266811371e-02,3.432408720254898071e-02,3.225671499967575073e-02,2.581863477826118469e-02,8.467605337500572205e-03,-4.541261878330260515e-04,-1.083219796419143677e-02,-6.716613657772541046e-03,-1.505242381244897842e-02,-2.693874575197696686e-02,-1.208912394940853119e-02,-2.358847670257091522e-02,-2.268859930336475372e-02,1.013491861522197723e-02,1.828500628471374512e-02,-1.569492183625698090e-02,2.135235629975795746e-02,5.856823921203613281e-02,4.287293925881385803e-02,1.442115474492311478e-02,-2.829798869788646698e-02,-7.077042479068040848e-03,3.026040829718112946e-02,-6.629370152950286865e-03,-1.690132543444633484e-02,3.908463194966316223e-02,1.422228757292032242e-02,2.229387313127517700e-02
-7.791085541248321533e-02,-7.392935454845428467e-02,-3.667144477367401123e-02,-3.490306064486503601e-02,-6.235515698790550232e-02,-3.779250010848045349e-02,-2.837874554097652435e-02,-5.429133400321006775e-02,-4.941093549132347107e-02,-1.296971086412668228e-02,-2.182512357831001282e-02,-2.876688377000391483e-04,7.644396740943193436e-03,1.765323989093303680e-02,1.665978319942951202e-02,3.833660483360290527e-02,2.300590276718139648e-02,-1.662041526287794113e-03,-8.759170770645141602e-02,-8.473540097475051880e-02,-5.581803619861602783e-02,-7.773142307996749878e-02,-8.031114935874938965e-02,-3.255427256226539612e-02,-5.631329491734504700e-02,-4.204696789383888245e-02,1.524666231125593185e-02,1.617382466793060303e-02,-4.508893936872482300e-03,-3.370620543137192726e-03,3.450402058660984039e-03,2.260311879217624664e-02,3.359080851078033447e-02,-9.315775707364082336e-03,3.189181536436080933e-02,3.209512680768966675e-02,-1.942584104835987091e-02,-2.282769978046417236e-02,-1.546929031610488892e-02,-1.607730239629745483e-02,-2.488104626536369324e-02,-6.498940754681825638e-03,1.828162558376789093e-02,2.147322334349155426e-02,3.821460157632827759e-02,-9.150938130915164948e-03,-1.756561174988746643e-02,2.026177570223808289e-02,6.734249647706747055e-03,2.671086974442005157e-02,2.456673979759216309e-02,-4.627971065929159522e-05,6.160167977213859558e-03,-1.189731061458587646e-02,-1.354899350553750992e-02,-5.222628824412822723e-03,-8.026586845517158508e-03,2.663792343810200691e-03,3.180671250447630882e-03,-2.020726352930068970e-02,9.803345426917076111e-03,2.171685360372066498e-02,1.906219683587551117e-02,-5.137088149785995483e-02,-5.370777472853660583e-02,-5.859082192182540894e-02,-7.316786795854568481e-02,-2.375007979571819305e-02,-1.014922279864549637e-02,2.055698633193969727e-02,3.115767054259777069e-02,2.716886438429355621e-02,-5.770888179540634155e-02,-5.299352109432220459e-02,-1.970539242029190063e-02,-1.032485887408256531e-01,-9.390120953321456909e-02,-9.635350666940212250e-03,-7.918033748865127563e-02,-3.740908205509185791e-02,-1.181721920147538185e-03,-3.963362891227006912e-03,-3.991523012518882751e-02,-1.543435174971818924e-02,1.332556083798408508e-02,-1.009414345026016235e-02,2.633280120790004730e-02,-5.001240875571966171e-03,4.870027769356966019e-03,2.598528005182743073e-02,-3.360022231936454773e-02,-9.776368737220764160e-02,-1.051203981041908264e-01,-4.116950184106826782e-02,-1.219431310892105103e-01,-8.656827360391616821e-02,-1.286811474710702896e-02,-5.987753346562385559e-02,-2.401509508490562439e-02,3.235163912177085876e-02,7.489403244107961655e-03,-1.917327567934989929e-02,1.605053432285785675e-02,1.866765134036540985e-02,-1.116052083671092987e-02,9.456250816583633423e-03,-1.190951466560363770e-02,1.580145210027694702e-03,7.880353368818759918e-03,5.929052829742431641e-03,2.825191244482994080e-02,2.015740424394607544e-02,1.128894276916980743e-02,5.732860043644905090e-02,3.225479274988174438e-02,4.412811994552612305e-02,3.355123847723007202e-02,6.382348365150392056e-04,1.499100308865308762e-02,1.372339902445673943e-03,-3.481549769639968872e-02,-2.588014118373394012e-03,-2.270568720996379852e-02,8.040382526814937592e-04,3.202235326170921326e-02,2.673790417611598969e-02,2.283291518688201904e-02,-5.058477167040109634e-03,4.345826804637908936e-03,3.889489220455288887e-03,2.674992009997367859e-02,1.138848625123500824e-02,1.873684301972389221e-02,1.397602725774049759e-02,-2.482543513178825378e-02,1.323049142956733704e-02,1.271290890872478485e-02,2.095161471515893936e-03,2.388650178909301758e-02,1.762033812701702118e-02,2.315513603389263153e-02,-3.414911776781082153e-02,1.449008006602525711e-03,4.817106761038303375e-03,1.094337319955229759e-03,9.462207555770874023e-03,-1.415754575282335281e-02,1.085935533046722412e-02,1.996093243360519409e-02,1.608165167272090912e-02,8.050681091845035553e-03,3.530791401863098145e-02,3.833289444446563721e-02,-6.017190869897603989e-03,3.045579884201288223e-03,-1.904062740504741669e-02,-1.891873590648174286e-02,3.008626773953437805e-02,-1.108087413012981415e-02,1.627095416188240051e-02,2.234818786382675171e-02,3.047492541372776031e-02,-1.893391460180282593e-02,1.844523288309574127e-02,-9.895214810967445374e-03,3.571494715288281441e-03,1.126113999634981155e-02,8.261827751994132996e-04,8.836346096359193325e-04,5.574265494942665100e-03,-1.093007042072713375e-03,5.139838438481092453e-03,-9.168118238449096680e-03,-3.559843823313713074e-02,4.287200979888439178e-03,-5.538842175155878067e-03,-1.543086674064397812e-02,2.596770413219928741e-02,5.526661407202482224e-03,-3.099391935393214226e-03,-3.778412938117980957e-03,-5.540741607546806335e-02,-4.076000303030014038e-02,-8.213627152144908905e-03,-1.234426721930503845e-02,2.833698317408561707e-02,9.529032744467258453e-03,-9.809168986976146698e-03,1.547337044030427933e-03,6.506633758544921875e-02,8.339019119739532471e-02,5.173784121870994568e-02,3.099061921238899231e-02,7.633627206087112427e-02,8.461893349885940552e-02,-9.717044420540332794e-03,4.893680661916732788e-02,3.456041589379310608e-02,8.371303789317607880e-03,-1.799559779465198517e-02,-1.932288520038127899e-02,-2.391792275011539459e-02,-3.585621342062950134e-02,-4.781259968876838684e-02,-5.350835993885993958e-02,-5.987289920449256897e-02,-3.817261010408401489e-02,1.532610692083835602e-02,-8.955565281212329865e-03,2.164730802178382874e-03,2.209500223398208618e-02,8.505415171384811401e-03,2.326009981334209442e-02,1.798965036869049072e-02,1.569610089063644409e-02,9.799635037779808044e-03,-1.022577472031116486e-02,1.327210571616888046e-02,-1.215947233140468597e-02,2.926725894212722778e-02,2.966040978208184242e-03,9.039583615958690643e-03,-2.724468335509300232e-02,-5.825252085924148560e-02,-3.675162792205810547e-02,-2.007060497999191284e-02,-1.477737538516521454e-02,-3.141161799430847168e-02,-1.211677119135856628e-02,3.694569319486618042e-02,-2.230612747371196747e-02,-1.762206666171550751e-02,-1.206392329186201096e-02,9.224267676472663879e-03,4.039974417537450790e-03,-6.206585094332695007e-04,4.685775376856327057e-03,-8.552516810595989227e-03,1.809127815067768097e-02,4.012833349406719208e-03,5.703960196115076542e-04,2.088775858283042908e-03,5.813880357891321182e-03,-2.019900642335414886e-02,-3.100777231156826019e-02,-3.546440228819847107e-02,-9.540889412164688110e-03,-8.826293982565402985e-03,-1.348586566746234894e-02,-5.600695498287677765e-03,-8.575966581702232361e-03,-1.916239596903324127e-02,-1.472053676843643188e-02,-2.905372716486454010e-02,-7.233937270939350128e-03,-1.317853666841983795e-02,3.360262140631675720e-03,-2.622313797473907471e-03,-2.065725438296794891e-02,-2.387082390487194061e-02,-1.102704741060733795e-02,9.920849697664380074e-04,-3.185895085334777832e-02,-1.418233755975961685e-02,1.190897170454263687e-02,3.545273467898368835e-02,3.174063563346862793e-02,1.377664599567651749e-02,3.585754707455635071e-02,-1.416541356593370438e-02,-6.173012033104896545e-02,-3.632390499114990234e-02,4.281858913600444794e-03,-4.800231754779815674e-02,5.716554354876279831e-03,1.670770533382892609e-02,5.932127591222524643e-03,5.415956676006317139e-02,8.460671454668045044e-02,-8.521059527993202209e-03,2.517620846629142761e-02,1.315439213067293167e-02,-1.454824209213256836e-02,7.916430011391639709e-03,1.202456001192331314e-02,2.415513806045055389e-02,4.840278998017311096e-02,3.876298666000366211e-02,-1.700234413146972656e-02,5.842684302479028702e-03,-5.550229456275701523e-03,-8.413080126047134399e-03,8.030421100556850433e-03,-7.244014181196689606e-03,1.078846026211977005e-02,4.267514683306217194e-03,-1.297121588140726089e-02,-5.779075995087623596e-02,-3.243475779891014099e-02,-2.026389911770820618e-02,-2.765809372067451477e-02,-1.500096637755632401e-03,1.309746317565441132e-02,1.730178482830524445e-02,3.465693816542625427e-02,4.797209519892930984e-03,-4.302842170000076294e-02,1.919778296723961830e-03,-2.502922713756561279e-02,-1.329403091222047806e-02,3.798523545265197754e-02,6.997390650212764740e-03,-2.078771032392978668e-02,1.958222826942801476e-03,-1.731819100677967072e-02,-4.599333181977272034e-02,-2.860295400023460388e-02,-2.411208674311637878e-02,-3.033421188592910767e-02,-1.224260404706001282e-02,-1.626928336918354034e-02,-2.940748818218708038e-02,-6.930857431143522263e-03,-1.842788048088550568e-02,-3.358099237084388733e-02,-1.392290368676185608e-02,-1.868641818873584270e-03,-6.383188068866729736e-02,-1.089515537023544312e-01,-3.970132023096084595e-02,-2.127147465944290161e-02,-6.032460555434226990e-02,-3.211952373385429382e-02,-3.765313699841499329e-02,-2.864171937108039856e-02,-4.172284156084060669e-02,-1.828204840421676636e-02,3.467144677415490150e-03,-3.030619956552982330e-02,-1.099407393485307693e-02,-1.589111052453517914e-02,-2.809425629675388336e-02,-3.174979984760284424e-02,-2.949502319097518921e-02,-8.844971656799316406e-03,2.617852576076984406e-02,3.548045083880424500e-02,7.604323327541351318e-04,1.406169775873422623e-02,1.083629485219717026e-02,-3.270212328061461449e-03,3.964012488722801208e-02,4.899504780769348145e-02,2.809268049895763397e-02,7.336261868476867676e-02,1.185686290264129639e-01,8.359674364328384399e-02,4.205491021275520325e-02,1.284863650798797607e-01,2.468391135334968567e-02,1.961085572838783264e-02,2.901750989258289337e-02,2.232839725911617279e-02,2.273827232420444489e-02,7.868095487356185913e-02,2.086723223328590393e-02,9.380606003105640411e-03,-5.344223696738481522e-03,1.964668277651071548e-03,-4.289288446307182312e-02,-1.113474965095520020e-01,-9.945432096719741821e-02,-5.631991103291511536e-02,-1.426149308681488037e-01,-1.140769645571708679e-01,-2.738727629184722900e-02,-7.578332722187042236e-02,-6.151061132550239563e-02,-2.649351954460144043e-02,-4.333322495222091675e-02,-1.518234703689813614e-02,-8.713124692440032959e-02,-1.441368162631988525e-01,-9.855636954307556152e-02,-1.248981580138206482e-01,-1.395944505929946899e-01,-9.319129586219787598e-02,2.604952454566955566e-02,1.057393550872802734e-01,1.170554608106613159e-01,9.456185251474380493e-02,1.197504103183746338e-01,2.137180604040622711e-02,8.192067593336105347e-02,2.112279832363128662e-02,-4.745648428797721863e-02,-3.513449802994728088e-02,-8.152647316455841064e-02,-3.507693111896514893e-02,-2.065865695476531982e-02,-6.148299947381019592e-02,-5.859063938260078430e-02,2.365100430324673653e-03,-2.341314218938350677e-02,-1.351795624941587448e-02,-2.157433331012725830e-02,-1.469431631267070770e-02,8.370139985345304012e-04,-1.452503632754087448e-02,3.934756852686405182e-03,2.427635528147220612e-02,1.344633288681507111e-02,5.190020054578781128e-02,4.667418077588081360e-02,-1.469279825687408447e-02,-7.631948590278625488e-02,-5.213310942053794861e-02,-6.119490042328834534e-02,-3.823221474885940552e-02,-6.574977189302444458e-03,-3.621138632297515869e-03,-9.815143421292304993e-03,5.579477548599243164e-02,2.498744614422321320e-02,9.272399544715881348e-02,9.745508432388305664e-02,6.206483393907546997e-02,1.006726399064064026e-01,1.189402416348457336e-01,5.458454787731170654e-02,7.758374512195587158e-02,5.580768361687660217e-02,2.559947781264781952e-03,-1.272877957671880722e-02,3.776048123836517334e-02,3.065994533244520426e-04,1.882618665695190430e-02,5.797216296195983887e-02,2.450108062475919724e-03,2.947805821895599365e-02,4.145730286836624146e-02,-2.465075626969337463e-02,-1.416412275284528732e-02,-4.977532103657722473e-02,-1.519353780895471573e-02,-1.138255465775728226e-02,-3.127189353108406067e-02,6.593136931769549847e-04,-1.371261943131685257e-02,1.531912665814161301e-02,-8.127215318381786346e-03,4.091893881559371948e-02,4.701413586735725403e-02,-1.151718478649854660e-02,6.157160550355911255e-02,5.162569135427474976e-02,-1.517444103956222534e-02,3.922568634152412415e-02,1.998270675539970398e-02,1.223060786724090576e-01,1.024051979184150696e-01,5.512638762593269348e-02,4.280844330787658691e-02,9.941384196281433105e-02,1.130668371915817261e-01,-1.142521388828754425e-02,8.103336393833160400e-02,1.604097187519073486e-01,-8.711835369467735291e-03,-2.209043316543102264e-02,-1.166756916791200638e-02,8.630972006358206272e-04,1.822710782289505005e-02,-1.332106161862611771e-02,2.069329284131526947e-02,1.002150680869817734e-02,-4.685783758759498596e-02,4.267109930515289307e-02,8.140656352043151855e-02,5.215878412127494812e-02,5.907596647739410400e-02,1.178136244416236877e-01,9.560149163007736206e-02,3.184994310140609741e-02,9.578464180231094360e-02,5.957667902112007141e-02,1.488728355616331100e-02,-3.752475138753652573e-03,-2.478711679577827454e-02,-2.511249855160713196e-02,1.294969581067562103e-02,-3.621815890073776245e-02,-1.612094603478908539e-02,-1.056499220430850983e-02,-7.937928661704063416e-03,2.890442870557308197e-02,6.060051918029785156e-02,1.550001744180917740e-02,7.325676828622817993e-02,7.261120527982711792e-02,2.389027737081050873e-02,1.588507182896137238e-02,4.150441288948059082e-02,-1.165007241070270538e-02,-1.737780682742595673e-02,-7.514164317399263382e-04,2.406844124197959900e-02,-8.028622716665267944e-03,-3.743821987882256508e-03,3.385432437062263489e-02,1.313490327447652817e-02,5.007522925734519958e-02,5.919001251459121704e-02,8.440162986516952515e-03,1.365735381841659546e-02,-2.265884773805737495e-03,-3.577020391821861267e-02,7.371065206825733185e-03,-1.346485922113060951e-03,-2.631755731999874115e-02,1.364101073704659939e-03,2.312600426375865936e-02,3.354537114500999451e-02,7.626482285559177399e-03,-3.195260092616081238e-02,-1.128296833485364914e-02,-3.018668619915843010e-03,-1.050558872520923615e-03,4.581915709422901273e-05,-4.589037504047155380e-03,-1.844492554664611816e-02,-1.367991603910923004e-02,-4.683812335133552551e-02,-2.257901802659034729e-02,-4.462407529354095459e-02,-1.002230048179626465e-01,-5.467323586344718933e-02,-7.929990068078041077e-03,-3.144227340817451477e-02,-1.432688999921083450e-02,1.191388466395437717e-03,2.553055435419082642e-02,2.507137507200241089e-02,6.162666529417037964e-02,4.604431614279747009e-02,5.247534811496734619e-02,6.791329383850097656e-02,8.334096521139144897e-02,2.838690392673015594e-02,-3.237693756818771362e-02,-4.001848027110099792e-02,-2.952287346124649048e-02,-1.529369130730628967e-02,-1.416529156267642975e-02,2.708636224269866943e-03,1.165238581597805023e-02,2.388586848974227905e-02,2.441311813890933990e-02,2.089133951812982559e-03,-3.047544695436954498e-02,-3.381791338324546814e-02,6.782897748053073883e-03,3.868067869916558266e-04,-1.454040966928005219e-02,-3.130607539787888527e-03,6.768923718482255936e-03,8.452367968857288361e-03,3.058603592216968536e-02,4.628084599971771240e-02,3.835939860437065363e-04,5.307897552847862244e-02,6.748835742473602295e-02,3.054697066545486450e-02,2.337364666163921356e-02,4.399272054433822632e-02,-3.871265565976500511e-03
1.387818716466426849e-02,3.272362053394317627e-02,4.658401757478713989e-02,-8.064677007496356964e-03,1.620944822207093239e-03,1.515288092195987701e-02,-7.034150511026382446e-02,-5.329906567931175232e-02,-4.592043906450271606e-02,4.603485763072967529e-02,3.540010005235671997e-02,3.494127467274665833e-02,5.835114419460296631e-02,5.464033409953117371e-02,2.716243825852870941e-02,2.679921127855777740e-02,4.505636543035507202e-02,6.688556168228387833e-03,-3.376574069261550903e-02,-3.860475122928619385e-02,-2.417194098234176636e-02,-1.828489941544830799e-03,1.088800467550754547e-02,1.142533496022224426e-02,2.228201925754547119e-02,1.402426324784755707e-02,3.633178770542144775e-03,-2.846620278432965279e-03,-1.729512028396129608e-02,-2.613890171051025391e-02,2.118879184126853943e-02,-1.273935753852128983e-02,1.846668310463428497e-02,3.709436953067779541e-02,1.128545701503753662e-01,1.051475107669830322e-01,-3.869674727320671082e-02,-3.935131430625915527e-02,-8.498280309140682220e-03,-2.105272561311721802e-02,-2.648192830383777618e-02,-1.612232415936887264e-03,-2.651856653392314911e-02,-3.067193366587162018e-02,-4.490467719733715057e-03,2.828645892441272736e-02,1.185151934623718262e-02,-5.679523106664419174e-03,2.171292155981063843e-02,2.027406543493270874e-02,2.012006379663944244e-02,-3.870823606848716736e-02,-1.639006100594997406e-02,2.898999489843845367e-02,2.295937761664390564e-02,3.361283615231513977e-02,1.328908279538154602e-02,1.113307103514671326e-02,4.377128183841705322e-02,3.240380436182022095e-02,-2.521247230470180511e-02,-2.400921098887920380e-02,-3.997182939201593399e-03,-3.082250244915485382e-02,-1.090173050761222839e-02,-2.965053357183933258e-02,-3.988525271415710449e-02,-2.851064503192901611e-02,-9.240227518603205681e-04,-8.016746491193771362e-03,-3.433661535382270813e-02,-3.150676935911178589e-02,-6.787635851651430130e-03,2.601297385990619659e-02,4.838544502854347229e-02,-1.564664579927921295e-02,-3.508025081828236580e-03,8.081724867224693298e-03,-1.756608672440052032e-02,-1.064234040677547455e-02,-4.454876761883497238e-03,9.052026085555553436e-03,2.327250689268112183e-02,8.516399189829826355e-03,-4.027643706649541855e-03,1.923860050737857819e-02,2.172151021659374237e-02,-3.996608778834342957e-02,-2.385017089545726776e-02,-2.004476264119148254e-03,-2.487993612885475159e-02,-3.894172981381416321e-02,-3.597886487841606140e-02,1.358933094888925552e-02,1.263170875608921051e-02,1.562207285314798355e-02,8.542286232113838196e-03,5.046729370951652527e-02,3.495797514915466309e-02,-3.475673869252204895e-02,-5.481516942381858826e-02,-5.263368412852287292e-02,6.602717097848653793e-03,-2.067386731505393982e-02,-2.063236199319362640e-02,3.506202623248100281e-02,5.656169727444648743e-02,-2.092274092137813568e-02,-1.603045687079429626e-02,-5.836924538016319275e-02,-4.880917072296142578e-02,-4.002762958407402039e-03,-4.587863758206367493e-02,-2.603146806359291077e-02,-2.484793076291680336e-03,-2.354338578879833221e-02,-2.316933590918779373e-03,-2.289943769574165344e-02,-1.061991043388843536e-02,-1.359242107719182968e-02,-8.328580297529697418e-03,-1.243789680302143097e-02,-2.483213692903518677e-02,3.004015423357486725e-03,1.770057715475559235e-02,-9.694144129753112793e-03,-4.805744811892509460e-02,-1.008771210908889771e-01,-5.716352537274360657e-02,-4.955191910266876221e-02,-1.060189083218574524e-01,-4.709795862436294556e-02,2.240334637463092804e-02,-1.613871380686759949e-02,-2.112130820751190186e-02,2.793152444064617157e-02,3.917865827679634094e-02,2.897411212325096130e-02,-4.163007810711860657e-02,-1.047610212117433548e-02,2.066975273191928864e-02,-7.943122833967208862e-02,-5.619604885578155518e-02,-1.712641306221485138e-02,-4.258633777499198914e-02,-8.210597187280654907e-02,-4.311882331967353821e-02,-6.526824831962585449e-02,-1.053807809948921204e-01,-8.267839252948760986e-02,-8.344543725252151489e-02,-1.242171376943588257e-01,-8.336582034826278687e-02,3.653665538877248764e-03,-3.476235270500183105e-02,-8.785519748926162720e-03,-5.072867497801780701e-02,-8.505227416753768921e-02,-7.162416726350784302e-02,-2.903965860605239868e-02,-5.997657030820846558e-02,-5.897979438304901123e-02,-5.447613820433616638e-02,-6.747363507747650146e-02,-6.025663390755653381e-02,2.566245943307876587e-02,2.939948346465826035e-03,-1.154100988060235977e-02,4.617172107100486755e-02,6.268635392189025879e-02,4.539305716753005981e-02,-4.607810080051422119e-02,-5.608979612588882446e-02,-3.718648478388786316e-02,-2.353697456419467926e-02,-1.668228954076766968e-02,4.665180109441280365e-03,-5.481523647904396057e-02,-5.044646933674812317e-02,6.449266336858272552e-03,2.405707724392414093e-02,-3.007039427757263184e-02,1.493423804640769958e-02,1.956782490015029907e-02,-1.532176788896322250e-02,7.258098106831312180e-03,3.630996495485305786e-02,3.008903190493583679e-02,2.385115064680576324e-02,-5.997340008616447449e-02,-5.350454151630401611e-02,-3.104121424257755280e-02,4.304356407374143600e-03,-1.349514070898294449e-02,1.281072758138179779e-02,4.611020162701606750e-02,2.854434400796890259e-02,4.722888767719268799e-02,-1.542508788406848907e-02,2.572651952505111694e-02,5.201970040798187256e-02,3.742966800928115845e-02,3.145655244588851929e-02,2.883097715675830841e-02,4.360951110720634460e-02,2.590904943645000458e-02,-6.830164697021245956e-03,2.127466164529323578e-02,2.171923033893108368e-02,1.020454987883567810e-02,-1.773598603904247284e-02,1.652477495372295380e-02,-1.622328348457813263e-02,-3.288974612951278687e-02,-3.420735709369182587e-03,-5.079689249396324158e-02,2.868491783738136292e-02,4.509320482611656189e-02,5.953336507081985474e-02,-2.073438838124275208e-02,2.838236978277564049e-04,3.461729502305388451e-04,-2.653141506016254425e-02,-7.082788273692131042e-03,-6.427173502743244171e-03,-3.579562157392501831e-02,-5.941046029329299927e-02,-6.805673986673355103e-02,-4.763014614582061768e-03,1.237506419420242310e-02,-1.412149518728256226e-02,3.809647262096405029e-02,1.051833331584930420e-01,8.942155539989471436e-02,4.898190125823020935e-02,7.025908678770065308e-02,1.799070276319980621e-02,8.063301444053649902e-02,1.310926228761672974e-01,8.860911428928375244e-02,8.591591566801071167e-02,2.078298926353454590e-01,1.256654411554336548e-01,1.635137014091014862e-02,4.136218130588531494e-02,4.118261486291885376e-02,1.231664232909679413e-02,4.751186445355415344e-02,5.661564692854881287e-02,-4.952988121658563614e-03,3.116020932793617249e-02,4.791215807199478149e-02,-4.162917844951152802e-03,-1.225309353321790695e-02,-6.037430837750434875e-03,8.353671990334987640e-03,-1.532483194023370743e-02,-8.687690133228898048e-04,3.552771732211112976e-02,-4.306656308472156525e-03,2.968023903667926788e-02,-3.613677981775254011e-04,2.708751894533634186e-02,8.030191995203495026e-03,1.269788760691881180e-02,3.122397698462009430e-02,4.010542854666709900e-02,2.121294289827346802e-02,5.438894033432006836e-02,2.117776125669479370e-02,-1.102812588214874268e-02,-2.352389320731163025e-02,-3.848160058259963989e-02,9.742074646055698395e-03,2.342380583286285400e-03,-3.567054867744445801e-02,2.036262489855289459e-02,4.363307729363441467e-02,3.815747424960136414e-02,5.051108077168464661e-02,6.684823334217071533e-02,1.257842779159545898e-02,2.822479978203773499e-02,4.030098021030426025e-02,8.429178968071937561e-03,4.732088744640350342e-02,8.201216161251068115e-02,3.889246284961700439e-02,5.107170715928077698e-02,1.016262471675872803e-01,7.939087599515914917e-02,-4.390675574541091919e-02,1.911326311528682709e-02,3.491747006773948669e-02,-6.836847960948944092e-02,-6.375137716531753540e-02,-8.907014504075050354e-03,-4.737291019409894943e-03,-2.409921213984489441e-02,-1.107670553028583527e-02,2.474275417625904083e-02,2.468827925622463226e-02,-4.237339831888675690e-03,4.795313626527786255e-02,4.482641071081161499e-02,1.229869294911623001e-02,-5.806255340576171875e-02,-5.894975736737251282e-02,-8.782168477773666382e-02,-2.384017687290906906e-03,1.849175058305263519e-02,-6.712312996387481689e-02,2.241266891360282898e-02,9.754685312509536743e-02,1.523062214255332947e-02,2.738337032496929169e-03,-7.542264647781848907e-03,-2.288111858069896698e-02,2.282231859862804413e-02,2.593284286558628082e-02,5.203127861022949219e-03,2.709683775901794434e-02,4.294667765498161316e-02,4.180804267525672913e-02,-1.659440924413502216e-03,1.802588813006877899e-02,-2.131807431578636169e-02,1.522670593112707138e-02,5.192515626549720764e-02,3.023397736251354218e-02,-1.357103325426578522e-02,4.234174732118844986e-03,-9.076341986656188965e-03,2.294624038040637970e-02,4.902919381856918335e-02,5.082890391349792480e-02,2.334101870656013489e-02,5.004091560840606689e-02,6.225205212831497192e-02,-3.332255408167839050e-03,-2.835675608366727829e-03,1.733145117759704590e-02,2.184042707085609436e-03,2.292973687872290611e-03,-3.944322094321250916e-02,-2.062725834548473358e-02,1.739048631861805916e-03,-1.043188665062189102e-02,-1.668605254963040352e-03,-8.900717832148075104e-03,-1.955799572169780731e-02,4.860862344503402710e-02,5.127933621406555176e-02,4.565448313951492310e-02,8.357312530279159546e-03,1.311323605477809906e-02,4.157423228025436401e-02,-4.645467177033424377e-02,-1.638519018888473511e-02,2.520996518433094025e-02,2.081068791449069977e-02,1.542138215154409409e-02,-1.528671756386756897e-02,1.851106435060501099e-02,-1.181133743375539780e-02,1.544216834008693695e-02,-1.783921732567250729e-03,-9.600438643246889114e-04,1.791525259613990784e-02,-7.499402854591608047e-03,-1.455630641430616379e-02,-1.244441885501146317e-02,-3.751409531105309725e-04,-1.952514611184597015e-02,-2.355054765939712524e-02,1.171389408409595490e-02,-2.898090891540050507e-02,-1.909276098012924194e-02,-3.458159653746406548e-06,-2.657050266861915588e-02,-2.519059367477893829e-02,-1.748095266520977020e-03,-9.206628426909446716e-03,1.573272311361506581e-04,-2.086978964507579803e-02,-3.288170322775840759e-03,-1.118307933211326599e-02,1.589511521160602570e-02,1.559972018003463745e-02,1.902801543474197388e-02,-5.228263512253761292e-02,-4.498153924942016602e-02,-2.452587336301803589e-02,-1.767992600798606873e-02,-3.985447064042091370e-02,-1.272899098694324493e-02,-7.023313082754611969e-03,-5.858787149190902710e-02,-4.380637034773826599e-02,-4.777597729116678238e-03,-3.615577518939971924e-02,-5.215343832969665527e-02,1.211966667324304581e-02,9.092837572097778320e-03,2.897802973166108131e-03,-1.675956882536411285e-02,-4.438092873897403479e-04,1.269074250012636185e-02,-3.510255739092826843e-02,-1.656473055481910706e-02,-3.301647084299474955e-04,-6.624497473239898682e-02,-3.324853256344795227e-02,-1.092462893575429916e-02,2.582523738965392113e-03,3.865767270326614380e-02,7.904407568275928497e-03,2.859119791537523270e-03,5.637779459357261658e-02,2.537709847092628479e-02,-1.387184951454401016e-02,-9.651467204093933105e-03,2.147754281759262085e-02,-1.418806891888380051e-02,-8.082121610641479492e-03,-1.930523291230201721e-02,-3.073069825768470764e-02,-1.871349476277828217e-02,-1.830874942243099213e-02,-2.850402705371379852e-02,3.433348378166556358e-03,-3.511098027229309082e-02,2.093947120010852814e-02,1.143663655966520309e-02,-4.037260636687278748e-02,6.891059875488281250e-02,8.203357458114624023e-02,-8.028798736631870270e-03,8.367108553647994995e-02,1.059743762016296387e-01,2.057616366073489189e-03,2.225329540669918060e-02,6.201125681400299072e-02,5.674399062991142273e-02,3.628265485167503357e-02,7.351817935705184937e-02,5.885523185133934021e-02,3.151942789554595947e-02,4.633503034710884094e-02,3.331875661388039589e-03,-1.613002829253673553e-02,1.067132689058780670e-02,1.442744303494691849e-02,1.310861390084028244e-02,-1.536863017827272415e-02,6.680283695459365845e-03,1.216022297739982605e-03,8.736337767913937569e-04,8.460483513772487640e-03,-3.905464336276054382e-02,-5.322254449129104614e-02,-1.577409915626049042e-02,-2.213670173659920692e-03,-2.458803728222846985e-02,-1.932758954353630543e-03,1.105090789496898651e-02,2.469424344599246979e-02,1.504550129175186157e-02,-6.034866720438003540e-02,-6.145055219531059265e-02,-1.936431415379047394e-02,-2.448078803718090057e-02,-3.844424709677696228e-02,6.004134658724069595e-03,4.210045933723449707e-02,2.283710427582263947e-02,9.347029961645603180e-03,9.322217665612697601e-03,1.198610849678516388e-02,2.182816341519355774e-02,2.474760171025991440e-03,-5.278156604617834091e-03,-7.313725538551807404e-03,-2.299245074391365051e-02,1.595681346952915192e-02,-1.870393194258213043e-02,-1.937841810286045074e-02,-2.015815861523151398e-02,-6.391121447086334229e-02,1.900840364396572113e-02,3.475743904709815979e-02,-2.164794830605387688e-03,3.462632745504379272e-02,9.368550032377243042e-02,1.696954667568206787e-02,2.891028858721256256e-02,1.874674111604690552e-02,1.149759814143180847e-02,9.232919663190841675e-03,2.117502316832542419e-02,1.682253181934356689e-02,-2.766906842589378357e-02,-3.962462022900581360e-02,-2.577070146799087524e-02,-2.490483969449996948e-02,-1.980883069336414337e-02,1.297185011208057404e-02,-9.779290296137332916e-03,-2.325773052871227264e-02,8.540836162865161896e-03,4.760039970278739929e-02,-1.687095314264297485e-02,2.322849817574024200e-03,-4.047616943717002869e-02,-8.992628008127212524e-02,-8.307395875453948975e-02,-8.700618892908096313e-02,-1.585277616977691650e-01,-1.284454166889190674e-01,-1.189755275845527649e-02,-5.545288696885108948e-02,-3.328380733728408813e-02,2.966858446598052979e-02,-2.668061992153525352e-03,-2.479482442140579224e-02,-4.828076437115669250e-02,-6.583847105503082275e-02,-2.824973873794078827e-02,-1.003109216690063477e-01,-8.169752359390258789e-02,-2.880702726542949677e-02,-2.897994965314865112e-02,-1.470664702355861664e-02,3.174167498946189880e-02,-1.207143161445856094e-02,-2.800177969038486481e-02,-6.606431212276220322e-03,-3.366747498512268066e-02,-1.893088920041918755e-03,-3.920064494013786316e-02,-2.919438108801841736e-02,-1.928853243589401245e-02,-3.695384040474891663e-02,2.348501700907945633e-03,1.293096132576465607e-02,-2.300912281498312950e-03,2.399049885571002960e-02,3.395587205886840820e-02,-6.817546673119068146e-03,-1.633045822381973267e-02,-6.955155730247497559e-02,-8.973745256662368774e-02,3.976570442318916321e-02,1.550050731748342514e-02,-2.269499376416206360e-02,1.029014363884925842e-01,1.229427680373191833e-01,6.386741250753402710e-02,-4.231775645166635513e-03,4.951067268848419189e-02,-7.628856226801872253e-03,-2.771959640085697174e-02,7.039800751954317093e-03,-9.405194781720638275e-03,-6.700753420591354370e-02,-6.054232269525527954e-02,-2.596686780452728271e-02,-5.856000352650880814e-03,-1.757304556667804718e-02,-3.801629319787025452e-02,2.857941901311278343e-03,-4.160284530371427536e-03,1.011313870549201965e-02,2.624252066016197205e-02,3.520044684410095215e-02,3.114308789372444153e-02
-2.538767457008361816e-02,-2.376546710729598999e-02,-8.066031150519847870e-03,-1.720789074897766113e-02,-1.797399483621120453e-02,-3.271931409835815430e-02,-2.204815112054347992e-02,-6.758791208267211914e-02,-1.061066761612892151e-01,-7.199469488114118576e-03,-2.332894504070281982e-02,-2.302849851548671722e-02,5.395718850195407867e-03,1.472061499953269958e-02,2.175006084144115448e-02,-1.221418101340532303e-02,3.676321124657988548e-03,8.112631738185882568e-03,3.355573490262031555e-02,-2.112680487334728241e-02,-3.184590488672256470e-02,2.626612549647688866e-04,-8.246285468339920044e-02,-6.421905010938644409e-02,-5.291949585080146790e-02,-1.126951202750205994e-01,-5.200063809752464294e-02,4.632183816283941269e-03,-2.246100455522537231e-03,4.789581056684255600e-03,-1.419106405228376389e-02,-2.896903082728385925e-03,2.958399243652820587e-02,-9.523672983050346375e-03,3.367423638701438904e-02,9.393196552991867065e-03,-2.737397700548171997e-02,-6.793207675218582153e-02,-8.878143876791000366e-02,-4.243039712309837341e-02,-8.051598072052001953e-02,-7.179518043994903564e-02,-6.615955382585525513e-02,-8.545459806919097900e-02,-5.720438808202743530e-02,-1.592039689421653748e-02,1.738580316305160522e-02,2.007662877440452576e-02,1.049280818551778793e-02,3.874855488538742065e-02,2.678072825074195862e-02,2.189925312995910645e-02,-1.852690428495407104e-02,5.278922989964485168e-02,1.977925375103950500e-02,1.564087346196174622e-02,-2.451197244226932526e-02,1.377002056688070297e-02,1.642260327935218811e-02,-3.563927114009857178e-02,-1.191855315119028091e-02,-4.836701788008213043e-03,-2.527076005935668945e-02,1.171943172812461853e-02,4.516374692320823669e-02,3.978525754064321518e-03,-1.080201473087072372e-02,2.716962248086929321e-02,-1.124764699488878250e-02,-3.276944160461425781e-02,5.717861931771039963e-03,-1.118069887161254883e-02,-4.401889815926551819e-02,-8.258659392595291138e-03,-4.352382570505142212e-02,-8.792854845523834229e-02,-4.750612378120422363e-02,-2.671065740287303925e-02,-7.309893518686294556e-02,2.074001589789986610e-03,5.227303877472877502e-02,2.177588455379009247e-02,2.382117323577404022e-02,1.609854027628898621e-02,4.445423185825347900e-02,4.467450454831123352e-02,3.670875728130340576e-02,2.947094850242137909e-02,2.447595261037349701e-02,1.686078310012817383e-02,7.669931277632713318e-03,4.981292877346277237e-03,8.259203284978866577e-03,3.861764445900917053e-03,8.109440677799284458e-04,-3.752021864056587219e-02,-4.388827458024024963e-02,-5.892191454768180847e-02,-5.486375838518142700e-02,1.680153654888272285e-03,1.128171756863594055e-02,3.946015238761901855e-02,2.546352893114089966e-02,6.412774324417114258e-02,3.687489777803421021e-02,-1.651160977780818939e-02,-8.650413714349269867e-03,-2.653585933148860931e-02,2.834113256540149450e-04,-3.024987131357192993e-02,-3.934146091341972351e-02,2.337326295673847198e-02,-5.754739977419376373e-03,1.829571835696697235e-02,1.912337355315685272e-02,2.861641161143779755e-02,5.400566384196281433e-02,1.751140318810939789e-02,5.413388367742300034e-03,-2.567847818136215210e-02,1.532605476677417755e-02,3.237563744187355042e-02,-1.060199923813343048e-02,-3.083927556872367859e-03,2.086609601974487305e-02,-1.538195367902517319e-02,3.009650297462940216e-02,-3.800731850787997246e-03,3.997242823243141174e-02,-1.268722675740718842e-02,-4.809276666492223740e-03,4.190420359373092651e-02,1.476742699742317200e-02,-2.255765907466411591e-02,2.263861522078514099e-02,-1.564646698534488678e-02,3.109975717961788177e-03,-1.275993324816226959e-02,-1.281277742236852646e-02,3.043779730796813965e-02,-2.038335241377353668e-02,-2.389024756848812103e-02,8.315710350871086121e-03,1.926308870315551758e-02,-2.168693393468856812e-02,-1.736897602677345276e-02,-1.426053419709205627e-02,-2.036532573401927948e-02,1.796543132513761520e-03,1.582335494458675385e-02,-2.285638079047203064e-02,2.036370337009429932e-02,3.642854467034339905e-02,1.831184513866901398e-02,-4.154225438833236694e-02,-9.409864433109760284e-03,7.689292397117242217e-05,-2.220977097749710083e-02,-2.198950760066509247e-02,-1.402665395289659500e-02,-2.447497472167015076e-02,-5.301647819578647614e-03,2.552351728081703186e-02,9.775480255484580994e-03,-4.117723088711500168e-03,3.195174038410186768e-02,1.268221065402030945e-03,2.177407592535018921e-02,-2.721014665439724922e-03,3.640422597527503967e-03,3.934384509921073914e-02,-1.503114681690931320e-02,4.451902117580175400e-03,4.209599457681179047e-03,2.899752371013164520e-02,2.715837955474853516e-02,5.028916522860527039e-03,3.400100395083427429e-02,5.950324982404708862e-02,3.702255710959434509e-02,1.367474440485239029e-02,2.129074558615684509e-02,2.619975246489048004e-02,-3.923261538147926331e-03,2.418101206421852112e-02,5.174411460757255554e-02,2.970169764012098312e-03,2.323967590928077698e-02,3.793031722307205200e-02,3.349399566650390625e-02,-7.143985945731401443e-03,-2.159200981259346008e-02,-1.762010715901851654e-02,-3.941243141889572144e-02,-1.346540171653032303e-02,-5.342640448361635208e-03,1.400511339306831360e-02,3.337763994932174683e-02,2.040502429008483887e-02,3.109357086941599846e-03,-1.183557230979204178e-02,-1.258613169193267822e-02,2.042699605226516724e-02,-1.189621724188327789e-02,-4.095399379730224609e-02,-1.123970840126276016e-03,-1.336047239601612091e-02,-2.311171777546405792e-02,-2.776461839675903320e-02,-6.248700432479381561e-03,-1.725558936595916748e-02,3.886593133211135864e-02,8.622771501541137695e-02,-6.036561913788318634e-03,5.932880565524101257e-02,9.806858003139495850e-02,-3.469724208116531372e-02,-1.530148740857839584e-02,2.318932674825191498e-02,-3.834980772808194160e-03,2.374888025224208832e-02,7.657760381698608398e-02,3.942651301622390747e-02,6.936021894216537476e-02,5.080930888652801514e-02,-6.695454940199851990e-03,3.747402457520365715e-03,4.053520038723945618e-03,-2.604313194751739502e-03,2.334557846188545227e-02,-1.027276273816823959e-03,-6.365171167999505997e-03,7.582552731037139893e-03,2.791019901633262634e-02,6.864768918603658676e-03,-1.181689091026782990e-03,1.631672866642475128e-02,-4.226943012326955795e-03,2.422325871884822845e-02,5.136759020388126373e-03,1.174860261380672455e-02,2.761662192642688751e-02,4.138684272766113281e-02,-1.456361357122659683e-02,-2.443633787333965302e-02,-1.341238431632518768e-02,-3.223025426268577576e-02,-2.007105574011802673e-02,-2.216113731265068054e-02,-2.386574260890483856e-02,-3.923870623111724854e-03,-3.290313296020030975e-03,-2.426981925964355469e-03,-7.092682179063558578e-03,1.712362165562808514e-03,-1.723506837151944637e-03,-1.300754211843013763e-02,-1.006554625928401947e-02,9.756940416991710663e-04,-4.933436401188373566e-03,3.229031339287757874e-03,6.728506181389093399e-03,3.134795278310775757e-02,2.223680354654788971e-02,-2.455289848148822784e-02,2.335401624441146851e-02,2.573742531239986420e-02,-4.929517861455678940e-03,3.697801381349563599e-02,4.368874430656433105e-02,-3.409972786903381348e-02,-5.114800855517387390e-02,-1.501300255768001080e-03,-6.998495757579803467e-02,-3.553302586078643799e-02,-3.136797994375228882e-02,-7.382480055093765259e-02,-8.410036563873291016e-02,-9.618288837373256683e-03,-7.877200841903686523e-03,-2.468610741198062897e-02,-3.270481899380683899e-02,-1.631303690373897552e-03,4.929021815769374371e-04,5.708108656108379364e-03,-4.329846054315567017e-02,-1.159727759659290314e-02,3.320355899631977081e-03,-1.322323735803365707e-02,-3.045811131596565247e-02,-1.559463609009981155e-02,-2.454242482781410217e-02,-1.249985303729772568e-02,1.775488443672657013e-02,1.704856194555759430e-02,4.800632596015930176e-02,4.964666813611984253e-02,-1.579097285866737366e-02,-2.063906006515026093e-02,-1.305637508630752563e-02,-2.424761466681957245e-02,-2.629678696393966675e-02,3.958534915000200272e-03,-2.471452765166759491e-02,-1.263556163758039474e-02,2.046894095838069916e-02,-3.677191585302352905e-02,-3.288015723228454590e-02,-2.131353877484798431e-02,-4.556441307067871094e-02,-2.980133704841136932e-02,-5.169412470422685146e-04,-3.828366473317146301e-02,-7.306759711354970932e-03,1.980768330395221710e-02,-2.855924516916275024e-02,-3.555880114436149597e-02,-5.006011947989463806e-02,-4.014513641595840454e-02,-4.017734155058860779e-02,-3.380868583917617798e-02,-6.435674428939819336e-02,-5.463051795959472656e-02,-3.040649741888046265e-02,1.308465097099542618e-02,5.178132280707359314e-02,4.925969243049621582e-02,1.414790656417608261e-02,5.449416488409042358e-02,1.964950747787952423e-02,-4.269514232873916626e-02,-3.912704810500144958e-02,-2.620599791407585144e-02,-2.520418912172317505e-02,-2.379070222377777100e-02,-1.936647575348615646e-03,-2.484071301296353340e-03,6.170115247368812561e-02,8.559342473745346069e-02,-1.939820009283721447e-03,6.493876874446868896e-02,5.820120871067047119e-02,-5.883489549160003662e-02,-1.438464038074016571e-02,-3.444657102227210999e-02,-1.182807958684861660e-03,7.230535149574279785e-03,-2.829451486468315125e-02,8.112801588140428066e-04,-1.214942149817943573e-02,2.388098090887069702e-02,2.196657098829746246e-02,3.289740160107612610e-02,8.099947869777679443e-02,3.361772745847702026e-02,5.141079425811767578e-02,1.933320239186286926e-02,1.553785707801580429e-02,-2.042259648442268372e-02,-9.933100640773773193e-02,-2.924616262316703796e-02,-1.745544746518135071e-02,6.367508322000503540e-03,-2.535349130630493164e-02,6.005142256617546082e-02,5.921149998903274536e-02,-6.825245916843414307e-03,6.471075117588043213e-02,9.622418135404586792e-02,1.082521770149469376e-02,3.007771074771881104e-02,-5.863373517058789730e-04,-2.772063016891479492e-02,-1.784393563866615295e-02,-5.723640695214271545e-02,-4.432341456413269043e-02,-6.077864393591880798e-02,-7.744532078504562378e-02,2.745097503066062927e-02,-1.925654523074626923e-02,-3.122706711292266846e-02,1.547573227435350418e-02,9.251770563423633575e-03,-9.442088007926940918e-02,-4.305248335003852844e-02,-1.172410622239112854e-01,-1.775655448436737061e-01,3.034651651978492737e-02,1.871496625244617462e-02,2.918018400669097900e-02,8.101042360067367554e-02,4.186730459332466125e-02,1.228184998035430908e-01,9.211641550064086914e-02,1.215945333242416382e-01,1.438585072755813599e-01,4.247074946761131287e-03,-3.107471764087677002e-02,-3.285492211580276489e-02,-1.350878179073333740e-02,-3.008072450757026672e-02,-2.074439777061343193e-03,5.704028531908988953e-03,1.414063759148120880e-02,4.074979573488235474e-02,-1.559943612664937973e-02,-2.064488269388675690e-02,-1.875008270144462585e-02,-4.062818828970193863e-03,-1.057451684027910233e-02,-1.655297167599201202e-02,-1.596073992550373077e-02,-1.754177547991275787e-02,-1.547013130038976669e-02,-5.844921339303255081e-03,-2.599967271089553833e-02,1.945136301219463348e-02,-2.442869171500205994e-02,4.977265372872352600e-02,3.899275511503219604e-02,-1.685333263594657183e-04,1.507175527513027191e-02,3.719081357121467590e-02,-2.788533829152584076e-02,1.479450520128011703e-02,3.360711783170700073e-02,1.430879533290863037e-02,-1.754160970449447632e-03,1.383307725191116333e-01,8.940183371305465698e-02,1.361110806465148926e-01,1.471565961837768555e-01,1.931791007518768311e-02,-7.772077340632677078e-03,-4.765225574374198914e-02,3.891024366021156311e-02,3.529591858386993408e-02,1.755691505968570709e-02,-1.789959520101547241e-02,2.757875248789787292e-03,2.985750697553157806e-02,7.915068417787551880e-03,6.729171145707368851e-03,5.110789462924003601e-02,2.179902233183383942e-02,3.233206644654273987e-02,2.680072933435440063e-02,-2.620217576622962952e-02,-5.032786354422569275e-02,-4.919916391372680664e-02,2.072400599718093872e-02,1.767248380929231644e-03,-1.403651759028434753e-02,3.626761212944984436e-02,6.174270808696746826e-02,-5.729768425226211548e-02,4.160946607589721680e-02,-3.071207553148269653e-03,-7.517135143280029297e-02,1.402283646166324615e-02,-4.415488615632057190e-02,-9.911937266588211060e-02,-5.720456317067146301e-02,-7.185871899127960205e-02,-1.836171001195907593e-01,-1.082606539130210876e-01,-1.709595322608947754e-01,-1.748297214508056641e-01,8.327249670401215553e-04,2.075115032494068146e-02,1.302829105406999588e-02,-2.403359860181808472e-02,8.166870102286338806e-03,1.694606430828571320e-02,-1.634260523132979870e-03,7.275160402059555054e-03,1.608298532664775848e-02,2.628951333463191986e-02,-3.145685419440269470e-02,-1.024007983505725861e-02,-8.909440599381923676e-03,-3.339776024222373962e-02,-6.594528257846832275e-02,-3.084845608100295067e-03,-8.115958422422409058e-02,-9.217935800552368164e-02,-2.722507715225219727e-02,-4.416710883378982544e-02,1.432508789002895355e-02,-8.067631721496582031e-02,-2.230845205485820770e-02,-1.836356893181800842e-02,-3.540434315800666809e-02,-4.888268932700157166e-02,-2.861275896430015564e-02,-4.349856451153755188e-02,-2.545632608234882355e-02,-3.040213137865066528e-02,1.114580594003200531e-02,-5.173616111278533936e-03,8.155281096696853638e-02,8.117440342903137207e-02,1.530254036188125610e-01,1.422522217035293579e-01,2.179498784244060516e-02,3.609821945428848267e-02,2.001084387302398682e-02,4.046410694718360901e-02,2.988332882523536682e-02,2.363766357302665710e-02,3.803120343945920467e-04,7.511221338063478470e-03,5.301246885210275650e-03,-1.217655185610055923e-02,2.713590674102306366e-02,2.581323496997356415e-02,-1.647371239960193634e-02,2.910048328340053558e-02,-2.018650528043508530e-03,1.803583092987537384e-02,3.207372874021530151e-02,1.605063304305076599e-02,-7.121342932805418968e-04,-2.822925709187984467e-02,-1.977129466831684113e-02,3.234721021726727486e-03,1.341876387596130371e-02,4.988999105989933014e-03,1.304848305881023407e-02,2.399930916726589203e-02,5.080651491880416870e-03,3.104591369628906250e-02,2.582863904535770416e-02,-2.413796447217464447e-02,1.556408219039440155e-02,1.484778150916099548e-02,-9.548263624310493469e-03,-3.100458532571792603e-02,-7.361628860235214233e-02,-4.610073193907737732e-02,-4.750686232000589371e-03,7.827691733837127686e-02,8.870290964841842651e-02,7.868836075067520142e-02,9.732299298048019409e-02,2.093874961137771606e-01,1.075597479939460754e-01,2.146227508783340454e-01,2.011265605688095093e-01,-3.371239639818668365e-03,-3.000342845916748047e-02,-2.117420732975006104e-02,-5.094550549983978271e-03,-3.024995699524879456e-02,-2.873123250901699066e-02,-5.055103916674852371e-03,-1.760571449995040894e-02,-1.012637931853532791e-02,1.740128174424171448e-02,2.504667639732360840e-02,-1.682219910435378551e-03,6.733176112174987793e-02,6.375707685947418213e-02,4.724647104740142822e-02,4.448019713163375854e-02,3.779289126396179199e-02,4.127883538603782654e-02,2.510833740234375000e-02,-4.411386908032000065e-04,7.585537969134747982e-04,8.400282822549343109e-03,2.606053650379180908e-02,4.435039311647415161e-02,1.386768184602260590e-02,-4.061840474605560303e-03,6.381375342607498169e-02
2.753127180039882660e-02,3.905634209513664246e-02,8.539248374290764332e-04,4.405627772212028503e-02,1.408924534916877747e-02,-4.622519388794898987e-02,-1.775882020592689514e-02,-7.707633823156356812e-02,-8.589901030063629150e-02,-4.323647171258926392e-02,-1.784713752567768097e-02,-2.020812965929508209e-02,-7.101958151906728745e-03,3.307875618338584900e-02,1.601870544254779816e-02,-2.417804487049579620e-02,1.510475762188434601e-02,-1.040868367999792099e-02,5.751630291342735291e-02,2.138757705688476562e-02,-2.150965854525566101e-02,4.440616816282272339e-02,-4.686466883867979050e-03,-5.454586073756217957e-02,6.307177711278200150e-03,-2.967742085456848145e-02,-4.326805472373962402e-02,4.487374424934387207e-02,-5.572546506300568581e-04,2.065046690404415131e-02,3.921786323189735413e-03,-2.106194943189620972e-02,-4.475944675505161285e-03,-3.180431202054023743e-02,-8.437043987214565277e-03,-3.827181411907076836e-03,1.940476335585117340e-02,7.187939714640378952e-03,-2.544178860262036324e-03,1.227519754320383072e-02,-7.011883892118930817e-03,-2.172045409679412842e-02,-1.423681061714887619e-02,-3.484332561492919922e-02,-3.626921400427818298e-02,-3.326760977506637573e-02,-8.128072135150432587e-03,-2.758385799825191498e-02,-1.155701465904712677e-02,-1.294135116040706635e-02,-4.463438875973224640e-03,5.146667826920747757e-03,-1.321307383477687836e-02,5.654654931277036667e-03,-1.452482026070356369e-02,-1.802407018840312958e-02,-3.082419186830520630e-02,-2.029939182102680206e-02,-9.012826718389987946e-03,1.884104800410568714e-03,4.083397332578897476e-03,7.171575911343097687e-03,1.082418113946914673e-02,-2.399936318397521973e-02,-2.392014861106872559e-02,-3.134250268340110779e-02,-5.243852362036705017e-02,-3.171882778406143188e-02,-3.929509595036506653e-02,1.011832803487777710e-02,1.933665014803409576e-02,-1.145793497562408447e-02,-4.380720108747482300e-02,-1.979933679103851318e-02,-3.241412714123725891e-02,-4.253496602177619934e-02,3.294318681582808495e-03,-7.402230519801378250e-03,-1.019292976707220078e-02,3.644650802016258240e-02,4.152887314558029175e-02,-4.022193700075149536e-02,1.020469423383474350e-02,-7.843346334993839264e-03,-1.188936084508895874e-02,3.741857036948204041e-02,-3.032821929082274437e-03,-1.079782005399465561e-02,1.547228544950485229e-02,3.807849716395139694e-03,-1.067007426172494888e-02,-2.287963032722473145e-02,-3.178211301565170288e-02,2.509394288063049316e-02,3.403897862881422043e-04,-2.670060656964778900e-02,-3.994900360703468323e-02,-1.545268855988979340e-02,2.230951748788356781e-02,-2.200044319033622742e-02,3.550719097256660461e-02,6.098352372646331787e-03,-1.909995684400200844e-03,2.102858619764447212e-03,-3.456494584679603577e-02,-8.025712333619594574e-03,-3.360520303249359131e-02,1.120123732835054398e-02,5.393714830279350281e-02,6.460761278867721558e-02,-3.130092471837997437e-02,1.260842289775609970e-02,9.028675965964794159e-03,-4.120232164859771729e-02,-2.412223257124423981e-02,-1.064210757613182068e-02,-3.069430775940418243e-02,3.203206928446888924e-03,1.128473551943898201e-03,-1.795802824199199677e-02,-1.048212219029664993e-02,-3.483629785478115082e-03,-2.444612793624401093e-02,-2.504257112741470337e-02,-6.561150774359703064e-03,3.755218815058469772e-03,-1.056172251701354980e-01,-7.193855941295623779e-02,-7.385692000389099121e-02,-4.413934051990509033e-02,1.939076930284500122e-02,6.536524742841720581e-02,8.021917939186096191e-02,8.318543434143066406e-02,5.602679774165153503e-02,1.039612386375665665e-02,-5.257816985249519348e-03,-1.990532968193292618e-03,3.210086841136217117e-03,4.765537101775407791e-03,-8.254544809460639954e-03,-1.826870255172252655e-02,-1.770971715450286865e-02,-9.893443435430526733e-03,-2.416983246803283691e-02,-3.389749675989151001e-02,-2.783018164336681366e-02,-1.959101110696792603e-02,-2.190648205578327179e-02,8.505596779286861420e-03,-1.768173091113567352e-02,7.925089448690414429e-03,2.835054881870746613e-02,1.302827801555395126e-02,-4.063036758452653885e-03,-1.138558685779571533e-01,1.846863701939582825e-02,-1.186147034168243408e-01,-1.685103476047515869e-01,-3.847090527415275574e-02,-1.373899728059768677e-01,-6.085338816046714783e-02,9.575815871357917786e-03,4.225627332925796509e-02,1.226516440510749817e-03,2.502276934683322906e-02,1.907710172235965729e-02,-2.667686715722084045e-02,2.086695516481995583e-03,1.461729779839515686e-02,-1.896239072084426880e-02,3.635752573609352112e-02,2.443427965044975281e-02,-1.872511394321918488e-02,1.541223283857107162e-02,-1.312116440385580063e-02,-4.142435267567634583e-02,-8.613787591457366943e-03,-1.006060838699340820e-02,-4.516022745519876480e-03,-5.506538599729537964e-02,-7.304801791906356812e-02,-5.312874913215637207e-02,3.689502133056521416e-03,-1.975234411656856537e-02,3.725349158048629761e-02,2.889878675341606140e-02,2.185339666903018951e-02,3.437371551990509033e-02,3.508811444044113159e-02,9.563176892697811127e-03,-1.191803067922592163e-02,-1.288817450404167175e-02,-2.080074325203895569e-02,-5.856975913047790527e-03,-2.439010189846158028e-03,1.231072656810283661e-02,3.185835108160972595e-02,7.498089969158172607e-02,3.771276399493217468e-02,-5.550805013626813889e-03,-6.339082866907119751e-02,-8.804119378328323364e-02,-1.235625967383384705e-01,-1.360661536455154419e-01,-1.900486499071121216e-01,-1.119782775640487671e-01,-4.111060115974396467e-04,4.062735475599765778e-03,3.484800457954406738e-03,-4.299629945307970047e-03,3.370364755392074585e-02,2.996708452701568604e-02,-1.935185492038726807e-02,4.076996445655822754e-02,1.551740337163209915e-02,1.030565146356821060e-02,4.090617224574089050e-02,3.305736556649208069e-02,3.904110938310623169e-02,3.169960901141166687e-02,-2.095181494951248169e-02,1.913194311782717705e-03,-3.410739824175834656e-02,-6.189342588186264038e-02,-3.570778295397758484e-02,-1.271834876388311386e-02,1.204236783087253571e-02,3.621108829975128174e-02,-1.764424261637032032e-03,3.290423378348350525e-02,4.229061678051948547e-02,5.113983899354934692e-02,5.896843224763870239e-02,-7.205560058355331421e-02,-8.524879068136215210e-02,-3.055558539927005768e-02,-5.888829752802848816e-02,1.428459305316209793e-02,6.941703706979751587e-02,2.367750182747840881e-02,1.232294812798500061e-01,8.138203620910644531e-02,-4.571604076772928238e-03,1.040649018250405788e-03,-1.199516281485557556e-02,-1.597479917109012604e-02,-3.256564028561115265e-03,8.848139084875583649e-03,-3.570305183529853821e-03,1.705238968133926392e-02,2.894744277000427246e-02,-2.620259532704949379e-03,-2.209780178964138031e-02,-2.821295335888862610e-02,-5.190252326428890228e-03,-3.198355436325073242e-02,3.362842649221420288e-02,-1.341946772299706936e-03,2.390189468860626221e-02,2.651725336909294128e-02,-4.747370630502700806e-02,-4.721435252577066422e-03,2.270856685936450958e-02,-3.540509846061468124e-03,1.199850905686616898e-02,1.123485900461673737e-02,1.142645347863435745e-02,7.472721487283706665e-02,-7.372607942670583725e-03,-4.070519004017114639e-03,-7.849216461181640625e-03,-2.084201760590076447e-02,2.670544013381004333e-02,-2.960221143439412117e-03,-3.275667130947113037e-02,-6.114236079156398773e-03,-2.334828861057758331e-02,1.622577314265072346e-03,9.260658174753189087e-03,-2.488243207335472107e-02,-4.775696992874145508e-02,1.471285894513130188e-02,5.467707524076104164e-04,-1.191428047604858875e-03,-1.591996476054191589e-02,-3.089967867708764970e-05,-6.013202015310525894e-03,-6.041578599251806736e-04,-2.159405685961246490e-02,-2.365947514772415161e-02,-1.883123070001602173e-02,-2.689542807638645172e-02,-6.895035970956087112e-03,1.927388715557754040e-03,-8.378375321626663208e-03,1.137351989746093750e-02,-2.384569682180881500e-02,-1.191035751253366470e-02,1.583748729899525642e-03,-3.704490885138511658e-02,3.484200919046998024e-03,4.049532860517501831e-02,-2.074400894343852997e-02,2.321406453847885132e-02,3.541844338178634644e-02,-3.991808742284774780e-02,-2.314409427344799042e-02,-2.540860325098037720e-02,-5.368812382221221924e-02,-2.294883015565574169e-04,2.070359140634536743e-02,-2.477521449327468872e-02,4.436229169368743896e-02,2.472609095275402069e-02,-2.253528498113155365e-02,-6.323862820863723755e-03,2.619426697492599487e-03,6.869276054203510284e-03,2.623632736504077911e-02,1.266348361968994141e-02,3.724373877048492432e-03,1.781477779150009155e-02,-2.545196563005447388e-03,-2.231387048959732056e-02,-9.187385439872741699e-03,6.911571323871612549e-02,-1.642130129039287567e-02,2.478017844259738922e-02,4.996028915047645569e-02,-8.478716015815734863e-03,2.223292738199234009e-02,-9.191499091684818268e-03,-2.791651338338851929e-02,-2.581773512065410614e-02,-5.481984466314315796e-03,-2.609873749315738678e-02,-9.189207106828689575e-03,1.542394049465656281e-02,-7.609097287058830261e-03,5.003575701266527176e-03,2.448624186217784882e-02,1.592137105762958527e-02,7.093223929405212402e-02,3.521489351987838745e-02,8.573190122842788696e-02,1.043606996536254883e-01,6.773976236581802368e-02,4.840319976210594177e-02,6.078228354454040527e-02,-8.637000620365142822e-02,-2.155084162950515747e-02,-1.956794597208499908e-02,-1.347442273981869221e-03,-5.171900149434804916e-03,1.144763175398111343e-02,4.311835393309593201e-03,2.042800001800060272e-02,-9.409456513822078705e-03,5.937317037023603916e-04,-8.545869961380958557e-03,1.577209495007991791e-02,4.867798462510108948e-02,3.128980100154876709e-02,3.718869760632514954e-02,2.611592039465904236e-02,1.181555911898612976e-02,8.313998579978942871e-03,-2.586663700640201569e-02,3.288077935576438904e-02,2.607639878988265991e-02,-3.569662943482398987e-02,3.500501066446304321e-02,-5.298159550875425339e-03,-6.524466723203659058e-02,7.607296574860811234e-03,-5.557208508253097534e-02,-6.321988999843597412e-02,2.263481542468070984e-02,1.124474499374628067e-02,-3.589280880987644196e-03,5.029869079589843750e-02,3.402669727802276611e-02,-7.234928011894226074e-02,-1.371492631733417511e-02,-4.204765707254409790e-02,-9.877235442399978638e-02,-3.895383328199386597e-02,-2.258247695863246918e-02,1.268371567130088806e-02,-3.784935548901557922e-02,-1.874414831399917603e-02,1.023580506443977356e-02,2.337271906435489655e-02,5.270898714661598206e-02,5.828368291258811951e-02,-5.500492639839649200e-03,3.258618060499429703e-03,-1.533527113497257233e-02,1.594553515315055847e-02,-1.529130502603948116e-03,-9.684207616373896599e-04,-3.314688336104154587e-03,-5.215951241552829742e-03,2.391075715422630310e-02,-2.689447067677974701e-02,-1.046767923980951309e-03,3.449583891779184341e-03,-9.381365031003952026e-03,1.463423110544681549e-02,6.814354564994573593e-03,-4.857708234339952469e-03,1.074741035699844360e-02,-4.089735914021730423e-03,4.785151977557688951e-04,-5.200521647930145264e-02,-3.201593086123466492e-02,-4.250295460224151611e-02,-3.481023758649826050e-02,-1.526460517197847366e-03,-3.113804617896676064e-03,1.561245787888765335e-02,3.866541013121604919e-02,5.246942490339279175e-02,7.745570689439773560e-02,1.004824414849281311e-02,5.580386146903038025e-02,1.652320660650730133e-02,-4.464939236640930176e-02,-1.203955337405204773e-02,-2.105077728629112244e-02,-2.543281018733978271e-02,-5.999650061130523682e-02,2.411195509921526536e-06,1.533094327896833420e-02,-9.794701635837554932e-02,9.740200825035572052e-03,5.089849978685379028e-02,-2.974631078541278839e-02,8.752550929784774780e-02,5.330261960625648499e-02,-4.584725946187973022e-02,-2.034211345016956329e-02,4.864117130637168884e-02,-4.156019166111946106e-02,9.432543814182281494e-02,7.321616262197494507e-02,7.793031632900238037e-03,5.718588456511497498e-02,1.211552973836660385e-02,6.462885648943483829e-04,-3.461306914687156677e-02,-4.246723372489213943e-03,-1.675854064524173737e-02,7.731947116553783417e-03,6.884877569973468781e-03,-1.287904102355241776e-02,1.641703397035598755e-02,5.877401679754257202e-02,-5.493897013366222382e-03,1.954983547329902649e-02,3.444613888859748840e-02,-2.049944363534450531e-03,3.812881931662559509e-02,5.928892176598310471e-03,-8.210469968616962433e-03,-3.282879292964935303e-02,-5.488261952996253967e-02,-2.056530676782131195e-02,5.799813661724328995e-03,9.494540281593799591e-04,-9.268449619412422180e-03,1.051700860261917114e-02,-1.505259331315755844e-02,1.194354519248008728e-02,2.422634325921535492e-02,-4.465812817215919495e-03,2.305065095424652100e-02,2.002469450235366821e-02,2.781932707875967026e-04,2.166172116994857788e-02,1.195952016860246658e-02,-1.323091797530651093e-02,2.803950197994709015e-02,1.692520454525947571e-02,-3.353275358676910400e-03,-1.351588666439056396e-01,-1.191204413771629333e-01,1.316372025758028030e-02,-8.148454874753952026e-02,3.060615435242652893e-02,1.104160398244857788e-01,4.234531149268150330e-02,1.015302464365959167e-01,6.241970881819725037e-02,3.559762239456176758e-02,4.736365750432014465e-02,-8.430399931967258453e-03,4.531231522560119629e-02,1.367274578660726547e-02,-2.223596721887588501e-02,1.108838431537151337e-02,-2.341255918145179749e-02,-9.029210545122623444e-03,-8.142717182636260986e-03,3.048919374123215675e-03,1.862716116011142731e-02,-4.138293489813804626e-02,-2.459747157990932465e-02,7.767213042825460434e-03,-5.502323433756828308e-02,-4.245923087000846863e-02,-2.653884701430797577e-02,7.182684540748596191e-02,9.134428203105926514e-02,8.323117508552968502e-04,7.267963886260986328e-02,1.228569820523262024e-02,-3.327411785721778870e-02,5.248590605333447456e-04,-7.475413382053375244e-02,-2.843207679688930511e-02,-7.746752351522445679e-02,-4.367945715785026550e-02,-7.228207588195800781e-02,3.658331930637359619e-02,1.090137809514999390e-01,1.455595716834068298e-02,1.050488725304603577e-01,1.111965328454971313e-01,3.167623281478881836e-02,2.121576294302940369e-02,4.019662365317344666e-02,-1.659101457335054874e-03,3.449342027306556702e-02,3.705773502588272095e-02,-2.004206180572509766e-02,2.625828050076961517e-02,-1.404958311468362808e-02,-6.537907570600509644e-02,-4.530026577413082123e-03,-9.475978091359138489e-03,-2.765607833862304688e-02,-8.758489973843097687e-03,7.837057113647460938e-03,-1.527766324579715729e-02,-3.708739951252937317e-02,-1.881810836493968964e-02,-2.996535971760749817e-02,-2.032661065459251404e-02,-2.976840548217296600e-02,-3.137894719839096069e-02,-2.874509803950786591e-02,-1.099955942481756210e-02,2.263333648443222046e-02,-1.086373161524534225e-02,3.188632428646087646e-02,5.182890966534614563e-02,-2.980555221438407898e-02,-7.240259554237127304e-03,7.049894193187355995e-04,3.612562268972396851e-02,-1.062123943120241165e-02,-1.429907698184251785e-02,-3.243612358346581459e-03,-8.679434657096862793e-03,-2.616731077432632446e-02,-4.054791480302810669e-02,-3.964524716138839722e-02,-3.623243048787117004e-02,-4.564546514302492142e-03,-4.846637323498725891e-02,1.821597106754779816e-02,-4.155535995960235596e-02,-2.784348651766777039e-02,6.051194667816162109e-02
3.061222471296787262e-02,1.644415780901908875e-02,5.447582807391881943e-03,-1.763040665537118912e-03,1.925603486597537994e-02,5.918683484196662903e-03,-1.546039246022701263e-02,-3.510757908225059509e-02,-4.346945136785507202e-02,1.081777364015579224e-02,3.912594914436340332e-02,3.387408331036567688e-02,-2.973826974630355835e-02,-1.175568671897053719e-03,2.111492067342624068e-04,-1.167847216129302979e-02,4.605853930115699768e-03,1.405305135995149612e-02,-1.113080512732267380e-02,-1.743428595364093781e-02,-2.649265807121992111e-03,-2.690920792520046234e-02,-3.186063840985298157e-02,-1.796253956854343414e-02,-7.084190845489501953e-03,-1.934773474931716919e-02,-4.539064131677150726e-03,-1.209111325442790985e-02,-7.254555355757474899e-03,4.288995172828435898e-03,-2.498315647244453430e-02,3.419141843914985657e-02,-2.015992812812328339e-02,-2.508377097547054291e-02,1.003298070281744003e-02,6.223390344530344009e-03,2.549212053418159485e-02,9.405305609107017517e-03,2.874793112277984619e-02,4.042246844619512558e-03,-2.187517471611499786e-02,-1.096100918948650360e-02,8.609778247773647308e-03,-1.469346135854721069e-02,1.287200022488832474e-03,-5.006554722785949707e-02,-1.206043362617492676e-01,-1.027416139841079712e-01,6.381387263536453247e-02,-5.293171107769012451e-02,4.827981814742088318e-02,6.853742524981498718e-03,-3.029322996735572815e-02,7.412746548652648926e-02,2.715670876204967499e-02,3.828682377934455872e-02,1.499131508171558380e-02,3.869242593646049500e-02,6.076569110155105591e-02,5.444082617759704590e-02,-5.930591002106666565e-02,-1.000410988926887512e-01,-7.263318449258804321e-02,3.765668952837586403e-03,4.802649200428277254e-04,-7.295409683138132095e-03,9.841858409345149994e-04,-1.641278341412544250e-02,7.798822596669197083e-03,7.272609975188970566e-03,-2.501026261597871780e-03,-1.102048438042402267e-02,-2.429060451686382294e-02,-1.437143702059984207e-02,-7.745745591819286346e-03,-1.319252420216798782e-02,8.703904226422309875e-03,3.682504221796989441e-02,-1.223657745867967606e-02,-3.373791463673114777e-03,-4.756317473948001862e-03,-1.968149282038211823e-02,-4.366431012749671936e-02,-3.160359337925910950e-02,1.598473824560642242e-02,-2.024066261947154999e-02,2.751098712906241417e-03,2.154375053942203522e-02,1.050487346947193146e-02,1.460483204573392868e-02,-1.875770837068557739e-02,3.563079517334699631e-03,1.237908657640218735e-02,-9.524380788207054138e-03,1.836820156313478947e-03,1.958275213837623596e-02,6.871616467833518982e-03,1.369597972370684147e-03,-8.270017802715301514e-03,2.546256594359874725e-02,4.096594080328941345e-02,6.889382377266883850e-03,1.741898246109485626e-03,1.989183016121387482e-02,-3.029037034139037132e-03,-6.779653020203113556e-03,-1.092512812465429306e-02,1.849658787250518799e-02,-1.171947270631790161e-02,-1.840070821344852448e-02,4.450930748134851456e-03,-2.608006470836699009e-04,-1.118776481598615646e-02,2.397666499018669128e-02,2.555840462446212769e-02,3.280311450362205505e-02,2.377093583345413208e-02,-4.989635571837425232e-02,-4.437500610947608948e-02,-4.078990966081619263e-02,-2.620664238929748535e-02,-1.885353215038776398e-02,-1.959341764450073242e-02,-2.339042257517576218e-03,-6.479049334302544594e-04,-1.674814894795417786e-02,1.079499535262584686e-02,9.975432185456156731e-04,-1.841728202998638153e-02,1.226319698616862297e-03,-1.841952279210090637e-02,-4.843761678785085678e-03,-1.474195439368486404e-02,-3.734798356890678406e-02,2.278767898678779602e-02,2.392338402569293976e-02,2.454715780913829803e-02,1.055227871984243393e-02,-6.682861596345901489e-03,-6.079126521944999695e-02,-5.426694173365831375e-03,2.712418511509895325e-02,1.188143342733383179e-01,6.312245875597000122e-02,-2.457102015614509583e-02,-5.852568522095680237e-02,-4.458155110478401184e-02,-3.421629220247268677e-02,-9.333278983831405640e-02,-1.036392897367477417e-01,4.172727465629577637e-02,-3.952751681208610535e-02,-6.059578433632850647e-02,-1.610899716615676880e-02,-5.088878795504570007e-02,-3.343956917524337769e-02,9.593175724148750305e-03,1.287656137719750404e-03,-9.690618026070296764e-05,1.171652693301439285e-02,-5.102041643112897873e-03,-6.416698452085256577e-03,9.108611196279525757e-02,1.028677970170974731e-01,8.110345155000686646e-02,-1.149237528443336487e-02,-1.830281876027584076e-02,-9.234256111085414886e-03,-7.232274860143661499e-02,-1.323184818029403687e-01,-6.571560353040695190e-02,1.573216915130615234e-02,9.517437778413295746e-03,1.407739054411649704e-02,-6.528123049065470695e-04,-1.212369091808795929e-02,2.047786023467779160e-03,-2.092790976166725159e-02,-3.331990912556648254e-02,-2.071086317300796509e-02,-7.428896613419055939e-03,-9.955237619578838348e-03,7.193064317107200623e-03,-2.798586152493953705e-02,-9.717836976051330566e-03,-2.126487903296947479e-02,-1.003178302198648453e-02,-1.597602292895317078e-02,-1.406976487487554550e-02,-3.065999783575534821e-02,-1.162475626915693283e-02,-6.584553048014640808e-03,-3.418040648102760315e-02,-2.407526597380638123e-02,-3.559814649634063244e-04,-1.238885987550020218e-02,-6.393306888639926910e-03,8.804559707641601562e-03,2.162297070026397705e-02,5.412609316408634186e-03,-1.759577356278896332e-02,-2.053854987025260925e-02,2.745398506522178650e-02,-9.171358309686183929e-03,-1.375178899616003036e-02,1.320324186235666275e-02,-4.538703709840774536e-03,-4.254032298922538757e-02,-1.365530043840408325e-01,-1.503104418516159058e-01,-2.255159057676792145e-02,-5.342847108840942383e-02,-4.865703731775283813e-02,2.617120370268821716e-02,6.800234317779541016e-02,5.479276180267333984e-02,5.323091056197881699e-03,1.204359903931617737e-02,-3.056405577808618546e-03,-1.159427920356392860e-03,1.836333307437598705e-03,-1.275126915425062180e-02,-2.093184553086757660e-02,-1.984312944114208221e-02,-3.573801741003990173e-02,-3.848669584840536118e-03,-5.544338840991258621e-03,-3.244081046432256699e-03,1.400705333799123764e-02,-5.296634975820779800e-03,-3.614653646945953369e-02,5.139397829771041870e-02,1.443606801331043243e-02,-3.519252687692642212e-02,5.492408294230699539e-03,-4.294662212487310171e-04,4.056697071064263582e-04,-3.002567216753959656e-02,-8.449883759021759033e-02,-4.890010133385658264e-02,2.629125025123357773e-03,-2.373306080698966980e-02,-4.643158614635467529e-02,4.058804735541343689e-02,6.376715749502182007e-02,9.052336961030960083e-02,1.849829405546188354e-02,3.927291929721832275e-02,6.562889367341995239e-02,-5.631257966160774231e-02,-1.041098833084106445e-01,-5.971474200487136841e-02,-1.050552651286125183e-01,-1.806538403034210205e-01,-1.520287394523620605e-01,-2.017696388065814972e-02,-4.261916875839233398e-02,-6.473933160305023193e-02,1.153078973293304443e-01,2.036112993955612183e-01,2.315166890621185303e-01,9.961755014955997467e-03,6.396347656846046448e-03,9.908003732562065125e-03,-8.578554727137088776e-03,-1.854659244418144226e-02,3.873681649565696716e-03,-5.327745527029037476e-02,-2.436588890850543976e-02,-4.321536794304847717e-02,-1.385874813422560692e-03,-3.678227076306939125e-03,-2.349234372377395630e-02,-7.766310125589370728e-03,3.370703756809234619e-02,1.676655374467372894e-02,-3.367713466286659241e-02,-3.384136036038398743e-02,-3.837363049387931824e-02,3.953390195965766907e-02,7.852317392826080322e-02,4.614846035838127136e-02,1.258677430450916290e-02,9.858559072017669678e-02,9.572089463472366333e-02,-6.569303572177886963e-02,1.689562760293483734e-02,3.812336921691894531e-02,4.781762883067131042e-02,7.545530050992965698e-02,6.915389001369476318e-02,2.526378817856311798e-02,8.519133925437927246e-02,1.146138980984687805e-01,-1.274710744619369507e-01,-1.764456927776336670e-01,-1.078787446022033691e-01,-5.712811648845672607e-02,-5.142382904887199402e-02,-3.324153274297714233e-02,3.359562903642654419e-02,6.756443530321121216e-02,3.642443940043449402e-02,3.010557033121585846e-02,6.003475189208984375e-02,3.304953500628471375e-02,2.568063698709011078e-02,6.475742906332015991e-03,-3.947798162698745728e-02,7.028273772448301315e-03,8.575498126447200775e-03,-4.880447313189506531e-02,1.106777810491621494e-03,2.809724956750869751e-02,2.016077563166618347e-02,-8.051396906375885010e-02,-7.167933881282806396e-02,-5.068334192037582397e-02,-5.652892962098121643e-02,-2.129513397812843323e-02,-2.097569778561592102e-02,-5.839828401803970337e-03,5.607595667243003845e-02,5.547108501195907593e-02,1.036332640796899796e-02,1.880150102078914642e-02,-3.479985520243644714e-03,-1.785615272819995880e-02,1.405811775475740433e-02,-4.073373507708311081e-03,-2.827832661569118500e-02,-5.006311833858489990e-02,-4.558547399938106537e-03,3.130934014916419983e-02,9.125076234340667725e-02,6.045872718095779419e-02,2.255289629101753235e-02,7.705379277467727661e-02,6.292022019624710083e-02,-5.748468264937400818e-02,-5.147836729884147644e-02,-7.557502388954162598e-02,-2.605769317597150803e-03,1.232428196817636490e-02,-2.755095995962619781e-02,1.807902753353118896e-02,-1.274296827614307404e-02,-1.226599700748920441e-02,3.014238551259040833e-03,1.618439517915248871e-02,-4.911819472908973694e-03,-1.289760321378707886e-02,1.247860956937074661e-02,-1.372181996703147888e-02,-2.204675041139125824e-02,2.058464661240577698e-02,4.050648212432861328e-02,-1.917676255106925964e-02,-3.604339063167572021e-02,-2.729761600494384766e-02,-1.549259107559919357e-02,5.192098673433065414e-03,1.968824118375778198e-02,2.500080317258834839e-02,1.396089047193527222e-02,2.467741072177886963e-02,2.059420570731163025e-02,1.417881716042757034e-02,-2.419714629650115967e-02,-2.343863947317004204e-03,1.936261355876922607e-02,-1.056066062301397324e-02,-1.388604938983917236e-02,1.554476562887430191e-02,7.530227303504943848e-03,6.294299848377704620e-03,3.626617603003978729e-03,9.910999797284603119e-03,5.507948342710733414e-03,-1.658574678003787994e-02,-1.973445760086178780e-03,1.167168281972408295e-02,-3.606626123655587435e-04,1.555693522095680237e-02,1.615256071090698242e-02,6.629903218708932400e-04,1.698291115462779999e-02,9.394459426403045654e-03,-1.491737645119428635e-02,-2.596105821430683136e-02,1.566525176167488098e-02,1.588867418467998505e-02,-1.328217890113592148e-02,-1.838930649682879448e-03,-1.205970719456672668e-02,2.062039263546466827e-02,-4.184897523373365402e-03,-4.839977249503135681e-03,-3.872264642268419266e-03,-2.038037776947021484e-02,9.575846605002880096e-03,-8.029479533433914185e-03,1.232327800244092941e-02,-1.018805996864102781e-04,-9.608511812984943390e-03,8.680892735719680786e-02,1.191725879907608032e-01,9.956058859825134277e-02,-2.382355276495218277e-03,3.009174950420856476e-02,1.915544457733631134e-02,-1.033717021346092224e-01,-1.490608900785446167e-01,-1.395530402660369873e-01,-2.870498783886432648e-02,-2.394776791334152222e-02,-9.858747944235801697e-03,7.918711751699447632e-03,-1.490410696715116501e-02,-1.170026022009551525e-03,3.203791007399559021e-02,3.632890060544013977e-02,4.288729652762413025e-02,1.693381182849407196e-02,1.400553883286193013e-04,4.648987203836441040e-03,3.116155602037906647e-02,3.464701352640986443e-03,-1.237495569512248039e-03,-8.166924118995666504e-03,-2.593867853283882141e-02,-1.985779963433742523e-02,-1.756209693849086761e-02,-2.208266966044902802e-02,5.597215145826339722e-03,-1.029713917523622513e-02,-3.145107999444007874e-02,-1.418915204703807831e-02,-6.240908987820148468e-03,-9.301076352130621672e-05,-7.109499536454677582e-03,1.472284668125212193e-03,8.296813815832138062e-03,6.116092205047607422e-03,3.638776717707514763e-03,3.868617117404937744e-02,8.685299195349216461e-03,7.664863020181655884e-03,-3.067651391029357910e-02,-1.414797641336917877e-02,2.739699557423591614e-02,-4.758127615787088871e-04,-1.868208684027194977e-02,5.905245430767536163e-03,1.697854325175285339e-02,-1.180769689381122589e-02,-6.621049251407384872e-04,-1.386555004864931107e-02,-1.620295923203229904e-03,-1.628219964914023876e-03,1.095388550311326981e-02,-1.096371840685606003e-02,-2.871027402579784393e-02,-1.023816596716642380e-02,1.500538084656000137e-03,-1.003383658826351166e-02,9.056702256202697754e-04,1.894222572445869446e-02,-1.158060729503631592e-01,-1.696185767650604248e-01,-1.432693004608154297e-01,-3.871655091643333435e-02,-4.011320322751998901e-02,-4.995917528867721558e-02,6.245220080018043518e-02,1.535916626453399658e-01,1.169676929712295532e-01,2.436175942420959473e-02,1.414692867547273636e-02,-2.213224302977323532e-03,8.524812757968902588e-03,1.758334785699844360e-02,-1.131880190223455429e-02,5.394344683736562729e-03,-1.260701008141040802e-02,-4.035611823201179504e-02,1.415427960455417633e-02,3.529510227963328362e-03,1.031171064823865891e-03,-6.500941701233386993e-03,-2.095616050064563751e-02,2.285322174429893494e-02,-1.778691634535789490e-02,1.670987159013748169e-02,2.189222536981105804e-02,1.317741442471742630e-02,2.716690767556428909e-03,-1.820868114009499550e-03,-5.195661215111613274e-04,1.041192002594470978e-02,1.795503497123718262e-02,-1.691060699522495270e-02,-2.408539876341819763e-02,-2.211687900125980377e-02,-3.824191913008689880e-02,-2.420204877853393555e-02,-4.051906056702136993e-03,-2.902253717184066772e-02,1.305654272437095642e-02,8.724858984351158142e-03,-2.072839811444282532e-02,-9.070964530110359192e-03,-1.782811619341373444e-02,1.298517920076847076e-02,2.644821442663669586e-02,2.420809864997863770e-02,-1.123451907187700272e-02,-2.211795002222061157e-02,2.654596045613288879e-02,8.388932794332504272e-03,5.062267184257507324e-03,1.346233952790498734e-02,-3.186938539147377014e-02,-1.485592871904373169e-02,-4.526221193373203278e-03,-1.500520016998052597e-02,-3.760624895221553743e-05,-1.519051659852266312e-02,1.669707335531711578e-02,-2.121524326503276825e-02,-2.621318586170673370e-02,-1.613201946020126343e-02,-1.545183174312114716e-02,-1.785127632319927216e-02,-1.408527418971061707e-02,-8.522868156433105469e-03,-1.744775474071502686e-02,-6.190763087943196297e-04,5.620472133159637451e-03,-1.578993536531925201e-02,-1.902407035231590271e-02,1.422179676592350006e-02,1.816341280937194824e-02,-1.443450618535280228e-02,-8.984477259218692780e-03,-1.000347640365362167e-02,-2.250878885388374329e-02,3.373006824404001236e-03,-7.258982863277196884e-03,2.205009572207927704e-02,3.896773606538772583e-02,3.343041986227035522e-02,-1.488948147743940353e-02,-2.454588934779167175e-02,-1.486482564359903336e-02,-4.465263709425926208e-02,-6.308188289403915405e-02,-5.588247999548912048e-02,-1.344710704870522022e-03,-2.288431162014603615e-03,-1.801855675876140594e-02,2.298123389482498169e-02,1.519635319709777832e-02,-6.131558492779731750e-02,4.096863791346549988e-03,-2.999428194016218185e-03,-3.986902162432670593e-02,8.770329295657575130e-04,8.861040696501731873e-03,1.031130086630582809e-02,-2.354107052087783813e-02,6.662729429081082344e-04,1.018235646188259125e-02,-2.359303878620266914e-03,1.638908684253692627e-02,2.733250334858894348e-02
